date,FCT_Bias_1@10
2019-04-30,
2019-05-06,
2019-05-07,
2019-05-08,
2019-05-09,
2019-05-10,
2019-05-13,
2019-05-14,
2019-05-15,
2019-05-16,
2019-05-17,2.5028462998102468
2019-05-20,2.1051625239005736
2019-05-21,1.9395085066162572
2019-05-22,2.6633825944170773
2019-05-23,2.2067851373182554
2019-05-24,2.4473304473304474
2019-05-27,1.5640287769784174
2019-05-28,0.875366568914956
2019-05-29,1.1147798742138364
2019-05-30,0.7701674277016742
2019-05-31,0.4011887072808321
2019-06-03,-0.7885402455661664
2019-06-04,-0.7171853856562923
2019-06-05,-0.8725925925925926
2019-06-06,-1.584010840108401
2019-06-10,-1.2345323741007195
2019-06-11,-0.6989079563182528
2019-06-12,-1.023102310231023
2019-06-13,0.6253822629969419
2019-06-14,0.4826021180030257
2019-06-17,1.1097922848664687
2019-06-18,0.16169544740973313
2019-06-19,0.473015873015873
2019-06-20,0.5627980922098569
2019-06-21,1.0617495711835334
2019-06-24,0.743859649122807
2019-06-25,0.4363957597173145
2019-06-26,0.3053016453382084
2019-06-27,0.6007827788649707
2019-06-28,-0.109979633401222
2019-07-01,-0.2633832976445396
2019-07-02,-0.1313364055299539
2019-07-03,-0.22477064220183487
2019-07-04,-0.04739336492890995
2019-07-05,-0.28640776699029125
2019-07-08,0.8110047846889952
2019-07-09,0.4428904428904429
2019-07-10,0.04835164835164835
2019-07-11,0.14018691588785046
2019-07-12,0.4187192118226601
2019-07-15,0.25183374083129584
2019-07-16,0.5037220843672456
2019-07-17,0.08454106280193237
2019-07-18,-0.431980906921241
2019-07-19,-0.5254237288135594
2019-07-22,-0.5696517412935324
2019-07-23,-0.9664082687338501
2019-07-24,-1.263157894736842
2019-07-25,-1.3453038674033149
2019-07-26,-0.4835164835164835
2019-07-29,-0.5014492753623189
2019-07-30,0.08579881656804733
2019-07-31,0.1901639344262295
2019-08-01,-0.6019417475728155
2019-08-02,-0.14332247557003258
2019-08-05,-0.3987341772151899
2019-08-06,2.1700507614213196
2019-08-07,2.002463054187192
2019-08-08,1.8780487804878048
2019-08-09,1.5974304068522485
2019-08-12,1.0556660039761432
2019-08-13,0.5691699604743083
2019-08-14,0.15369649805447472
2019-08-15,0.265748031496063
2019-08-16,0.4119922630560928
2019-08-19,0.2
2019-08-20,-0.2988235294117647
2019-08-21,0.20243902439024392
2019-08-22,0.0967741935483871
2019-08-23,0.09495548961424333
2019-08-26,-0.48348348348348347
2019-08-27,0.08630952380952381
2019-08-28,-0.3383233532934132
2019-08-29,0.36231884057971014
2019-08-30,0.19941348973607037
2019-09-02,0.025787965616045846
2019-09-03,2.280871670702179
2019-09-04,2.9749430523917995
2019-09-05,1.3775100401606426
2019-09-06,-0.22597864768683273
2019-09-09,-0.6305147058823529
2019-09-10,-0.653558052434457
2019-09-11,-1.5058626465661642
2019-09-12,-1.5841750841750841
2019-09-16,-1.2605177993527508
2019-09-17,-0.9692058346839546
2019-09-18,-0.7783882783882784
2019-09-19,-0.4333958724202627
2019-09-20,-0.48541666666666666
2019-09-23,-0.9871244635193133
2019-09-24,-0.6630196936542669
2019-09-25,-0.4675324675324675
2019-09-26,-0.25907990314769974
2019-09-27,-0.30528846153846156
2019-09-30,-0.5767326732673267
2019-10-08,0.1291759465478842
2019-10-09,0.18807339449541285
2019-10-10,0.2623762376237624
2019-10-11,0.3472906403940887
2019-10-14,0.7405405405405405
2019-10-15,0.6666666666666666
2019-10-16,0.3719676549865229
2019-10-17,-1.8984198645598194
2019-10-18,-1.3311827956989248
2019-10-21,-1.2860262008733625
2019-10-22,-1.2704714640198511
2019-10-23,0.8993839835728953
2019-10-24,1.3346613545816732
2019-10-25,1.3884462151394423
2019-10-28,1.3123809523809524
2019-10-29,1.1901140684410647
2019-10-30,1.133587786259542
2019-10-31,0.9276018099547512
2019-11-01,1.0191387559808613
2019-11-04,1.6367521367521367
2019-11-05,0.9877800407331976
2019-11-06,0.11448598130841121
2019-11-07,0.43058823529411766
2019-11-08,1.0147482432503765
2019-11-11,0.6684687889425069
2019-11-12,0.49330708797534617
2019-11-13,0.6068469557729175
2019-11-14,0.7185085037890002
2019-11-15,0.8198049780062888
2019-11-18,0.4827641450219761
2019-11-19,-0.3771854296041555
2019-11-20,0.1483902197431614
2019-11-21,-0.4044117647058817
2019-11-22,-0.6987654320987693
2019-11-25,-0.521303258145352
2019-11-26,-0.7005076142131952
2019-11-27,-0.9156010230179097
2019-11-28,-0.4681440443213342
2019-11-29,0.6321243523316153
2019-12-02,-0.0026041666666823072
2019-12-03,-0.030271508630601768
2019-12-04,-0.028635380397690355
2019-12-05,-0.527340830701168
2019-12-06,-0.20661235076047965
2019-12-09,-0.08594271358098256
2019-12-10,-0.34797968992167416
2019-12-11,-0.3502992710447415
2019-12-12,0.021100096331869645
2019-12-13,0.10669351087115593
2019-12-16,0.28378378378378294
2019-12-17,0.07357859531770915
2019-12-18,-0.0610169491525421
2019-12-19,0.06529209621992052
2019-12-20,0.3839999999999985
2019-12-23,-0.38116591928251287
2019-12-24,-0.66517857142855
2019-12-25,-0.4429223744292092
2019-12-26,-0.08558558558558818
2019-12-27,0.2790697674418603
2019-12-30,0.4759825327510923
2019-12-31,0.5355648535564885
2020-01-02,0.61233480176213
2020-01-03,0.3433476394849658
2020-01-06,-0.4291338582677175
2020-01-07,-2.2175324675324664
2020-01-08,-2.141538461538475
2020-01-09,-2.107361963190182
2020-01-10,-1.246719160104992
2020-01-13,-1.1887254901960784
2020-01-14,-0.7185185185185192
2020-01-15,-0.36674816625916723
2020-01-16,-0.15639810426540227
2020-01-17,0.3087885985748266
2020-01-20,-0.03317535545023969
2020-01-21,0.1922005571030584
2020-01-22,0.5702479338843002
2020-01-23,0.5181058495821694
2020-02-03,-1.7688679245283059
2020-02-04,-0.9779249448123616
2020-02-05,-0.9202733485193675
2020-02-06,-0.6261682242990586
2020-02-07,-0.3188405797101424
2020-02-10,-0.2195704057279074
2020-02-11,0.11306532663317868
2020-02-12,0.40049751243781556
2020-02-13,0.592493297587135
2020-02-14,0.5306666666666652
2020-02-17,1.2894736842105243
2020-02-18,1.1601941747572915
2020-02-19,0.8645833333333205
2020-02-20,1.248826291079788
2020-02-21,0.8104265402843637
2020-02-24,-0.1728971962616843
2020-02-25,0.5404255319148776
2020-02-26,0.00858369098712961
2020-02-27,-0.867158671586698
2020-02-28,-0.5176056338028178
2020-03-02,0.44171779141102624
2020-03-03,0.06470588235293687
2020-03-04,0.07780979827089786
2020-03-05,-0.13271604938271672
2020-03-06,-0.5370919881305498
2020-03-09,-0.35792349726775435
2020-03-10,-0.3731778425655978
2020-03-11,-0.7234636871508427
2020-03-12,-0.3982558139534933
2020-03-13,-0.4540059347181026
2020-03-16,-0.7534722222222177
2020-03-17,-0.3846153846153724
2020-03-18,-0.5088339222614771
2020-03-19,-0.7770897832817315
2020-03-20,-0.335120643431629
2020-03-23,-0.9971264367816033
2020-03-24,-1.3454987834549792
2020-03-25,-1.8606741573033603
2020-03-26,-0.6603773584905684
2020-03-27,0.15959595959595882
2020-03-30,-0.13333333333332964
2020-03-31,0.044230769230767644
2020-04-01,-0.05734767025089127
2020-04-02,0.18285714285714863
2020-04-03,-0.16633266533066648
2020-04-07,-0.31715738404200683
2020-04-08,-0.2726279437507603
2020-04-09,-0.45242884270480455
2020-04-10,-1.3015189549847814
2020-04-13,-0.7971943708714906
2020-04-14,-0.6315747130168261
2020-04-15,-1.0154301926120386
2020-04-16,-0.6367325873623735
2020-04-17,-0.006054667416709533
2020-04-20,-0.44480519480520236
2020-04-21,-0.6688741721854208
2020-04-22,0.2721088435374151
2020-04-23,0.16014234875443736
2020-04-24,0.20136518771329645
2020-04-27,0.585365853658536
2020-04-28,0.5407854984894217
2020-04-29,-0.4736842105263157
2020-04-30,-0.2719033232628413
2020-05-06,0.10465116279069168
2020-05-07,0.32110091743118735
2020-05-08,0.029850746268659408
2020-05-11,0.3536977491961373
2020-05-12,0.18471337579618033
2020-05-13,0.803508771929824
2020-05-14,0.5411255411255425
2020-05-15,0.6205357142857122
2020-05-18,0.620689655172429
2020-05-19,0.1782178217821873
2020-05-20,-2.0295262382575013e-14
2020-05-21,0.2931937172775043
2020-05-22,-1.4000000000000083
2020-05-25,-1.157360406091373
2020-05-26,-0.65482233502541
2020-05-27,-0.619318181818142
2020-05-28,-1.2872340425531965
2020-05-29,-2.1339712918660374
2020-06-01,-1.167441860465126
2020-06-02,-1.1936936936936993
2020-06-03,-0.6376146788990777
2020-06-04,-0.22624434389138956
2020-06-05,-0.04568527918781004
2020-06-08,0.2050000000000109
2020-06-09,-0.4449760765550235
2020-06-10,0.6535087719298213
2020-06-11,0.8289473684210479
2020-06-12,0.6536585365853951
2020-06-15,0.45026178010470475
2020-06-16,0.21717171717173306
2020-06-17,0.14000000000000906
2020-06-18,0.1333333333333374
2020-06-19,0.04145077720207228
2020-06-22,-1.1843317972350058
2020-06-23,-1.1267605633802753
2020-06-24,-2.5731707317073167
2020-06-29,-2.2024793388429993
2020-06-30,-1.933070866141738
2020-07-01,-1.451737451737479
2020-07-02,-0.5038167938931223
2020-07-03,-0.022388059701489025
2020-07-06,0.19157088122607147
2020-07-07,0.3612167300380288
2020-07-08,0.37959183673471203
2020-07-09,0.43829787234043166
2020-07-10,-0.9023255813953188
2020-07-13,-0.7093596059113685
2020-07-14,-0.7020202020202205
2020-07-15,0.27102803738319914
2020-07-16,0.0
2020-07-17,-2.549090909090905
2020-07-20,-2.580645161290339
2020-07-21,-2.086261980830676
2020-07-22,-2.333333333333333
2020-07-23,-1.7642276422764278
2020-07-24,-1.2377260981912148
2020-07-27,-0.9536585365853563
2020-07-28,-0.7451923076923027
2020-07-29,-0.44630071599045124
2020-07-30,0.0671296296296393
2020-07-31,0.3269230769230705
2020-08-03,-0.022857142857142868
2020-08-04,-0.12893982808023066
2020-08-05,0.014409221902018625
2020-08-06,-1.3753213367609274
2020-08-07,-1.3170731707317032
2020-08-10,0.7276995305164375
2020-08-11,0.8292682926829305
2020-08-12,0.06956521739130411
2020-08-13,0.2835497835497813
2020-08-14,-0.5458248472505026
2020-08-17,-0.6365864742415644
2020-08-18,-0.5747407507555867
2020-08-19,-0.41919900833075047
2020-08-20,-1.0585647920589507
2020-08-21,-1.6326519171598437
2020-08-24,-0.8189296887572552
2020-08-25,-0.5647926609054508
2020-08-26,-0.5781839643417139
2020-08-27,-0.36443555095892977
2020-08-28,-0.3153846153846186
2020-08-31,0.658088235294114
2020-09-01,0.6049822064057004
2020-09-02,0.6783216783216802
2020-09-03,1.782467532467525
2020-09-04,1.7845659163987195
2020-09-07,2.591639871382642
2020-09-08,2.0128617363344037
2020-09-09,0.40810810810810794
2020-09-10,-0.1305483028720633
2020-09-11,-0.054687499999992006
2020-09-14,0.08877284595300175
2020-09-15,-0.12244897959184094
2020-09-16,-0.2704081632653167
2020-09-17,0.3123287671232833
2020-09-18,0.47727272727272646
2020-09-21,0.48493975903614694
2020-09-22,0.01470588235294243
2020-09-23,-0.28620689655172576
2020-09-24,-1.2721518987341756
2020-09-25,-0.789473684210529
2020-09-28,-1.025078369905961
2020-09-29,-1.639240506329104
2020-09-30,-1.3076923076923064
2020-10-09,0.13714285714285
2020-10-12,-0.005633802816897279
2020-10-13,0.42032967032967655
2020-10-14,1.0223325062034758
2020-10-15,0.9077669902912613
2020-10-16,0.7696202531645623
2020-10-19,1.000000000000003
2020-10-20,0.6419098143236146
2020-10-21,0.2764227642276393
2020-10-22,0.09944751381214957
2020-10-23,0.015772870662449024
2020-10-26,-0.07761194029851165
2020-10-27,-0.1950464396284795
2020-10-28,-1.549520766773164
2020-10-29,-1.6153846153846096
2020-10-30,-0.8392282958199259
2020-11-02,-0.4554140127388446
2020-11-03,-0.30254777070063654
2020-11-04,-0.25949367088606706
2020-11-05,-0.4815950920245508
2020-11-06,-0.42682926829268175
2020-11-09,0.16037735849056423
2020-11-10,0.3846153846153793
2020-11-11,0.6944444444444469
2020-11-12,0.49647887323943274
2020-11-13,0.3590733590733644
2020-11-16,-0.8962962962962906
2020-11-17,-1.619377162629757
2020-11-18,-0.8912280701754427
2020-11-19,-0.21254355400696912
2020-11-20,0.6763754045307372
2020-11-23,0.9143835616438355
2020-11-24,-0.06514657980456563
2020-11-25,0.5164473684210492
2020-11-26,0.35761589403972893
2020-11-27,0.7344262295082058
2020-11-30,-0.9850299401197592
2020-12-01,-1.7463126843657797
2020-12-02,-1.1766381766381648
2020-12-03,-0.6085714285714268
2020-12-04,-0.7230769230769094
2020-12-07,-0.6925465838509322
2020-12-08,-0.30743243243244217
2020-12-09,-0.7138263665594886
2020-12-10,-2.069230769230775
2020-12-11,0.3151260504201605
2020-12-14,1.1808510638297824
2020-12-15,1.2111111111111124
2020-12-16,0.9554773577729716
2020-12-17,0.4621396443715468
2020-12-18,0.4171955659951939
2020-12-21,0.7173973432179565
2020-12-22,0.48325951009379425
2020-12-23,0.026018567736117548
2020-12-24,0.08336748702062045
2020-12-25,0.3950947819529764
2020-12-28,1.5284786566713033
2020-12-29,1.232492997198869
2020-12-30,1.2994505494505544
2020-12-31,1.2774566473988271
2021-01-04,0.9209039548022638
2021-01-05,0.7631578947368538
2021-01-06,0.3890577507598728
2021-01-07,0.6056782334384828
2021-01-08,1.0550724637681141
2021-01-11,0.747340425531902
2021-01-12,0.6646884272997259
2021-01-13,0.5140186915887922
2021-01-14,-0.11111111111110944
2021-01-15,0.1764705882352797
2021-01-18,0.633027522935772
2021-01-19,-0.015151515151526863
2021-01-20,-0.1349693251533662
2021-01-21,-0.45573770491803856
2021-01-22,0.3884892086330864
2021-01-25,-0.11857707509882572
2021-01-26,-0.11788617886179754
2021-01-27,0.3959183673469309
2021-01-28,0.28138528138528907
2021-01-29,0.039473684210521484
2021-02-01,-0.9484978540772443
2021-02-02,-0.4932735426008798
2021-02-03,-0.1266968325791919
2021-02-04,-0.035398230088505026
2021-02-05,-0.978448275862075
2021-02-08,-0.8097345132743345
2021-02-09,-1.8064516129032167
2021-02-10,-1.2730923694779193
2021-02-18,-0.9575289575289653
2021-02-19,0.015094339622637865
2021-02-22,1.755319148936162
2021-02-23,1.4300000000000148
2021-02-24,1.222222222222247
2021-02-25,1.6343042071197462
2021-02-26,1.8524173027989825
2021-03-01,2.3207547169811504
2021-03-02,0.9280898876404519
2021-03-03,0.4207048458149837
2021-03-04,0.059734513274337896
2021-03-05,-0.5000000000000019
2021-03-08,-0.871733966745837
2021-03-09,-1.5893271461717042
2021-03-10,-1.2401847575057776
2021-03-11,-1.488120950323966
2021-03-12,-1.30790190735695
2021-03-15,-0.9708454810495674
2021-03-16,-1.9856321839080417
2021-03-17,-0.9556786703601192
2021-03-18,-0.9180327868852447
2021-03-19,-1.351010101010098
2021-03-22,-1.1794258373205644
2021-03-23,-0.741116751269032
2021-03-24,0.144254278728609
2021-03-25,-0.055555555555557606
2021-03-26,-0.7071428571428633
2021-03-29,-0.4024096385542152
2021-03-30,-0.08130081300813795
2021-03-31,-0.7453083109919678
2021-04-01,-0.5041782729804956
2021-04-02,-0.2537313432835844
2021-04-06,0.41246290801187524
2021-04-07,0.2975055847779892
2021-04-08,0.336436999487531
2021-04-09,-0.3689662786564104
2021-04-12,-0.7989609719485891
2021-04-13,-0.15046555974752654
2021-04-14,0.056912604281929687
2021-04-15,0.5257356030180245
2021-04-16,0.11604146182030273
2021-04-19,0.20417138970754203
2021-04-20,0.5240000000000005
2021-04-21,-0.5287356321839063
2021-04-22,-0.5877862595419764
2021-04-23,-0.7102040816326497
2021-04-26,-1.2677165354330706
2021-04-27,-2.990066225165565
2021-04-28,-2.528481012658244
2021-04-29,-2.8354037267080705
2021-04-30,-2.6607669616519116
2021-05-06,-2.853025936599427
2021-05-07,-2.0958904109589
2021-05-10,-1.7073863636363646
2021-05-11,-2.912735849056611
2021-05-12,-3.1783439490445935
2021-05-13,-2.3605870020964406
2021-05-14,-2.050808314087759
2021-05-17,-0.9397321428571422
2021-05-18,-1.0173160173160187
2021-05-19,-1.1962025316455671
2021-05-20,-0.17623762376237004
2021-05-21,0.9942307692307625
2021-05-24,1.412671232876715
2021-05-25,1.2903811252268547
2021-05-26,0.3967971530249121
2021-05-27,1.1243523316062136
2021-05-28,0.5486577181208026
2021-05-31,0.2698961937716296
2021-06-01,0.13451327433628246
2021-06-02,-0.9411764705882416
2021-06-03,-1.0636363636363657
2021-06-04,-0.9466911764705864
2021-06-07,-1.0197628458498038
2021-06-08,-0.9648760330578423
2021-06-09,-0.6220657276995306
2021-06-10,-1.15274463007159
2021-06-11,-0.958974358974354
2021-06-15,-0.43222506393862786
2021-06-16,-0.4331683168316808
2021-06-17,-0.5930232558139502
2021-06-18,-0.6115942028985584
2021-06-21,-1.8320209973753245
2021-06-22,-0.6568364611260071
2021-06-23,-0.4175824175824204
2021-06-24,-0.44354838709678107
2021-06-25,-0.4761904761904771
2021-06-28,-0.19887955182072622
2021-06-29,0.41095890410958846
2021-06-30,-0.10422535211266744
2021-07-01,-0.3055555555555544
2021-07-02,-0.4028571428571389
2021-07-05,-0.15120274914089568
2021-07-06,0.2610294117647028
2021-07-07,0.3767605633802766
2021-07-08,-0.3576388888888816
2021-07-09,0.13175675675675802
2021-07-12,0.36231884057969865
2021-07-13,0.41729323308270355
2021-07-14,1.39016393442623
2021-07-15,0.8652037617554857
2021-07-16,1.5919540229885107
2021-07-19,2.9193954659949615
2021-07-20,1.100790513833993
2021-07-21,0.8391472868217047
2021-07-22,-0.059674502712478435
2021-07-23,0.1845342706502702
2021-07-26,0.8400836818420638
2021-07-27,1.2731512251657486
2021-07-28,1.1499454684016264
2021-07-29,0.30885461717307305
2021-07-30,0.26347940810649306
2021-08-02,0.8901768904405585
2021-08-03,0.13978985212373835
2021-08-04,0.28956083503237234
2021-08-05,-0.3777519054631257
2021-08-06,-0.2522522522522515
2021-08-09,-0.4974293059125968
2021-08-10,0.019582245430807135
2021-08-11,0.5631578947368429
2021-08-12,1.4395886889460163
2021-08-13,1.8621997471555003
2021-08-16,2.142465753424662
2021-08-17,2.515363128491625
2021-08-18,1.8491620111731866
2021-08-19,1.2377807133421417
2021-08-20,0.542929292929296
2021-08-23,0.5588235294117664
2021-08-24,-0.27918781725888653
2021-08-25,1.330882352941175
2021-08-26,1.31544359255202
2021-08-27,-0.2237903225806436
2021-08-30,0.011857707509880062
2021-08-31,0.15004935834155628
2021-09-01,0.14243323442136044
2021-09-02,0.012448132780081556
2021-09-03,-0.440643863179072
2021-09-06,-1.2564593301435392
2021-09-07,-0.6775092936802951
2021-09-08,-0.6336842105263147
2021-09-09,-0.6116303219107018
2021-09-10,-0.8541202672605739
2021-09-13,-0.27718550106610046
2021-09-14,-0.1369710467706024
2021-09-15,0.283018867924526
2021-09-16,0.08027522935780047
2021-09-17,-0.11242603550295875
2021-09-22,-0.07387862796833981
2021-09-23,0.04709141274238242
2021-09-24,-0.22255192878338395
2021-09-27,2.1324840764331197
2021-09-28,2.6151121605667016
2021-09-29,3.1005714285714263
2021-09-30,3.434224598930478
2021-10-08,0.9069965870307191
2021-10-11,0.47184170471842257
2021-10-12,-0.17171717171717618
2021-10-13,-0.7274472168905927
2021-10-14,-1.0745721271393676
2021-10-15,-1.232142857142853
2021-10-18,0.3757746478873213
2021-10-19,0.6640543364681273
2021-10-20,0.5353287536800779
2021-10-21,0.5436526663520497
2021-10-22,0.5396904643035426
2021-10-25,0.3822784810126593
2021-10-26,-0.8379277566539924
2021-10-27,-1.0204280155642007
2021-10-28,-0.6684233640755365
2021-10-29,-0.42357512953367776
2021-11-01,-0.6477115117891832
2021-11-02,-0.3747591522157987
2021-11-03,-0.05929062996294177
2021-11-04,-0.2401987852015464
2021-11-05,0.0057438253877064
2021-11-08,1.3298572996706912
2021-11-09,1.3404384896467696
2021-11-10,1.5181413112667104
2021-11-11,1.3112283345892926
2021-11-12,1.232540291634693
2021-11-15,1.550847457627118
2021-11-16,1.6108291032148905
2021-11-17,0.3140822784810108
2021-11-18,0.5337627908454939
2021-11-19,0.5178493605681171
2021-11-22,-0.15124048346781488
2021-11-23,-0.7829413732366117
2021-11-24,-1.0947471073914243
2021-11-25,-1.510948007641218
2021-11-26,-0.5268294311816836
2021-11-29,-0.5909929486179674
2021-11-30,-0.5643620703335508
2021-12-01,-0.4776828110161484
2021-12-02,-0.5170575692963758
2021-12-03,0.32150313152401644
2021-12-06,0.0
2021-12-07,0.011792452830180827
2021-12-08,-0.492082825822159
2021-12-09,-2.1174458380843895
2021-12-10,-2.8374596340150804
2021-12-13,-2.49638055842813
2021-12-14,-2.1720747295968565
2021-12-15,-2.3607843137254956
2021-12-16,-1.8708452041785322
2021-12-17,-0.9143126177024511
2021-12-20,-0.9761222540592152
2021-12-21,-1.8627622377622344
2021-12-22,-1.7438297872340445
2021-12-23,-1.5887404580152744
2021-12-24,-1.5179324894514803
2021-12-27,-0.7187839305103143
2021-12-28,-0.23239436619717804
2021-12-29,-0.49003516998827584
2021-12-30,-0.4114832535885206
2021-12-31,-0.42627013630730654
2022-01-04,-2.6536203522504875
2022-01-05,-1.9128256513026045
2022-01-06,-1.6523076923076931
2022-01-07,-1.3046421663442926
2022-01-10,-1.2211055276381901
2022-01-11,-1.1880000000000046
2022-01-12,-1.0986639260020536
2022-01-13,-0.7225077081192225
2022-01-14,0.6682554814108664
2022-01-17,0.6530989824236807
2022-01-18,0.730310262529832
2022-01-19,0.8866120218579197
2022-01-20,1.491367861885786
2022-01-21,0.7692307692307654
2022-01-24,-0.19194630872483057
2022-01-25,-0.3962008141112597
2022-01-26,-0.37450199203187046
2022-01-27,-0.7014925373134318
2022-01-28,-1.175539568345328
2022-02-07,-0.2653061224489724
2022-02-08,1.2773631840795985
2022-02-09,0.907090464547677
2022-02-10,0.9505851755526692
2022-02-11,1.5837378640776663
2022-02-14,1.4767879548306082
2022-02-15,1.4301204819277082
2022-02-16,0.35476718403548135
2022-02-17,-0.3716075156576215
2022-02-18,-0.21763392857142907
2022-02-21,-0.058620689655169415
2022-02-22,-0.4256670902160107
2022-02-23,-0.30051813471502364
2022-02-24,-0.1879699248120261
2022-02-25,-1.036708860759494
2022-02-28,-1.0101137800252806
2022-03-01,-0.9959785522788154
2022-03-02,-1.4701704545454566
2022-03-03,-1.0983606557377035
2022-03-04,-0.7802037845705945
2022-03-07,-1.5185676392573035
2022-03-08,-2.7683073229291733
2022-03-09,-1.8723640399556083
2022-03-10,-1.3297644539614581
2022-03-11,-1.1389830508474559
2022-03-14,-1.1043285238623743
2022-03-15,-1.0878155872667394
2022-03-16,-1.083067092651761
2022-03-17,-1.1218487394957999
2022-03-18,-0.15126903553299456
2022-03-21,0.3780991735537204
2022-03-22,-0.30034129692832734
2022-03-23,-0.5817727840199768
2022-03-24,-0.9567979669631512
2022-03-25,-0.5518565941101172
2022-03-28,-0.6886543535620044
2022-03-29,-0.4618528610354229
2022-03-30,-0.8086330935251796
2022-03-31,-0.30447761194029843
2022-04-01,-0.33748055987558134
2022-04-06,-0.47516556291390577
2022-04-07,-1.5482866043613701
2022-04-08,-1.3113772455089827
2022-04-11,-2.1196925609278994
2022-04-12,-1.1342969938150382
2022-04-13,-1.4990568203247272
2022-04-14,-1.0195293908625525
2022-04-15,-0.634925090724916
2022-04-18,1.3092089307968973
2022-04-19,0.7389405189441788
2022-04-20,0.45256525484125204
2022-04-21,1.5487257796053961
2022-04-22,1.2126948775055695
2022-04-25,0.5954446854663789
2022-04-26,1.1016759776536278
2022-04-27,0.34504792332268214
2022-04-28,-0.04069175991862062
2022-04-29,-0.12310797174571375
2022-05-05,0.8534031413612568
2022-05-06,0.425531914893619
2022-05-09,0.17547568710359113
2022-05-10,0.004499437570305366
2022-05-11,-0.14606741573033902
2022-05-12,0.02439024390243934
2022-05-13,0.06480304955527223
2022-05-16,0.8021390374331555
2022-05-17,0.4922077922077953
2022-05-18,0.2820855614973275
2022-05-19,0.7485119047619015
2022-05-20,0.7287630402384496
2022-05-23,-0.2857142857142879
2022-05-24,-1.2722063037249265
2022-05-25,-1.4842105263157865
2022-05-26,-1.5014925373134331
2022-05-27,-1.6930835734870322
2022-05-30,-1.3835820895522364
2022-05-31,-0.773333333333328
2022-06-01,-1.3820224719101117
2022-06-02,-1.031147540983606
2022-06-06,-0.8453781512605028
2022-06-07,-1.122123893805316
2022-06-08,-1.3409961685823744
2022-06-09,-0.6615969581749057
2022-06-10,-0.5849420849420848
2022-06-13,-1.0821917808219175
2022-06-14,-0.3820224719101137
2022-06-15,-1.2999999999999965
2022-06-16,-2.09437086092715
2022-06-17,-1.9362745098039231
2022-06-20,-0.6624649859943954
2022-06-21,-1.0357653791130186
2022-06-22,-1.3342465753424657
2022-06-23,-0.7137150466045301
2022-06-24,0.006250000000000083
2022-06-27,1.4332171893147463
2022-06-28,0.8955056179775287
2022-06-29,1.0764774044032444
2022-06-30,0.9020100502512589
2022-07-01,-0.613378684807259
2022-07-04,0.13950762016412602
2022-07-05,-0.737566137566137
2022-07-06,-1.009221311475409
2022-07-07,-1.1664953751284661
2022-07-08,-0.6923868312757179
2022-07-11,-0.3071965628356593
2022-07-12,-0.14053426248548226
2022-07-13,-0.31108597285068285
2022-07-14,-0.1299559471365648
2022-07-15,-0.7820796460176986
2022-07-18,0.14285714285714002
2022-07-19,0.061403508771927975
2022-07-20,0.10551175063577217
2022-07-21,0.5229254915974263
2022-07-22,0.5016551698414028
2022-07-25,-0.3829649697127351
2022-07-26,-0.522109248006283
2022-07-27,-0.14573152901332603
2022-07-28,-0.5285169827581824
2022-07-29,-0.49205347635761504
2022-08-01,-0.1054119572783503
2022-08-02,-0.4662840746054555
2022-08-03,-0.29498525073746035
2022-08-04,0.5678466076696191
2022-08-05,0.5453124999999994
2022-08-08,-0.7024221453287207
2022-08-09,-0.5149911816578462
2022-08-10,-0.6146435452793799
2022-08-11,-0.5144032921810711
2022-08-12,-0.44354838709677247
2022-08-15,0.10647181628392612
2022-08-16,-0.24557522123893735
2022-08-17,-0.5156950672645735
2022-08-18,-1.0400943396226427
2022-08-19,0.4506437768240314
2022-08-22,0.38478747203578684
2022-08-23,0.42890995260663334
2022-08-24,0.4433962264150982
2022-08-25,1.1856823266219136
2022-08-26,1.0294784580498761
2022-08-29,1.8264840182648425
2022-08-30,1.1232876712328794
2022-08-31,0.9477272727272803
2022-09-01,-0.03695652173912794
2022-09-02,0.06928406466513073
2022-09-05,-0.1027568922305769
2022-09-06,-0.2952380952380916
2022-09-07,0.29099307159353
2022-09-08,0.1735941320293339
2022-09-09,0.18814432989690116
2022-09-13,1.203608247422686
2022-09-14,1.1432160804020133
2022-09-15,0.8267326732673298
2022-09-16,-0.4856046065259172
2022-09-19,-0.7760314341846789
2022-09-20,-0.5240847784200335
2022-09-21,-0.9980353634577546
2022-09-22,-1.018072289156625
2022-09-23,-1.211881188118817
2022-09-26,-1.6167883211678844
2022-09-27,-1.2808349146110052
2022-09-28,-0.9491193737769127
2022-09-29,-0.4989816700611043
2022-09-30,-0.7023809523809509
2022-10-10,-1.397333333333327
2022-10-11,-1.1077348066298274
2022-10-12,-1.0972222222222245
2022-10-13,-0.4075067024128668
2022-10-14,-0.7896103896103865
2022-10-17,-1.3746556473829152
2022-10-18,-1.1855955678670258
2022-10-19,-0.23896103896103998
2022-10-20,0.6523702031602705
2022-10-21,-0.006250000000004553
2022-10-24,-0.42384105960265234
2022-10-25,0.17622080679405122
2022-10-26,-0.060924369747898006
2022-10-27,-0.4498933901918899
2022-10-28,-1.1838842975206578
2022-10-31,-1.4011976047904167
2022-11-01,-1.3663551401869134
2022-11-02,-1.2702702702702724
2022-11-03,-0.5792682926829276
2022-11-04,0.21799999999999897
2022-11-07,0.010121457489874936
2022-11-08,-0.1865079365079378
2022-11-09,0.2713754646840133
2022-11-10,0.37807183364839697
2022-11-11,0.22823984526111762
2022-11-14,-0.005813953488368438
2022-11-15,0.24137931034482735
2022-11-16,0.36590436590436753
2022-11-17,-0.4058577405857778
2022-11-18,-0.4013605442176844
2022-11-21,-1.018058690744921
2022-11-22,-0.9782082324455205
2022-11-23,-1.9226932668329189
2022-11-24,-1.7128712871287186
2022-11-25,-1.1636828644501287
2022-11-28,-1.4917127071823155
2022-11-29,-0.4071038251366046
2022-11-30,-0.2548476454293643
2022-12-01,0.4636871508379887
2022-12-02,0.11527377521614401
2022-12-05,0.18154761904763414
2022-12-06,-0.04494382022472131
2022-12-07,-0.31677018633540627
2022-12-08,-0.9196428571428472
2022-12-09,-0.9814241486068154
2022-12-12,0.26331405186321577
2022-12-13,0.8682566607573308
2022-12-14,0.5598581354950792
2022-12-15,0.4951319475452562
2022-12-16,0.9131323949531965
2022-12-19,-1.708733073021734
2022-12-20,-2.053878991197206
2022-12-21,-1.8322323964529108
2022-12-22,-1.8405440899186378
2022-12-23,-1.4383301707779879
2022-12-26,-1.0258302583025907
2022-12-27,-0.45769230769230956
2022-12-28,-0.31599229287090813
2022-12-29,-0.3490196078431424
2022-12-30,-0.02605210420841453
2023-01-03,0.8609756097561022
2023-01-04,0.7582697201017897
2023-01-05,0.5528255528255585
2023-01-06,-0.060975609756096
2023-01-09,0.11392405063290847
2023-01-10,0.3567251461988357
2023-01-11,-0.4126074498567281
2023-01-12,0.545454545454541
2023-01-13,0.2548476454293701
2023-01-16,-0.016042780748669192
2023-01-17,0.35422343324249783
2023-01-18,0.45352112676057027
2023-01-19,0.040579710144942945
2023-01-20,0.6876876876876872
2023-01-30,1.0949720670391139
2023-01-31,2.007159904534608
2023-02-01,1.7721822541966488
2023-02-02,0.585421412300688
2023-02-03,0.5844155844155773
2023-02-06,0.5494505494505526
2023-02-07,0.24944320712694384
2023-02-08,-0.41452991452991556
2023-02-09,-1.3111111111111118
2023-02-10,-1.4484848484848507
2023-02-13,-1.0207900207900136
2023-02-14,-0.6847058823529458
2023-02-15,-0.6553398058252423
2023-02-16,-0.3589041095890481
2023-02-17,-0.7325905292479097
2023-02-20,-0.6695402298850466
2023-02-21,0.31161473087818914
2023-02-22,0.30091185410333915
2023-02-23,0.48986486486486386
2023-02-24,1.7445482866043611
2023-02-27,0.873817034700319
2023-02-28,-0.7243243243243243
2023-03-01,-0.47733333333333555
2023-03-02,-0.3351206434316263
2023-03-03,-0.8916666666666718
2023-03-06,-0.718592964824128
2023-03-07,-0.4838709677419337
2023-03-08,-0.7876344086021495
2023-03-09,-1.4145077720207155
2023-03-10,-2.120906801007566
2023-03-13,-1.5012468827930205
2023-03-14,-1.4868804664722983
2023-03-15,-1.1754385964912353
2023-03-16,-1.216494845360825
2023-03-17,-1.2068965517241363
2023-03-20,-1.3228571428571385
2023-03-21,-1.3379120879120865
2023-03-22,-0.8167115902964942
2023-03-23,-1.4482758620689653
2023-03-24,-1.1412429378531035
2023-03-27,-0.7317784256559765
2023-03-28,-0.26035502958580187
2023-03-29,-0.6581196581196599
2023-03-30,-1.2484276729559727
2023-03-31,-0.20116618075802928
2023-04-03,0.3264705882352935
2023-04-04,0.1768115942028897
2023-04-06,0.3008595988538608
2023-04-07,0.8381502890173439
2023-04-10,0.903030303030303
2023-04-11,-0.31388888888888977
2023-04-12,-0.6229508196721345
2023-04-13,-0.17867435158500003
2023-04-14,0.13086252564076115
2023-04-17,0.7479130453443308
2023-04-18,0.6050938747028957
2023-04-19,1.0784026495127794
2023-04-20,1.3080326752893052
2023-04-21,-0.42004448364458097
2023-04-24,0.5493903548680611
2023-04-25,0.6728011941705625
2023-04-26,0.6004760807801575
2023-04-27,-0.14496314496314505
2023-04-28,1.5334773218142548
2023-05-04,1.3950617283950693
2023-05-05,1.154455445544551
2023-05-08,1.3099415204678426
2023-05-09,0.9692898272552853
2023-05-10,0.9048625792811813
2023-05-11,0.012658227848101732
2023-05-12,0.051440329218113284
2023-05-15,0.6202783300198863
2023-05-16,-0.04373757455268549
2023-05-17,-0.12672811059907804
2023-05-18,-0.5333333333333423
2023-05-19,-1.3891402714932028
2023-05-22,-0.87871853546911
2023-05-23,-0.852193995381058
2023-05-24,-1.825708061002178
2023-05-25,-1.6111111111111074
2023-05-26,-1.5914221218961566
2023-05-29,-1.2404761904761787
2023-05-30,-0.9898989898989927
2023-05-31,-1.1399999999999988
2023-06-01,-0.152882205513774
2023-06-02,-0.27642276422765216
2023-06-05,-0.2067988668555132
2023-06-06,0.4272997032640848
2023-06-07,0.19601328903654472
2023-06-08,0.10394265232974512
2023-06-09,0.4423791821561255
2023-06-12,1.1423728813559373
2023-06-13,0.5476190476190457
2023-06-14,0.6338983050847461
2023-06-15,0.20512820512821248
2023-06-16,0.5816326530612247
2023-06-19,0.15053763440859239
2023-06-20,-0.43006993006992306
2023-06-21,0.4131147540983617
2023-06-26,-0.45222929936306033
2023-06-27,-0.6875
2023-06-28,-0.756944444444444
2023-06-29,-0.399328859060411
2023-06-30,-0.2551724137930985
2023-07-03,1.4596273291925477
2023-07-04,1.3826366559485495
2023-07-05,1.9447674418604568
2023-07-06,1.804034582132572
2023-07-07,1.2722063037249276
2023-07-10,1.3240223463687162
2023-07-11,0.9666666666666537
2023-07-12,0.23497267759563664
2023-07-13,0.15281501340482526
2023-07-14,0.09042553191489679
2023-07-17,2.83300970873787
2023-07-18,2.0730434782608675
2023-07-19,1.787610619469022
2023-07-20,1.401015228426395
2023-07-21,0.15360501567397983
2023-07-24,0.29047619047619033
2023-07-25,0.5615615615615557
2023-07-26,0.3361702127659543
2023-07-27,0.2995780590717316
2023-07-28,-0.03274215552523991
2023-07-31,0.6886227544910166
2023-08-01,1.0900321543408404
2023-08-02,1.073248844871995
2023-08-03,0.45253323435005094
2023-08-04,0.22018262123623217
2023-08-07,-0.7281327989109839
2023-08-08,-0.0530083966042557
2023-08-09,-0.5941357415292587
2023-08-10,-0.5518505673091174
2023-08-11,-0.2298635828988174
2023-08-14,-1.3676249403881264
2023-08-15,-1.7640845070422615
2023-08-16,-1.9931153184165202
2023-08-17,-0.5570247933884307
2023-08-18,-0.6820428336079087
2023-08-21,-0.1919720767888384
2023-08-22,0.0017241379310339075
2023-08-23,0.3282051282051328
2023-08-24,0.40206185567009256
2023-08-25,0.2925170068027196
2023-08-28,-0.14930555555555033
2023-08-29,0.3062200956937761
2023-08-30,-0.02377179080824111
2023-08-31,-0.18500000000000685
2023-09-01,0.27199999999999985
2023-09-04,0.7647928994082802
2023-09-05,1.0729813664596213
2023-09-06,0.7488226059654637
2023-09-07,0.0014727540500655894
2023-09-08,-0.0814479638009011
2023-09-11,0.21227197346600077
2023-09-12,-0.31663685152057713
2023-09-13,-0.8548672566371647
2023-09-14,-1.0260707635009232
2023-09-15,0.07818181818182013
2023-09-18,0.13600000000000595
2023-09-19,0.29025844930418015
2023-09-20,0.7864271457085874
2023-09-21,0.2730844793713159
2023-09-22,0.7747572815533893
2023-09-25,0.9832089552238785
2023-09-26,0.8939096267190528
2023-09-27,0.14486921529175395
2023-09-28,0.3764940239043903
2023-10-09,-0.4816247582205011
2023-10-10,-2.5031347962382475
2023-10-11,-2.042187500000002
2023-10-12,-0.36149584487533976
2023-10-13,0.8427419354838737
2023-10-16,0.9986842105263208
2023-10-17,0.9109311740890708
2023-10-18,0.7533512064343132
2023-10-19,0.7612500000000035
2023-10-20,0.7992424242424236
2023-10-23,-0.5523114355231116
2023-10-24,-0.6661951909476692
2023-10-25,-0.142469470827681
2023-10-26,-0.4961597542242783
2023-10-27,-0.5086505190311319
2023-10-30,-1.0033670033670057
2023-10-31,-0.4081300813008103
2023-11-01,-0.7077625570776238
2023-11-02,-0.4080944350758875
2023-11-03,1.7964236588720786
2023-11-06,1.6242937853107438
2023-11-07,1.20380434782609
2023-11-08,1.1969273743016713
2023-11-09,0.9756756756756763
2023-11-10,0.7226463104325709
2023-11-13,0.3337484433374884
2023-11-14,0.6867321867321846
2023-11-15,0.32303732303732097
2023-11-16,0.07483870967742086
2023-11-17,0.5360678925035386
2023-11-20,3.036994219653179
2023-11-21,2.5607798165137585
2023-11-22,2.3165714285714296
2023-11-23,1.3789359391965277
2023-11-24,1.3204845814978028
2023-11-27,0.6862068965517247
2023-11-28,0.4183616034076179
2023-11-29,-0.12763154871763777
2023-11-30,-0.33870350168690566
2023-12-01,-0.5770553899192861
2023-12-04,-1.0637153772683827
2023-12-05,-1.3381357211127334
2023-12-06,-1.0826987173012794
2023-12-07,-0.08062332824361579
2023-12-08,-0.3477306404697839
2023-12-11,-0.35534591194968884
2023-12-12,0.013071895424834543
2023-12-13,-0.602848101265822
2023-12-14,-0.9066666666666678
2023-12-15,-0.2000000000000047
2023-12-18,-0.47058823529411853
2023-12-19,-0.3803786574870876
2023-12-20,-0.17616580310880867
2023-12-21,-0.15682656826567806
2023-12-22,0.916211293260468
2023-12-25,0.23722627737225543
2023-12-26,-0.5907473309608582
2023-12-27,-1.0229276895943584
2023-12-28,-0.3217391304347888
2023-12-29,-0.38518518518518546
2024-01-02,-0.4275362318840599
2024-01-03,-0.4811320754717046
2024-01-04,-2.117161716171627
2024-01-05,-2.1235772357723635
2024-01-08,-2.59180327868853
2024-01-09,-1.904610492845783
2024-01-10,-1.9801652892562032
2024-01-11,-1.5358931552587698
2024-01-12,-2.4624999999999955
2024-01-15,-1.6621621621621616
2024-01-16,-1.8885832187070102
2024-01-17,-1.7376830892143758
2024-01-18,-1.1828410689170155
2024-01-19,-0.5013623978201586
2024-01-22,-1.1021505376344027
2024-01-23,-0.7549019607843089
2024-01-24,-0.5098591549295737
2024-01-25,-0.2884615384615412
2024-01-26,-1.5898550724637708
2024-01-29,-1.2778581765557206
2024-01-30,-0.9498432601880922
2024-01-31,-0.9486356340288926
2024-02-01,-0.723893805309737
2024-02-02,-0.9345132743362818
2024-02-05,-1.4438202247191017
2024-02-06,-2.375218150087263
2024-02-07,-2.55753646677471
2024-02-08,0.4958283671036958
2024-02-19,0.325376884422108
2024-02-20,0.2358974358974341
2024-02-21,0.0
2024-02-22,0.12176165803108327
2024-02-23,0.014175257731956582
2024-02-26,-0.5297927461139986
2024-02-27,-0.23197903014417423
2024-02-28,-0.17486338797814438
2024-02-29,0.14405594405593677
2024-03-01,1.3508137432188103
2024-03-04,1.4886363636363558
2024-03-05,0.4308797127468685
2024-03-06,1.0270270270270325
2024-03-07,0.501736111111108
2024-03-08,0.272419627749571
2024-03-11,-0.8658940397350979
2024-03-12,-0.3034257748776474
2024-03-13,0.03815580286168783
2024-03-14,-1.1300000000000006
2024-03-15,-0.9044117647058759
2024-03-18,-1.0694239290989664
2024-03-19,-0.5074850299401215
2024-03-20,-0.7210300429184583
2024-03-21,-0.4762611275964365
2024-03-22,-0.7029411764705815
2024-03-25,-0.3169642857142924
2024-03-26,0.24631268436577525
2024-03-27,-0.35483870967741954
2024-03-28,-0.14137931034482418
2024-03-29,-0.3858407079645992
2024-04-01,-1.4717285945072762
2024-04-02,-1.5335154746752884
2024-04-03,-1.1729158998895959
2024-04-08,-0.6629617190573369
2024-04-09,-0.43163429738275577
2024-04-10,0.7903271250772466
2024-04-11,1.1425904876603712
2024-04-12,0.8755256230556205
2024-04-15,0.2909317481364585
2024-04-16,-0.05505947328511207
2024-04-17,-0.2616179001721231
2024-04-18,0.34976152623211276
2024-04-19,-0.13572542901715534
2024-04-22,1.2980225988700473
2024-04-23,0.07806691449814111
2024-04-24,0.18601583113456535
2024-04-25,-0.18291054739652535
2024-04-26,0.05468749999999995
2024-04-29,0.0320924261874167
2024-04-30,-0.15323645970937586
2024-05-06,0.06914893617021585
2024-05-07,0.7253814147018006
2024-05-08,0.42436974789915416
2024-05-09,0.6897637795275553
2024-05-10,0.33333333333332904
2024-05-13,0.9141856392294173
2024-05-14,0.20033670033670006
2024-05-15,0.11270125223613583
2024-05-16,-0.0019569471624281552
2024-05-17,0.013944223107569702
2024-05-20,-0.1911468812877325
2024-05-21,-2.201709401709399
2024-05-22,-2.257443082311728
2024-05-23,-1.379527559055118
2024-05-24,-1.914826498422711
2024-05-27,-1.6708860759493558
2024-05-28,-1.5113835376532416
2024-05-29,-0.979487179487177
2024-05-30,-0.7301324503311298
2024-05-31,-1.0467741935483839
2024-06-03,-1.1956856702619427
2024-06-04,-1.2345215759849935
2024-06-05,-0.6358792184724731
2024-06-06,-0.3813387423935117
2024-06-07,-0.8719999999999944
2024-06-11,-0.74380165289257
2024-06-12,-0.5763747454175132
2024-06-13,-1.115009746588694
2024-06-14,-0.42369477911646103
2024-06-17,-1.2558139534883694
2024-06-18,-1.5679012345678955
2024-06-19,-1.2157258064516119
2024-06-20,-1.1486486486486331
2024-06-21,0.39473684210526105
2024-06-24,0.1457085828343302
2024-06-25,0.6297029702970279
2024-06-26,0.9053254437869813
2024-06-27,-0.5582255083179298
2024-06-28,-0.31693989071038553
2024-07-01,-1.0427807486631009
2024-07-02,-0.8163636363636322
2024-07-03,-0.8695652173913045
2024-07-04,-1.0370994940978147
2024-07-05,-1.6654929577464843
2024-07-08,-1.4450651769087515
2024-07-09,-1.6155268022181126
2024-07-10,-1.2802768166089924
2024-07-11,-0.9844660194174796
2024-07-12,-0.6296296296296303
2024-07-15,-1.2551867219917046
2024-07-16,-1.139112903225807
2024-07-17,-0.33864541832669026
2024-07-18,0.3855670103092802
2024-07-19,-0.00647948164147378
2024-07-22,0.16592920353981885
2024-07-23,-0.20860215053764364
2024-07-24,0.4437086092715299
2024-07-25,0.21929824561403144
2024-07-26,0.14375000000000343
2024-07-29,-0.3528644330595281
2024-07-30,-0.5651229473433844
2024-07-31,0.17542019789570484
2024-08-01,-0.27585718250726043
2024-08-02,-0.058236524105871115
2024-08-05,0.5458934046578351
2024-08-06,-0.02157114338518738
2024-08-07,0.787846270223373
2024-08-08,-0.31992596297951664
2024-08-09,0.021321961620467553
2024-08-12,-1.4751908396946607
2024-08-13,-1.852362204724408
2024-08-14,-1.9391480730223098
2024-08-15,-1.861570247933885
2024-08-16,-1.3872950819672103
2024-08-19,-0.748400852878465
2024-08-20,-0.6666666666666671
2024-08-21,-0.19347826086956485
2024-08-22,-0.3455377574370707
2024-08-23,-0.9201773835920142
2024-08-26,0.42080378250590916
2024-08-27,0.8616504854368997
2024-08-28,0.6023809523809516
2024-08-29,0.8605769230769306
2024-08-30,0.2585365853658539
2024-09-02,-0.5676959619952424
2024-09-03,-0.8238095238095293
2024-09-04,-1.970319634703197
2024-09-05,-2.1100917431192605
2024-09-06,-2.6374695863746904
2024-09-09,-2.7872340425531865
2024-09-10,-2.801546391752569
2024-09-11,-1.9396325459317538
2024-09-12,-1.4078947368421089
2024-09-13,-1.0859374999999925
2024-09-18,-1.2587939698492532
2024-09-19,0.08755760368663221
2024-09-20,0.13809523809524432
2024-09-23,-0.7626728110599039
2024-09-24,0.5698924731182812
2024-09-25,0.6049382716049369
2024-09-26,0.9978947368421001
2024-09-27,1.869488536155208
2024-09-30,1.995114006514662
2024-10-08,0.9183381088825197
2024-10-09,0.31610044313146135
2024-10-10,0.25885978428351364
2024-10-11,-0.3333333333333343
2024-10-14,0.05547226386806873
2024-10-15,0.27555555555555555
2024-10-16,0.0290275761973854
2024-10-17,-0.47717842323651505
2024-10-18,0.05572755417956601
2024-10-21,0.4470198675496645
2024-10-22,0.3430232558139537
2024-10-23,0.01526717557252013
2024-10-24,-0.10412573673870354
2024-10-25,-0.9094736842105228
2024-10-28,-0.23651452282157231
2024-10-29,-0.4707207207207257
2024-10-30,1.5507518796992468
2024-10-31,0.5340699815837913
2024-11-01,1.966360856269107
2024-11-04,1.627941176470588
2024-11-05,0.6610878661087904
2024-11-06,0.43869209809264426
2024-11-07,0.6959999999999968
2024-11-08,-0.1439490445859891
2024-11-11,-0.19408740359897156
2024-11-12,-0.5926829268292665
2024-11-13,-0.45375722543352687
2024-11-14,-1.1950146627565996
2024-11-15,-1.7777777777777761
2024-11-18,-1.4902654867256602
2024-11-19,-1.2765151515151527
2024-11-20,-1.272727272727275
2024-11-21,-1.2037815126050424
2024-11-22,-1.822368421052639
2024-11-25,-1.3930131004366837
2024-11-26,-0.9210526315789497
2024-11-27,-0.20772946859903138
2024-11-28,-0.10787056587838549
2024-11-29,0.7787470704214899
2024-12-02,1.0561984087055325
2024-12-03,0.41835624743665134
2024-12-04,0.46361375198246013
2024-12-05,0.9562783802894873
2024-12-06,-0.07497355351156
2024-12-09,0.42924430595206364
2024-12-10,0.20569659224855677
2024-12-11,-0.1759776536312827
2024-12-12,0.19241192411923783
2024-12-13,-0.3369863013698664
2024-12-16,0.13296398891966763
2024-12-17,0.027855153203341008
2024-12-18,-0.2962962962962952
2024-12-19,-0.9796511627906981
2024-12-20,-0.8654970760233989
2024-12-23,-0.07602339181286108
2024-12-24,-0.25714285714285096
2024-12-25,-0.3897763578274802
2024-12-26,-1.0345911949685462
2024-12-27,-1.0132890365448488
2024-12-30,-0.5032467532467522
2024-12-31,-0.8209459459459372
