date,FCT_Bias_1@10
2014-02-28,
2014-03-03,
2014-03-04,
2014-03-05,
2014-03-06,
2014-03-07,
2014-03-10,
2014-03-11,
2014-03-12,
2014-03-13,
2014-03-14,-0.25473331518968884
2014-03-17,-0.16918646508277033
2014-03-18,0.6195945945945794
2014-03-19,0.19920844327175946
2014-03-20,0.36067997043605793
2014-03-21,0.6021818181818169
2014-03-24,0.6586126266562846
2014-03-25,1.3985828166519054
2014-03-26,2.0930034129692796
2014-03-27,1.5730337078651422
2014-03-28,2.20916666666664
2014-03-31,1.6358839050131901
2014-04-01,2.339176161262046
2014-04-02,1.7678571428571335
2014-04-03,1.4262295081967373
2014-04-04,2.051215277777775
2014-04-08,1.097292724196247
2014-04-09,0.634648370497444
2014-04-10,0.06732495511671982
2014-04-11,0.04831751509922826
2014-04-14,0.4357142857142912
2014-04-15,0.5543766578249415
2014-04-16,0.3424657534246809
2014-04-17,1.0651583710407466
2014-04-18,0.888283378746594
2014-04-21,0.9820415879017068
2014-04-22,1.5124555160142308
2014-04-23,0.905660377358479
2014-04-24,0.4243772241992822
2014-04-25,-1.1336515513126453
2014-04-28,-1.0909829406986156
2014-04-29,-0.6319165998396195
2014-04-30,-0.6989591673338734
2014-05-05,0.12090483619344533
2014-05-06,0.16469661150512005
2014-05-07,0.7528691660290749
2014-05-08,0.39274193548387354
2014-05-09,-0.2940239043824636
2014-05-12,-0.3451899757477809
2014-05-13,-0.20112781954888412
2014-05-14,-0.4940530649588485
2014-05-15,-1.1447368421052886
2014-05-16,-0.925045703839124
2014-05-19,-0.7778855480116385
2014-05-20,-0.646944713870036
2014-05-21,0.19531250000000652
2014-05-22,1.5881809787626961
2014-05-23,2.3494623655914055
2014-05-26,2.2324955116696557
2014-05-27,0.13785046728971315
2014-05-28,0.3680555555555628
2014-05-29,0.6219421793921529
2014-05-30,0.764492753623199
2014-06-03,1.1313497822931753
2014-06-04,0.7938439513242649
2014-06-05,1.0158273381295022
2014-06-06,0.8326937835763762
2014-06-09,0.5908360128617315
2014-06-10,2.2484076433120985
2014-06-11,1.7556561085972873
2014-06-12,1.533728687916975
2014-06-13,1.4518678160919556
2014-06-16,1.3390191897654509
2014-06-17,0.02103879026956341
2014-06-18,-0.38999358563181935
2014-06-19,-0.7087378640776756
2014-06-20,-0.35379746835443254
2014-06-23,-1.991150442477895
2014-06-24,-1.8597256857855413
2014-06-25,-1.694904458598723
2014-06-26,-1.447741935483872
2014-06-27,-0.8734006734006744
2014-06-30,-0.2535885167463973
2014-07-01,1.2115513767629142
2014-07-02,0.861127956337172
2014-07-03,0.9686558167570829
2014-07-04,1.5083832335329488
2014-07-07,1.5202429149797703
2014-07-08,0.9113924050633061
2014-07-09,0.01898734177215703
2014-07-10,-0.08901734104045927
2014-07-11,-0.010550996482990918
2014-07-14,-0.1627078384798074
2014-07-15,-0.1817010309278248
2014-07-16,0.09964664310952254
2014-07-17,-0.7216850828729109
2014-07-18,-0.7960436562073765
2014-07-21,-0.6042553191489259
2014-07-22,-0.7590634441087856
2014-07-23,0.05812973883741313
2014-07-24,-0.1028770706190327
2014-07-25,0.8644351464435092
2014-07-28,1.110269360269381
2014-07-29,1.489795918367373
2014-07-30,1.4598130841121826
2014-07-31,1.1531161048781804
2014-08-01,0.3187573874165688
2014-08-04,0.22313651102395196
2014-08-05,-0.8672728376832427
2014-08-06,-0.4319438242056043
2014-08-07,-0.7549342713474445
2014-08-08,-1.110623362501961
2014-08-11,-0.4314530015657828
2014-08-12,-0.9559891943914144
2014-08-13,-0.9734848484848492
2014-08-14,-0.6010928961748578
2014-08-15,0.17983651226157124
2014-08-18,0.546889507892305
2014-08-19,0.6232948583420813
2014-08-20,-0.1825726141078828
2014-08-21,1.1693936477382325
2014-08-22,1.0219665271966754
2014-08-25,1.0504833512352232
2014-08-26,0.7539598732840638
2014-08-27,0.43535911602210225
2014-08-28,-0.2009184845005858
2014-08-29,-0.7240537240537197
2014-09-01,-0.9168646080760208
2014-09-02,0.3081201334816404
2014-09-03,0.20118343195266458
2014-09-04,0.8907563025210002
2014-09-05,-0.34961997828448876
2014-09-09,-1.022222222222213
2014-09-10,-1.4478079331941298
2014-09-11,-1.300306435137896
2014-09-12,-1.5798872180450945
2014-09-15,-1.1558685446009482
2014-09-16,-0.7662337662337694
2014-09-17,-1.218214607754732
2014-09-18,-1.5201048951048968
2014-09-19,-1.5059360730593534
2014-09-22,-2.416382252559719
2014-09-23,-2.2667191188040943
2014-09-24,-1.1435149654643086
2014-09-25,-0.4898255813953413
2014-09-26,-0.10250737463126759
2014-09-29,0.7182432432432426
2014-09-30,1.0047489823609121
2014-10-08,-0.8919239904988038
2014-10-09,-0.7087033747779794
2014-10-10,-2.150602409638542
2014-10-13,-1.5129770992366387
2014-10-14,-0.974643423137862
2014-10-15,-0.6890676762896346
2014-10-16,-1.022716736207696
2014-10-17,-1.7689768976897742
2014-10-20,-1.719949388443694
2014-10-21,-1.316715542521998
2014-10-22,-1.0170212765957456
2014-10-23,-0.1464601769911473
2014-10-24,0.781723484848491
2014-10-27,0.6130952380952499
2014-10-28,1.3145200192957123
2014-10-29,1.9022639425731567
2014-10-30,1.842999414176928
2014-10-31,2.218443427076532
2014-11-03,1.1492146596858754
2014-11-04,-0.05541561712847342
2014-11-05,-1.2516129032258205
2014-11-06,-0.04447045055588469
2014-11-07,0.38789376158121497
2014-11-10,0.6982392228293895
2014-11-11,-0.5888824551244926
2014-11-12,-0.38048498845265927
2014-11-13,-0.1023489932885903
2014-11-14,-0.7137232845894289
2014-11-17,-0.6960950764006854
2014-11-18,-0.8131166569936163
2014-11-19,-0.6090487238979078
2014-11-20,-1.0689013035381711
2014-11-21,-0.2926208651399449
2014-11-24,-0.2363523573200814
2014-11-25,0.04975413812209174
2014-11-26,-0.3646156020675261
2014-11-27,-0.19688215881210203
2014-11-28,-1.7533127265104287
2014-12-01,-2.921293265673169
2014-12-02,-1.9375032975507325
2014-12-03,-2.0701473496218217
2014-12-04,-1.6230297981236312
2014-12-05,-1.6408835366906496
2014-12-08,-2.0073170731707313
2014-12-09,-2.5117393387637725
2014-12-10,-2.0272857826711315
2014-12-11,-1.8395920259619751
2014-12-12,-1.4186868686868668
2014-12-15,-0.5735794074793613
2014-12-16,-0.7040335254059691
2014-12-17,-0.6592741935483847
2014-12-18,-0.15014866204162444
2014-12-19,-0.2208651399491021
2014-12-22,0.33932135728543933
2014-12-23,0.10650887573965437
2014-12-24,0.23265741728922046
2014-12-25,0.04697986577181189
2014-12-26,-0.21749408983451546
2014-12-29,-0.19484240687679874
2014-12-30,0.09115462525320651
2014-12-31,1.1085271317829457
2015-01-05,-1.1665678719620654
2015-01-06,-1.4163335237007388
2015-01-07,-1.7900120336943341
2015-01-08,-1.7868656716417906
2015-01-09,-2.6317851147174003
2015-01-12,-1.9465648854961788
2015-01-13,-1.6643726839597677
2015-01-14,-1.2674537987679717
2015-01-15,-0.44200962052378107
2015-01-16,-0.36187845303867305
2015-01-19,0.7960734642178587
2015-01-20,-0.0031407035175945977
2015-01-21,0.49999999999999906
2015-01-22,0.4272559852670398
2015-01-23,0.39169550173010625
2015-01-26,-0.6010638297872449
2015-01-27,-0.5084626234132473
2015-01-28,-0.006410256410250631
2015-01-29,-0.08900523560209299
2015-01-30,-0.6232315711094678
2015-02-02,0.5041014168530905
2015-02-03,1.8874551971325992
2015-02-04,2.4678522571819275
2015-02-05,1.57210884353741
2015-02-06,2.5030712530712362
2015-02-09,1.7984595635430094
2015-02-10,1.5129500947567993
2015-02-11,1.3654463712267073
2015-02-12,1.172698412698419
2015-02-13,2.0974477958236606
2015-02-16,2.202133965619447
2015-02-17,1.8837357052096635
2015-02-25,1.7969735182850102
2015-02-26,2.3658076681332516
2015-02-27,1.4435994930291647
2015-03-02,2.2296759522455987
2015-03-03,1.307900432900433
2015-03-04,0.9063987308302474
2015-03-05,-0.26180048661800415
2015-03-06,-0.667543398211461
2015-03-09,-1.0267765190525224
2015-03-10,-1.1475667189952978
2015-03-11,-1.8344262295082008
2015-03-12,0.12647058823529111
2015-03-13,0.48463476070529404
2015-03-16,0.5109306172571664
2015-03-17,0.485771100225347
2015-03-18,-0.5683477205212237
2015-03-19,-0.05083978584966285
2015-03-20,0.06684477735610547
2015-03-23,1.3553810986657855
2015-03-24,1.3387771242815703
2015-03-25,0.8297230336748098
2015-03-26,1.194555067107153
2015-03-27,1.0673128702207801
2015-03-30,0.7969457013574761
2015-03-31,0.7644991212653804
2015-04-01,1.2412383177570256
2015-04-02,1.44283995186522
2015-04-03,-0.5165421558164328
2015-04-07,-0.19050410316530614
2015-04-08,0.6720091585575252
2015-04-09,0.08460698689955605
2015-04-10,0.21300448430492333
2015-04-13,0.3888888888888929
2015-04-14,0.1531776208582265
2015-04-15,0.005898123324395159
2015-04-16,1.2064220183486238
2015-04-17,1.4410181106216353
2015-04-20,1.422427871529656
2015-04-21,1.0649639089394747
2015-04-22,0.5653459491425356
2015-04-23,0.7614120511259831
2015-04-24,0.7354721549636896
2015-04-27,1.5646258503401447
2015-04-28,1.32808857808858
2015-04-29,0.6167964404894344
2015-04-30,1.1657250470809748
2015-05-04,0.9023437500000009
2015-05-05,0.6329966329966278
2015-05-06,0.49706840390880225
2015-05-07,-0.744274809160315
2015-05-08,-1.2501567398118985
2015-05-11,-1.5558297347316419
2015-05-12,-2.2386440677966153
2015-05-13,-1.8365968939905508
2015-05-14,-1.5630791161796092
2015-05-15,-1.016034985422735
2015-05-18,-1.561442236938912
2015-05-19,-1.8938628158844764
2015-05-20,-1.3209366391184614
2015-05-21,-0.06644067796609329
2015-05-22,0.07310344827587203
2015-05-25,-0.005809731299936313
2015-05-26,-0.45805142083898354
2015-05-27,-0.26712328767123994
2015-05-28,-0.4793220338983122
2015-05-29,-0.2077831827658133
2015-06-01,-0.14512785072564965
2015-06-02,0.1050800278357705
2015-06-03,0.3346036585365824
2015-06-04,0.7432646592710003
2015-06-05,0.932739059967585
2015-06-08,0.2368627450980417
2015-06-09,0.18232044198895278
2015-06-10,1.527196652719674
2015-06-11,1.9548069022185732
2015-06-12,0.8546739984289088
2015-06-15,1.0813204508856689
2015-06-16,0.4967462039045531
2015-06-17,-0.5027548209366284
2015-06-18,-0.44585091420534284
2015-06-19,0.025783972125438506
2015-06-23,0.020097020097014525
2015-06-24,0.40493662441627193
2015-06-25,0.3069016152716489
2015-06-26,0.9902475618904699
2015-06-29,0.2724832214765029
2015-06-30,0.2709459459459397
2015-07-01,0.2382374906646741
2015-07-02,0.3429687499999958
2015-07-03,-0.14076484947111126
2015-07-06,-1.651836158192074
2015-07-07,-2.5148771021992267
2015-07-08,-3.320788530465945
2015-07-09,-0.5083214455539754
2015-07-10,-0.394857667584938
2015-07-13,-0.7009121459433527
2015-07-14,-0.705327675624703
2015-07-15,-0.37232059645853327
2015-07-16,-0.5901862789641165
2015-07-17,-0.349457504520798
2015-07-20,-0.06769537083126237
2015-07-21,-0.23614846691769545
2015-07-22,0.13268792710706642
2015-07-23,0.06502242152466753
2015-07-24,-1.212415856394908
2015-07-27,-2.357092448835574
2015-07-28,-1.268087855297168
2015-07-29,-0.7000634115408931
2015-07-30,-0.8533419857235671
2015-07-31,-0.8838709677419365
2015-08-03,-1.4331210191082826
2015-08-04,-0.6423929852693073
2015-08-05,-0.08453047877128173
2015-08-06,-0.26850303923693675
2015-08-07,0.43811971257595467
2015-08-10,0.7830192160625932
2015-08-11,1.8034382488776897
2015-08-12,1.6906750492130072
2015-08-13,1.55563296105808
2015-08-14,1.2876036912416233
2015-08-17,0.16209912536443635
2015-08-18,-0.5529899348726975
2015-08-19,-0.28128724672229366
2015-08-20,-0.662061024755328
2015-08-21,-0.9052247873632984
2015-08-24,-2.1944127708095804
2015-08-25,-1.7932584269662906
2015-08-26,-1.444075304540412
2015-08-27,-0.637795275590539
2015-08-28,0.4106853750674605
2015-08-31,0.1037367540435
2015-09-01,0.7984234234234295
2015-09-02,0.572463768115933
2015-09-07,0.6303030303030295
2015-09-08,0.3141910546659317
2015-09-09,0.45379146919431285
2015-09-10,0.26670870113493444
2015-09-11,-0.05025773195876292
2015-09-14,-0.5789141414141374
2015-09-15,-1.0726902173913013
2015-09-16,-0.9531568228105916
2015-09-17,-1.3488529014844852
2015-09-18,-1.199585635359123
2015-09-21,-0.47619047619049004
2015-09-22,-0.8113636363636361
2015-09-23,-0.5101880877743067
2015-09-24,-0.8261224489795966
2015-09-25,-1.2793296089385593
2015-09-28,-1.3835155592935353
2015-09-29,-1.8422764227642194
2015-09-30,-1.5835475578406102
2015-10-08,-0.5508620689655069
2015-10-09,1.1965491372843218
2015-10-12,0.9873916469661174
2015-10-13,0.2751322751322765
2015-10-14,0.04245640636845797
2015-10-15,-0.14487079091621904
2015-10-16,-0.684756584197939
2015-10-19,-0.931034482758619
2015-10-20,-0.6902953586497912
2015-10-21,-1.018333333333323
2015-10-22,-0.5575065847234315
2015-10-23,-1.057425742574266
2015-10-26,-1.532763532763527
2015-10-27,-1.4035964035964026
2015-10-28,-1.2629399585921186
2015-10-29,-1.108695652173908
2015-10-30,-1.7863984674329576
2015-11-02,-1.3532818532818551
2015-11-03,-1.7907196969696915
2015-11-04,-1.0901486988847693
2015-11-05,-2.1384350816853064
2015-11-06,-1.7418478260869603
2015-11-09,-1.775813953488376
2015-11-10,-2.191111111111102
2015-11-11,-1.9368974583698526
2015-11-12,-1.8243858052775253
2015-11-13,-2.6865926558496946
2015-11-16,-2.995931651749386
2015-11-17,-2.4773629864972304
2015-11-18,-1.9009433962264162
2015-11-19,-1.8656462585034044
2015-11-20,-2.7187958883994057
2015-11-23,-3.1258922777417313
2015-11-24,-1.2087114337568006
2015-11-25,-0.553643144004596
2015-11-26,0.8015916414458367
2015-11-27,0.7595305959165597
2015-11-30,0.4196170800288029
2015-12-01,1.062908865967867
2015-12-02,0.8025338508705997
2015-12-03,0.768408972900345
2015-12-04,0.32633753820186545
2015-12-07,0.10553213287812728
2015-12-08,-1.4612376819358608
2015-12-09,-1.2188841201716765
2015-12-10,-1.0255246738513886
2015-12-11,-0.8447761194029867
2015-12-14,-0.525331724969848
2015-12-15,-0.3696498054474719
2015-12-16,-0.11934156378600934
2015-12-17,-0.025677603423682107
2015-12-18,0.34185536888239454
2015-12-21,1.4576894775570317
2015-12-22,2.0460069444444486
2015-12-23,1.4810446503791104
2015-12-24,2.057350565428104
2015-12-25,1.6188925081433267
2015-12-28,0.35060728744939484
2015-12-29,0.7970335675253731
2015-12-30,0.4824495892457099
2015-12-31,0.3301540719002164
2016-01-04,-0.07615658362989418
2016-01-05,0.018782870022540296
2016-01-06,-0.599699021820927
2016-01-07,-1.1985454545454535
2016-01-08,-0.7005604483586882
2016-01-11,-0.8947778643803602
2016-01-12,-1.2362728785357768
2016-01-13,-1.1085201793721973
2016-01-14,-0.15992812219227331
2016-01-15,-0.06352261790182363
2016-01-18,1.1510128913443853
2016-01-19,2.13912310286677
2016-01-20,1.561284868977171
2016-01-21,1.5141388174807235
2016-01-22,1.5659037095501227
2016-01-25,1.5108783239323167
2016-01-26,1.7064000000000095
2016-01-27,2.132319391634976
2016-01-28,1.6945773524720924
2016-01-29,0.814078041315992
2016-02-01,0.6141533277169379
2016-02-02,1.1611721611721688
2016-02-03,1.4313901345291549
2016-02-04,2.3276936776491466
2016-02-05,2.189719626168217
2016-02-15,0.7517421602787623
2016-02-16,0.28495102404274625
2016-02-17,-0.5641025641025608
2016-02-18,-0.08119658119658692
2016-02-19,0.9496124031007769
2016-02-22,0.5241581259150977
2016-02-23,0.6676427525622325
2016-02-24,0.6866118175018656
2016-02-25,1.3536036036036165
2016-02-26,1.5028860028860103
2016-02-29,1.067896678966789
2016-03-01,1.4576642335766314
2016-03-02,1.789135096497491
2016-03-03,1.9193664506839407
2016-03-04,2.798319327731092
2016-03-07,2.17754728492983
2016-03-08,1.723263506063938
2016-03-09,1.702483285577838
2016-03-10,0.9631483166515099
2016-03-11,0.06441717791411397
2016-03-14,-0.25075268817204155
2016-03-15,-0.3757881462799462
2016-03-16,0.3334707337180465
2016-03-17,1.0066302652106063
2016-03-18,1.2739837398374054
2016-03-21,1.229139645482058
2016-03-22,0.23956989247311605
2016-03-23,0.36660268714011557
2016-03-24,0.6230916030534365
2016-03-25,1.033530571992111
2016-03-28,0.5263412276462062
2016-03-29,0.43961352657004577
2016-03-30,0.4560743530266999
2016-03-31,0.005361915118226803
2016-04-01,1.5810430767344035
2016-04-05,0.702132317259429
2016-04-06,0.3173597343173814
2016-04-07,-0.24551610270865937
2016-04-08,-0.748620502728732
2016-04-11,-0.17217890470985006
2016-04-12,-0.13612931361893799
2016-04-13,-0.2986275437766212
2016-04-14,-0.1055607917059379
2016-04-15,-0.25877825877825694
2016-04-18,-0.24253731343283022
2016-04-19,-0.5499485066941272
2016-04-20,-0.915220624690132
2016-04-21,0.33759707629054503
2016-04-22,0.07165677772706441
2016-04-25,0.680407801418439
2016-04-26,1.1474358974358905
2016-04-27,1.0843585237258442
2016-04-28,0.16005014625992506
2016-04-29,0.33106092884533217
2016-05-03,-0.1816257408975444
2016-05-04,-0.3492063492063521
2016-05-05,-0.46750727449078594
2016-05-06,-0.8284210526315843
2016-05-09,-1.2788313685289552
2016-05-10,-0.8610526315789467
2016-05-11,-0.33542141230068656
2016-05-12,0.14677222898904443
2016-05-13,0.1737746658179552
2016-05-16,-0.4317073170731714
2016-05-17,-0.34115409004437797
2016-05-18,-0.7592033796016879
2016-05-19,-0.8650559811431839
2016-05-20,-1.047735618115058
2016-05-23,-1.7903736542115258
2016-05-24,-1.9973421926910273
2016-05-25,-1.1340745585349943
2016-05-26,-0.2992073976221934
2016-05-27,-0.5510067114093994
2016-05-30,0.6024804177545778
2016-05-31,1.2898550724637674
2016-06-01,1.0020311442112395
2016-06-02,0.7592592592592576
2016-06-03,1.611111111111123
2016-06-06,1.406073446327684
2016-06-07,1.1068814055636798
2016-06-08,1.2450621799561088
2016-06-13,1.5904897090134877
2016-06-14,0.6585887384176738
2016-06-15,0.38431975403536234
2016-06-16,0.9866979655712194
2016-06-17,1.6305732484076378
2016-06-20,2.1584022038567388
2016-06-21,2.425158116654954
2016-06-22,2.4418132611637304
2016-06-23,1.9499999999999964
2016-06-24,2.1480536056158153
2016-06-27,3.3248259860788827
2016-06-28,3.826291079812198
2016-06-29,2.3069966682532046
2016-06-30,2.207142857142856
2016-07-01,1.6138119036801435
2016-07-04,2.522746071133166
2016-07-05,1.8963509316770142
2016-07-06,1.2827510917030547
2016-07-07,0.8011088011088012
2016-07-08,-0.11059448688143371
2016-07-11,-0.23738977072310227
2016-07-12,0.4160057678442679
2016-07-13,-0.23435804701627924
2016-07-14,-0.03957100591715795
2016-07-15,-0.17346549752192678
2016-07-18,-0.5733982157339836
2016-07-19,-0.5438972162740903
2016-07-20,-0.4216765453005917
2016-07-21,0.22510822510822157
2016-07-22,0.10077145612342903
2016-07-25,-0.41418983700862155
2016-07-26,-0.5094339622641623
2016-07-27,-0.40407470288624686
2016-07-28,1.1271276595744755
2016-07-29,0.4615384615384658
2016-08-01,0.8098256735340738
2016-08-02,0.7799895233106363
2016-08-03,0.727217125382277
2016-08-04,0.3730445246690724
2016-08-05,0.6459096459096471
2016-08-08,1.1398176291793247
2016-08-09,1.142092746730096
2016-08-10,-0.3388473852721482
2016-08-11,-0.6169681846537786
2016-08-12,-0.5110246433203631
2016-08-15,0.017675050985725676
2016-08-16,-0.3502111670783167
2016-08-17,-0.9634810888815312
2016-08-18,0.11085646127109455
2016-08-19,0.45837971773313557
2016-08-22,-0.10831251322904449
2016-08-23,0.8025125833264659
2016-08-24,0.420863983055753
2016-08-25,0.013898793624570742
2016-08-26,-0.36834502865693164
2016-08-29,-1.2551724137931088
2016-08-30,-1.1158645276292285
2016-08-31,-0.9976204640095191
2016-09-01,-1.2424441524310121
2016-09-02,-1.3071979434447296
2016-09-05,-1.3499327052489927
2016-09-06,-0.0039037085230963233
2016-09-07,0.20677487649965193
2016-09-08,0.15664439495175134
2016-09-09,-0.21886249100071573
2016-09-12,-0.9861788617886158
2016-09-13,-0.9398258115597727
2016-09-14,-0.6669407894736924
2016-09-19,-0.7010734929810102
2016-09-20,-0.4017295597484307
2016-09-21,-0.12454212454212811
2016-09-22,-0.38539238539238274
2016-09-23,-0.49546142208774857
2016-09-26,-0.4035740878630013
2016-09-27,0.40469208211143654
2016-09-28,0.4207221350078511
2016-09-29,1.249094858797964
2016-09-30,1.081040892193307
2016-10-10,2.3895765472312807
2016-10-11,2.7135061391541697
2016-10-12,2.6399706098457174
2016-10-13,1.2080394922425932
2016-10-14,0.8300561797752696
2016-10-17,0.9919893190921298
2016-10-18,1.833836858006047
2016-10-19,1.6466858789625451
2016-10-20,1.0714718352513677
2016-10-21,1.0241844769403883
2016-10-24,1.5703794369644979
2016-10-25,2.427111350188272
2016-10-26,1.6893704850361198
2016-10-27,1.026014568158171
2016-10-28,1.9526266416510314
2016-10-31,2.6831556503198266
2016-11-01,2.1600357621814887
2016-11-02,0.7420266451352463
2016-11-03,0.7522088353413652
2016-11-04,-0.28940568475451894
2016-11-07,-0.3826148913430705
2016-11-08,0.45670995670996056
2016-11-09,1.1515984874527363
2016-11-10,1.1829390203265657
2016-11-11,1.4895660814839395
2016-11-14,0.16289741068501645
2016-11-15,-0.13827534039334413
2016-11-16,-0.1903576982892722
2016-11-17,-0.32131758856432446
2016-11-18,-1.0146914789422135
2016-11-21,-0.4072542157174638
2016-11-22,0.26621708413615486
2016-11-23,-0.38317460317460356
2016-11-24,-0.3907120743034098
2016-11-25,-0.4116883116883123
2016-11-28,-0.0905959352394079
2016-11-29,-0.4482259232440246
2016-11-30,-0.9659763313609435
2016-12-01,-0.1421472688833973
2016-12-02,0.36067139891982736
2016-12-05,1.5024443368533462
2016-12-06,1.689740797876181
2016-12-07,2.701906859453002
2016-12-08,2.3401593054473304
2016-12-09,2.4308039731913422
2016-12-12,2.3911038836151826
2016-12-13,2.2573189788384216
2016-12-14,2.086693548387099
2016-12-15,1.4150812867519962
2016-12-16,0.7096225773546413
2016-12-19,-0.7295026881720474
2016-12-20,-1.4016817593790436
2016-12-21,-1.1515253100905167
2016-12-22,-1.4675150703281996
2016-12-23,-1.726985242445538
2016-12-26,-0.8979094076655
2016-12-27,-0.30643441166016055
2016-12-28,-0.016619519094766135
2016-12-29,0.10088183421516679
2016-12-30,-0.9007841800204536
2017-01-03,-1.5224199288256226
2017-01-04,-1.5000000000000004
2017-01-05,-1.299463190184054
2017-01-06,-1.4641675854465315
2017-01-09,-0.6276041666666726
2017-01-10,-0.7034099920697826
2017-01-11,-0.48570261437908363
2017-01-12,0.3270911360799039
2017-01-13,1.0528334043459786
2017-01-16,2.283478260869565
2017-01-17,1.3277972027972047
2017-01-18,1.3963441818992481
2017-01-19,0.5533165407220896
2017-01-20,0.6692607003891063
2017-01-23,1.1257510729613809
2017-01-24,0.6290253327608472
2017-01-25,1.3969194312796256
2017-01-26,0.7919167667066793
2017-02-03,0.3512490537471677
2017-02-06,0.699479791916764
2017-02-07,0.2705334462320038
2017-02-08,-0.0050020842017540436
2017-02-09,-0.12722535822840145
2017-02-10,-0.11814534106108698
2017-02-13,1.097896092743664
2017-02-14,1.0479964773227635
2017-02-15,-0.464566929133854
2017-02-16,-1.299226139294933
2017-02-17,-1.4627730717788625
2017-02-20,-1.225791855203617
2017-02-21,-1.639449935539326
2017-02-22,-1.5192733717323856
2017-02-23,-1.8092360811393984
2017-02-24,-1.495028102031987
2017-02-27,-1.0452468007312656
2017-02-28,-1.0225108225108166
2017-03-01,-0.8865784499054914
2017-03-02,-0.608499999999998
2017-03-03,-0.31899265477440114
2017-03-06,0.3335086796422912
2017-03-07,-0.03355704697987021
2017-03-08,-1.454037582529202
2017-03-09,-1.533862433862435
2017-03-10,-2.01904271744724
2017-03-13,-1.1171757636454553
2017-03-14,-1.4804585721729986
2017-03-15,-0.7883923985618846
2017-03-16,-0.09856262833675582
2017-03-17,0.07603565810173137
2017-03-20,-0.026355803345157452
2017-03-21,0.04715025906734815
2017-03-22,-0.7562744004461796
2017-03-23,-0.3206064008983679
2017-03-24,-0.5206367924528233
2017-03-27,-1.6453257790368223
2017-03-28,-1.459268004722546
2017-03-29,0.3425567238516848
2017-03-30,-0.15265957446808465
2017-03-31,-0.3711595639246751
2017-04-05,0.8443843031123123
2017-04-06,0.8717948717948686
2017-04-07,0.4984959174903288
2017-04-10,-0.33292282430213704
2017-04-11,-0.4351560536274844
2017-04-12,-0.8034783364129333
2017-04-13,-0.7532865476752795
2017-04-14,-1.4212997917991401
2017-04-17,-1.5512016228634564
2017-04-18,-1.375675531532528
2017-04-19,-1.3027623985222203
2017-04-20,-0.6408586925126571
2017-04-21,-0.8214703398007053
2017-04-24,-1.0159914712153553
2017-04-25,-0.8456196581196568
2017-04-26,-0.08915906788247244
2017-04-27,0.5755844155844124
2017-04-28,0.9572162007986371
2017-05-02,0.7975279576221326
2017-05-03,0.5260576333537845
2017-05-04,-0.629565217391306
2017-05-05,-0.9887920298879144
2017-05-08,-0.6147393648891549
2017-05-09,-0.6771554436752707
2017-05-10,-1.2625730994152078
2017-05-11,-0.7845679012345698
2017-05-12,-0.8148148148148222
2017-05-15,0.640396964389952
2017-05-16,1.1362028301886806
2017-05-17,0.9744186046511714
2017-05-18,1.3302411873840359
2017-05-19,2.380870561282938
2017-05-22,2.1483909415971443
2017-05-23,1.736842105263149
2017-05-24,1.0134502923976576
2017-05-25,1.0761741122565822
2017-05-26,0.4220743205768174
2017-05-31,-0.6087645195353751
2017-06-01,-0.3778484366719662
2017-06-02,-1.4523690773067341
2017-06-05,-1.4819027921406334
2017-06-06,-1.289724873666479
2017-06-07,-0.9913043478260961
2017-06-08,-0.5583195135433969
2017-06-09,-0.48486646884272555
2017-06-12,0.8221574344023294
2017-06-13,-0.3527472527472534
2017-06-14,-0.11953173136167529
2017-06-15,-0.5021406727828708
2017-06-16,-0.19973368841544487
2017-06-19,-0.06286454957873565
2017-06-20,-0.34830019243105004
2017-06-21,-0.46999368288060667
2017-06-22,-0.9583883751651298
2017-06-23,-0.3873570948217905
2017-06-26,0.44365698086463423
2017-06-27,0.8335962145110418
2017-06-28,0.3219330855018565
2017-06-29,1.243016759776543
2017-06-30,1.275720164609057
2017-07-03,1.6612446958981641
2017-07-04,0.2722972972972934
2017-07-05,0.4739336492891059
2017-07-06,1.1872635561160136
2017-07-07,1.3598300970873616
2017-07-10,0.5149521531100495
2017-07-11,0.8017291066282413
2017-07-12,0.5656028368794359
2017-07-13,0.26461538461538014
2017-07-14,0.4439574201627988
2017-07-17,0.67504488330341
2017-07-18,0.9092604101926651
2017-07-19,1.0342205323194027
2017-07-20,2.092388146426503
2017-07-21,1.8711727325245535
2017-07-24,1.4500886001181317
2017-07-25,1.4271725826193415
2017-07-26,0.5599078341013782
2017-07-27,0.08910891089109073
2017-07-28,-0.92015418502203
2017-07-31,-0.732062780269055
2017-08-01,-0.16711301553293573
2017-08-02,-0.0736454497632781
2017-08-03,-0.6270588235294046
2017-08-04,0.29217877094971645
2017-08-07,-0.1505711318795441
2017-08-08,0.7723456790123518
2017-08-09,0.9867507523261108
2017-08-10,1.0884941757422633
2017-08-11,0.38476622764945995
2017-08-14,0.0962893724622753
2017-08-15,-0.5998978366836775
2017-08-16,-0.5697394991809105
2017-08-17,0.6591528675403208
2017-08-18,0.7604407576174206
2017-08-21,1.284964207705084
2017-08-22,1.9786756453423047
2017-08-23,1.6139130434782658
2017-08-24,1.4267515923566978
2017-08-25,1.6256716417910493
2017-08-28,1.105115233277121
2017-08-29,1.5930687534935608
2017-08-30,1.149193548387099
2017-08-31,1.3977900552486118
2017-09-01,2.0469457013574646
2017-09-04,1.8384326355340779
2017-09-05,1.7057457922228578
2017-09-06,0.4301613800778992
2017-09-07,-0.3338701019860544
2017-09-08,-0.7348242811501551
2017-09-11,-1.2057205720572082
2017-09-12,-0.07766470273165633
2017-09-13,-1.362204724409446
2017-09-14,-1.9026032315978503
2017-09-15,-1.7636874122601787
2017-09-18,-1.3171307220387019
2017-09-19,-1.6157043879907727
2017-09-20,-0.9485363550519316
2017-09-21,-1.721418572095198
2017-09-22,-1.2076528231451338
2017-09-25,-0.4402654867256657
2017-09-26,0.06632414759458373
2017-09-27,0.4970286331712524
2017-09-28,-0.6234475906606958
2017-09-29,0.35759036144578965
2017-10-09,0.06076066790352436
2017-10-10,-0.17033224145999032
2017-10-11,-0.4089427107592083
2017-10-12,-0.32350096711799164
2017-10-13,0.7889865802869096
2017-10-16,1.3715097018457079
2017-10-17,1.1790095411176706
2017-10-18,1.051632833186227
2017-10-19,-0.14753342554172413
2017-10-20,0.9947136563876603
2017-10-23,0.6005747126436831
2017-10-24,0.398152649489545
2017-10-25,-0.020803782505904686
2017-10-26,-0.777312877731279
2017-10-27,-1.1735137747704194
2017-10-30,-1.0735370274469098
2017-10-31,-1.3370547581073828
2017-11-01,-1.0617721518987324
2017-11-02,-0.37293729372936807
2017-11-03,0.5643153526970913
2017-11-06,1.3830409356725113
2017-11-07,1.6753168376584153
2017-11-08,1.8215613382899642
2017-11-09,1.6828220858895724
2017-11-10,0.6855081178592957
2017-11-13,1.0011350737797933
2017-11-14,0.2833894500561191
2017-11-15,-0.8120260021668467
2017-11-16,-1.1198460692688332
2017-11-17,-0.14052631578947072
2017-11-20,0.32985930171965305
2017-11-21,0.509303561935141
2017-11-22,0.6374734607218714
2017-11-23,0.2781385281385273
2017-11-24,0.5017281105990787
2017-11-27,-0.8302453680520738
2017-11-28,-1.028780743066462
2017-11-29,-0.9005780346820808
2017-11-30,-1.010491441192713
2017-12-01,-0.32220713970844717
2017-12-04,0.9556720472869022
2017-12-05,0.865397863569839
2017-12-06,0.8937646958245766
2017-12-07,-0.6067842104461715
2017-12-08,0.374205094134185
2017-12-11,0.6556717556469551
2017-12-12,0.9303633603557296
2017-12-13,0.23743821099590462
2017-12-14,-0.25581395348837255
2017-12-15,-0.6249342451341398
2017-12-18,0.14537444933921365
2017-12-19,0.9754928076718177
2017-12-20,0.9875203472599023
2017-12-21,0.7686703096539148
2017-12-22,0.5512256442489024
2017-12-25,0.05410334346504622
2017-12-26,1.0287485907553424
2017-12-27,0.47957992998833265
2017-12-28,0.4292653309046758
2017-12-29,0.3417177914110392
2018-01-02,1.2904540162980254
2018-01-03,1.234544295729778
2018-01-04,1.2410161090458438
2018-01-05,0.9905422446406061
2018-01-08,0.9446945337620619
2018-01-09,0.5529891304347924
2018-01-10,1.0283889283179541
2018-01-11,1.1530221882172837
2018-01-12,1.2069498069497986
2018-01-15,0.8167456556082069
2018-01-16,-1.0620636152055858
2018-01-17,-1.2209653092006012
2018-01-18,-1.0125097732603505
2018-01-19,-0.42279411764707076
2018-01-22,-0.4799382716049448
2018-01-23,0.11185682326621638
2018-01-24,-0.12639109697933412
2018-01-25,0.29793735676089517
2018-01-26,0.7310495626822098
2018-01-29,0.5568990042674202
2018-01-30,-0.03231017770597074
2018-01-31,0.047619047619042336
2018-02-01,-0.7882165605095519
2018-02-02,-1.0559380378657388
2018-02-05,-0.016786570743399724
2018-02-06,-0.6187290969899684
2018-02-07,-1.2694380292532796
2018-02-08,-1.5632273079906889
2018-02-09,-1.3926482873851267
2018-02-12,-1.4153846153846232
2018-02-13,-1.2283393501805242
2018-02-14,0.03746877602000051
2018-02-22,-0.2230514096185718
2018-02-23,0.01893287435456196
2018-02-26,-0.5308537616229956
2018-02-27,-0.6237458193979812
2018-02-28,-0.7877934272300439
2018-03-01,0.31103388357952244
2018-03-02,0.20017108639863174
2018-03-05,-0.5265339966832437
2018-03-06,-0.08766233766233737
2018-03-07,-0.5969387755102069
2018-03-08,-1.753402722177744
2018-03-09,-1.3774625689519235
2018-03-12,-1.8371005455962468
2018-03-13,-1.7514356029532425
2018-03-14,-1.088482074752101
2018-03-15,-1.2004950495049604
2018-03-16,-1.764568764568766
2018-03-19,-1.5084882780921487
2018-03-20,-1.4324324324324391
2018-03-21,-1.179446640316218
2018-03-22,-0.6114864864864926
2018-03-23,-1.7753673897830649
2018-03-26,-1.725697061039949
2018-03-27,-0.7500000000000063
2018-03-28,-0.9516594516594585
2018-03-29,0.22730375426621569
2018-03-30,0.4569583931133499
2018-04-02,1.2355704697986452
2018-04-03,1.0553191489361797
2018-04-04,0.8873426110006717
2018-04-09,1.5962410887880811
2018-04-10,1.7948681966979767
2018-04-11,1.0475085995150197
2018-04-12,0.7643127631531501
2018-04-13,0.28886332129257525
2018-04-16,-0.3069597645974668
2018-04-17,-0.4182509492947893
2018-04-18,-0.31277044547049215
2018-04-19,0.16752798020447263
2018-04-20,-1.3867852190308811
2018-04-23,-1.0156739811912188
2018-04-24,-0.7247191011235938
2018-04-25,0.06907378335948909
2018-04-26,0.045789043336065274
2018-04-27,0.43500424808835314
2018-05-02,1.9777411376751692
2018-05-03,1.9071129707112944
2018-05-04,2.367260390161148
2018-05-07,2.1453287197231847
2018-05-08,1.7517106549364587
2018-05-09,1.017576318223886
2018-05-10,1.1112123974475885
2018-05-11,0.7482993197278793
2018-05-14,-0.2044673539518908
2018-05-15,-0.14175918018787104
2018-05-16,0.26610644257702365
2018-05-17,-0.12499999999999578
2018-05-18,-0.09390862944163111
2018-05-21,0.468052347959979
2018-05-22,0.42801857585138686
2018-05-23,-0.20695102685625352
2018-05-24,-0.38954869358669664
2018-05-25,-0.827689992475537
2018-05-28,-1.2628099173553653
2018-05-29,-0.2429906542056069
2018-05-30,-0.2132587859424935
2018-05-31,-0.16031746031746835
2018-06-01,0.6727999999999975
2018-06-04,0.7206803939122697
2018-06-05,0.8066248880931184
2018-06-06,-0.055459272097049456
2018-06-07,0.6983857264231085
2018-06-08,0.722574796010876
2018-06-11,1.336099585062239
2018-06-12,0.8235800344234072
2018-06-13,0.32647814910026746
2018-06-14,-0.18266779949024164
2018-06-15,-0.17434507678410444
2018-06-19,-1.360418342719235
2018-06-20,-1.193574958813837
2018-06-21,-1.7221269296740935
2018-06-22,-2.120033812341498
2018-06-25,-1.5956192080876128
2018-06-26,-0.9263431542460966
2018-06-27,-0.5137533274179259
2018-06-28,-0.11956521739130456
2018-06-29,1.5145797598627957
2018-07-02,1.1665228645383916
2018-07-03,1.105365853658529
2018-07-04,1.1888888888889024
2018-07-05,-0.2814159292035528
2018-07-06,-0.4741219963031537
2018-07-09,-0.22076707202993137
2018-07-10,0.5240904621435576
2018-07-11,0.34670487106015163
2018-07-12,0.916071428571422
2018-07-13,1.2922606924643607
2018-07-16,1.0623084780388226
2018-07-17,1.0702811244979846
2018-07-18,0.918861959957839
2018-07-19,0.4057507987220559
2018-07-20,0.8779487179487111
2018-07-23,1.041289023162123
2018-07-24,1.509268292682936
2018-07-25,1.0965447154471497
2018-07-26,0.8829431438127172
2018-07-27,0.9047109207708688
2018-07-30,1.6212268743914462
2018-07-31,1.476142131979679
2018-08-01,1.1373831775700958
2018-08-02,1.9175724637681355
2018-08-03,2.422870299309277
2018-08-06,2.902787705503938
2018-08-07,2.9983434302651606
2018-08-08,2.2696967596228816
2018-08-09,1.7384943922311873
2018-08-10,1.0385391141259765
2018-08-13,0.828129916054388
2018-08-14,0.929104331329133
2018-08-15,0.5968973291676455
2018-08-16,0.05096175382410086
2018-08-17,-0.8477054203634583
2018-08-20,-0.502471169686992
2018-08-21,-0.8355795148247975
2018-08-22,-0.7788971367974572
2018-08-23,-1.2818181818181817
2018-08-24,-1.4263440860215035
2018-08-27,-1.0078081427774552
2018-08-28,-0.8907563025210242
2018-08-29,-0.5178173719376398
2018-08-30,-0.34996919285273864
2018-08-31,-0.49678663239074483
2018-09-03,-0.482512953367865
2018-09-04,-0.0795148247978459
2018-09-05,0.26895043731778995
2018-09-06,0.0015760441292456914
2018-09-07,0.5543478260869658
2018-09-10,1.281859070464759
2018-09-11,0.014383043149130706
2018-09-12,-0.15531135531135082
2018-09-13,-0.11645379413974442
2018-09-14,0.15808823529411115
2018-09-17,0.9726027397260296
2018-09-18,1.4929577464788755
2018-09-19,1.481231231231249
2018-09-20,1.3515565679574877
2018-09-21,0.9841521394611853
2018-09-25,0.7744052502050726
2018-09-26,-0.29159935379644636
2018-09-27,-0.020460358056266868
2018-09-28,-0.07704654895666466
2018-10-08,2.210144927536236
2018-10-09,2.9308841843088405
2018-10-10,2.609202453987737
2018-10-11,1.2755820249052592
2018-10-12,0.9905013192612139
2018-10-15,0.05500495540139383
2018-10-16,-0.5796148426491331
2018-10-17,-0.6501731815932673
2018-10-18,-0.4954826438421392
2018-10-19,-1.063657957244657
2018-10-22,-1.4878854625550648
2018-10-23,-1.303843807199514
2018-10-24,-1.177150192554546
2018-10-25,-2.0912162162162047
2018-10-26,-1.071773636991024
2018-10-29,-1.7461383478844772
2018-10-30,-1.5777777777777744
2018-10-31,-0.43830947511930035
2018-11-01,-1.0963611859838247
2018-11-02,-0.021276595744680517
2018-11-05,-0.04571428571428747
2018-11-06,0.04383886255923804
2018-11-07,-0.0842824601366796
2018-11-08,0.06120023767082888
2018-11-09,-1.0840197693574927
2018-11-12,-1.7193995381062384
2018-11-13,-1.525423728813549
2018-11-14,-1.5584926884139438
2018-11-15,-1.3545508625817926
2018-11-16,-1.1291328758577552
2018-11-19,-1.3726443768996979
2018-11-20,-1.984098939929332
2018-11-21,-2.8609062170705983
2018-11-22,-2.3232268543584107
2018-11-23,-3.6035353535353503
2018-11-26,-3.1738271604938184
2018-11-27,-2.580057526366255
2018-11-28,-0.6783121597096219
2018-11-29,-0.8122822299651511
2018-11-30,-0.021006564551418416
2018-12-03,0.9594481605351136
2018-12-04,1.8105726872246684
2018-12-05,2.0409628378378377
2018-12-06,1.041488569028742
2018-12-07,1.2399158492648912
2018-12-10,0.4543858906752235
2018-12-11,-0.6733179811251376
2018-12-12,-0.7313832572585289
2018-12-13,-0.20563014540515848
2018-12-14,0.05479111044829933
2018-12-17,0.38361288178445974
2018-12-18,0.5047382188480812
2018-12-19,0.8476821192052925
2018-12-20,0.13915094339623194
2018-12-21,-0.19411764705882772
2018-12-24,-0.4753997539975357
2018-12-25,-1.0229658792651017
2018-12-26,-0.2912303664921564
2018-12-27,0.2908622908622895
2018-12-28,0.6296766011414067
2019-01-02,-0.13944954128440815
2019-01-03,0.1532258064516181
2019-01-04,1.3122311001843892
2019-01-07,1.549257759784077
2019-01-08,0.5643431635388713
2019-01-09,0.7228116710875281
2019-01-10,0.19408121128700231
2019-01-11,0.712027491408939
2019-01-14,-0.2884344146685544
2019-01-15,0.04301075268818032
2019-01-16,0.8466569767441857
2019-01-17,0.5859546452084757
2019-01-18,1.289617486338809
2019-01-21,1.3325670498084268
2019-01-22,0.30314097881663493
2019-01-23,0.553002223869541
2019-01-24,0.03806734992679292
2019-01-25,-0.21924746743849774
2019-01-28,-0.2792998477929918
2019-01-29,-1.087640449438195
2019-01-30,0.31821403260100056
2019-01-31,0.5115465360391924
2019-02-01,0.7341954022988585
2019-02-11,-0.15106951871657
2019-02-12,-0.27143922445936164
2019-02-13,-0.9836298932384469
2019-02-14,-0.542124542124539
2019-02-15,-0.9584278155706788
2019-02-18,-0.5973837209302361
2019-02-19,0.5318711446195954
2019-02-20,0.6726006191950368
2019-02-21,0.5261958997722019
2019-02-22,0.4338292873923389
2019-02-25,-0.2609427609427489
2019-02-26,0.47971360381861494
2019-02-27,-0.4314845024469752
2019-02-28,-0.5972668810289404
2019-03-01,0.7037593984962435
2019-03-04,1.1358858858859002
2019-03-05,0.8554817275747683
2019-03-06,0.9968228752978562
2019-03-07,0.052297939778134295
2019-03-08,-0.525989138867336
2019-03-11,-0.0883977900552408
2019-03-12,0.1885714285714397
2019-03-13,0.09019947961838504
2019-03-14,-0.7963424771404909
2019-03-15,-1.590467784642542
2019-03-18,-2.673504273504274
2019-03-19,-1.852791878172584
2019-03-20,-1.5333333333333234
2019-03-21,-0.7305605786618526
2019-03-22,-0.38125000000001114
2019-03-25,0.011265164644711641
2019-03-26,-0.07327586206896292
2019-03-27,0.13659793814433402
2019-03-28,-0.3679653679653723
2019-03-29,0.3550600343053222
2019-04-01,1.3065630397236712
2019-04-02,1.1005244755244652
2019-04-03,1.465475223395611
2019-04-04,1.1948590381426203
2019-04-08,2.5769279764938418
2019-04-09,1.9282729964159666
2019-04-10,1.7706464647298397
2019-04-11,1.6137203511807763
2019-04-12,1.2386814830010622
2019-04-15,0.3621085780530554
2019-04-16,0.09132928792776411
2019-04-17,-0.06486284232363904
2019-04-18,-0.7749762898636787
2019-04-19,-0.665937272064185
2019-04-22,-0.6767422334173081
2019-04-23,-0.23498233215547104
2019-04-24,-0.30333033303330315
2019-04-25,-0.5640350877193179
2019-04-26,-0.795728876508819
2019-04-29,-0.47925311203318055
2019-04-30,0.3498452012383808
2019-05-06,-0.3452380952380979
2019-05-07,0.11782786885246757
2019-05-08,-1.171401515151507
2019-05-09,-1.865402843601884
2019-05-10,-1.1951672862453575
2019-05-13,-1.7469670710571856
2019-05-14,-2.624633431085039
2019-05-15,-1.711607786589755
2019-05-16,-0.8547066848567555
2019-05-17,-0.5888290713324367
2019-05-20,0.08283631544069951
2019-05-21,0.8190104166666762
2019-05-22,0.39328063241106015
2019-05-23,-0.4194390084801061
2019-05-24,-0.5067178502879047
2019-05-27,-0.6566466265865138
2019-05-28,-0.1869795609386941
2019-05-29,0.26530612244898805
2019-05-30,-0.508963367108349
2019-05-31,-0.7163461538461559
2019-06-03,-1.6182228915662835
2019-06-04,-1.4540925266903921
2019-06-05,-1.812723373838453
2019-06-06,-0.9145931405514455
2019-06-10,-0.6569688768606233
2019-06-11,-0.3939592908732799
2019-06-12,-0.9019607843137333
2019-06-13,-0.08478964401293859
2019-06-14,-0.21414790996784347
2019-06-17,0.010876519513747558
2019-06-18,0.3134223471539094
2019-06-19,1.097052480230041
2019-06-20,1.8061643835616357
2019-06-21,1.6008935219657392
2019-06-24,1.8715041572184392
2019-06-25,1.4241274658573568
2019-06-26,1.8760268857356146
2019-06-27,0.9282013323463997
2019-06-28,0.7503725782414397
2019-07-01,1.4359154929577373
2019-07-02,2.408627920910713
2019-07-03,2.0168569874932056
2019-07-04,0.9759519038076094
2019-07-05,1.0372578241430697
2019-07-08,1.2228571428571358
2019-07-09,0.6380613606047137
2019-07-10,0.7849510240427425
2019-07-11,0.17035398230088664
2019-07-12,-0.49378482640377813
2019-07-15,0.19728468392023824
2019-07-16,-0.03611632270168426
2019-07-17,-0.3758654797230515
2019-07-18,-0.8656798245614027
2019-07-19,-0.7643805309734517
2019-07-22,-0.6587436332767423
2019-07-23,-0.18559900682805833
2019-07-24,-0.4371551195585483
2019-07-25,-0.5537669027688368
2019-07-26,-0.1437046802900515
2019-07-29,0.1910426871938443
2019-07-30,0.34339369550637283
2019-07-31,-0.31054131054130807
2019-08-01,-0.07709923664121247
2019-08-02,-0.7112534671221735
2019-08-05,-1.8216129873408475
2019-08-06,-1.193934687794377
2019-08-07,-1.2370583816181173
2019-08-08,-1.0488755290882223
2019-08-09,-0.15367990144982488
2019-08-12,0.01411079740853547
2019-08-13,0.040745055936599564
2019-08-14,0.3644868615483186
2019-08-15,0.06413124533931369
2019-08-16,0.1629746835443005
2019-08-19,0.03093721565059524
2019-08-20,0.46666666666667883
2019-08-21,-0.2229965156794444
2019-08-22,-1.0383928571428522
2019-08-23,-1.7903364969801585
2019-08-26,-1.4665565648224632
2019-08-27,-1.5517522412388052
2019-08-28,-1.5727272727272694
2019-08-29,-1.6484502446982134
2019-08-30,-0.23520368946963807
2019-09-02,0.3045112781954987
2019-09-03,0.33890214797135615
2019-09-04,1.1164972634870953
2019-09-05,1.1179282868525935
2019-09-06,0.9576988155668374
2019-09-09,1.6876574307304788
2019-09-10,0.8637873754152784
2019-09-11,0.7925021795989411
2019-09-12,0.1605902777777742
2019-09-16,1.8957382039573925
2019-09-17,2.0142450142450135
2019-09-18,0.7890573500329617
2019-09-19,0.01765860039241189
2019-09-20,0.10213618157544035
2019-09-23,0.24059139784947287
2019-09-24,0.28727272727272657
2019-09-25,0.13680297397769206
2019-09-26,-0.1594827586206816
2019-09-27,-0.8871085214857989
2019-09-30,-0.5925925925925974
2019-10-08,-0.8904593639575962
2019-10-09,-0.7105769230769065
2019-10-10,-0.7866805411030208
2019-10-11,-0.30242360379347555
2019-10-14,0.7250509164969403
2019-10-15,0.10748560460653418
2019-10-16,-0.6084949215143033
2019-10-17,-0.6838235294117748
2019-10-18,-0.3072625698324106
2019-10-21,-0.9088447653429595
2019-10-22,-0.7613089509143484
2019-10-23,-0.5372233400402473
2019-10-24,-0.016650342801168058
2019-10-25,-0.2184235517568801
2019-10-28,-0.5554465161923355
2019-10-29,-0.9013091641490598
2019-10-30,-0.8178844056706581
2019-10-31,-1.0265193370165628
2019-11-01,-0.6120042872454295
2019-11-04,-0.16628701594533282
2019-11-05,0.05317919075143261
2019-11-06,-0.04416761041900655
2019-11-07,-0.13154831199068437
2019-11-08,-0.07954545454545198
2019-11-11,-0.7439446366781916
2019-11-12,0.4141414141414135
2019-11-13,-0.21638655462185374
2019-11-14,-0.29518716577541376
2019-11-15,-1.2115594329334773
2019-11-18,-0.878453038674037
2019-11-19,-0.9470782800441058
2019-11-20,-0.44291754756869717
2019-11-21,0.1637305699481837
2019-11-22,0.3545647558386369
2019-11-25,1.0311526479750592
2019-11-26,0.6699669966996783
2019-11-27,0.8671096345514827
2019-11-28,0.8548571428571606
2019-11-29,1.292121212121224
2019-12-02,1.5531914893617182
2019-12-03,1.5093457943925292
2019-12-04,0.5574572127139252
2019-12-05,0.031446540880501375
2019-12-06,-0.4422827496757253
2019-12-09,-0.9537920769255736
2019-12-10,-0.7931382639313024
2019-12-11,-1.8047477150262585
2019-12-12,-1.5698172431481936
2019-12-13,-1.2739449471732056
2019-12-16,-0.5715289895787463
2019-12-17,-1.1239558467764728
2019-12-18,-1.484635008321972
2019-12-19,-0.6630840667386825
2019-12-20,-0.41647331786543995
2019-12-23,-0.18646232439335061
2019-12-24,-0.45280612244900503
2019-12-25,-0.14325068870523236
2019-12-26,0.7391874180865018
2019-12-27,1.058663028649395
2019-12-30,1.3011049723757038
2019-12-31,0.4937413073713402
2020-01-02,0.12209302325579868
2020-01-03,-0.5482014388489265
2020-01-06,0.6391359593392606
2020-01-07,-0.3153374233128778
2020-01-08,0.5102925243770453
2020-01-09,0.2670744138634006
2020-01-10,0.9928425357873368
2020-01-13,1.3293293293293214
2020-01-14,0.4277400581959292
2020-01-15,-0.4731890874882386
2020-01-16,-0.6916588566073086
2020-01-17,-0.9475218658892056
2020-01-20,-0.8877118644067783
2020-01-21,-1.548895899053627
2020-01-22,-2.514099783080254
2020-01-23,-2.403409090909065
2020-02-03,-4.539408866995063
2020-02-04,-3.2462311557788963
2020-02-05,-2.8634739099356614
2020-02-06,-2.291233283803856
2020-02-07,-2.190125276344883
2020-02-10,-1.9290935672514578
2020-02-11,-1.2516222062004347
2020-02-12,-0.8459821428571384
2020-02-13,-0.8188914910226359
2020-02-14,-0.14988104678826314
2020-02-17,0.35209713024282785
2020-02-18,1.0174496644295403
2020-02-19,2.1162483487450627
2020-02-20,2.8491761723701337
2020-02-21,2.117128463476086
2020-02-24,1.415048543689346
2020-02-25,1.1516587677725214
2020-02-26,0.5126658624849169
2020-02-27,-0.11300121506682562
2020-02-28,-1.9651898734177269
2020-03-02,-0.41181736794986873
2020-03-03,0.21583986074847497
2020-03-04,0.6191335740072249
2020-03-05,1.0065298507462805
2020-03-06,0.8710575139146687
2020-03-09,-1.4404945904173092
2020-03-10,-0.22366522366521854
2020-03-11,-0.4104833219877471
2020-03-12,-0.9690992767915777
2020-03-13,-1.0321311475409771
2020-03-16,-1.9179415855354702
2020-03-17,-1.6455250176180407
2020-03-18,-2.31404421326399
2020-03-19,-2.122011036174132
2020-03-20,-1.1021474172954215
2020-03-23,-1.88387484957882
2020-03-24,-1.5175233644859842
2020-03-25,-1.1264775413711627
2020-03-26,-1.85698924731183
2020-03-27,-2.5301020408163284
2020-03-30,-3.183914996313263
2020-03-31,-1.7783873802624222
2020-04-01,-1.518980309087446
2020-04-02,0.15153408759974538
2020-04-03,0.9889466034266804
2020-04-07,2.1327869858475945
2020-04-08,1.6869519484902955
2020-04-09,2.2310473139721574
2020-04-10,2.738585024710212
2020-04-13,3.0646472109346177
2020-04-14,0.8232526881720443
2020-04-15,0.3093959731543629
2020-04-16,0.2589050131926113
2020-04-17,0.42529129540781313
2020-04-20,0.13085734120097225
2020-04-21,-0.662547202197046
2020-04-22,-1.0264675941635617
2020-04-23,0.29136802742287776
2020-04-24,0.3306586425944455
2020-04-27,0.5348587772613506
2020-04-28,0.539457202505219
2020-04-29,0.1802997858672382
2020-04-30,0.7185780787134953
2020-05-06,1.2611492281303578
2020-05-07,0.613282891971413
2020-05-08,0.47258722247394813
2020-05-11,-0.6988163086365659
2020-05-12,-0.5157501334757032
2020-05-13,-0.28841991341992035
2020-05-14,-0.32296380090498816
2020-05-15,-0.0776699029126242
2020-05-18,-0.16935966487133328
2020-05-19,0.24236983842010157
2020-05-20,1.1919191919191947
2020-05-21,1.2671614100185562
2020-05-22,0.5309181761399134
2020-05-25,1.053883834849535
2020-05-26,0.6378116343490369
2020-05-27,0.7477031802120162
2020-05-28,0.6395502645502638
2020-05-29,0.6555118110236237
2020-06-01,1.795820895522392
2020-06-02,1.8212791392707726
2020-06-03,1.673548387096772
2020-06-04,0.4959247648902818
2020-06-05,0.5580623755806184
2020-06-08,0.2706422018348617
2020-06-09,0.6495297805642685
2020-06-10,-0.03898514851485611
2020-06-11,-0.42501637197118514
2020-06-12,-0.4850649350649516
2020-06-15,-0.6242690058479577
2020-06-16,0.4483260553129599
2020-06-17,0.9197748064743133
2020-06-18,0.6284644194756579
2020-06-19,0.5265151515151509
2020-06-22,0.3998397435897385
2020-06-23,0.6440972222222272
2020-06-24,0.3954751131221743
2020-06-29,-0.5195578231292558
2020-06-30,-0.2423423423423534
2020-07-01,-0.13632204940529838
2020-07-02,0.19921104536489162
2020-07-03,0.9743346007604604
2020-07-06,2.023769100169775
2020-07-07,1.7048092868988372
2020-07-08,0.862509992006395
2020-07-09,1.261072261072262
2020-07-10,0.4075471698113173
2020-07-13,0.612229102167189
2020-07-14,0.2864661654135317
2020-07-15,-0.5180897250361761
2020-07-16,-1.2071881606765331
2020-07-17,-1.0444277108433748
2020-07-20,-1.0447154471544629
2020-07-21,-0.9791499599037702
2020-07-22,-0.7510204081632608
2020-07-23,-0.40964840556009047
2020-07-24,-1.1928687196110026
2020-07-27,0.22109374999999865
2020-07-28,1.178544061302688
2020-07-29,0.9582999198075441
2020-07-30,0.8890770533446096
2020-07-31,0.8151999999999909
2020-08-03,0.7595450852964942
2020-08-04,1.4417322834645603
2020-08-05,1.124012638230639
2020-08-06,0.754137115839236
2020-08-07,0.45102685624011823
2020-08-10,-0.14262295081967322
2020-08-11,-0.07864238410596137
2020-08-12,-0.6451612903225834
2020-08-13,-0.860606060606057
2020-08-14,-0.4972720187061592
2020-08-17,-0.22596754632565524
2020-08-18,0.8631733025282733
2020-08-19,0.4431469304366287
2020-08-20,1.2265779109072064
2020-08-21,0.3589284155020374
2020-08-24,0.5243785420029445
2020-08-25,1.3598767633173359
2020-08-26,1.0383761156323925
2020-08-27,1.4083747110330338
2020-08-28,1.096830985915499
2020-08-31,1.5881435257410321
2020-09-01,1.4623200677392039
2020-09-02,1.9833333333333252
2020-09-03,1.5836606441476788
2020-09-04,0.79046129788898
2020-09-07,-0.09495101733232861
2020-09-08,-0.3749999999999923
2020-09-09,-1.0092329545454573
2020-09-10,-1.1894150417827294
2020-09-11,-1.0904146838885105
2020-09-14,-1.241874527588817
2020-09-15,-1.2347826086956586
2020-09-16,-0.2698289269051322
2020-09-17,-0.7989877078814104
2020-09-18,-0.01054216867470109
2020-09-21,0.452732644017722
2020-09-22,-0.5277777777777787
2020-09-23,-0.39067055393586764
2020-09-24,-0.5308729595457892
2020-09-25,0.4651964162646491
2020-09-28,0.3724456163480527
2020-09-29,0.4153742414025674
2020-09-30,-0.5249343832021046
2020-10-09,0.6097560975609768
2020-10-12,1.1894736842105282
2020-10-13,0.8791639451339036
2020-10-14,1.0467163168584894
2020-10-15,0.7225981055480428
2020-10-16,0.2463667820069221
2020-10-19,-0.324774462179036
2020-10-20,-0.3842257597684514
2020-10-21,-0.328147100424333
2020-10-22,-0.5226429101707505
2020-10-23,-0.7985436893203824
2020-10-26,-0.6223717409587901
2020-10-27,-0.05032467532466959
2020-10-28,0.04601479046836743
2020-10-29,0.007481296758099417
2020-10-30,0.2746536267318725
2020-11-02,2.0428156748911475
2020-11-03,1.6964038727524193
2020-11-04,1.0180000000000011
2020-11-05,0.43401181877872674
2020-11-06,0.25975773889637493
2020-11-09,0.42261103633916774
2020-11-10,-0.029336734693878874
2020-11-11,0.5307788944723613
2020-11-12,0.5134099616858223
2020-11-13,1.126296522269672
2020-11-16,1.804501607717029
2020-11-17,1.5340314136125712
2020-11-18,2.2204132748904075
2020-11-19,2.3661710037174553
2020-11-20,1.5556858147713972
2020-11-23,2.55735987427972
2020-11-24,2.1889196675900213
2020-11-25,1.2853333333333394
2020-11-26,0.5477157360406075
2020-11-27,0.6442505133470231
2020-11-30,0.41559139784946214
2020-12-01,-0.47926267281105117
2020-12-02,-1.0214018191546292
2020-12-03,-1.4444444444444517
2020-12-04,-0.8138154344306597
2020-12-07,-0.25566893424035925
2020-12-08,-0.7453283502402601
2020-12-09,-0.6249310535024909
2020-12-10,-0.25443786982249045
2020-12-11,0.7116499736425906
2020-12-14,0.07167301475003696
2020-12-15,-0.6067826420378836
2020-12-16,-0.6678350299087066
2020-12-17,-0.3808249390308575
2020-12-18,-0.04492019211902364
2020-12-21,-0.2265210474265824
2020-12-22,-0.6655508017897466
2020-12-23,-0.769072474591681
2020-12-24,-0.3360175412197164
2020-12-25,-0.8624554253693361
2020-12-28,-1.3944504896626715
2020-12-29,-1.5249299719888023
2020-12-30,-1.1818693693693656
2020-12-31,-0.43860589812332185
2021-01-04,-0.3929939792008776
2021-01-05,-0.4133771929824494
2021-01-06,-0.6228332337118894
2021-01-07,-0.6383352872215676
2021-01-08,-1.0880681818181808
2021-01-11,-0.739054290718037
2021-01-12,-0.40769693325315304
2021-01-13,0.22850548182342884
2021-01-14,-0.00797266514805985
2021-01-15,0.3457227138643068
2021-01-18,1.5259381898454725
2021-01-19,1.0321100917431127
2021-01-20,0.4260869565217432
2021-01-21,0.7672571777642045
2021-01-22,0.9174256223436523
2021-01-25,0.07854630715124071
2021-01-26,0.03618817852834646
2021-01-27,0.6459510357815418
2021-01-28,0.8133418858242467
2021-01-29,0.8612716763005739
2021-02-01,0.13802256138022506
2021-02-02,0.1127247579529678
2021-02-03,0.4979108635097506
2021-02-04,0.9531772575250769
2021-02-05,0.9356435643564389
2021-02-08,0.7234206471494603
2021-02-09,-0.037202380952384435
2021-02-10,-0.39393939393940347
2021-02-18,2.5543298400441357
2021-02-19,2.8233421750663172
2021-02-22,3.7967770814682305
2021-02-23,2.4033816425120835
2021-02-24,1.9260577303281952
2021-02-25,2.0596738324685004
2021-02-26,1.6207137858642524
2021-03-01,1.0130590923930805
2021-03-02,0.6644507755618839
2021-03-03,0.5339223729883291
2021-03-04,0.14996420901932708
2021-03-05,0.12562634216177
2021-03-08,1.0119969040247603
2021-03-09,-0.3143851508120712
2021-03-10,-0.5536529680365324
2021-03-11,-0.07303370786517183
2021-03-12,0.4156010230179028
2021-03-15,0.48963963963963125
2021-03-16,0.23084156088387667
2021-03-17,-0.2081594807603148
2021-03-18,-0.6601803512102511
2021-03-19,-1.2894856622667228
2021-03-22,-1.0827214880078282
2021-03-23,-1.7808433107756292
2021-03-24,-1.4289558665231374
2021-03-25,-1.298640167364014
2021-03-26,-0.8312757201646025
2021-03-29,-0.9354207436399156
2021-03-30,-0.6990763247447671
2021-03-31,-0.8975350410826517
2021-04-01,-0.03156917363045363
2021-04-02,0.2711198428290644
2021-04-06,0.1888111888111897
2021-04-07,0.25266362252664454
2021-04-08,-0.3423831070889871
2021-04-09,-0.47134440278521134
2021-04-12,-1.074556830031279
2021-04-13,-1.347237880496053
2021-04-14,-1.224869262056942
2021-04-15,-0.3379710144927528
2021-04-16,-0.24767801857585256
2021-04-19,-0.687913409500901
2021-04-20,-0.37030303030303185
2021-04-21,-1.2401212189955173
2021-04-22,-0.6621398426477844
2021-04-23,-0.39311243028806186
2021-04-26,-0.18910276881464805
2021-04-27,0.64233288492054
2021-04-28,0.6549326396883478
2021-04-29,0.6814135228483872
2021-04-30,-0.02034351514862658
2021-05-06,1.4772363955850978
2021-05-07,2.12831585441086
2021-05-10,1.294079794079787
2021-05-11,0.7419150285351941
2021-05-12,1.6842397336293036
2021-05-13,0.8201438848920882
2021-05-14,0.13292744799593928
2021-05-17,-0.060311284046690776
2021-05-18,-0.04964200477326546
2021-05-19,-0.7318773234200713
2021-05-20,-1.4573606479275834
2021-05-21,-1.6737760542898652
2021-05-24,-1.3868110236220417
2021-05-25,-1.2559880239520962
2021-05-26,-0.5098241985522245
2021-05-27,-1.0858695652173882
2021-05-28,-0.971046770601328
2021-05-31,-0.6204715353651481
2021-06-01,0.15671641791044708
2021-06-02,0.02453620586475784
2021-06-03,-0.009073233959820822
2021-06-04,-0.63409961685823
2021-06-07,-1.4006042296072558
2021-06-08,-1.157765500306939
2021-06-09,-0.6462450592885394
2021-06-10,-0.6095238095238078
2021-06-11,-0.33954154727793434
2021-06-15,-0.10979847116053132
2021-06-16,0.36461318051575087
2021-06-17,0.3862760215882831
2021-06-18,0.22155237377543607
2021-06-21,0.5409334353481271
2021-06-22,1.082664526484741
2021-06-23,1.2795366795366767
2021-06-24,1.326173428798711
2021-06-25,1.8058326937835734
2021-06-28,1.739361702127658
2021-06-29,0.7175398633257222
2021-06-30,0.4714076246334341
2021-07-01,0.686746987951794
2021-07-02,0.4253200568989997
2021-07-05,0.8411927877947245
2021-07-06,0.514747191011244
2021-07-07,-0.7689747003994646
2021-07-08,-0.7828382838283854
2021-07-09,0.09331568497684874
2021-07-12,0.37450722733246095
2021-07-13,0.28383067314364974
2021-07-14,-0.37811634349030443
2021-07-15,-1.0192691029900265
2021-07-16,-0.6458752515090663
2021-07-19,0.6302521008403382
2021-07-20,0.5075282308657546
2021-07-21,0.7285037237643943
2021-07-22,0.5896596858638746
2021-07-23,0.38047808764939417
2021-07-26,-0.6649417852522514
2021-07-27,-0.9121155053358451
2021-07-28,-0.3286066584463703
2021-07-29,0.306017925736235
2021-07-30,0.41471354166667
2021-08-02,-0.6963806970509387
2021-08-03,-1.4253028263795382
2021-08-04,-0.8082731451083363
2021-08-05,-0.9112306657700137
2021-08-06,-0.39756592292089804
2021-08-09,-0.4770704996577689
2021-08-10,0.3881578947368589
2021-08-11,0.7165627165627145
2021-08-12,0.8094218415417582
2021-08-13,0.8781660084588954
2021-08-16,0.9028359153602988
2021-08-17,0.8205342294920416
2021-08-18,0.6321130748324632
2021-08-19,-1.1085902548466013
2021-08-20,-1.2692509533805363
2021-08-23,-0.7759616849892405
2021-08-24,-0.3130812145711001
2021-08-25,-0.6408691012245129
2021-08-26,-1.845794392523356
2021-08-27,-1.302158273381292
2021-08-30,-0.8665594855305401
2021-08-31,-1.008716323296363
2021-09-01,-0.36066818526955785
2021-09-02,0.8603921568627408
2021-09-03,1.1055118110236277
2021-09-06,0.8246644295301951
2021-09-07,1.8911620294598912
2021-09-08,1.8989739542225665
2021-09-09,1.3356282271945066
2021-09-10,1.0597738287560543
2021-09-13,1.1114457831325295
2021-09-14,1.1279485346676164
2021-09-15,2.8866096866096878
2021-09-16,2.143907563025213
2021-09-17,1.1446540880503155
2021-09-22,1.735437972432202
2021-09-23,2.189014539579985
2021-09-24,1.5846728971962585
2021-09-27,1.6663501107945549
2021-09-28,2.1291184327693693
2021-09-29,1.4019301731478884
2021-09-30,1.9769071094966248
2021-10-08,1.3964834076275354
2021-10-11,1.5818774749592315
2021-10-12,0.743019296254254
2021-10-13,-0.029165816846829593
2021-10-14,-0.29236577181208245
2021-10-15,-0.21394480182610012
2021-10-18,-0.3650224215246653
2021-10-19,-0.5897082471858491
2021-10-20,-1.4346085409252631
2021-10-21,-1.1579812206572777
2021-10-22,-1.5659068384539112
2021-10-25,-1.7781680626857619
2021-10-26,-1.4709009513150542
2021-10-27,-2.2000000000000015
2021-10-28,-1.5171790235081357
2021-10-29,-1.142153846153848
2021-11-01,-0.908530951647674
2021-11-02,-0.8540458015267159
2021-11-03,-0.0651962374310757
2021-11-04,-0.5739018916319327
2021-11-05,-0.23322905804657554
2021-11-08,-0.24485524938959766
2021-11-09,-0.10142348754448559
2021-11-10,-0.12706146926536593
2021-11-11,0.22734499205086972
2021-11-12,0.2219471947194749
2021-11-15,-0.8600709499408752
2021-11-16,-1.0924160795690059
2021-11-17,-0.7746982565936561
2021-11-18,-0.9010466222645073
2021-11-19,-0.5628598848368578
2021-11-22,-0.9107398568019172
2021-11-23,-0.5924869234427046
2021-11-24,0.08472012102875151
2021-11-25,-0.3110766045548681
2021-11-26,-0.641519250780441
2021-11-29,-0.9051970302684095
2021-11-30,-1.6577480490524041
2021-12-01,-0.6718831507563842
2021-12-02,-1.0163515585079173
2021-12-03,-0.8923857868020293
2021-12-06,-0.26574907358391325
2021-12-07,-0.1267370761534147
2021-12-08,-0.4030584380120184
2021-12-09,-0.2820236813778261
2021-12-10,-0.6672287802136017
2021-12-13,0.46905755184573994
2021-12-14,0.4619762581005043
2021-12-15,-0.32774165911819314
2021-12-16,0.44186634510657297
2021-12-17,0.8933675676302985
2021-12-20,0.6187845243836648
2021-12-21,0.5459588573914106
2021-12-22,0.25882816146966126
2021-12-23,0.7620393632140642
2021-12-24,0.9412507896399323
2021-12-27,-0.7456087219866938
2021-12-28,-0.5269207501512413
2021-12-29,0.2983323038912885
2021-12-30,0.4092105263157873
2021-12-31,0.2670262980445018
2022-01-04,1.0804973821989527
2022-01-05,0.5953002610966115
2022-01-06,0.8484641638225329
2022-01-07,1.3110959836623544
2022-01-10,0.30352480417754313
2022-01-11,0.15233785822021945
2022-01-12,0.5153508771929776
2022-01-13,0.6009463722397602
2022-01-14,1.1958914159941416
2022-01-17,0.26152737752161287
2022-01-18,0.942028985507245
2022-01-19,1.1694677871148476
2022-01-20,1.3801537386442997
2022-01-21,0.9491525423728766
2022-01-24,0.2874659400544993
2022-01-25,0.1398071625344314
2022-01-26,1.0742671009771971
2022-01-27,0.6664536741214159
2022-01-28,-0.22749691738594519
2022-02-07,1.9063893016344637
2022-02-08,1.1905252317198742
2022-02-09,-0.14750121300339195
2022-02-10,-0.06253006253006643
2022-02-11,-0.7015977443609006
2022-02-14,-0.5563909774436094
2022-02-15,-0.45466549295774933
2022-02-16,-0.5859232175502719
2022-02-17,-1.0170082860880953
2022-02-18,-0.9245458779692609
2022-02-21,-0.9021226415094336
2022-02-22,-0.5607866507747228
2022-02-23,-0.06262230919764623
2022-02-24,0.4816919191919174
2022-02-25,0.6499690785404998
2022-02-28,1.3099273607748216
2022-03-01,1.6071428571428596
2022-03-02,2.318369757826347
2022-03-03,3.1384701284198795
2022-03-04,1.4247391952309996
2022-03-07,2.652635880670212
2022-03-08,2.0075158227848093
2022-03-09,2.368858131487887
2022-03-10,0.6290030211480395
2022-03-11,0.17916174734356502
2022-03-14,-0.7493517718236844
2022-03-15,-1.417707466000558
2022-03-16,-1.075359864521592
2022-03-17,-1.0866234531526218
2022-03-18,-0.6507545426547545
2022-03-21,-0.5826963168867348
2022-03-22,-0.44822644213543444
2022-03-23,0.018255578093310357
2022-03-24,0.41550312951371854
2022-03-25,1.0445517981749937
2022-03-28,1.402568397543275
2022-03-29,1.3724428399518647
2022-03-30,0.7721674876847181
2022-03-31,-0.3156654888103626
2022-04-01,-0.9462930531231769
2022-04-06,-0.9163658243080679
2022-04-07,-1.0036166365280357
2022-04-08,-1.1753012048192668
2022-04-11,-1.8591885441527412
2022-04-12,-0.7179633867276882
2022-04-13,-1.0224378411158341
2022-04-14,-0.40981595092024786
2022-04-15,-0.44885306881586545
2022-04-18,0.6198398028342538
2022-04-19,0.4611254705574226
2022-04-20,0.43939010289270425
2022-04-21,0.4602259700715848
2022-04-22,-0.23107802207270858
2022-04-25,-1.7655249358743366
2022-04-26,-1.3822517339641909
2022-04-27,-0.9943613175336475
2022-04-28,-0.8021270125177608
2022-04-29,0.049757883577623375
2022-05-05,1.0821256038647313
2022-05-06,0.688215488215484
2022-05-09,-0.04624277456647798
2022-05-10,-0.35377069282649615
2022-05-11,0.05740740740741377
2022-05-12,-0.6225120109814548
2022-05-13,-0.6430155210643037
2022-05-16,-0.47671033478893826
2022-05-17,-0.26162387231088574
2022-05-18,-0.7598849748382374
2022-05-19,-0.9400887573964568
2022-05-20,-1.1214450422751694
2022-05-23,-0.6970423661071321
2022-05-24,-0.9314516129032243
2022-05-25,-0.1863711001641997
2022-05-26,1.5281582952815915
2022-05-27,1.2114959469417823
2022-05-30,1.645305514157976
2022-05-31,2.197172619047621
2022-06-01,2.0360153256704963
2022-06-02,1.5865751334858753
2022-06-06,1.4356144223693958
2022-06-07,1.0137481910274915
2022-06-08,1.2122276879831428
2022-06-09,0.6289776574136753
2022-06-10,0.22967934377329963
2022-06-13,-0.68259629101285
2022-06-14,-0.7185501066098072
2022-06-15,-1.228795438346397
2022-06-16,-1.674825174825174
2022-06-17,-1.9612903225806375
2022-06-20,-1.9963072378138975
2022-06-21,-1.6408715251690449
2022-06-22,-1.8728682170542692
2022-06-23,-1.6150793650793565
2022-06-24,-1.9117647058823477
2022-06-27,-0.6819141449683379
2022-06-28,0.1441504178273031
2022-06-29,0.016517549896766737
2022-06-30,-0.13178294573642385
2022-07-01,-0.7214334009465853
2022-07-04,0.19383825417201486
2022-07-05,-0.01554404145076738
2022-07-06,-1.0358588779641364
2022-07-07,-0.9797703663203989
2022-07-08,-0.36348314606740967
2022-07-11,-1.273626373626367
2022-07-12,-1.498644986449863
2022-07-13,-1.4861488321564271
2022-07-14,-1.306623931623928
2022-07-15,-2.3240556660039715
2022-07-18,-0.3785648574057029
2022-07-19,-0.49146608315098383
2022-07-20,-0.5750577367205497
2022-07-21,-1.216018306636157
2022-07-22,-0.7495370370370388
2022-07-25,-0.32882665379044
2022-07-26,0.30573847601129056
2022-07-27,0.3147699757869185
2022-07-28,1.0396413402548326
2022-07-29,1.133437175493252
2022-08-01,0.9073226544622423
2022-08-02,1.0470162748643708
2022-08-03,0.8441138421733545
2022-08-04,-0.41357234314981245
2022-08-05,-0.7877792378449441
2022-08-08,-0.0582959641255681
2022-08-09,-0.5132562882392864
2022-08-10,-1.0973565441650523
2022-08-11,-0.5340136054421682
2022-08-12,-0.3409563409563529
2022-08-15,-0.4502369668246526
2022-08-16,-0.6985195154777932
2022-08-17,-1.3936775378847754
2022-08-18,-1.448748441428513
2022-08-19,-0.9776749199458994
2022-08-22,-0.5104149994674464
2022-08-23,-0.3625126825979728
2022-08-24,0.38934453863574725
2022-08-25,0.8183563192930544
2022-08-26,1.530571700125885
2022-08-29,1.1863846702846221
2022-08-30,1.5341614906832393
2022-08-31,0.7730612244897939
2022-09-01,0.5595942519019389
2022-09-02,0.40126382306477076
2022-09-05,1.4392744479495319
2022-09-06,1.9151999999999967
2022-09-07,0.9891388673390158
2022-09-08,0.7522935779816567
2022-09-09,1.6635105608157392
2022-09-13,1.4104089219330826
2022-09-14,0.6495726495726462
2022-09-15,-0.030539772727268287
2022-09-16,-0.13031161473088376
2022-09-19,-0.8185028248587493
2022-09-20,-0.8666175386882758
2022-09-21,-0.61742983751846
2022-09-22,-0.20238095238094472
2022-09-23,-0.6384671005061544
2022-09-26,-1.5037369207772837
2022-09-27,-0.6295754026354287
2022-09-28,-0.8183980967486153
2022-09-29,0.6461769115442323
2022-09-30,0.6026785714285747
2022-10-10,1.8544436668999305
2022-10-11,0.6034712950600818
2022-10-12,0.0032530904359156987
2022-10-13,-1.0113350125944565
2022-10-14,-0.9700910273081856
2022-10-17,-1.5263157894736779
2022-10-18,-1.6102040816326575
2022-10-19,-1.6366083445491297
2022-10-20,-1.4087912087912033
2022-10-21,-1.5147275405007241
2022-10-24,-1.0945723684210527
2022-10-25,-1.2150442477876138
2022-10-26,-0.9439421338155535
2022-10-27,-0.8635917566241366
2022-10-28,0.0743494423791946
2022-10-31,-1.523692810457515
2022-11-01,0.0934579439252303
2022-11-02,0.4099509460406417
2022-11-03,0.3451568894952174
2022-11-04,0.8052530429211963
2022-11-07,0.08698296836982472
2022-11-08,0.014760147601474894
2022-11-09,0.6322897483118549
2022-11-10,-0.1258160237388745
2022-11-11,0.9075774971297341
2022-11-14,0.9598470363288739
2022-11-15,0.859799713876969
2022-11-16,0.8636363636363573
2022-11-17,0.17844136926439705
2022-11-18,0.45419847328242996
2022-11-21,-0.8491577335375234
2022-11-22,-0.9102861562258191
2022-11-23,-0.589473684210528
2022-11-24,-0.3002461033634157
2022-11-25,0.08878923766816173
2022-11-28,-0.261238337574218
2022-11-29,0.8583657587548625
2022-11-30,0.6064318529862212
2022-12-01,0.6144278606965183
2022-12-02,1.2010050251256337
2022-12-05,0.8558718861209844
2022-12-06,0.24717145343776306
2022-12-07,-0.4289361702127619
2022-12-08,-0.8006814310051117
2022-12-09,0.11813643926789646
2022-12-12,0.8614318706697373
2022-12-13,0.19346938775510772
2022-12-14,0.4909539473684313
2022-12-15,0.7613650011397304
2022-12-16,0.796447279894046
2022-12-19,0.060673691247971964
2022-12-20,0.23692800802939648
2022-12-21,0.26922154677405463
2022-12-22,-0.49687612398224
2022-12-23,-1.7639414408337502
2022-12-26,-1.2206417332702124
2022-12-27,-0.39442767136177
2022-12-28,-0.43029259896729655
2022-12-29,-0.930801687763716
2022-12-30,0.4066022544283578
2023-01-03,0.7254740313272856
2023-01-04,0.002461033634123503
2023-01-05,-0.4157392686804587
2023-01-06,-0.3450586264656688
2023-01-09,-0.8341187558906887
2023-01-10,-0.8943925233644918
2023-01-11,-0.36372549019608885
2023-01-12,0.1272902603664431
2023-01-13,1.3677536231884269
2023-01-16,1.7698334965719968
2023-01-17,2.0175077239958967
2023-01-18,2.466524973432543
2023-01-19,2.455804046858386
2023-01-20,2.8884297520661293
2023-01-30,2.6260954235637977
2023-01-31,1.6392961876832812
2023-02-01,1.1446850393700798
2023-02-02,-0.23197781885396931
2023-02-03,-0.952244508118447
2023-02-06,-1.342056074766346
2023-02-07,-1.551691729323298
2023-02-08,-1.5830959164292575
2023-02-09,-1.1645933014353913
2023-02-10,-1.4314627414903445
2023-02-13,-1.4062806673209143
2023-02-14,-1.031376518218636
2023-02-15,-1.0357142857142978
2023-02-16,-0.5441501103752765
2023-02-17,0.23890784982932894
2023-02-20,0.6620370370370188
2023-02-21,1.3069977426636556
2023-02-22,0.8638858397365778
2023-02-23,0.855845629965937
2023-02-24,0.49469964664312166
2023-02-27,-0.44137931034484723
2023-02-28,-0.25402298850574134
2023-03-01,0.14712643678160892
2023-03-02,-0.16551724137929538
2023-03-03,-0.3321167883211776
2023-03-06,-0.157958687727815
2023-03-07,-0.4573934837092715
2023-03-08,-0.9671717171717257
2023-03-09,-1.1766871165643886
2023-03-10,-1.6745932415519476
2023-03-13,-1.1267787839585879
2023-03-14,-1.6377171215881028
2023-03-15,-1.981773997569879
2023-03-16,-2.692134831460683
2023-03-17,-1.5943983402489579
2023-03-20,-1.7877211238293507
2023-03-21,-1.1810699588477487
2023-03-22,-0.778247096092932
2023-03-23,-0.8335067637877286
2023-03-24,-0.17533129459736194
2023-03-27,0.14708785784796952
2023-03-28,0.6511627906976851
2023-03-29,0.4932920536635702
2023-03-30,0.5430167597765283
2023-03-31,1.3321554770317963
2023-04-03,1.3529411764705799
2023-04-04,0.7389867841409622
2023-04-06,-0.32883817427386186
2023-04-07,-0.21290322580645338
2023-04-10,-0.7304730473047187
2023-04-11,-0.40231213872833255
2023-04-12,-0.24707259953160718
2023-04-13,-0.4876860996725452
2023-04-14,-0.09992275238106382
2023-04-17,0.6823951132959538
2023-04-18,0.9303300492818299
2023-04-19,0.4464131628641011
2023-04-20,0.0731099119977225
2023-04-21,0.3446332908269326
2023-04-24,-0.5804411786156589
2023-04-25,0.028842540754947087
2023-04-26,-0.4250913520097403
2023-04-27,-1.553592461719665
2023-04-28,-1.3256097560975453
2023-05-04,-1.9472502805836214
2023-05-05,-1.8669482576557477
2023-05-08,-1.282215122470708
2023-05-09,-1.6922279792746135
2023-05-10,-1.402310924369745
2023-05-11,-1.5762897914379757
2023-05-12,-2.0951859956236296
2023-05-15,-1.5633652822151287
2023-05-16,-1.3850509626274148
2023-05-17,-0.8798665183537273
2023-05-18,-0.807785888077858
2023-05-19,-1.6911242603550152
2023-05-22,-2.276260504201674
2023-05-23,-2.27675675675676
2023-05-24,-0.9875776397515621
2023-05-25,-0.6262425447316181
2023-05-26,-0.7948226270374033
2023-05-29,-0.05637982195845475
2023-05-30,-0.24517374517372528
2023-05-31,-0.9364664926022604
2023-06-01,0.1772253408179621
2023-06-02,0.3576104746317526
2023-06-05,0.06935908691834336
2023-06-06,-0.18334809565988142
2023-06-07,-0.5513851653261767
2023-06-08,-0.05504587155962219
2023-06-09,-0.050731707317067
2023-06-12,-0.42750233863424597
2023-06-13,-0.09116279069768018
2023-06-14,0.22868605817452264
2023-06-15,0.43396226415094014
2023-06-16,1.197309417040343
2023-06-19,1.0367816091953983
2023-06-20,1.1141498216409034
2023-06-21,1.0726600985221715
2023-06-26,-0.47154471544715465
2023-06-27,0.122358175750818
2023-06-28,-0.31046931407941897
2023-06-29,0.36087484811664794
2023-06-30,0.5214646464646479
2023-07-03,0.38107752956637264
2023-07-04,0.5240112994350388
2023-07-05,0.22238163558105561
2023-07-06,0.531428571428598
2023-07-07,1.2970430107526958
2023-07-10,0.8927492447130024
2023-07-11,1.6765163297045411
2023-07-12,2.4826086956521762
2023-07-13,2.4357798165137856
2023-07-14,2.88524590163935
2023-07-17,0.47349823321555
2023-07-18,0.9751693002257245
2023-07-19,1.091422121896177
2023-07-20,0.3355119825708026
2023-07-21,0.013498312710906691
2023-07-24,-0.5202185792349909
2023-07-25,0.26638023630504726
2023-07-26,0.6163043478261014
2023-07-27,0.3485838779956431
2023-07-28,1.608791208791212
2023-07-31,1.3914110429447775
2023-08-01,1.3737499999999983
2023-08-02,1.2087912087912034
2023-08-03,-0.10520361990950483
2023-08-04,0.3423728813559491
2023-08-07,-0.10795454545453437
2023-08-08,-0.6839012925969411
2023-08-09,0.006857142857121279
2023-08-10,-0.176801801801802
2023-08-11,0.13292682926830235
2023-08-14,-0.34652278177457724
2023-08-15,0.20350877192982475
2023-08-16,-0.20413122721747934
2023-08-17,0.6470039047028471
2023-08-18,2.19750446382381
2023-08-21,2.386600313653602
2023-08-22,2.35413686139341
2023-08-23,2.001020763223939
2023-08-24,1.3969883287710767
2023-08-25,1.4331341846618224
2023-08-28,0.8129829069858117
2023-08-29,0.44105722847849355
2023-08-30,1.1987891019172603
2023-08-31,1.0042643923240928
2023-09-01,1.8997797356828154
2023-09-04,1.2755214050493984
2023-09-05,1.604821802935002
2023-09-06,2.0561471442400623
2023-09-07,1.0344827586206773
2023-09-08,0.24456048738032182
2023-09-11,0.42283675289920675
2023-09-12,1.0635179153094496
2023-09-13,0.707667731629398
2023-09-14,0.46275752773375256
2023-09-15,0.4979079497907988
2023-09-18,0.5101708706265259
2023-09-19,0.997596153846155
2023-09-20,0.18072289156626578
2023-09-21,-0.6015100671140883
2023-09-22,-0.5477386934673351
2023-09-25,-1.247430830039522
2023-09-26,-1.6259607173355957
2023-09-27,-1.6719184430027734
2023-09-28,-1.1884191176470633
2023-10-09,-2.096073517126165
2023-10-10,-2.7371090448013633
2023-10-11,-2.3514234875444773
2023-10-12,-1.9782608695652333
2023-10-13,-1.5705765407554693
2023-10-16,-0.7680000000000047
2023-10-17,-1.1636167922497402
2023-10-18,-1.1500000000000001
2023-10-19,-0.6990595611285206
2023-10-20,-0.3075313807531287
2023-10-23,-0.1552132701421868
2023-10-24,0.10460772104608727
2023-10-25,0.4472361809045202
2023-10-26,0.2058465286236243
2023-10-27,1.3599562363238535
2023-10-30,1.494845360824746
2023-10-31,1.021590909090908
2023-11-01,1.1206496519721518
2023-11-02,0.7431506849314976
2023-11-03,1.4944933920704768
2023-11-06,1.5608407079646065
2023-11-07,0.961849710982646
2023-11-08,0.8751406074240639
2023-11-09,0.7511467889908147
2023-11-10,0.5373891001267386
2023-11-13,-0.4520231213872699
2023-11-14,-0.07655502392343466
2023-11-15,0.5087310826542482
2023-11-16,0.5568862275449029
2023-11-17,-0.00596658711216919
2023-11-20,-0.6848691695108022
2023-11-21,-1.714876033057866
2023-11-22,-1.5973084886128508
2023-11-23,-2.0701932858596166
2023-11-24,-1.464099895941731
2023-11-27,-1.5083426028921045
2023-11-28,-1.5442622950819564
2023-11-29,-1.4651162790697694
2023-11-30,-0.23365487674167845
2023-12-01,-0.3263274336283229
2023-12-04,-0.9129488574537477
2023-12-05,-0.5595505617977591
2023-12-06,-0.038946162657499145
2023-12-07,-0.22313084112150078
2023-12-08,0.5261401557285865
2023-12-11,0.6402569593147869
2023-12-12,0.7971952535059369
2023-12-13,-0.045214751324700986
2023-12-14,0.13673210445791756
2023-12-15,0.6903335730990356
2023-12-18,0.20179528102502406
2023-12-19,0.1679271465552196
2023-12-20,1.2232068998784775
2023-12-21,1.300723195015257
2023-12-22,1.3454504086846566
2023-12-25,1.258478205050853
2023-12-26,0.8576429404900816
2023-12-27,0.9822274881516508
2023-12-28,0.6181818181818121
2023-12-29,-0.18576598311217882
2024-01-02,-1.0367734282324965
2024-01-03,-1.3037499999999884
2024-01-04,-1.60270270270269
2024-01-05,-2.2252964426877395
2024-01-08,-2.6954787234042508
2024-01-09,-2.252702702702707
2024-01-10,-2.8649635036496295
2024-01-11,-1.9751552795031015
2024-01-12,-1.3371647509578724
2024-01-15,0.026184538653376385
2024-01-16,0.49197860962566353
2024-01-17,-0.08951406649617244
2024-01-18,0.46589446589446354
2024-01-19,0.6265223274695418
2024-01-22,1.3992197659297694
2024-01-23,1.6765083440308346
2024-01-24,1.8057971014492729
2024-01-25,1.0246376811594224
2024-01-26,0.567375886524822
2024-01-29,1.3927068723702662
2024-01-30,0.37600000000000533
2024-01-31,-0.004126547455277558
2024-02-01,-1.289009497964695
2024-02-02,-1.513870541611603
2024-02-05,-1.6168639053254312
2024-02-06,-0.4637482900136926
2024-02-07,0.5637499999999985
2024-02-08,0.5891276864728084
2024-02-19,0.9507389162561558
2024-02-20,-0.3495260663507133
2024-02-21,-0.1170848267622531
2024-02-22,0.06303030303030586
2024-02-23,0.042253521126767175
2024-02-26,-0.3103015075376941
2024-02-27,0.707954545454549
2024-02-28,0.4282296650717731
2024-02-29,0.7349551856594054
2024-03-01,0.7429305912596513
2024-03-04,0.7239185750636231
2024-03-05,-0.34800550206327946
2024-03-06,0.02130681818184315
2024-03-07,-0.5209840810419619
2024-03-08,-0.1066282420749326
2024-03-11,0.08000000000000165
2024-03-12,-0.3473053892215637
2024-03-13,-0.436746987951815
2024-03-14,0.5408163265306132
2024-03-15,1.711564625850332
2024-03-18,1.8162162162162179
2024-03-19,1.6781767955801126
2024-03-20,1.698457223001389
2024-03-21,0.8228187919463207
2024-03-22,-0.09278350515464019
2024-03-25,-0.5279329608938549
2024-03-26,-0.7398601398601531
2024-03-27,-1.174094707520894
2024-03-28,-1.172262773722633
2024-03-29,-0.9242902208202047
2024-04-01,0.07317073170730766
2024-04-02,0.5243697478991559
2024-04-03,1.2265758091993304
2024-04-08,1.1122625215889335
2024-04-09,1.2694497153700297
2024-04-10,0.7211895910780728
2024-04-11,1.071167883211698
2024-04-12,0.3384474759988124
2024-04-15,0.21094753196865418
2024-04-16,-0.2957868604236094
2024-04-17,0.2370759227279472
2024-04-18,0.017979588725667246
2024-04-19,0.5466115239897127
2024-04-22,0.19580453349723587
2024-04-23,-0.6740934003990126
2024-04-24,-0.6241815046400738
2024-04-25,-0.3855755894590799
2024-04-26,0.3689189189189416
2024-04-29,0.48085106382977444
2024-04-30,0.20123839009287417
2024-05-06,-0.9714693295292355
2024-05-07,-0.03661971830985344
2024-05-08,-0.3300813008130144
2024-05-09,-0.36115569823434296
2024-05-10,-0.6505823627287997
2024-05-13,0.031545741324904085
2024-05-14,-0.2749999999999983
2024-05-15,0.19417475728155684
2024-05-16,0.6682316118935925
2024-05-17,2.39421813403417
2024-05-20,2.941015089163237
2024-05-21,2.0529172320217084
2024-05-22,1.7669376693767016
2024-05-23,0.4619289340101442
2024-05-24,0.6705426356589054
2024-05-27,1.316055625790136
2024-05-28,0.6151121605666992
2024-05-29,0.6612339930151407
2024-05-30,0.7903587443946233
2024-05-31,0.4261083743842454
2024-06-03,-0.85843714609287
2024-06-04,-1.184272300469478
2024-06-05,-1.4325908558030387
2024-06-06,-1.168329177057353
2024-06-07,-0.9567367119900975
2024-06-11,-0.8020565552699269
2024-06-12,-0.03342245989305241
2024-06-13,-0.17470664928292154
2024-06-14,-0.15034482758618034
2024-06-17,-0.33941093969142877
2024-06-18,-0.1290849673202842
2024-06-19,0.8407350689126976
2024-06-20,0.7585669781931536
2024-06-21,0.15396113602390196
2024-06-24,-0.39375928677561495
2024-06-25,0.37976539589445196
2024-06-26,0.46898638426626116
2024-06-27,0.33333333333333065
2024-06-28,1.038155802861699
2024-07-01,0.9604612850082285
2024-07-02,1.4879227053139878
2024-07-03,1.732965009208101
2024-07-04,0.5149911816578402
2024-07-05,-0.5333333333333506
2024-07-08,-0.996415770609309
2024-07-09,-1.005681818181834
2024-07-10,-1.8478664192950047
2024-07-11,-1.1961130742049562
2024-07-12,-1.2148148148148254
2024-07-15,-1.137546468401472
2024-07-16,-0.8488372093023161
2024-07-17,-0.7673179396092454
2024-07-18,-0.2667910447761252
2024-07-19,-0.9285714285714476
2024-07-22,-1.2237623762376149
2024-07-23,-1.1736526946107635
2024-07-24,-0.8148148148148026
2024-07-25,-1.4680412371133973
2024-07-26,-0.5631067961164898
2024-07-29,-0.48780487804876366
2024-07-30,-1.3914590747330948
2024-07-31,0.44240400667780366
2024-08-01,0.5864297253634858
2024-08-02,0.8031999999999939
2024-08-05,-0.496969696969698
2024-08-06,-0.7443609022556343
2024-08-07,-0.9563253012048116
2024-08-08,-0.9742424242424067
2024-08-09,-0.6676783004552389
2024-08-12,-0.264840182648395
2024-08-13,0.10153846153844755
2024-08-14,-0.12290813375612743
2024-08-15,-0.5475011129480889
2024-08-16,-0.41606057805041424
2024-08-19,0.04924477631736722
2024-08-20,0.03735038922258477
2024-08-21,0.7142712186346412
2024-08-22,0.12087931733747098
2024-08-23,-0.2569501878766998
2024-08-26,1.1346931938739317
2024-08-27,1.6584615384615387
2024-08-28,1.2735849056603668
2024-08-29,1.0016611295681013
2024-08-30,0.9050086355785775
2024-09-02,-0.6557377049180547
2024-09-03,-1.1827586206896754
2024-09-04,-2.6411042944785206
2024-09-05,-3.0411585365853897
2024-09-06,-2.713864306784666
2024-09-09,-2.7083969465648865
2024-09-10,-2.700879765395919
2024-09-11,-1.7978436657681978
2024-09-12,-0.8804483188044745
2024-09-13,-1.1399521531100512
2024-09-18,-0.8019680196802048
2024-09-19,0.21420256111759173
2024-09-20,-0.03909205548549819
2024-09-23,-0.7794486215538918
2024-09-24,0.7131519274376352
2024-09-25,0.6033898305084714
2024-09-26,0.6587301587301493
2024-09-27,1.2735632183908003
2024-09-30,2.5092975206611574
2024-10-08,2.928442028985509
2024-10-09,1.927129060579447
2024-10-10,1.478026905829597
2024-10-11,1.4640582347588746
2024-10-14,0.9223034734917541
2024-10-15,-0.1394686907020808
2024-10-16,-0.45767716535432723
2024-10-17,-1.2173498570066557
2024-10-18,-0.7744721689059516
2024-10-21,-1.4861407249466934
2024-10-22,-1.2496782496782435
2024-10-23,-0.9061624649859835
2024-10-24,-0.2894356005788662
2024-10-25,-0.15848527349228236
2024-10-28,0.42479108635097074
2024-10-29,-0.4735376044568237
2024-10-30,-0.8220451527224302
2024-10-31,-0.30758426966291663
2024-11-01,-0.15982404692081362
2024-11-04,-0.20592823712949437
2024-11-05,0.05069124423962714
2024-11-06,-0.5351506456241003
2024-11-07,0.4465648854961969
2024-11-08,0.017699115044245005
2024-11-11,-0.21065989847715885
2024-11-12,-0.13426573426575136
2024-11-13,-0.18694362017803667
2024-11-14,-0.3103448275862057
2024-11-15,-0.5029069767441967
2024-11-18,-0.14121037463978234
2024-11-19,0.5963431786216611
2024-11-20,1.0292825768667502
2024-11-21,0.9696458684654401
2024-11-22,0.8388214904679471
2024-11-25,0.8405017921147119
2024-11-26,0.8586206896551791
2024-11-27,0.5931034482758547
2024-11-28,0.28619528619529394
2024-11-29,0.5441043641201241
2024-12-02,0.6591644525214353
2024-12-03,0.22533438831218203
2024-12-04,-0.3562811664159755
2024-12-05,-1.1854472070757465
2024-12-06,-1.6282864043814185
2024-12-09,-1.502578473020708
2024-12-10,-1.0479762509000272
2024-12-11,-0.6120257408099509
2024-12-12,0.08255159474676006
2024-12-13,-0.29423076923076136
2024-12-16,-0.030060120240486075
2024-12-17,-0.3549060542797348
2024-12-18,-0.698447893569835
2024-12-19,-0.8157894736841773
2024-12-20,-1.665236051502162
2024-12-23,-0.3294573643410539
2024-12-24,-0.1393442622950892
2024-12-25,-0.5438247011952336
2024-12-26,-0.27855711422847884
2024-12-27,-0.789373814041746
2024-12-30,-0.20934579439251133
2024-12-31,1.1972318339100119
