date,FCT_Bias_1@5
2014-02-28,
2014-03-03,
2014-03-04,
2014-03-05,
2014-03-06,
2014-03-07,-0.5650028457467062
2014-03-10,-0.9876160990712092
2014-03-11,0.0034403669724770687
2014-03-12,0.18322295805738867
2014-03-13,0.2843791722296269
2014-03-14,0.03515625000001155
2014-03-17,-0.0901749663526163
2014-03-18,0.6480263157894597
2014-03-19,0.03442622950818201
2014-03-20,0.19867549668872617
2014-03-21,0.3805601317957137
2014-03-24,0.4018518518518736
2014-03-25,1.1036468330134364
2014-03-26,1.5427046263345152
2014-03-27,0.7956600361663474
2014-03-28,1.2563237774030243
2014-03-31,0.4740368509212765
2014-04-01,0.9661290322580677
2014-04-02,0.5756972111553789
2014-04-03,0.2954128440366906
2014-04-04,1.1234347048300601
2014-04-08,0.24615384615383035
2014-04-09,0.0018315018315072035
2014-04-10,-0.43137254901960537
2014-04-11,-0.3013029315960844
2014-04-14,0.28520499108734926
2014-04-15,0.545787545787553
2014-04-16,0.32352941176473254
2014-04-17,0.9655172413793373
2014-04-18,0.6119096509240177
2014-04-21,0.4708249496981742
2014-04-22,0.8512110726643489
2014-04-23,0.13971742543172086
2014-04-24,-0.14104595879555729
2014-04-25,-1.12727272727273
2014-04-28,-0.9155313351498586
2014-04-29,-0.29147982062780114
2014-04-30,-0.11764705882354314
2014-05-05,0.728110599078343
2014-05-06,0.6853707414829692
2014-05-07,0.9179755671902405
2014-05-08,0.1961471103327561
2014-05-09,-0.6485225505443432
2014-05-12,-0.7184300341296879
2014-05-13,-0.36460176991150073
2014-05-14,-0.3192307692307594
2014-05-15,-0.7099391480730401
2014-05-16,-0.4323725055432395
2014-05-19,-0.24943820224719235
2014-05-20,-0.07725321888412084
2014-05-21,0.5972222222222302
2014-05-22,1.4237288135593058
2014-05-23,1.6195488721804538
2014-05-26,1.200298953662178
2014-05-27,-0.5647921760391301
2014-05-28,-0.45328282828283567
2014-05-29,-0.08036890645585525
2014-05-30,0.3468531468531545
2014-06-03,0.946403385049372
2014-06-04,0.683937823834199
2014-06-05,0.787625418060189
2014-06-06,0.4062500000000138
2014-06-09,-0.06238185255198557
2014-06-10,1.492897727272725
2014-06-11,0.8192771084337349
2014-06-12,0.6697736351531243
2014-06-13,0.5129716981132072
2014-06-16,0.2870159453302959
2014-06-17,-0.5801713586291314
2014-06-18,-0.7389162561576366
2014-06-19,-0.8035264483627179
2014-06-20,-0.20355191256831454
2014-06-23,-1.3354838709677515
2014-06-24,-1.0406607369758607
2014-06-25,-0.7532981530342941
2014-06-26,-0.43783068783069173
2014-06-27,0.2549800796812854
2014-06-30,0.6397748592870482
2014-07-01,1.57834757834757
2014-07-02,0.7081930415263696
2014-07-03,0.4961240310077474
2014-07-04,0.6510359869138662
2014-07-07,0.38145416227608936
2014-07-08,0.0933940774487512
2014-07-09,-0.5584415584415681
2014-07-10,-0.4800483675937271
2014-07-11,-0.13307984790874555
2014-07-14,-0.02176870748298526
2014-07-15,0.06824925816025511
2014-07-16,0.3591549295774519
2014-07-17,-0.6167471819645631
2014-07-18,-0.6381093057607135
2014-07-21,-0.4162962962963072
2014-07-22,-0.5015384615384743
2014-07-23,0.4765751211631614
2014-07-24,0.3136882129277413
2014-07-25,1.1389961389961607
2014-07-28,1.1208576998050912
2014-07-29,1.079847908745261
2014-07-30,0.7472283813747723
2014-07-31,0.08730447815285224
2014-08-01,-0.6242682716856656
2014-08-04,-0.4570475210911292
2014-08-05,-0.9776118703171118
2014-08-06,-0.24168126094569845
2014-08-07,-0.26243567753002034
2014-08-08,-0.4701873935264023
2014-08-11,0.14309764309764508
2014-08-12,-0.5050916496945074
2014-08-13,-0.5670103092783572
2014-08-14,-0.22718446601941777
2014-08-15,0.44552529182879513
2014-08-18,0.7846790890269089
2014-08-19,0.6645021645021647
2014-08-20,-0.3465553235908131
2014-08-21,0.7576335877862795
2014-08-22,0.5723981900452563
2014-08-25,0.5111607142857171
2014-08-26,0.25154639175259347
2014-08-27,-0.17605633802817272
2014-08-28,-0.6685878962536214
2014-08-29,-0.9045092838196422
2014-09-01,-0.8274111675126895
2014-09-02,0.5676328502415583
2014-09-03,0.5847255369928486
2014-09-04,0.9135802469135712
2014-09-05,-0.28676470588236813
2014-09-09,-0.9709618874773015
2014-09-10,-1.2077205882352897
2014-09-11,-0.8892857142857037
2014-09-12,-0.8391003460207536
2014-09-15,-0.28790786948177016
2014-09-16,0.1499051233396506
2014-09-17,-0.414159292035397
2014-09-18,-0.7722602739725837
2014-09-19,-0.9748549323017399
2014-09-22,-1.5698924731182744
2014-09-23,-1.1760752688171972
2014-09-24,-0.1504065040650441
2014-09-25,0.33712121212121315
2014-09-26,0.5721096543504134
2014-09-29,0.9469240048250833
2014-09-30,0.8369863013698486
2014-10-08,-1.0052854122621577
2014-10-09,-0.8684503901895212
2014-10-10,-1.7901127493495148
2014-10-13,-0.8829225352112678
2014-10-14,-0.01805674978503421
2014-10-15,0.17137960582690545
2014-10-16,-0.08888888888888895
2014-10-17,-1.049567269866252
2014-10-20,-1.076923076923085
2014-10-21,-0.7205882352941203
2014-10-22,-0.2594936708860774
2014-10-23,0.6160000000000109
2014-10-24,1.6111771700356798
2014-10-27,1.0192061459667248
2014-10-28,1.2508833922261502
2014-10-29,1.0845886442641857
2014-10-30,0.7072135785007195
2014-10-31,0.9404069767441935
2014-11-03,-0.13386880856760416
2014-11-04,-0.9810554803788987
2014-11-05,-1.5380047505938348
2014-11-06,-0.005988023952100275
2014-11-07,0.5810955961331914
2014-11-10,0.9666666666666677
2014-11-11,-0.2550607287449443
2014-11-12,-0.39213483146067213
2014-11-13,-0.21246819338421863
2014-11-14,-0.767414403778044
2014-11-17,-0.4901960784313782
2014-11-18,-0.6040816326530704
2014-11-19,-0.13309352517985068
2014-11-20,-0.39393939393938926
2014-11-21,0.2620689655172409
2014-11-24,0.08590604026846413
2014-11-25,0.22626588464505876
2014-11-26,-0.2203014023961802
2014-11-27,-0.22862527258901036
2014-11-28,-1.315811484362501
2014-12-01,-1.9272890484739698
2014-12-02,-0.9299416180150103
2014-12-03,-0.7804081632653045
2014-12-04,-0.18734793187347554
2014-12-05,-0.28668610301263125
2014-12-08,-0.9967948717948666
2014-12-09,-1.7139639639639637
2014-12-10,-1.2604166666666616
2014-12-11,-1.0303030303030145
2014-12-12,-0.34069400630914953
2014-12-15,0.4069456812110304
2014-12-16,0.10577864838393802
2014-12-17,-0.07053571428571798
2014-12-18,0.08135283363802116
2014-12-19,-0.20216962524655233
2014-12-22,0.326901248581163
2014-12-23,0.05966587112172747
2014-12-24,0.15251989389920698
2014-12-25,-0.007204610951023906
2014-12-26,-0.3362831858407157
2014-12-29,-0.28155339805826124
2014-12-30,0.09331259720062013
2014-12-31,1.1248120300751934
2015-01-05,-0.9244712990936493
2015-01-06,-0.9757688723205944
2015-01-07,-1.0200523103748915
2015-01-08,-0.9379844961240316
2015-01-09,-1.1951871657753985
2015-01-12,-0.8109393579072481
2015-01-13,-0.5171568627451039
2015-01-14,-0.16729088639201037
2015-01-15,0.6150178784267041
2015-01-16,0.19767441860465984
2015-01-19,1.0555555555555567
2015-01-20,-0.08762886597938034
2015-01-21,0.17201540436457
2015-01-22,0.04430379746835268
2015-01-23,-0.026420079260233903
2015-01-26,-0.6827676240208935
2015-01-27,-0.5498442367601233
2015-01-28,0.17120000000001487
2015-01-29,0.16636197440586553
2015-01-30,-0.2679180887372045
2015-02-02,0.7026086956521694
2015-02-03,1.5551128818060929
2015-02-04,1.7037037037036882
2015-02-05,0.6392199349945843
2015-02-06,1.0479846449136219
2015-02-09,0.3336724313326615
2015-02-10,0.245783132530127
2015-02-11,0.319444444444431
2015-02-12,0.21779141104295802
2015-02-13,1.7727272727272703
2015-02-16,1.7784090909091013
2015-02-17,1.049731182795701
2015-02-25,0.6524249422632864
2015-02-26,0.9126730564430242
2015-02-27,0.17187500000000513
2015-03-02,0.9715639810426611
2015-03-03,0.308876811594198
2015-03-04,0.08682926829268567
2015-03-05,-0.6182795698924699
2015-03-06,-0.9084577114427845
2015-03-09,-1.0135287485907483
2015-03-10,-0.8475836431226778
2015-03-11,-1.1254658385093141
2015-03-12,0.8852813852813807
2015-03-13,1.056122448979589
2015-03-16,0.6971252777843743
2015-03-17,0.3470629093141805
2015-03-18,-0.8209117119250263
2015-03-19,-0.39223140409907764
2015-03-20,-0.12059765208111521
2015-03-23,1.1827016520894063
2015-03-24,1.1759853345554507
2015-03-25,0.6114044350580714
2015-03-26,0.632938643702911
2015-03-27,0.19565217391304468
2015-03-30,-0.06495263870093906
2015-03-31,0.03571428571428765
2015-04-01,0.7071895424836662
2015-04-02,1.0641200545702576
2015-04-03,-0.6949685534591193
2015-04-07,-0.33298862461220924
2015-04-08,0.3068081343943404
2015-04-09,-0.0243673851921276
2015-04-10,0.24262607040912962
2015-04-13,0.2970521541950202
2015-04-14,-0.012585812356975918
2015-04-15,-0.04904632152589175
2015-04-16,1.0759776536312848
2015-04-17,1.027217741935485
2015-04-20,0.8492146596858582
2015-04-21,0.39805825242719284
2015-04-22,-0.2800417972831684
2015-04-23,-0.009358288770060648
2015-04-24,0.2060606060606163
2015-04-27,1.1915945611866503
2015-04-28,0.9695817490494342
2015-04-29,0.22235434007134378
2015-04-30,0.5313609467455562
2015-05-04,0.11986301369863071
2015-05-05,-0.0281065088757535
2015-05-06,0.010723860589819155
2015-05-07,-1.06976744186046
2015-05-08,-1.1973333333333214
2015-05-11,-1.1704697986577157
2015-05-12,-1.2991239048811036
2015-05-13,-0.7183673469387715
2015-05-14,-0.29910714285714657
2015-05-15,0.16720257234725586
2015-05-18,-0.56188925081432
2015-05-19,-1.25426621160411
2015-05-20,-0.7182705718270532
2015-05-21,0.3648816936488258
2015-05-22,0.4492753623188404
2015-05-25,0.27785058977719473
2015-05-26,-0.2656950672645746
2015-05-27,-0.2893674293405116
2015-05-28,-0.48363095238095033
2015-05-29,-0.1653027823240494
2015-06-01,-0.0029239766081969416
2015-06-02,0.3449541284403656
2015-06-03,0.5869947275922698
2015-06-04,0.7338983050847367
2015-06-05,0.637239165329048
2015-06-08,-0.18781725888324433
2015-06-09,-0.29574861367836974
2015-06-10,0.9520766773162912
2015-06-11,1.3492822966507134
2015-06-12,0.37076923076922863
2015-06-15,0.4516129032258042
2015-06-16,-0.1342042755344479
2015-06-17,-0.8062953995157344
2015-06-18,-0.5031446540880468
2015-06-19,0.0012738853503181183
2015-06-23,0.195707070707062
2015-06-24,0.7914764079147536
2015-06-25,0.5205223880597066
2015-06-26,0.9293680297397774
2015-06-29,-0.0283687943262436
2015-06-30,-0.14389534883721203
2015-07-01,-0.16275659824046673
2015-07-02,0.020161290322575062
2015-07-03,-0.16353111432706938
2015-07-06,-1.4402250351617423
2015-07-07,-1.7937062937062898
2015-07-08,-2.05947580645161
2015-07-09,0.26563649742457873
2015-07-10,0.3618022864828543
2015-07-13,0.12317784256560081
2015-07-14,-0.06888361045131047
2015-07-15,-0.19584055459272362
2015-07-16,-0.5997624703087956
2015-07-17,-0.3668965517241274
2015-07-20,0.03924646781789696
2015-07-21,-0.14597315436241282
2015-07-22,0.6461794019933603
2015-07-23,0.3165322580645324
2015-07-24,-1.2091503267973878
2015-07-27,-1.8461538461538631
2015-07-28,-0.689075630252111
2015-07-29,-0.08000000000000042
2015-07-30,0.007655502392335456
2015-07-31,-0.021321961620470946
2015-08-03,-0.7761351636747528
2015-08-04,-0.1970394995919463
2015-08-05,0.263051478783514
2015-08-06,-0.06067118131634681
2015-08-07,0.5299379105310639
2015-08-10,0.7165898617511473
2015-08-11,1.4089887640449437
2015-08-12,1.0587557603686664
2015-08-13,0.6221973094170375
2015-08-14,0.31508515815083615
2015-08-17,-0.7485242030696515
2015-08-18,-1.1364205256570605
2015-08-19,-0.5012345679012384
2015-08-20,-0.47337278106509023
2015-08-21,-0.32645631067960723
2015-08-24,-1.345093715545755
2015-08-25,-0.8960244648318081
2015-08-26,-0.5190763052208847
2015-08-27,0.19399785637727807
2015-08-28,0.9475218658892177
2015-08-31,0.43566591422120776
2015-09-01,0.8830188679245363
2015-09-02,0.2556390977443575
2015-09-07,0.09410430839002457
2015-09-08,-0.22506393861892496
2015-09-09,-0.0187032418952678
2015-09-10,0.0012642225031679743
2015-09-11,-0.12864721485410316
2015-09-14,-0.5199430199430096
2015-09-15,-0.9318840579710287
2015-09-16,-0.624441132637852
2015-09-17,-0.8755426917510891
2015-09-18,-0.5259365994236415
2015-09-21,0.22660818713449535
2015-09-22,-0.14761904761904507
2015-09-23,0.07933884297521392
2015-09-24,-0.48127340823969433
2015-09-25,-1.1055456171735385
2015-09-28,-1.1089108910891112
2015-09-29,-1.2716666666666638
2015-09-30,-0.7758007117437634
2015-10-08,0.3402555910543301
2015-10-09,1.5025839793281714
2015-10-12,0.9986910994764538
2015-10-13,0.09958506224066395
2015-10-14,-0.40686922060766073
2015-10-15,-0.7649769585253402
2015-10-16,-1.2233820459290257
2015-10-19,-0.9785156249999797
2015-10-20,-0.29220779220777837
2015-10-21,-0.41534988713319076
2015-10-22,0.3032786885246071
2015-10-23,-0.3427495291902067
2015-10-26,-1.003696857670986
2015-10-27,-0.7977736549165154
2015-10-28,-0.6520076481835525
2015-10-29,-0.4103053435114495
2015-10-30,-0.9707602339181355
2015-11-02,-0.5333333333333243
2015-11-03,-0.9593810444874308
2015-11-04,-0.24773960216998056
2015-11-05,-1.1690140845070554
2015-11-06,-0.8291032148900254
2015-11-09,-0.7241379310344893
2015-11-10,-1.0921052631578858
2015-11-11,-0.75340136054423
2015-11-12,-0.8869565217391211
2015-11-13,-1.5448275862068908
2015-11-16,-1.6440677966101847
2015-11-17,-1.144393241167433
2015-11-18,-0.5847953216374305
2015-11-19,-0.30167597765362864
2015-11-20,-1.2301790281329867
2015-11-23,-1.6984304932735386
2015-11-24,-0.16766467065868387
2015-11-25,0.2596789423984908
2015-11-26,1.0964564802611727
2015-11-27,0.8446295516099906
2015-11-30,0.18804428514215457
2015-12-01,0.5658886381601633
2015-12-02,0.13435897435897382
2015-12-03,0.16355653128430372
2015-12-04,-0.20091324200912616
2015-12-07,-0.25087108013937076
2015-12-08,-1.4351949420442598
2015-12-09,-0.9088863892013487
2015-12-10,-0.4718309859154934
2015-12-11,-0.12390488110137464
2015-12-14,0.36386449184441455
2015-12-15,0.2984822934232717
2015-12-16,0.2970123022847057
2015-12-17,0.09272727272726419
2015-12-18,0.2578947368421024
2015-12-21,1.2651245551601424
2015-12-22,1.4758497316636843
2015-12-23,0.7427184466019477
2015-12-24,1.026162790697679
2015-12-25,0.48024316109422444
2015-12-28,-0.5542347696879534
2015-12-29,0.05678670360109922
2015-12-30,-0.08044382801664143
2015-12-31,0.07999999999999124
2016-01-04,-0.04417670682731437
2016-01-05,0.004559270516724895
2016-01-06,-0.565074135090621
2016-01-07,-0.9938837920489267
2016-01-08,-0.39024390243902046
2016-01-11,-0.5970149253731355
2016-01-12,-0.6139705882353014
2016-01-13,-0.3700787401574837
2016-01-14,0.4836601307189514
2016-01-15,0.45806451612903126
2016-01-18,1.28181818181819
2016-01-19,1.6370716510903318
2016-01-20,0.7111111111111098
2016-01-21,0.4872881355932177
2016-01-22,0.37531172069825414
2016-01-25,0.34732272069465
2016-01-26,0.8092105263157902
2016-01-27,1.30312500000001
2016-01-28,0.8882783882783842
2016-01-29,0.05544554455445494
2016-02-01,-0.21370967741935823
2016-02-02,0.3326446280991765
2016-02-03,0.9305263157894685
2016-02-04,1.6707105719237452
2016-02-05,1.3185840707964647
2016-02-15,-0.055214723926384005
2016-02-16,-0.45539906103286165
2016-02-17,-1.067073170731717
2016-02-18,-0.38617200674536595
2016-02-19,0.8275862068965442
2016-02-22,0.5770308123249378
2016-02-23,0.6643741403026204
2016-02-24,0.46696035242289663
2016-02-25,0.7131258457374886
2016-02-26,0.8517397881996952
2016-02-29,0.3042121684867359
2016-03-01,0.6749611197511665
2016-03-02,0.9261838440111324
2016-03-03,1.1676923076923096
2016-03-04,1.6988265971316892
2016-03-07,0.9308617234468952
2016-03-08,0.5183603757472183
2016-03-09,0.5559593023255822
2016-03-10,0.031007751937990637
2016-03-11,-0.44620462046204473
2016-03-14,-0.5403165033911063
2016-03-15,-0.4726821192053044
2016-03-16,0.5180952380952278
2016-03-17,1.4301181102362241
2016-03-18,1.5291005291005282
2016-03-21,0.9736308316429988
2016-03-22,-0.38675022381378854
2016-03-23,-0.43036750483558606
2016-03-24,-0.05277777777777678
2016-03-25,0.5226223453370297
2016-03-28,0.3176361957525438
2016-03-29,0.32214060860441013
2016-03-30,0.2758093669375269
2016-03-31,-0.25167015929734404
2016-04-01,1.2203392912673539
2016-04-05,0.2559795208099687
2016-04-06,-0.08302238805969651
2016-04-07,-0.46858168761221125
2016-04-08,-0.8440285204991028
2016-04-11,-0.10300429184548937
2016-04-12,0.10022522522521948
2016-04-13,0.0028818443804006825
2016-04-14,0.17162698412698657
2016-04-15,-0.06374085684430729
2016-04-18,-0.15783898305084262
2016-04-19,-0.4240986717267533
2016-04-20,-0.8032786885245903
2016-04-21,0.4369178662150698
2016-04-22,0.22528363047001768
2016-04-25,0.6585365853658587
2016-04-26,0.9113530326594125
2016-04-27,0.5400000000000026
2016-04-28,-0.29537953795380006
2016-04-29,-0.21653189577718898
2016-05-03,-0.6695238095238121
2016-05-04,-0.5843307943416775
2016-05-05,-0.30971128608923215
2016-05-06,-0.6409883720930221
2016-05-09,-0.7983293556085955
2016-05-10,-0.26823529411765173
2016-05-11,0.2126642771804003
2016-05-12,0.5079545454545427
2016-05-13,0.3952434881087278
2016-05-16,-0.41022443890274224
2016-05-17,-0.43328748280603985
2016-05-18,-0.75121951219512
2016-05-19,-0.716034271725831
2016-05-20,-0.687083888149134
2016-05-23,-1.13642213642214
2016-05-24,-1.0038560411311137
2016-05-25,-0.18053596614950476
2016-05-26,0.5839311334289835
2016-05-27,0.14884979702300186
2016-05-30,0.9417218543046444
2016-05-31,1.0976514215080437
2016-06-01,0.4986979166666684
2016-06-02,0.14454664914585885
2016-06-03,0.7192755498059569
2016-06-06,0.5295007564296575
2016-06-07,0.4829443447037689
2016-06-08,0.657762938230396
2016-06-13,0.87345679012345
2016-06-14,0.0841269841269843
2016-06-15,-0.14062499999999356
2016-06-16,0.34951456310680135
2016-06-17,0.9213759213759185
2016-06-20,1.4713930348258641
2016-06-21,1.4476670870113417
2016-06-22,1.1682577565632435
2016-06-23,0.6328626444159163
2016-06-24,0.8379814077025202
2016-06-27,1.808695652173921
2016-06-28,2.0480427046263374
2016-06-29,0.8297703879651579
2016-06-30,0.6611909650924024
2016-07-01,0.13535911602209627
2016-07-04,0.9753004005340475
2016-07-05,0.7527548209366398
2016-07-06,0.33468013468013547
2016-07-07,0.08140350877192838
2016-07-08,-0.6263595649392161
2016-07-11,-0.5302916978309665
2016-07-12,0.2919818456883494
2016-07-13,-0.17578125000000147
2016-07-14,0.16575449569977052
2016-07-15,0.0320754716981121
2016-07-18,-0.5093002657218783
2016-07-19,-0.4057255676209281
2016-07-20,-0.2966728280961218
2016-07-21,0.3908826382153176
2016-07-22,0.3057199211045351
2016-07-25,-0.2445141065830715
2016-07-26,-0.44245810055866264
2016-07-27,-0.44233576642334693
2016-07-28,1.2202591283863418
2016-07-29,0.4263736263736281
2016-08-01,0.6271367521367582
2016-08-02,0.39447731755424165
2016-08-03,0.10736842105264642
2016-08-04,-0.09963099630996895
2016-08-05,0.1373626373626374
2016-08-08,0.7799717912552814
2016-08-09,0.9520958083832316
2016-08-10,-0.5162337662337716
2016-08-11,-0.8392405063291173
2016-08-12,-0.5687960687960668
2016-08-15,0.10236220472441135
2016-08-16,0.02082190308151474
2016-08-17,-0.7183263401071698
2016-08-18,0.3833978888754235
2016-08-19,0.5880562451106641
2016-08-22,-0.022140221402217115
2016-08-23,0.6035928143712592
2016-08-24,0.04778156996586884
2016-08-25,-0.254237288135595
2016-08-26,-0.4608355091383853
2016-08-29,-1.1661272923408905
2016-08-30,-0.8101415094339586
2016-08-31,-0.4413965087281828
2016-09-01,-0.43841059602648424
2016-09-02,-0.4189873417721532
2016-09-05,-0.6618962432916018
2016-09-06,0.6328011611030485
2016-09-07,0.6943089430894328
2016-09-08,0.36655405405405833
2016-09-09,-0.33055091819698595
2016-09-12,-1.032786885245901
2016-09-13,-0.9547038327526093
2016-09-14,-0.3960066555740517
2016-09-19,-0.21163166397416136
2016-09-20,0.1515601783060921
2016-09-21,0.3285302593659965
2016-09-22,-0.07433380084151811
2016-09-23,-0.29403606102635793
2016-09-26,-0.3190607734806647
2016-09-27,0.36903039073806554
2016-09-28,0.4706896551724247
2016-09-29,1.1646706586826299
2016-09-30,0.8108974358974393
2016-10-10,1.6510480887792982
2016-10-11,1.6361290322580717
2016-10-12,1.062740076824589
2016-10-13,-0.15333333333333024
2016-10-14,-0.4612500000000056
2016-10-17,0.039301310043677276
2016-10-18,1.0988636363636335
2016-10-19,1.0765199161425576
2016-10-20,0.49278579356270746
2016-10-21,0.40388548057259416
2016-10-24,0.6166842661034846
2016-10-25,1.4555669050051092
2016-10-26,0.7693089430894284
2016-10-27,0.10577864838393586
2016-10-28,0.9688041594454031
2016-10-31,1.436337625178817
2016-11-01,1.015103338632748
2016-11-02,-0.13328868050904222
2016-11-03,-0.16337644656228684
2016-11-04,-0.7954983922829552
2016-11-07,-0.5550035486160424
2016-11-08,0.441875825627477
2016-11-09,1.1645480225988705
2016-11-10,1.1390339425587503
2016-11-11,1.19808743169399
2016-11-14,-0.4086479902557858
2016-11-15,-0.6845337800111695
2016-11-16,-0.5480822679266287
2016-11-17,-0.4709371293001169
2016-11-18,-0.6579111944965592
2016-11-21,0.08727514990007403
2016-11-22,0.83144368858655
2016-11-23,-0.01924500370095919
2016-11-24,-0.14766839378238766
2016-11-25,-0.442943956785954
2016-11-28,-0.1490727532096999
2016-11-29,-0.28353022932592437
2016-11-30,-0.7028824833702839
2016-12-01,0.12019199615365324
2016-12-02,0.6134468242760271
2016-12-05,1.4898507367946252
2016-12-06,1.4127640128819765
2016-12-07,1.7663299663299674
2016-12-08,1.0610743193524677
2016-12-09,0.9243918474687706
2016-12-12,0.9220338983050825
2016-12-13,0.6689612015018783
2016-12-14,0.8061703554661273
2016-12-15,0.2506527415143612
2016-12-16,-0.16478873239436764
2016-12-19,-1.2265156562291812
2016-12-20,-1.4979919678714837
2016-12-21,-0.8089812332439714
2016-12-22,-0.7469050894085262
2016-12-23,-0.6178120617110776
2016-12-26,0.15631848064281084
2016-12-27,0.5200909780136449
2016-12-28,0.5276946107784393
2016-12-29,0.2947139753801591
2016-12-30,-0.929661579296618
2017-01-03,-1.4378903539208896
2017-01-04,-1.1185031185031151
2017-01-05,-0.683176100628935
2017-01-06,-0.5231343283582123
2017-01-09,0.41405588484335687
2017-01-10,0.17853839037928537
2017-01-11,0.1343283582089578
2017-01-12,0.623342175066318
2017-01-13,0.9503475670307939
2017-01-16,1.7810545129580004
2017-01-17,0.5633802816901413
2017-01-18,0.40953150242326936
2017-01-19,-0.3253397282174261
2017-01-20,-0.11026033690658539
2017-01-23,0.5573905862923217
2017-01-24,0.23172905525846685
2017-01-25,1.066460587326121
2017-01-26,0.41346153846153316
2017-02-03,-0.035928143712571005
2017-02-06,0.2158385093167669
2017-02-07,-0.23467741935483868
2017-02-08,-0.31402714932126424
2017-02-09,-0.23127962085307222
2017-02-10,-0.11797133406835293
2017-02-13,1.2334293948126749
2017-02-14,1.0727449078564557
2017-02-15,-0.609652836579175
2017-02-16,-1.2926829268292666
2017-02-17,-1.2193113772455062
2017-02-20,-0.8023952095808328
2017-02-21,-0.7222222222222193
2017-02-22,-0.48698884758364314
2017-02-23,-0.8116634799235116
2017-02-24,-0.5158648925281486
2017-02-27,-0.09715407262021544
2017-02-28,-0.4299802761341285
2017-03-01,-0.2951923076923108
2017-03-02,-0.12893081761006245
2017-03-03,0.07104413347685844
2017-03-06,0.6156462585034108
2017-03-07,0.08527131782945911
2017-03-08,-1.4165769644779342
2017-03-09,-1.283119658119661
2017-03-10,-1.4585798816568034
2017-03-13,-0.33542600896860547
2017-03-14,-0.3467248908297029
2017-03-15,0.16797642436149254
2017-03-16,0.6413043478260847
2017-03-17,0.5027995520716687
2017-03-20,0.10139860139860392
2017-03-21,-0.1999999999999992
2017-03-22,-1.099354838709685
2017-03-23,-0.43563068920676035
2017-03-24,-0.33250311332503774
2017-03-27,-1.169790518191841
2017-03-28,-0.6710671067106733
2017-03-29,0.7761627906976749
2017-03-30,0.25472547254725825
2017-03-31,-0.005761316872423841
2017-04-05,0.6931297709923648
2017-04-06,0.43607305936073276
2017-04-07,0.18455598455598404
2017-04-10,-0.5539622641509458
2017-04-11,-0.7433855149577391
2017-04-12,-0.94308010555565
2017-04-13,-0.4671923788116304
2017-04-14,-0.9704501710338435
2017-04-17,-1.0088202866593232
2017-04-18,-0.5444096133751292
2017-04-19,-0.3565044687189736
2017-04-20,0.1373080397470596
2017-04-21,-0.18768920282543192
2017-04-24,-0.4809081527347857
2017-04-25,-0.42841530054644206
2017-04-26,0.1892450879007285
2017-04-27,0.8508557457212745
2017-04-28,1.0879265091863612
2017-05-02,0.6589041095890376
2017-05-03,0.06284916201117731
2017-05-04,-1.172823218997362
2017-05-05,-1.2487309644670048
2017-05-08,-0.5071664829107007
2017-05-09,-0.25261932479627675
2017-05-10,-0.466800804828969
2017-05-11,-0.0255220417633411
2017-05-12,-0.1850931677018587
2017-05-15,1.0384615384615368
2017-05-16,1.1995221027479104
2017-05-17,0.750688705234165
2017-05-18,0.7788079470198549
2017-05-19,1.350690754516483
2017-05-22,1.0068807339449533
2017-05-23,0.608247422680405
2017-05-24,-0.05284552845529187
2017-05-25,0.05650857719475037
2017-05-26,-0.1914153132250519
2017-05-31,-0.7935420743639904
2017-06-01,-0.354043392504925
2017-06-02,-1.1410381978452515
2017-06-05,-0.85577942735948
2017-06-06,-0.41566920565832616
2017-06-07,-0.19061166429588292
2017-06-08,0.269182389937105
2017-06-09,0.17771084337349688
2017-06-12,1.1489637305699614
2017-06-13,-0.3551609322974449
2017-06-14,-0.2010869565217386
2017-06-15,-0.6369047619047671
2017-06-16,-0.2780429594272021
2017-06-19,0.1439688715953279
2017-06-20,-0.14133738601825124
2017-06-21,-0.2096530920060327
2017-06-22,-0.7433234421365129
2017-06-23,-0.08166409861325082
2017-06-26,0.671874999999999
2017-06-27,0.9426229508196728
2017-06-28,0.2668621700879791
2017-06-29,0.8588390501319195
2017-06-30,0.6464771322620525
2017-07-03,0.8385012919896698
2017-07-04,-0.31839080459770747
2017-07-05,-0.19748427672955704
2017-07-06,0.6364734299516982
2017-07-07,0.8915375446960592
2017-07-10,0.2026726057906416
2017-07-11,0.3734104046242729
2017-07-12,0.0769230769230808
2017-07-13,-0.15934755332497114
2017-07-14,0.1662269129287591
2017-07-17,0.350582147477361
2017-07-18,0.685483870967739
2017-07-19,0.8854625550660914
2017-07-20,1.4642857142857268
2017-07-21,0.9640287769784123
2017-07-24,0.4771739130434819
2017-07-25,0.3224719101123627
2017-07-26,-0.3516587677725136
2017-07-27,-0.5926860025220574
2017-07-28,-1.1909845788849416
2017-07-31,-0.6076388888888862
2017-08-01,0.2108495394063487
2017-08-02,0.45035460992907894
2017-08-03,-0.11686879823593599
2017-08-04,0.4403379091869046
2017-08-07,-0.14124293785310213
2017-08-08,0.5944656488549638
2017-08-09,0.6414782541632839
2017-08-10,0.567398013764383
2017-08-11,-0.018096667535968496
2017-08-14,-0.39953903815619773
2017-08-15,-1.0208845208845156
2017-08-16,-0.7713178294573584
2017-08-17,0.85144124168514
2017-08-18,1.0051546391752453
2017-08-21,1.3253012048192716
2017-08-22,1.4380165289256166
2017-08-23,0.6582544689800234
2017-08-24,0.3890909090909144
2017-08-25,0.3926585094549556
2017-08-28,0.032665964172813984
2017-08-29,0.8440925700365332
2017-08-30,0.5719745222929983
2017-08-31,0.7350746268656678
2017-09-01,1.3993095512082792
2017-09-04,1.0492341356673935
2017-09-05,0.6995565410199461
2017-09-06,-0.43083003952569165
2017-09-07,-0.9187913125590214
2017-09-08,-0.9772051536174374
2017-09-11,-1.0243362831858405
2017-09-12,0.3875647668393858
2017-09-13,-0.6756756756756795
2017-09-14,-1.0658682634730585
2017-09-15,-0.8803191489361721
2017-09-18,-0.49382716049382674
2017-09-19,-0.6308333333333389
2017-09-20,-0.07106076210092986
2017-09-21,-0.9887063655030848
2017-09-22,-0.4729064039408866
2017-09-25,0.2440191387559813
2017-09-26,0.49840595111583386
2017-09-27,0.8113636363636372
2017-09-28,-0.5264677574590938
2017-09-29,0.22830188679244953
2017-10-09,-0.11611161116111575
2017-10-10,-0.23244147157191072
2017-10-11,-0.3054459352801882
2017-10-12,-0.2643343051506289
2017-10-13,0.8746594005449618
2017-10-16,1.3942115768463017
2017-10-17,0.9980099502487604
2017-10-18,0.5555555555555544
2017-10-19,-0.7570175438596437
2017-10-20,0.32934131736527333
2017-10-23,0.06169429097605729
2017-10-24,0.057984790874525995
2017-10-25,-0.08870967741934846
2017-10-26,-0.8249258160237352
2017-10-27,-1.036666666666661
2017-10-30,-0.739644970414204
2017-10-31,-0.8214716525934879
2017-11-01,-0.41676367869615566
2017-11-02,0.4659231722428746
2017-11-03,1.1499364675984793
2017-11-06,1.4913294797687913
2017-11-07,1.2886473429951677
2017-11-08,0.9642384105960373
2017-11-09,0.5006075334143355
2017-11-10,-0.3995433789954295
2017-11-13,0.10479375696767725
2017-11-14,-0.27987421383648325
2017-11-15,-0.8038496791933982
2017-11-16,-0.7871485943775173
2017-11-17,0.16406250000000097
2017-11-20,0.6545988258317087
2017-11-21,0.8144552319309609
2017-11-22,0.7477931904161359
2017-11-23,-0.06103286384976601
2017-11-24,0.07443820224719122
2017-11-27,-1.130256410256414
2017-11-28,-1.0579268292682897
2017-11-29,-0.5613660618996846
2017-11-30,-0.4045881126173083
2017-12-01,0.3842667577001311
2017-12-04,1.4501100142788497
2017-12-05,0.9396420942353327
2017-12-06,0.6080099353925069
2017-12-07,-0.9469835466179176
2017-12-08,-0.15433212996389975
2017-12-11,0.2314720812182719
2017-12-12,0.6962566844919756
2017-12-13,0.19314938154138908
2017-12-14,-0.4072398190045166
2017-12-15,-0.7591424968474054
2017-12-18,0.12154031287604483
2017-12-19,0.9288747346072108
2017-12-20,0.9494949494949462
2017-12-21,0.5845347313237229
2017-12-22,0.08646616541353992
2017-12-25,-0.4508599508599501
2017-12-26,0.5829326923076908
2017-12-27,0.07592190889371185
2017-12-28,0.1312217194570181
2017-12-29,0.1778846153846192
2018-01-02,0.9280973451327463
2018-01-03,0.9050203527815367
2018-01-04,0.8135838150289058
2018-01-05,0.341880341880334
2018-01-08,0.1396957123098181
2018-01-09,-0.09683098591549699
2018-01-10,0.43452380952380265
2018-01-11,0.6569105691056983
2018-01-12,0.7892074198988066
2018-01-15,0.4751381215469639
2018-01-16,-1.246879334257973
2018-01-17,-1.3318042813455593
2018-01-18,-0.8117469879518008
2018-01-19,0.015645371577564827
2018-01-22,0.21248339973438854
2018-01-23,0.7161290322580542
2018-01-24,0.2102649006622398
2018-01-25,0.3317829457364408
2018-01-26,0.5801652892561983
2018-01-29,0.12710566615620447
2018-01-30,-0.3948220064724811
2018-01-31,-0.23452768729641307
2018-02-01,-0.8657937806874035
2018-02-02,-0.8491921005385875
2018-02-05,0.3612040133779179
2018-02-06,-0.22664359861591413
2018-02-07,-0.6934306569343063
2018-02-08,-0.9454277286135683
2018-02-09,-0.7953125000000101
2018-02-12,-0.6765734265734413
2018-02-13,-0.3207547169811406
2018-02-14,0.8139534883720986
2018-02-22,0.2973484848484917
2018-02-23,0.385057471264376
2018-02-26,-0.45171849427168115
2018-02-27,-0.6396396396396306
2018-02-28,-0.6812386156648456
2018-03-01,0.4028892455858844
2018-03-02,0.37557959814529673
2018-03-05,-0.28403361344537964
2018-03-06,0.09363957597172684
2018-03-07,-0.5311004784688987
2018-03-08,-1.487220447284346
2018-03-09,-0.9501607717041667
2018-03-12,-1.1235465116279033
2018-03-13,-0.7090352220520685
2018-03-14,0.0014619883041050448
2018-03-15,-0.2116040955631534
2018-03-16,-0.8421052631578897
2018-03-19,-0.788706739526418
2018-03-20,-0.7975077881619953
2018-03-21,-0.5559380378657559
2018-03-22,0.1505016722407996
2018-03-23,-1.0628272251308903
2018-03-26,-0.8123393316195334
2018-03-27,-0.06631299734748103
2018-03-28,-0.2807453416149105
2018-03-29,0.6493656286043862
2018-03-30,0.8000000000000181
2018-04-02,1.1488764044943685
2018-04-03,0.743902439024389
2018-04-04,0.28409090909091333
2018-04-09,0.8875739644970427
2018-04-10,0.742078720993341
2018-04-11,0.2469346394945991
2018-04-12,0.02652355249700188
2018-04-13,-0.33124007215594076
2018-04-16,-0.6359516616314245
2018-04-17,-0.4334898278560263
2018-04-18,-0.17285945072698433
2018-04-19,0.4326123128119727
2018-04-20,-0.9042253521126737
2018-04-23,-0.59446254071661
2018-04-24,-0.3393739703459685
2018-04-25,0.3816793893129743
2018-04-26,0.4437299035369715
2018-04-27,0.6830835117772981
2018-05-02,1.7345575959933113
2018-05-03,1.301020408163257
2018-05-04,1.6145038167938819
2018-05-07,0.8782771535580429
2018-05-08,0.12230215827337047
2018-05-09,-0.2572614107883749
2018-05-10,0.13555992141454254
2018-05-11,0.04752475247524657
2018-05-14,-0.41587301587302544
2018-05-15,-0.11219512195122278
2018-05-16,0.2529711375212108
2018-05-17,-0.008077544426496743
2018-05-18,0.022156573116697865
2018-05-21,0.40358744394619395
2018-05-22,0.268833087149194
2018-05-23,-0.25997045790250317
2018-05-24,-0.4534161490683202
2018-05-25,-0.8512269938650318
2018-05-28,-1.086876155268026
2018-05-29,0.20757825370675675
2018-05-30,0.25913043478261516
2018-05-31,0.27597402597402054
2018-06-01,0.9214046822742458
2018-06-04,0.5260416666666734
2018-06-05,0.46078431372549883
2018-06-06,-0.48013816925734465
2018-06-07,0.1818181818181753
2018-06-08,0.3287128712871216
2018-06-11,0.9729729729729736
2018-06-12,0.4555214723926374
2018-06-13,-0.09523809523809938
2018-06-14,-0.4821428571428651
2018-06-15,-0.4468438538205913
2018-06-19,-1.2996742671009849
2018-06-20,-0.9092526690391595
2018-06-21,-1.0069204152248912
2018-06-22,-1.2010582010582118
2018-06-25,-0.4188034188034233
2018-06-26,0.09074074074074362
2018-06-27,0.3486725663716687
2018-06-28,0.5038022813688277
2018-06-29,1.51419031719533
2018-07-02,0.7787456445993071
2018-07-03,0.45154639175258515
2018-07-04,0.34368932038835615
2018-07-05,-1.006622516556297
2018-07-06,-0.9420289855072448
2018-07-09,-0.29898989898990264
2018-07-10,0.6090225563909724
2018-07-11,0.6503759398496254
2018-07-12,1.112403100775183
2018-07-13,0.9498997995991965
2018-07-16,0.42975206611571054
2018-07-17,0.3491379310344772
2018-07-18,-0.009592326139086341
2018-07-19,-0.3262411347517667
2018-07-20,0.43487394957981773
2018-07-23,0.6797642436149407
2018-07-24,1.0338680926916282
2018-07-25,0.5696649029982243
2018-07-26,0.18987341772150637
2018-07-27,0.17030567685588877
2018-07-30,0.8667953667953673
2018-07-31,0.8820754716981012
2018-08-01,0.5347912524850945
2018-08-02,1.058730158730173
2018-08-03,1.229585798816569
2018-08-06,1.534619750283769
2018-08-07,1.2376934836819944
2018-08-08,0.6223812676349204
2018-08-09,0.2564425106291913
2018-08-10,-0.11570023257169734
2018-08-13,-0.08198614318706299
2018-08-14,0.34759358288769854
2018-08-15,0.24913093858633004
2018-08-16,-0.10303030303030172
2018-08-17,-0.8331515812431911
2018-08-20,-0.4125654450261812
2018-08-21,-0.6032608695652264
2018-08-22,-0.3460410557184832
2018-08-23,-0.7282828282828314
2018-08-24,-0.7730646871686113
2018-08-27,-0.27804295942719887
2018-08-28,-0.19653179190751266
2018-08-29,0.12160413971538377
2018-08-30,0.15481832543444882
2018-08-31,-0.2104404567699794
2018-09-03,-0.2861189801699736
2018-09-04,0.0355411954765737
2018-09-05,0.3171953255425714
2018-09-06,0.03773584905662237
2018-09-07,0.5007407407407374
2018-09-10,1.0859872611464847
2018-09-11,-0.25356125356125264
2018-09-12,-0.35509138381199834
2018-09-13,-0.37985611510790557
2018-09-14,-0.02627737226278276
2018-09-17,0.9344023323615219
2018-09-18,1.3863987635239539
2018-09-19,1.2544169611307583
2018-09-20,0.745980707395506
2018-09-21,0.11265164644716281
2018-09-25,-0.24765478424016166
2018-09-26,-0.9949238578680284
2018-09-27,-0.3525535420098797
2018-09-28,-0.06410256410257283
2018-10-08,1.742826780021255
2018-10-09,1.9422180801491167
2018-10-10,1.3965351299326338
2018-10-11,0.17338709677419523
2018-10-12,-0.23446105428796143
2018-10-15,-0.8904363974001851
2018-10-16,-1.0776515151515167
2018-10-17,-0.6364562118126381
2018-10-18,-0.16454229432213702
2018-10-19,-0.43285371702637787
2018-10-22,-0.7144790257104165
2018-10-23,-0.6929674099485419
2018-10-24,-0.6666666666666704
2018-10-25,-1.4959481361425944
2018-10-26,-0.34471544715447816
2018-10-29,-0.9626666666666706
2018-10-30,-0.5504926108374298
2018-10-31,0.3434343434343506
2018-11-01,-0.40830449826989984
2018-11-02,0.36927772126143393
2018-11-05,0.1939393939393924
2018-11-06,0.05821917808219091
2018-11-07,-0.09132947976877817
2018-11-08,-0.04656862745098448
2018-11-09,-1.1420047732696914
2018-11-12,-1.3428886438809284
2018-11-13,-0.9592814371257531
2018-11-14,-0.7907995618839017
2018-11-15,-0.2589595375722599
2018-11-16,-0.06274509803920392
2018-11-19,-0.542005420054213
2018-11-20,-1.1390498261877349
2018-11-21,-1.9624365482233512
2018-11-22,-1.3105906313645572
2018-11-23,-1.9028806584362123
2018-11-26,-1.225330225330224
2018-11-27,-0.7023712183156188
2018-11-28,0.6956521739130406
2018-11-29,0.37442922374429055
2018-11-30,0.7233644859813076
2018-12-03,1.1194570135746613
2018-12-04,1.2715855572998476
2018-12-05,1.2924281984334192
2018-12-06,0.04526769530035934
2018-12-07,0.09545947940622394
2018-12-10,-0.4875802492557905
2018-12-11,-1.18931309417734
2018-12-12,-0.8000000000000014
2018-12-13,0.026115342763869818
2018-12-14,0.5990730011587516
2018-12-17,1.0037267080745278
2018-12-18,0.8305084745762582
2018-12-19,0.6046511627907006
2018-12-20,-0.30630630630630384
2018-12-21,-0.6475507765830358
2018-12-24,-0.7624847746650488
2018-12-25,-0.8377142857142843
2018-12-26,0.11668757841907677
2018-12-27,0.740025740025734
2018-12-28,0.9932432432432488
2019-01-02,-0.014742014742018807
2019-01-03,-0.013568521031207863
2019-01-04,0.8457831325301173
2019-01-07,0.9801418439716395
2019-01-08,0.04920212765957295
2019-01-09,0.14697406340057667
2019-01-10,-0.3603351955307236
2019-01-11,0.3903999999999942
2019-01-14,-0.4137447405329533
2019-01-15,-0.09642301710730815
2019-01-16,0.7888563049853343
2019-01-17,0.5207373271889366
2019-01-18,1.0716463414634254
2019-01-21,0.8682432432432559
2019-01-22,-0.286501377410485
2019-01-23,-0.017991004497756164
2019-01-24,-0.40139860139860833
2019-01-25,-0.44903581267217857
2019-01-28,-0.18144044321329228
2019-01-29,-0.8768472906403981
2019-01-30,0.5860215053763494
2019-01-31,0.7394957983193189
2019-02-01,0.7852852852852975
2019-02-11,-0.2390180878552956
2019-02-12,-0.519125683060114
2019-02-13,-1.1845688350983474
2019-02-14,-0.4884792626728085
2019-02-15,-0.5418569254185709
2019-02-18,-0.11129568106312179
2019-02-19,1.026134800550204
2019-02-20,0.922345483359745
2019-02-21,0.4969969969970046
2019-02-22,0.04838709677420267
2019-02-25,-0.8242320819112472
2019-02-26,0.060377358490563464
2019-02-27,-0.5899159663865574
2019-02-28,-0.5432525951557059
2019-03-01,0.8183098591549338
2019-03-04,1.0335120643431792
2019-03-05,0.67952522255193
2019-03-06,0.5587349397590381
2019-03-07,-0.5482456140350834
2019-03-08,-1.1295336787564807
2019-03-11,-0.3416506717850289
2019-03-12,0.14156079854809142
2019-03-13,0.3742331288343566
2019-03-14,-0.4585741811175467
2019-03-15,-1.2148014440433197
2019-03-18,-1.902927580893682
2019-03-19,-1.003169572107751
2019-03-20,-0.44496855345911596
2019-03-21,0.374787052810894
2019-03-22,0.6643109540636102
2019-03-25,0.6594059405940605
2019-03-26,0.1379962192816711
2019-03-27,-0.024621212121206982
2019-03-28,-0.6250000000000158
2019-03-29,0.08833333333333017
2019-04-01,0.9800918836140932
2019-04-02,0.7983739837398254
2019-04-03,0.9914651493598817
2019-04-04,0.5344827586206983
2019-04-08,1.474781966848416
2019-04-09,0.858626116657953
2019-04-10,0.5699590839053434
2019-04-11,0.4681334781620193
2019-04-12,0.12296110414052816
2019-04-15,-0.36281859070464006
2019-04-16,-0.4409448818897689
2019-04-17,-0.3295638126009746
2019-04-18,-0.7093889716840618
2019-04-19,-0.324041811846682
2019-04-22,-0.24618320610686795
2019-04-23,0.25955734406438374
2019-04-24,0.16666666666666566
2019-04-25,-0.3454157782516058
2019-04-26,-0.6282306163021855
2019-04-29,-0.32499999999998647
2019-04-30,0.5296610169491445
2019-05-06,-0.1550387596899189
2019-05-07,0.2702169625246625
2019-05-08,-0.9692585895117499
2019-05-09,-1.3333333333333306
2019-05-10,-0.6059602649006731
2019-05-13,-0.9968652037617641
2019-05-14,-1.3383897316219342
2019-05-15,-0.53117505995204
2019-05-16,0.07873090481785977
2019-05-17,0.23922902494330853
2019-05-20,0.6440872560275576
2019-05-21,1.030927835051554
2019-05-22,0.2046783625731025
2019-05-23,-0.7478005865102736
2019-05-24,-0.9074889867841398
2019-05-27,-0.9568690095846696
2019-05-28,0.0591900311526367
2019-05-29,0.7057902973396003
2019-05-30,-0.10482529118136624
2019-05-31,-0.3809523809523958
2019-06-03,-1.2393162393162458
2019-06-04,-1.0301441677588477
2019-06-05,-1.1078947368420993
2019-06-06,-0.16591422121895774
2019-06-10,0.14270032930845122
2019-06-11,0.29841656516442994
2019-06-12,-0.3116036505866996
2019-06-13,0.14140127388535106
2019-06-14,-0.14349775784753324
2019-06-17,0.003067484662578898
2019-06-18,0.3671096345514881
2019-06-19,0.9775641025640976
2019-06-20,1.6014814814814786
2019-06-21,0.9955489614243175
2019-06-24,0.9523099850968657
2019-06-25,0.2667597765363172
2019-06-26,0.6741258741258721
2019-06-27,-0.0325443786982261
2019-06-28,-0.03592814371257829
2019-07-01,0.794392523364478
2019-07-02,1.5729275970619085
2019-07-03,1.1494661921708171
2019-07-04,0.19696969696969568
2019-07-05,0.12788104089219657
2019-07-08,0.24278312361214077
2019-07-09,0.0007716049382721586
2019-07-10,0.30837789661319553
2019-07-11,-0.21808510638297715
2019-07-12,-0.727732793522269
2019-07-15,0.2654075546719667
2019-07-16,-0.003588516746414062
2019-07-17,-0.2733333333333314
2019-07-18,-0.6097285067873306
2019-07-19,-0.589024390243907
2019-07-22,-0.3561103810775316
2019-07-23,0.263225806451617
2019-07-24,-0.06429548563610696
2019-07-25,-0.2855007473841536
2019-07-26,0.1362984218077466
2019-07-29,0.2829341317365311
2019-07-30,0.3533519553072608
2019-07-31,-0.3699851411589904
2019-08-01,-0.17940717628704878
2019-08-02,-0.7149340258842363
2019-08-05,-1.4064910272857956
2019-08-06,-0.6699729602619806
2019-08-07,-0.5458812712979532
2019-08-08,-0.17716535433070704
2019-08-09,0.6002691790040395
2019-08-12,0.5136876006441202
2019-08-13,0.2630691399662779
2019-08-14,0.31746031746031433
2019-08-15,-0.2573402417961938
2019-08-16,-0.18234165067179645
2019-08-19,-0.17782426778242852
2019-08-20,0.33089579524682095
2019-08-21,-0.22393822393823629
2019-08-22,-0.88539741219964
2019-08-23,-1.308777429467085
2019-08-26,-0.8130968622101032
2019-08-27,-0.7058823529411761
2019-08-28,-0.5375722543352588
2019-08-29,-0.5357664233576722
2019-08-30,0.5414781297134236
2019-09-02,0.9396984924623236
2019-09-03,0.6169844020797252
2019-09-04,1.0136286201022184
2019-09-05,0.5614035087719189
2019-09-06,0.26589595375722036
2019-09-09,0.8905723905723965
2019-09-10,0.054226475279106165
2019-09-11,0.11428571428571574
2019-09-12,-0.26632302405497416
2019-09-16,1.1547169811320765
2019-09-17,1.3012345679012387
2019-09-18,0.23370786516853895
2019-09-19,-0.39938080495356343
2019-09-20,-0.4279475982532806
2019-09-23,-0.1443001443001364
2019-09-24,0.21415929203539708
2019-09-25,0.2769230769230814
2019-09-26,-0.15366430260046163
2019-09-27,-0.9978118161925632
2019-09-30,-0.42307692307693306
2019-10-08,-0.6331569664902942
2019-10-09,-0.29059829059827824
2019-10-10,-0.17843866171003026
2019-10-11,0.1910569105690999
2019-10-14,1.001945525291828
2019-10-15,0.21263157894736656
2019-10-16,-0.6807228915662576
2019-10-17,-0.76000000000001
2019-10-18,-0.3075601374570504
2019-10-21,-0.6094276094276001
2019-10-22,-0.2517730496453813
2019-10-23,-0.02016129032257181
2019-10-24,0.4373673036093412
2019-10-25,0.18895966029723751
2019-10-28,-0.456470588235283
2019-10-29,-0.9277389277389286
2019-10-30,-0.7125890736341937
2019-10-31,-0.6566820276497637
2019-11-01,-0.12987012987012383
2019-11-04,0.35982339955849774
2019-11-05,0.45642201834862994
2019-11-06,0.20779220779221966
2019-11-07,-0.11294117647059491
2019-11-08,-0.22727272727271897
2019-11-11,-0.8405797101449147
2019-11-12,0.4065934065934058
2019-11-13,-0.1265306122449007
2019-11-14,-0.11372549019608412
2019-11-15,-0.813627254509014
2019-11-18,-0.5641547861507177
2019-11-19,-0.5066371681416026
2019-11-20,0.006578947368428616
2019-11-21,0.6175824175824314
2019-11-22,0.5869074492099317
2019-11-25,1.0487288135593127
2019-11-26,0.3347921225382905
2019-11-27,0.3131991051454142
2019-11-28,0.1833333333333434
2019-11-29,0.5916230366492323
2019-12-02,1.026737967914437
2019-12-03,0.9122807017543737
2019-12-04,-0.06469002695418835
2019-12-05,-0.5786666666666693
2019-12-06,-0.8149100257069367
2019-12-09,-0.9316188658741384
2019-12-10,-0.4583711719854449
2019-12-11,-1.0417349498192825
2019-12-12,-0.6356518012206622
2019-12-13,-0.32515337423312696
2019-12-16,0.23456790123456897
2019-12-17,-0.36547085201794
2019-12-18,-0.9433497536945765
2019-12-19,-0.20919540229885522
2019-12-20,-0.05361930294906192
2019-12-23,0.2751322751322844
2019-12-24,-0.13905325443788175
2019-12-25,0.028124999999994453
2019-12-26,0.8689024390243975
2019-12-27,0.9055555555555674
2019-12-30,0.9335260115607011
2019-12-31,-0.07349081364829689
2020-01-02,-0.4347826086956667
2020-01-03,-0.8746594005449538
2020-01-06,0.3911007025760996
2020-01-07,-0.24520255863539492
2020-01-08,0.49630996309962844
2020-01-09,0.2642740619902047
2020-01-10,0.6415711947626864
2020-01-13,0.8846153846153855
2020-01-14,-0.07829181494661623
2020-01-15,-0.8867562380038313
2020-01-16,-1.134361233480174
2020-01-17,-1.0813397129186533
2020-01-20,-0.5483870967741873
2020-01-21,-0.9100257069408575
2020-01-22,-1.7231920199501216
2020-01-23,-1.2206572769952915
2020-02-03,-2.5150000000000046
2020-02-04,-1.2957884427032322
2020-02-05,-0.8881188118811875
2020-02-06,-0.36825396825396584
2020-02-07,-0.18474758324381851
2020-02-10,-0.48767605633801203
2020-02-11,-0.2540983606557539
2020-02-12,-0.14970059880238357
2020-02-13,-0.4642857142857137
2020-02-14,0.16060606060605354
2020-02-17,0.6982248520710167
2020-02-18,0.9920844327177067
2020-02-19,1.612293144208067
2020-02-20,1.7417218543046633
2020-02-21,0.8038793103448292
2020-02-24,0.13374485596707944
2020-02-25,-0.10537634408602801
2020-02-26,-0.5467980295566505
2020-02-27,-0.6945945945945956
2020-02-28,-1.8202479338842963
2020-03-02,-0.07131537242472308
2020-03-03,0.5584795321637444
2020-03-04,0.8019943019943074
2020-03-05,0.8917378917378924
2020-03-06,0.4461279461279482
2020-03-09,-1.680241327300155
2020-03-10,-0.4373219373219329
2020-03-11,-0.43807040417209914
2020-03-12,-0.6654456654456706
2020-03-13,-0.30504833512352353
2020-03-16,-1.1212903225806474
2020-03-17,-0.7642956764295684
2020-03-18,-1.326848249027242
2020-03-19,-1.1465517241379355
2020-03-20,-0.2020202020202032
2020-03-23,-0.7857948139797055
2020-03-24,-0.4170854271356719
2020-03-25,-0.24212812160695188
2020-03-26,-1.0000000000000036
2020-03-27,-1.3946917808219181
2020-03-30,-1.883810122878218
2020-03-31,-0.6550742192076591
2020-04-01,-0.19807132796563667
2020-04-02,1.109631333423161
2020-04-03,1.59117896522477
2020-04-07,1.9773095623987054
2020-04-08,1.0505050505050557
2020-04-09,0.988679245283019
2020-04-10,1.2223837209302364
2020-04-13,1.2827225130890054
2020-04-14,-0.2956371986222754
2020-04-15,-0.5474330357142876
2020-04-16,-0.34856473345049693
2020-04-17,0.06744487678339627
2020-04-20,0.22690317812269084
2020-04-21,-0.6191289496157094
2020-04-22,-0.9645021645021665
2020-04-23,0.532623169107859
2020-04-24,0.5244996549344344
2020-04-27,0.5429362880886407
2020-04-28,0.37336601307189504
2020-04-29,-0.2118644067796656
2020-04-30,0.4796747967479732
2020-05-06,1.0430351075877717
2020-05-07,0.18181818181818388
2020-05-08,0.06714140386571726
2020-05-11,-0.9482288828337849
2020-05-12,-0.5968379446640208
2020-05-13,-0.13367875647669183
2020-05-14,-0.031212484994003496
2020-05-15,0.3815104166666625
2020-05-18,0.22105263157893346
2020-05-19,0.491654021244303
2020-05-20,1.2047353760445583
2020-05-21,0.8609693877551092
2020-05-22,-0.039615846338532525
2020-05-25,0.2852153667054673
2020-05-26,-0.05477707006369546
2020-05-27,0.2123385939741703
2020-05-28,0.3255494505494444
2020-05-29,0.3357452966714925
2020-06-01,1.4620098039215723
2020-06-02,1.210585585585588
2020-06-03,0.7924970691676388
2020-06-04,-0.3529411764705847
2020-06-05,-0.3566176470588261
2020-06-08,-0.42253521126760757
2020-06-09,0.3408769448373403
2020-06-10,-0.08387942332896096
2020-06-11,-0.3984848484848473
2020-06-12,-0.2707182320442139
2020-06-15,-0.4088145896656605
2020-06-16,0.6671664167916023
2020-06-17,0.9893617021276637
2020-06-18,0.49185185185185554
2020-06-19,0.270134228187907
2020-06-22,-0.07966101694916256
2020-06-23,0.0865979381443342
2020-06-24,-0.04250559284116014
2020-06-29,-0.8243512974051808
2020-06-30,-0.2723735408560402
2020-07-01,0.025844930417495377
2020-07-02,0.4158790170132312
2020-07-03,0.9322314049586742
2020-07-06,1.49483013293944
2020-07-07,0.9624277456647367
2020-07-08,0.08823529411765284
2020-07-09,0.2810026385224244
2020-07-10,-0.42916666666666425
2020-07-13,0.030894308943079592
2020-07-14,-0.007836990595617467
2020-07-15,-0.6577287066246149
2020-07-16,-1.0151285930408493
2020-07-17,-0.6792763157894821
2020-07-20,-0.4617886178861747
2020-07-21,-0.2889983579638823
2020-07-22,-0.02199661590524565
2020-07-23,0.10676156583630166
2020-07-24,-0.6853035143769916
2020-07-27,0.4842105263157873
2020-07-28,1.076149425287352
2020-07-29,0.6905487804878098
2020-07-30,0.5250403877221307
2020-07-31,0.1810897435897449
2020-08-03,0.0671378091872735
2020-08-04,0.9181184668989352
2020-08-05,0.5491803278688574
2020-08-06,0.18000000000000277
2020-08-07,0.020249221183808015
2020-08-10,-0.47706422018348627
2020-08-11,-0.27129337539431975
2020-08-12,-0.5975794251134552
2020-08-13,-0.6238805970149283
2020-08-14,-0.10296411856474919
2020-08-17,0.22303544816128318
2020-08-18,1.1407218739225842
2020-08-19,0.5242370253200822
2020-08-20,0.9861046512797464
2020-08-21,-0.11562500000000568
2020-08-24,-0.06344410876132939
2020-08-25,0.7668231611893538
2020-08-26,0.4084278768233322
2020-08-27,0.9202772963604924
2020-08-28,0.5846774193548443
2020-08-31,0.9564516129032191
2020-09-01,0.7509225092250911
2020-09-02,1.0825035561877752
2020-09-03,0.5818965517241373
2020-09-04,-0.0945083014048522
2020-09-07,-0.6633663366336597
2020-09-08,-0.6968503937007928
2020-09-09,-0.9744680851063846
2020-09-10,-0.7675675675675717
2020-09-11,-0.45784883720931036
2020-09-14,-0.4366883116883176
2020-09-15,-0.3932038834951433
2020-09-16,0.4819277108433788
2020-09-17,-0.34525660964229304
2020-09-18,0.29843750000000296
2020-09-21,0.4905149051490537
2020-09-22,-0.5063613231552311
2020-09-23,-0.29203539823009506
2020-09-24,-0.4582245430809427
2020-09-25,0.44266337854500837
2020-09-28,0.4788189987163034
2020-09-29,0.4576757532281246
2020-09-30,-0.5920873124147328
2020-10-09,0.4116161616161608
2020-10-12,0.9228855721393002
2020-10-13,0.5026595744680787
2020-10-14,0.6051282051282068
2020-10-15,0.10335570469799085
2020-10-16,-0.3139356814701384
2020-10-19,-0.7221350078492953
2020-10-20,-0.6015873015873094
2020-10-21,-0.30914826498423104
2020-10-22,-0.1760797342192667
2020-10-23,-0.27787307032590247
2020-10-26,-0.1721014492753522
2020-10-27,0.2940199335548218
2020-10-28,0.2607204116638088
2020-10-29,0.09151414309483492
2020-10-30,0.18478260869565027
2020-11-02,1.4104116222760406
2020-11-03,1.0142180094786721
2020-11-04,0.321701199563793
2020-11-05,-0.2321041214750515
2020-11-06,-0.44893111638954236
2020-11-09,-0.04848484848484694
2020-11-10,-0.20994475138120935
2020-11-11,0.5703703703703642
2020-11-12,0.5947204968944095
2020-11-13,1.0401505646173106
2020-11-16,1.2100558659217846
2020-11-17,0.7288557213930378
2020-11-18,1.069414316702821
2020-11-19,0.9649484536082434
2020-11-20,0.37953795379538213
2020-11-23,1.3747534516765256
2020-11-24,0.8691308691308648
2020-11-25,0.20356768100735573
2020-11-26,-0.261999999999993
2020-11-27,-0.12512030798844417
2020-11-30,-0.08983451536643615
2020-12-01,-0.5840336134453725
2020-12-02,-0.8602620087336276
2020-12-03,-1.175332527206774
2020-12-04,-0.2248157248157275
2020-12-07,0.39760348583878635
2020-12-08,-0.17915309446253727
2020-12-09,-0.16164994425864446
2020-12-10,-0.005813953488370868
2020-12-11,0.6491228070175379
2020-12-14,0.047720120032207186
2020-12-15,-0.5857926371149567
2020-12-16,-0.6029901694081451
2020-12-17,-0.3014138872853486
2020-12-18,0.23978494623655872
2020-12-21,0.09024390243902519
2020-12-22,-0.4257322175732163
2020-12-23,-0.5557872784150192
2020-12-24,-0.07429718875502048
2020-12-25,-0.5333978702807392
2020-12-28,-0.851669941060899
2020-12-29,-1.0012062726176172
2020-12-30,-0.5458996328029456
2020-12-31,0.30609896432680533
2021-01-04,0.27455919395465117
2021-01-05,0.01612903225807553
2021-01-06,-0.3400473933649251
2021-01-07,-0.4476940382452212
2021-01-08,-0.8653198653198668
2021-01-11,-0.40696409140370154
2021-01-12,-0.0011668611435211188
2021-01-13,0.5939257592800863
2021-01-14,0.33333333333333404
2021-01-15,0.43159203980098876
2021-01-18,1.2586786114221666
2021-01-19,0.4915445321307721
2021-01-20,-0.1351674641148274
2021-01-21,0.08701298701299785
2021-01-22,0.23606168446026432
2021-01-25,-0.2583025830258344
2021-01-26,-0.10505836575875682
2021-01-27,0.4715984147952302
2021-01-28,0.6286438529784563
2021-01-29,0.8011204481792681
2021-02-01,-0.18299711815561628
2021-02-02,-0.3348148148148016
2021-02-03,0.15169366715757432
2021-02-04,0.685552407932019
2021-02-05,0.6585714285714276
2021-02-08,0.39900662251654334
2021-02-09,-0.37219730941704043
2021-02-10,-0.6617210682492594
2021-02-18,1.7723577235772425
2021-02-19,1.7350210970464148
2021-02-22,1.9730061349693333
2021-02-23,0.8451790633608793
2021-02-24,0.2598382749326099
2021-02-25,0.47768698931489667
2021-02-26,0.2127913927077162
2021-03-01,0.08164689462665395
2021-03-02,0.02232142857142795
2021-03-03,0.15981735159817595
2021-03-04,-0.10058187863674409
2021-03-05,0.0669045495093648
2021-03-08,0.9018245004344054
2021-03-09,-0.48148148148148073
2021-03-10,-0.5517503805175017
2021-03-11,-0.08999224204809748
2021-03-12,0.33061224489796476
2021-03-15,0.6258185219831588
2021-03-16,0.29830508474576034
2021-03-17,-0.4317912218268052
2021-03-18,-0.9535452322738437
2021-03-19,-1.2890946502057612
2021-03-22,-0.8172484599589328
2021-03-23,-1.0183397683397637
2021-03-24,-0.41477832512315793
2021-03-25,-0.21755027422303366
2021-03-26,0.038065843621399566
2021-03-29,-0.21588785046728826
2021-03-30,-0.23800195886386374
2021-03-31,-0.5227703984819695
2021-04-01,0.18867924528301983
2021-04-02,0.4370300751879572
2021-04-06,0.2725321888411973
2021-04-07,0.2642105263157929
2021-04-08,-0.49197860962566864
2021-04-09,-0.6257744733581146
2021-04-12,-1.0901639344262322
2021-04-13,-1.049881235154391
2021-04-14,-0.6601815823605786
2021-04-15,0.4202531645569562
2021-04-16,0.4888613861386208
2021-04-19,-0.15822002472188446
2021-04-20,-0.08910891089109564
2021-04-21,-1.020675452877589
2021-04-22,-0.43655666497966744
2021-04-23,-0.09726031990977145
2021-04-26,0.1621723120981594
2021-04-27,0.9921052631579043
2021-04-28,0.8744113029827351
2021-04-29,0.5709459459459449
2021-04-30,-0.40704225352112117
2021-05-06,0.8051801801801811
2021-05-07,1.3368176538908316
2021-05-10,0.511450381679396
2021-05-11,0.07309644670050841
2021-05-12,0.7179487179487154
2021-05-13,0.13327032136105904
2021-05-14,-0.2828828828828907
2021-05-17,-0.34064969271290635
2021-05-18,-0.28468468468468466
2021-05-19,-0.5886792452830087
2021-05-20,-1.0374639769452358
2021-05-21,-1.189926547743963
2021-05-24,-0.7390817469204933
2021-05-25,-0.3422818791946292
2021-05-26,0.4096109839816966
2021-05-27,-0.372966207759695
2021-05-28,-0.4092526690391458
2021-05-31,-0.19385342789597831
2021-06-01,0.3466981132075416
2021-06-02,0.19196988707654158
2021-06-03,0.052419354838722884
2021-06-04,-0.6334716459197808
2021-06-07,-1.2781211372064267
2021-06-08,-0.8130601792573553
2021-06-09,-0.17891816920942796
2021-06-10,0.0482093663911846
2021-06-11,0.3774145616641934
2021-06-15,0.37460317460317
2021-06-16,0.5430894308943026
2021-06-17,0.32118055555555963
2021-06-18,-0.07653910149750877
2021-06-21,0.154574132492111
2021-06-22,0.6704545454545445
2021-06-23,0.8426470588235231
2021-06-24,0.7738619676945561
2021-06-25,1.0455840455840597
2021-06-28,0.844574780058658
2021-06-29,-0.12553495007133336
2021-06-30,-0.27777777777777063
2021-07-01,0.036986301369860336
2021-07-02,0.03409090909090531
2021-07-05,0.6276315789473677
2021-07-06,0.33333333333333415
2021-07-07,-0.7885085574572226
2021-07-08,-0.704458598726128
2021-07-09,0.11400247831475345
2021-07-12,0.4566929133858399
2021-07-13,0.47771587743732513
2021-07-14,-0.3130990415335421
2021-07-15,-1.0152777777777817
2021-07-16,-0.5482456140350859
2021-07-19,0.7159235668789733
2021-07-20,0.5262557077625608
2021-07-21,0.6486486486486481
2021-07-22,0.37995049504950296
2021-07-23,-0.026763990267636036
2021-07-26,-0.9592641261497926
2021-07-27,-1.1631799163179817
2021-07-28,-0.27885862516212995
2021-07-29,0.5981432360742622
2021-07-30,0.8739495798319371
2021-08-02,-0.4090287277701739
2021-08-03,-1.1820546163849184
2021-08-04,-0.6662234042553237
2021-08-05,-0.6221009549795354
2021-08-06,0.07581699346405958
2021-08-09,0.06438356164383968
2021-08-10,0.7443408788282283
2021-08-11,0.9261939218523921
2021-08-12,0.6586826347305343
2021-08-13,0.42570551801916307
2021-08-16,0.16868566397592033
2021-08-17,0.13986201243255766
2021-08-18,0.029458653673612143
2021-08-19,-1.3923841059602704
2021-08-20,-1.21489001692047
2021-08-23,-0.3493253373313218
2021-08-24,0.22869318181818557
2021-08-25,0.09544787077827192
2021-08-26,-1.1382352941176317
2021-08-27,-0.7136363636363725
2021-08-30,-0.37261698440208507
2021-08-31,-0.45519713261648753
2021-09-01,0.20440251572326784
2021-09-02,1.220168067226902
2021-09-03,1.1803278688524794
2021-09-06,0.5902439024390244
2021-09-07,1.0918674698795203
2021-09-08,0.8415213946117241
2021-09-09,0.26631393298061246
2021-09-10,0.15445859872611103
2021-09-13,0.23562412342216793
2021-09-14,0.4802721088435407
2021-09-15,1.7971530249110304
2021-09-16,0.9992520568436815
2021-09-17,0.23210562890896352
2021-09-22,0.595703125000003
2021-09-23,0.7765651924181575
2021-09-24,0.5667311411992204
2021-09-27,0.7672886937431358
2021-09-28,1.0720207253886012
2021-09-29,0.46502264720684444
2021-09-30,1.056318031235214
2021-10-08,0.4020908725371927
2021-10-11,0.5799271549979721
2021-10-12,0.013737373737376655
2021-10-13,-0.479080932784637
2021-10-14,-0.5258003766478327
2021-10-15,-0.3027444253859324
2021-10-18,-0.1689291101055818
2021-10-19,-0.2534611288604926
2021-10-20,-1.3215189873417754
2021-10-21,-0.8299065420560828
2021-10-22,-1.0410798122065748
2021-10-25,-1.0075934579439205
2021-10-26,-0.5224056603773605
2021-10-27,-1.0822085889570534
2021-10-28,-0.3893753648569747
2021-10-29,-0.14100905562742339
2021-11-01,-0.12052117263843394
2021-11-02,-0.21595946801773308
2021-11-03,0.3668272539573291
2021-11-04,-0.3577524893314372
2021-11-05,-0.05860255447031822
2021-11-08,-0.121621621621622
2021-11-09,-0.10479285134037368
2021-11-10,0.031275720164608195
2021-11-11,0.3243243243243217
2021-11-12,0.24794144556267142
2021-11-15,-0.8506224066389981
2021-11-16,-0.9238578680203132
2021-11-17,-0.602739726027398
2021-11-18,-0.4475806451612929
2021-11-19,0.1069626639757866
2021-11-22,-0.3404494382022486
2021-11-23,-0.11834961997828256
2021-11-24,0.46722164412070827
2021-11-25,-0.11914893617020442
2021-11-26,-0.5359828141783053
2021-11-29,-0.7804878048780464
2021-11-30,-1.3802978235967898
2021-12-01,-0.1799163179916384
2021-12-02,-0.3706981317600827
2021-12-03,-0.23484119345523988
2021-12-06,0.33073929961088855
2021-12-07,0.25593952483801274
2021-12-08,-0.14971428571429038
2021-12-09,-0.21046373365041043
2021-12-10,-0.7743243243243282
2021-12-13,0.5200359283557201
2021-12-14,0.5676064125228047
2021-12-15,-0.29691765695178096
2021-12-16,0.4157386887135023
2021-12-17,0.5820045558086648
2021-12-20,0.3366093366093321
2021-12-21,0.2427884615384642
2021-12-22,-0.17032258064516342
2021-12-23,0.3446404341926756
2021-12-24,0.7148936170212633
2021-12-27,-0.896057347670253
2021-12-28,-0.5943970767356894
2021-12-29,0.27251184834122644
2021-12-30,0.457215836526195
2021-12-31,0.4331619537275043
2022-01-04,1.0434153400868313
2022-01-05,0.23909985935301914
2022-01-06,0.4879227053140101
2022-01-07,0.7915451895043798
2022-01-10,-0.3607427055702953
2022-01-11,-0.3212598425196785
2022-01-12,0.19786910197867738
2022-01-13,0.3153013910355415
2022-01-14,1.0369276218611507
2022-01-17,0.07886435331229977
2022-01-18,0.5020134228187928
2022-01-19,0.6420233463035132
2022-01-20,0.7028061224489839
2022-01-21,0.32330827067668827
2022-01-24,-0.2793764988009568
2022-01-25,-0.3338048090523351
2022-01-26,0.6924083769633484
2022-01-27,0.42509603072984553
2022-01-28,-0.3604368932038838
2022-02-07,1.3729957805907154
2022-02-08,0.5489878542510112
2022-02-09,-0.41480339244410047
2022-02-10,-0.3328197226502359
2022-02-11,-0.8750000000000028
2022-02-14,-0.5418875927889699
2022-02-15,-0.08293153326904451
2022-02-16,-0.20650953984287498
2022-02-17,-0.5829145728643189
2022-02-18,-0.43179122182680696
2022-02-21,-0.3904382470119606
2022-02-22,-0.13260530421215183
2022-02-23,0.47196261682242635
2022-02-24,0.8794567062818256
2022-02-25,0.6782945736434134
2022-02-28,0.9432703003336997
2022-03-01,0.8286985539488291
2022-03-02,1.148430066603241
2022-03-03,1.5041597337770396
2022-03-04,0.25665859564164445
2022-03-07,1.2390180878553014
2022-03-08,0.6537753222836123
2022-03-09,0.9836867862969012
2022-03-10,-0.14278937381403994
2022-03-11,-0.44718473708701834
2022-03-14,-1.0057202288091527
2022-03-15,-1.262917933130701
2022-03-16,-0.5862676056338069
2022-03-17,-0.4681181959564627
2022-03-18,0.43078324225865494
2022-03-21,0.47329842931936245
2022-03-22,0.23500611995105136
2022-03-23,0.39947437582129725
2022-03-24,0.4045512010113751
2022-03-25,0.8013071895424876
2022-03-28,0.891148325358847
2022-03-29,0.6911242603550198
2022-03-30,0.0637311703360403
2022-03-31,-0.7839029768467525
2022-04-01,-1.1065400843881912
2022-04-06,-0.8631961259079799
2022-04-07,-0.5577395577395599
2022-04-08,-0.42785445420325263
2022-04-11,-1.0078023407021983
2022-04-12,0.08000000000000336
2022-04-13,-0.28311057108141585
2022-04-14,0.16053921568627377
2022-04-15,-0.0343137254901877
2022-04-18,0.6451990632318612
2022-04-19,0.45994141193229454
2022-04-20,0.2543956043956073
2022-04-21,0.1590736174910943
2022-04-22,-0.7004946263183602
2022-04-25,-1.8688524590163957
2022-04-26,-1.0570012391573798
2022-04-27,-0.38508557457212683
2022-04-28,0.03170731707317183
2022-04-29,0.7919999999999849
2022-05-05,1.4658298465829989
2022-05-06,0.6932153392330335
2022-05-09,-0.36129905277402297
2022-05-10,-0.8113440197287263
2022-05-11,-0.41610738255032625
2022-05-12,-0.6391891891891817
2022-05-13,-0.29629629629630094
2022-05-16,-0.004724409448815937
2022-05-17,0.20000000000001153
2022-05-18,-0.2894736842105182
2022-05-19,-0.6584967320261528
2022-05-20,-0.8610223642172489
2022-05-23,-0.35551948051949456
2022-05-24,-0.39508196721312017
2022-05-25,0.3321678321678339
2022-05-26,1.6253561253561308
2022-05-27,1.0164158686730451
2022-05-30,1.0977961432506957
2022-05-31,1.129427792915537
2022-06-01,0.6234652114597613
2022-06-02,0.36781609195401826
2022-06-06,0.3232484076433139
2022-06-07,0.051829268292689544
2022-06-08,0.5529753265602185
2022-06-09,0.20430107526881494
2022-06-10,-0.14480874316940104
2022-06-13,-0.7493540051679636
2022-06-14,-0.6591211717709692
2022-06-15,-0.9173669467787007
2022-06-16,-1.1399416909620934
2022-06-17,-1.1236802413273053
2022-06-20,-1.1000000000000054
2022-06-21,-0.5068965517241291
2022-06-22,-0.7309027777777779
2022-06-23,-0.5452961672473883
2022-06-24,-0.9540889526542342
2022-06-27,0.0463733650416185
2022-06-28,0.567757009345789
2022-06-29,0.27366020524515816
2022-06-30,0.03668639053254164
2022-07-01,-0.6930946291560157
2022-07-04,0.12273361227336838
2022-07-05,-0.03633720930232779
2022-07-06,-0.8931924882629153
2022-07-07,-0.6432926829268276
2022-07-08,-0.04008016032063326
2022-07-11,-0.6219401631912945
2022-07-12,-0.6568712186689663
2022-07-13,-0.7583417593528737
2022-07-14,-0.6790540540540527
2022-07-15,-1.3816568047337277
2022-07-18,0.38095238095237427
2022-07-19,0.09485815602837012
2022-07-20,-0.02551020408163121
2022-07-21,-0.5582112567463405
2022-07-22,-0.49127399650960035
2022-07-25,-0.0440000000000067
2022-07-26,0.5791583166332637
2022-07-27,0.5793025871766068
2022-07-28,1.170316301703162
2022-07-29,1.0141025641025685
2022-08-01,0.33422459893047846
2022-08-02,0.34644478063540485
2022-08-03,-0.08371385083713827
2022-08-04,-1.0108108108108134
2022-08-05,-0.9433962264151045
2022-08-08,0.035670356703565845
2022-08-09,-0.15308641975308573
2022-08-10,-0.43288590604026544
2022-08-11,-0.016438356164385007
2022-08-12,-0.02425106990013961
2022-08-15,-0.11897590361444733
2022-08-16,-0.4275147928994062
2022-08-17,-1.3036849118491203
2022-08-18,-0.9996789276400948
2022-08-19,-0.3162044566943839
2022-08-22,0.18378256565799309
2022-08-23,0.28055555555555467
2022-08-24,0.8415213946117316
2022-08-25,0.9099836333878905
2022-08-26,1.2102102102102097
2022-08-29,0.5690235690235728
2022-08-30,0.6672535211267608
2022-08-31,-0.1666666666666676
2022-09-01,-0.25174825174824667
2022-09-02,-0.0716666666666563
2022-09-05,0.9451038575667742
2022-09-06,1.4002932551319636
2022-09-07,0.4949640287769796
2022-09-08,0.1671195652173896
2022-09-09,0.7399741267787829
2022-09-13,0.5588673621460424
2022-09-14,-0.011080332409987032
2022-09-15,-0.5357643758765785
2022-09-16,-0.5281065088757345
2022-09-19,-0.8569206842923812
2022-09-20,-0.511661807580172
2022-09-21,-0.17879746835443405
2022-09-22,0.2773375594294775
2022-09-23,-0.11456859971712954
2022-09-26,-0.9870503597122312
2022-09-27,-0.2926470588235278
2022-09-28,-0.46740858505564814
2022-09-29,0.9132290184921775
2022-09-30,0.8414442700157039
2022-10-10,1.5817438692097983
2022-10-11,0.19926650366748294
2022-10-12,-0.4636563876651955
2022-10-13,-1.251977401129945
2022-10-14,-1.0022197558268544
2022-10-17,-1.0717079530638782
2022-10-18,-0.8742331288343518
2022-10-19,-0.6332179930795948
2022-10-20,-0.3333333333333198
2022-10-21,-0.5448577680525104
2022-10-24,-0.24276169265032774
2022-10-25,-0.5711297071129688
2022-10-26,-0.4318181818181946
2022-10-27,-0.2875695732838642
2022-10-28,0.3618739903069427
2022-10-31,-0.8787096774193551
2022-11-01,0.2716319824753563
2022-11-02,0.4315906562847568
2022-11-03,0.27076591154261137
2022-11-04,0.6295116772823828
2022-11-07,-0.19677790563867018
2022-11-08,-0.3001402524544159
2022-11-09,0.4068493150685037
2022-11-10,-0.3469656992084369
2022-11-11,0.8037499999999915
2022-11-14,0.8528571428571466
2022-11-15,0.49051094890510616
2022-11-16,0.4771241830065194
2022-11-17,-0.42601626016260313
2022-11-18,-0.10392156862744789
2022-11-21,-1.1485148514851446
2022-11-22,-0.8601973684210313
2022-11-23,-0.24879614767254987
2022-11-24,0.20860927152317565
2022-11-25,0.6314049586776788
2022-11-28,0.07504363001745576
2022-11-29,0.7991137370753284
2022-11-30,0.3323572474377777
2022-12-01,0.21594684385382784
2022-12-02,0.6570458404074646
2022-12-05,0.18874773139746534
2022-12-06,-0.237288135593215
2022-12-07,-0.815040650406517
2022-12-08,-0.9003496503496434
2022-12-09,0.21207177814029946
2022-12-12,0.8890374331550808
2022-12-13,0.25763612217794896
2022-12-14,0.37016574585635503
2022-12-15,0.39910565428012934
2022-12-16,0.2936415336752518
2022-12-19,-0.3667885678860132
2022-12-20,-0.16500180094217481
2022-12-21,-0.017374517374513843
2022-12-22,-0.5403508771929767
2022-12-23,-1.3822222222222136
2022-12-26,-0.7201986754966914
2022-12-27,0.156985871271601
2022-12-28,0.2391304347826071
2022-12-29,-0.22764227642278478
2022-12-30,0.7107583774250474
2023-01-03,0.6978653530377654
2023-01-04,-0.0979381443299158
2023-01-05,-0.5732899022801312
2023-01-06,-0.642487046632118
2023-01-09,-0.8461538461538496
2023-01-10,-0.5466377440347068
2023-01-11,0.17351598173516816
2023-01-12,0.6477541371158543
2023-01-13,1.6609523809523983
2023-01-16,1.4990512333965897
2023-01-17,1.158823529411771
2023-01-18,1.1232604373757555
2023-01-19,0.808139534883736
2023-01-20,1.4311512415349923
2023-01-30,1.1940000000000062
2023-01-31,0.30409356725146025
2023-02-01,0.01559454191031891
2023-02-02,-0.9240282685512304
2023-02-03,-1.110927152317883
2023-02-06,-1.0842105263157906
2023-02-07,-0.9110707803992493
2023-02-08,-0.5833333333333363
2023-02-09,-0.08141962421713167
2023-02-10,-0.4968944099378988
2023-02-13,-0.5902004454342973
2023-02-14,-0.3478260869565394
2023-02-15,-0.54545454545456
2023-02-16,0.002341920374717863
2023-02-17,0.681818181818173
2023-02-20,0.8361445783132624
2023-02-21,1.1692650334075723
2023-02-22,0.4501061571125393
2023-02-23,0.1828193832599137
2023-02-24,-0.198675496688738
2023-02-27,-0.9032967032967077
2023-02-28,-0.4655581947743286
2023-03-01,0.19047619047617564
2023-03-02,0.07932692307693362
2023-03-03,0.0325203252032605
2023-03-06,0.07065217391303898
2023-03-07,-0.38196286472147345
2023-03-08,-0.7811704834605655
2023-03-09,-0.9197994987468457
2023-03-10,-1.13953488372094
2023-03-13,-0.3876543209876632
2023-03-14,-0.6899766899766963
2023-03-15,-0.9627906976744007
2023-03-16,-1.484725050916511
2023-03-17,-0.5842696629213482
2023-03-20,-0.640287769784172
2023-03-21,-0.1510128913443848
2023-03-22,0.1392649903288163
2023-03-23,-0.19574468085107066
2023-03-24,0.3355704697986602
2023-03-27,0.3391684901531682
2023-03-28,0.6300448430493311
2023-03-29,0.2898230088495586
2023-03-30,0.20705882352940644
2023-03-31,0.8606965174129284
2023-04-03,0.7972972972972973
2023-04-04,0.20562770562770452
2023-04-06,-0.7089843749999879
2023-04-07,-0.4970297029703038
2023-04-10,-0.7001972386587721
2023-04-11,-0.14726840855106804
2023-04-12,0.1887755102040786
2023-04-13,-0.1127302435224004
2023-04-14,0.3162023848922307
2023-04-17,0.8989718976967325
2023-04-18,0.7924427052762915
2023-04-19,0.09399477806787637
2023-04-20,-0.37190082644627365
2023-04-21,-0.12737127371274473
2023-04-24,-0.7365728900255799
2023-04-25,0.0576036866359515
2023-04-26,-0.2511415525114116
2023-04-27,-1.0370370370370368
2023-04-28,-0.6541019955654027
2023-05-04,-1.163999999999998
2023-05-05,-0.9707602339181303
2023-05-08,-0.2974051896207622
2023-05-09,-0.7390396659707695
2023-05-10,-0.3892215568862305
2023-05-11,-0.6666666666666544
2023-05-12,-1.3890274314214432
2023-05-15,-0.7511415525114256
2023-05-16,-0.5420792079207774
2023-05-17,-0.07788944723618313
2023-05-18,0.03649635036496156
2023-05-19,-0.9166666666666501
2023-05-22,-1.4941634241245156
2023-05-23,-1.3090211132437666
2023-05-24,-0.13732394366197764
2023-05-25,0.2016806722689035
2023-05-26,0.03005008347245803
2023-05-29,0.5050301810865213
2023-05-30,-0.023300970873770387
2023-05-31,-0.7796901893287415
2023-06-01,0.18558282208588958
2023-06-02,0.25521669341893594
2023-06-05,0.07476635514018805
2023-06-06,-0.05700325732898701
2023-06-07,-0.5743494423791773
2023-06-08,-0.03652968036529085
2023-06-09,0.09701492537313282
2023-06-12,-0.3512880562060985
2023-06-13,0.0477223427331969
2023-06-14,0.35294117647058837
2023-06-15,0.44708423326133384
2023-06-16,0.9469387755101915
2023-06-19,0.6027088036117259
2023-06-20,0.5394736842105321
2023-06-21,0.4362606232294654
2023-06-26,-1.125628140703523
2023-06-27,-0.2665036674816611
2023-06-28,-0.4639175257732013
2023-06-29,0.3995485327313743
2023-06-30,0.6697038724373625
2023-07-03,0.43526170798899194
2023-07-04,0.4682274247491414
2023-07-05,-0.1294498381876959
2023-07-06,0.1750972762646162
2023-07-07,0.9868852459016454
2023-07-10,0.47826086956521985
2023-07-11,1.0552325581395445
2023-07-12,1.5826771653543326
2023-07-13,1.1284634760705354
2023-07-14,1.4660421545667544
2023-07-17,-0.4563636363636409
2023-07-18,-0.025830258302576996
2023-07-19,0.25544554455445434
2023-07-20,-0.16314779270634222
2023-07-21,-0.12770562770562555
2023-07-24,-0.698630136986302
2023-07-25,0.3778920308483449
2023-07-26,0.7662650602409604
2023-07-27,0.4156171284634744
2023-07-28,1.3124999999999993
2023-07-31,0.7088888888888916
2023-08-01,0.5888077858880781
2023-08-02,0.3638613861386163
2023-08-03,-0.7864476386036914
2023-08-04,-0.16018306636154617
2023-08-07,-0.31162790697672854
2023-08-08,-0.5659090909090803
2023-08-09,0.26326963906581485
2023-08-10,0.08977556109725807
2023-08-11,0.3759791122715462
2023-08-14,-0.185643564356436
2023-08-15,0.1518072289156523
2023-08-16,-0.33238636363635965
2023-08-17,0.5401484675379046
2023-08-18,1.6488133129607538
2023-08-21,1.5405756051157657
2023-08-22,1.344372571132845
2023-08-23,0.5792452830188722
2023-08-24,-0.05991735537191613
2023-08-25,0.14503816793893584
2023-08-28,-0.1692307692307939
2023-08-29,-0.1969696969696907
2023-08-30,0.9240780911062917
2023-08-31,0.7621145374449425
2023-09-01,1.3165048543689362
2023-09-04,0.5815738963531648
2023-09-05,0.6075268817204231
2023-09-06,0.9930069930069902
2023-09-07,0.11669128508124353
2023-09-08,-0.39747634069401744
2023-09-11,-0.1483333333333285
2023-09-12,0.5925373134328372
2023-09-13,0.43823529411764733
2023-09-14,0.3247863247863238
2023-09-15,0.19073083778965466
2023-09-18,0.13672496025438652
2023-09-19,0.705882352941196
2023-09-20,-0.18230088495575766
2023-09-21,-0.827018121911032
2023-09-22,-0.5624012638230609
2023-09-25,-1.028301886792448
2023-09-26,-1.0151770657672756
2023-09-27,-0.8190661478599112
2023-09-28,-0.29313929313931425
2023-10-09,-1.1312056737588883
2023-10-10,-1.7166361974406026
2023-10-11,-1.2730696798493562
2023-10-12,-0.7389705882353063
2023-10-13,-0.14095238095238133
2023-10-16,0.4931192660550489
2023-10-17,-0.26701570680628944
2023-10-18,-0.5378973105134449
2023-10-19,-0.3075060532687644
2023-10-20,-0.13921113689093817
2023-10-23,0.0588235294117571
2023-10-24,0.28741092636579013
2023-10-25,0.5193798449612393
2023-10-26,0.17401960784313433
2023-10-27,1.0621118012422328
2023-10-30,0.9053763440860233
2023-10-31,0.3551198257080641
2023-11-01,0.36842105263157393
2023-11-02,-0.04273504273504151
2023-11-03,0.8564705882352917
2023-11-06,0.9567198177676391
2023-11-07,0.34236453201970174
2023-11-08,0.29710144927536525
2023-11-09,0.1485148514851436
2023-11-10,-0.04120879120879563
2023-11-13,-0.7417840375586822
2023-11-14,-0.2046511627907003
2023-11-15,0.44719101123595384
2023-11-16,0.603248259860796
2023-11-17,0.07383966244726037
2023-11-20,-0.6975717439293783
2023-11-21,-1.4442379182156309
2023-11-22,-1.1362763915547036
2023-11-23,-1.1956521739130426
2023-11-24,-0.4661190965092363
2023-11-27,-0.23542600896861865
2023-11-28,-0.44031830238725417
2023-11-29,-0.4738219895287975
2023-11-30,0.47769028871391184
2023-12-01,0.07673860911271008
2023-12-04,-0.6109936575052987
2023-12-05,-0.28654970760233905
2023-12-06,0.03462321792261216
2023-12-07,0.00421052631579116
2023-12-08,0.6452282157676309
2023-12-11,0.5791757049891553
2023-12-12,0.6183574879227052
2023-12-13,-0.28643667570680215
2023-12-14,-0.23020813732945808
2023-12-15,0.33116468314516456
2023-12-18,-0.0335057109036436
2023-12-19,0.1088435374149606
2023-12-20,0.9659318637274635
2023-12-21,0.9287211740042007
2023-12-22,0.8215010141987776
2023-12-25,0.5314533622559532
2023-12-26,-0.06730769230769092
2023-12-27,0.20869565217391547
2023-12-28,-0.02298850574712936
2023-12-29,-0.7113095238095096
2024-01-02,-1.1623036649214564
2024-01-03,-1.0286458333333124
2024-01-04,-0.8810126582278597
2024-01-05,-1.1459854014598394
2024-01-08,-1.3173076923076958
2024-01-09,-0.9720670391061406
2024-01-10,-1.4155251141552523
2024-01-11,-0.5536585365853637
2024-01-12,-0.0564516129032472
2024-01-15,0.9559585492228135
2024-01-16,1.092307692307706
2024-01-17,0.05813953488372828
2024-01-18,0.22888283378747196
2024-01-19,0.09264305177111173
2024-01-22,0.8407310704960795
2024-01-23,1.0796915167095151
2024-01-24,1.0289017341040463
2024-01-25,0.2569659442724501
2024-01-26,-0.20414201183431052
2024-01-29,0.669696969696963
2024-01-30,-0.22991689750693778
2024-01-31,-0.2992125984251931
2024-02-01,-1.1545893719806741
2024-02-02,-1.126491646778031
2024-02-05,-0.8641618497109722
2024-02-06,0.2945945945945865
2024-02-07,1.1217183770883101
2024-02-08,0.9655172413792987
2024-02-19,0.938931297709914
2024-02-20,-0.5943775100401614
2024-02-21,-0.5074946466809385
2024-02-22,-0.30295566502461485
2024-02-23,-0.11386138613862282
2024-02-26,-0.10173697270471957
2024-02-27,0.9659685863874276
2024-02-28,0.5420054200542023
2024-02-29,0.6186666666666788
2024-03-01,0.4251336898395803
2024-03-04,0.104438642297675
2024-03-05,-0.8173913043478417
2024-03-06,-0.2985074626865547
2024-03-07,-0.6392405063291091
2024-03-08,0.03749999999999164
2024-03-11,0.43274853801168817
2024-03-12,-0.12383900928792824
2024-03-13,-0.1975683890577535
2024-03-14,0.5081081081081177
2024-03-15,1.2915662650602444
2024-03-18,1.2462311557789056
2024-03-19,0.8728179551122206
2024-03-20,0.6015624999999875
2024-03-21,-0.2133333333333383
2024-03-22,-0.8947368421052695
2024-03-25,-1.1132075471698153
2024-03-26,-0.8885350318471363
2024-03-27,-0.7455089820359379
2024-03-28,-0.38064516129032205
2024-03-29,-0.04761904761905753
2024-04-01,0.7878787878787675
2024-04-02,0.982206405693956
2024-04-03,1.3201581027667895
2024-04-08,0.6579925650557561
2024-04-09,0.42125984251968357
2024-04-10,-0.14937759336099754
2024-04-11,0.26591760299625294
2024-04-12,-0.21485021023086492
2024-04-15,-0.09848729873878032
2024-04-16,-0.28928597276763995
2024-04-17,0.18847460070085453
2024-04-18,0.09887005649716912
2024-04-19,0.4285714285714296
2024-04-22,0.11510791366907464
2024-04-23,-0.6875000000000142
2024-04-24,-0.5477386934673255
2024-04-25,-0.3079019073569537
2024-04-26,0.6883561643835671
2024-04-29,0.8368055555555766
2024-04-30,0.395652173913056
2024-05-06,-1.0990099009901069
2024-05-07,-0.11078717201164108
2024-05-08,-0.3374613003096169
2024-05-09,-0.22686567164177293
2024-05-10,-0.23450134770890155
2024-05-13,0.2356495468278081
2024-05-14,0.02356902356902215
2024-05-15,0.3864406779661147
2024-05-16,0.6513157894736761
2024-05-17,1.8948717948718092
2024-05-20,2.0125628140703617
2024-05-21,0.8090909090909117
2024-05-22,0.36117381489841366
2024-05-23,-0.6797520661157127
2024-05-24,-0.3255208333333536
2024-05-27,0.674300254452942
2024-05-28,0.2825552825552925
2024-05-29,0.5360576923076927
2024-05-30,0.647058823529406
2024-05-31,0.07242990654207958
2024-06-03,-0.9551020408163337
2024-06-04,-1.1887640449438353
2024-06-05,-1.201372997711673
2024-06-06,-0.5228426395938834
2024-06-07,0.0
2024-06-11,0.13541666666667407
2024-06-12,0.8382838283828161
2024-06-13,0.23030303030301064
2024-06-14,-0.06948640483381406
2024-06-17,-0.48795180722891207
2024-06-18,-0.3024691358025014
2024-06-19,0.671428571428588
2024-06-20,0.6923076923076944
2024-06-21,0.07692307692306434
2024-06-24,-0.507331378299126
2024-06-25,0.15921787709498786
2024-06-26,0.2893890675241199
2024-06-27,0.21241830065356174
2024-06-28,0.9003436426116974
2024-07-01,0.6616541353383675
2024-07-02,1.2243346007604672
2024-07-03,1.168103448275842
2024-07-04,-0.35632183908044507
2024-07-05,-1.1863799283154075
2024-07-08,-1.2397260273972415
2024-07-09,-0.8792452830188942
2024-07-10,-1.0162866449511532
2024-07-11,-0.22622950819670387
2024-07-12,-0.2107279693486724
2024-07-15,-0.20325203252031662
2024-07-16,-0.019920318725088697
2024-07-17,-0.3710937499999948
2024-07-18,0.025974025974019096
2024-07-19,-0.6502057613168837
2024-07-22,-0.8416988416988566
2024-07-23,-0.7319999999999864
2024-07-24,-0.28695652173908814
2024-07-25,-0.7007874015747975
2024-07-26,0.08455882352938389
2024-07-29,0.0291970802919729
2024-07-30,-0.8301282051282104
2024-07-31,0.6260162601626014
2024-08-01,0.5232876712328697
2024-08-02,0.6203966005665597
2024-08-05,-0.4818652849740739
2024-08-06,-0.8810198300283293
2024-08-07,-1.0711864406779414
2024-08-08,-0.7593220338982971
2024-08-09,-0.11111111111111353
2024-08-12,0.33948339483394496
2024-08-13,0.6801346801346738
2024-08-14,0.20625100437553145
2024-08-15,-0.43603757943216404
2024-08-16,-0.5081566821110082
2024-08-19,-0.04351694404738499
2024-08-20,0.06790123456789993
2024-08-21,0.7032640949554921
2024-08-22,0.11411411411411033
2024-08-23,-0.2937499999999951
2024-08-26,0.8516483516483728
2024-08-27,1.1840490797546195
2024-08-28,0.7792642140468092
2024-08-29,0.3717472118958768
2024-08-30,0.03088803088802171
2024-09-02,-1.524390243902471
2024-09-03,-1.503937007873999
2024-09-04,-2.1104815864022473
2024-09-05,-1.7958656330749487
2024-09-06,-0.985680190930781
2024-09-09,-0.743276283618594
2024-09-10,-0.6775700934579527
2024-09-11,-0.2802056555269926
2024-09-12,0.1754807692307741
2024-09-13,-0.37170263788968644
2024-09-18,-0.21782178217821277
2024-09-19,0.42691415313226494
2024-09-20,0.05693069306931277
2024-09-23,-0.6151832460733102
2024-09-24,0.6537634408602133
2024-09-25,0.3887733887734025
2024-09-26,0.4922394678492252
2024-09-27,0.9120171673819751
2024-09-30,1.4658703071672339
2024-10-08,1.7668231611893623
2024-10-09,0.7644376899695987
2024-10-10,0.17469879518072545
2024-10-11,0.07740916271722055
2024-10-14,-0.18700787401575775
2024-10-15,-0.9783132530120494
2024-10-16,-0.9860335195530635
2024-10-17,-1.4103896103895823
2024-10-18,-0.2958435207824027
2024-10-21,-0.672093023255806
2024-10-22,-0.3314917127071833
2024-10-23,0.03089887640448783
2024-10-24,0.4183006535947668
2024-10-25,0.3552631578947384
2024-10-28,0.6041666666666657
2024-10-29,-0.5337078651685454
2024-10-30,-0.8312342569269427
2024-10-31,-0.20197044334974815
2024-11-01,-0.0449735449735395
2024-11-04,0.13881019830027355
2024-11-05,0.4
2024-11-06,-0.4100000000000055
2024-11-07,0.49473684210526697
2024-11-08,-0.009685230024220207
2024-11-11,-0.27586206896550863
2024-11-12,-0.14047619047618887
2024-11-13,-0.19518716577540404
2024-11-14,-0.19767441860464074
2024-11-15,-0.35272727272726356
2024-11-18,0.06563706563705674
2024-11-19,0.8178694158075405
2024-11-20,1.103559870550154
2024-11-21,0.6000000000000258
2024-11-22,0.26821192052980036
2024-11-25,0.10702341137123363
2024-11-26,0.17301038062283608
2024-11-27,0.06642066420664547
2024-11-28,-0.10038610038612628
2024-11-29,0.29861539407120435
2024-12-02,0.50369930087369
2024-12-03,0.09191899010823114
2024-12-04,-0.46232678791117854
2024-12-05,-1.106312292358824
2024-12-06,-1.236245954692556
2024-12-09,-0.8491228070175398
2024-12-10,-0.21785714285715577
2024-12-11,0.31349206349206893
2024-12-12,0.9353448275862389
2024-12-13,0.1848341232227469
2024-12-16,0.07943925233645241
2024-12-17,-0.5728643216080366
2024-12-18,-0.9748743718593105
2024-12-19,-0.7321428571428454
2024-12-20,-1.156862745098067
2024-12-23,0.17549668874173963
2024-12-24,0.38408304498268603
2024-12-25,-0.013201320132030077
2024-12-26,0.07272727272727461
2024-12-27,-0.6470588235294151
2024-12-30,-0.15021459227467426
2024-12-31,1.1626297577854596
