date,FCT_Bias_1@5
2012-05-10,
2012-05-11,
2012-05-14,
2012-05-15,
2012-05-16,
2012-05-17,-0.5006031363088057
2012-05-18,0.27757125154894785
2012-05-21,0.7837181044957473
2012-05-22,0.5633116883116853
2012-05-23,-0.5328467153284638
2012-05-24,-0.3249999999999981
2012-05-25,0.34680851063830176
2012-05-28,1.1531728665207837
2012-05-29,0.7235421166306696
2012-05-30,-0.9677419354838709
2012-05-31,-0.4970059880239539
2012-06-01,-0.5750528541226178
2012-06-04,0.6352087114337568
2012-06-05,0.5281306715063504
2012-06-06,1.439781021897812
2012-06-07,1.3705772811918047
2012-06-08,-0.5276967930029128
2012-06-11,0.23391812865497075
2012-06-12,-0.373579545454548
2012-06-13,0.3328100470957585
2012-06-14,0.39341692789968513
2012-06-15,0.14285714285714088
2012-06-18,-0.466666666666662
2012-06-19,0.0026595744680826872
2012-06-20,-0.5127478753541052
2012-06-21,-1.2580645161290278
2012-06-25,-1.978947368421056
2012-06-26,-0.9020270270270285
2012-06-27,-0.7619047619047651
2012-06-28,-0.3869257950530051
2012-06-29,0.02753872633390549
2012-07-02,0.36179775280898674
2012-07-03,1.3422222222222242
2012-07-04,1.3208791208791189
2012-07-05,1.2538293216630236
2012-07-06,-0.34725274725275124
2012-07-09,-1.0629067245119306
2012-07-10,-1.1286089238845145
2012-07-11,-1.0391061452513917
2012-07-12,-0.784916201117316
2012-07-13,0.5968253968254026
2012-07-16,0.6176470588235361
2012-07-17,0.48993288590603723
2012-07-18,0.048701298701298704
2012-07-19,-0.03125000000000316
2012-07-20,-0.4025423728813559
2012-07-23,-0.9008264462809993
2012-07-24,-0.5265700483091832
2012-07-25,-1.2589707059792594
2012-07-26,1.0189122740247367
2012-07-27,1.3765545249228115
2012-07-30,0.6581854136573317
2012-07-31,1.3719008264462782
2012-08-01,0.5062240663900468
2012-08-02,-0.5605381165919264
2012-08-03,-0.8255813953488401
2012-08-06,0.07199999999998975
2012-08-07,0.44204851752022606
2012-08-08,0.42105263157895395
2012-08-09,1.1538461538461398
2012-08-10,0.03618421052631444
2012-08-13,0.2603305785124033
2012-08-14,-0.15498154981550188
2012-08-15,-0.617529880478079
2012-08-16,-0.4239631336405577
2012-08-17,1.0205761316872501
2012-08-20,0.7038626609442054
2012-08-21,1.9844236760124667
2012-08-22,2.1549636803874095
2012-08-23,2.4029197080291946
2012-08-24,1.4441219158200358
2012-08-27,1.264908256880737
2012-08-28,0.42452830188679225
2012-08-29,0.34005037783375447
2012-08-30,-0.020547945205484412
2012-08-31,-0.684297520661148
2012-09-03,1.3897158322056837
2012-09-04,1.3546195652173956
2012-09-05,1.0443828016643617
2012-09-06,1.3467643467643526
2012-09-07,-0.12842105263157325
2012-09-10,1.1883182275931483
2012-09-11,0.75893769152196
2012-09-12,0.4203045685279234
2012-09-13,-0.25324675324675033
2012-09-14,0.7908208296557845
2012-09-17,0.7481203007518838
2012-09-18,0.2175480769230839
2012-09-19,0.7116630669546449
2012-09-20,-0.24524312896405903
2012-09-21,0.41611842105262414
2012-09-24,-0.911214953271019
2012-09-25,-0.8282582216808734
2012-09-26,-0.5890227576974544
2012-09-27,0.07771260997067544
2012-09-28,1.0850202429149782
2012-10-08,-0.6377749029754188
2012-10-09,-0.6059379217273897
2012-10-10,-0.6835781041388538
2012-10-11,-0.2490066225165515
2012-10-12,-0.12990936555891125
2012-10-15,-1.5850467289719676
2012-10-16,-1.2632541133455186
2012-10-17,-0.9823529411764735
2012-10-18,-0.33265720081135863
2012-10-19,-0.8555555555555595
2012-10-22,-0.9261904761904771
2012-10-23,-0.9266503667481641
2012-10-24,-0.3456221198156679
2012-10-25,0.5564853556485407
2012-10-26,-0.5340699815837923
2012-10-29,-0.10968921389396853
2012-10-30,-0.2149532710280353
2012-10-31,-0.07812500000000683
2012-11-01,0.9788053949903599
2012-11-02,-0.4887448353883532
2012-11-05,-1.6599495327414884
2012-11-06,-1.005591667769218
2012-11-07,0.3112906504665117
2012-11-08,0.1563245823388991
2012-11-09,0.7427821522309749
2012-11-12,0.853741496598635
2012-11-13,-0.14871016691958014
2012-11-14,0.49335863377608924
2012-11-15,-0.023012552301248157
2012-11-16,-0.5337837837837798
2012-11-19,0.19634703196346848
2012-11-20,0.9719626168224264
2012-11-21,0.4950980392157008
2012-11-22,0.6541019955654169
2012-11-23,0.7057471264367768
2012-11-26,1.2645833333333272
2012-11-27,1.0315533980582454
2012-11-28,-0.01580135440181233
2012-11-29,-0.9819004524886932
2012-11-30,-0.0021008403361311586
2012-12-03,-1.126893939393938
2012-12-04,-1.3058823529411838
2012-12-05,-0.7620689655172483
2012-12-06,-1.1433333333333255
2012-12-07,-0.26666666666666117
2012-12-10,0.416309012875537
2012-12-11,0.08114558472554188
2012-12-12,0.13541666666667046
2012-12-13,-1.1004901960784343
2012-12-14,-1.077114427860704
2012-12-17,-1.1401425178147213
2012-12-18,0.1569701408148384
2012-12-19,-0.8479862843611663
2012-12-20,-1.3000075504104278
2012-12-21,-1.9929381848718932
2012-12-24,-1.1282367447595574
2012-12-25,-0.9641975308641998
2012-12-26,-0.5164670658682646
2012-12-27,0.09166666666666522
2012-12-28,0.675257731958767
2012-12-31,0.7532808398950063
2013-01-04,-1.2174757281553514
2013-01-07,0.20441176470588038
2013-01-08,0.033132530120479994
2013-01-09,0.46367851622875644
2013-01-10,0.45410628019324
2013-01-11,0.5429769392033531
2013-01-14,0.6288951841359762
2013-01-15,0.935643564356443
2013-01-16,1.1273584905660454
2013-01-17,0.5302325581395404
2013-01-18,1.0564705882352792
2013-01-21,0.5535714285714295
2013-01-22,0.8447761194029886
2013-01-23,0.5416666666666771
2013-01-24,-0.8693009118541081
2013-01-25,-1.0929487179487218
2013-01-28,-1.5426136363636336
2013-01-29,-0.8620689655172428
2013-01-30,-0.12280701754385867
2013-01-31,1.423999999999998
2013-02-01,0.0022573363431125266
2013-02-04,0.353488372093029
2013-02-05,0.24940617577196875
2013-02-06,-0.13915094339623585
2013-02-07,0.09090909090908827
2013-02-08,-0.7297297297297352
2013-02-18,-2.436672967863885
2013-02-19,-1.7918287937743214
2013-02-20,-1.5227272727272734
2013-02-21,-1.6911392405063315
2013-02-22,-0.7446808510638268
2013-02-25,-0.6666666666666605
2013-02-26,-0.19464285714285545
2013-02-27,0.5711743772241984
2013-02-28,0.21220930232557406
2013-03-01,-0.7904040404040514
2013-03-04,-0.3078947368421042
2013-03-05,0.3720930232558074
2013-03-06,0.174556213017749
2013-03-07,0.36443148688048
2013-03-08,-0.2789855072463677
2013-03-11,0.3370370370370399
2013-03-12,-0.38135593220339825
2013-03-13,0.3580246913580279
2013-03-14,-0.6011560693641633
2013-03-15,-0.3285302593659896
2013-03-18,-0.6417910447761209
2013-03-19,-0.07017543859649474
2013-03-20,0.08527131782945845
2013-03-21,0.05387205387205652
2013-03-22,0.48797250859106434
2013-03-25,-0.6174242424242398
2013-03-26,-0.696498054474726
2013-03-27,-1.772602739726037
2013-03-28,-0.26279069767441726
2013-03-29,-0.7609108159392772
2013-04-01,-1.1333333333333337
2013-04-02,-0.49653979238753565
2013-04-03,-1.6493108728943366
2013-04-08,-0.5942492012779523
2013-04-09,-0.057301293900180864
2013-04-10,0.8584729981378049
2013-04-11,0.06000000000000288
2013-04-12,-0.05925925925926209
2013-04-15,-2.1861538461538492
2013-04-16,-2.8074418604651172
2013-04-17,-2.1806908768821986
2013-04-18,-1.4309791332263249
2013-04-19,-0.37126185266228956
2013-04-22,-0.15808491418247927
2013-04-23,-0.7781774580335669
2013-04-24,-0.07326007326007074
2013-04-25,-0.04242424242423708
2013-04-26,0.9928656361474404
2013-05-02,0.11649484536082907
2013-05-03,0.46347031963470686
2013-05-06,0.23489167616876055
2013-05-07,-0.4925373134328372
2013-05-08,0.030333522025621253
2013-05-09,0.24766642272269668
2013-05-10,0.21914155030267682
2013-05-13,-0.27499611257969603
2013-05-14,-0.38513513513513326
2013-05-15,-1.479999999999988
2013-05-16,-1.4744680851063818
2013-05-17,-1.1873589164785643
2013-05-20,-1.8978583196046097
2013-05-21,0.2948255114320108
2013-05-22,0.30748299319728173
2013-05-23,-0.06557377049180116
2013-05-24,0.12278481012658081
2013-05-27,0.12598425196850285
2013-05-28,-0.08040201005025073
2013-05-29,-0.6381418092909569
2013-05-30,0.345744680851072
2013-05-31,0.6629834254143595
2013-06-03,-0.14606741573034626
2013-06-04,0.1417322834645735
2013-06-05,-0.05277777777776119
2013-06-06,-0.6126984126984205
2013-06-07,0.28279883381925147
2013-06-13,-1.156542056074762
2013-06-14,-1.169950738916255
2013-06-17,-0.5074257425742514
2013-06-18,-0.49739583333332654
2013-06-19,-0.18926553672315843
2013-06-20,-1.7314148681055144
2013-06-21,-2.3707482993197213
2013-06-24,-1.9298245614035066
2013-06-25,-1.0534458509142064
2013-06-26,-1.0984162895927623
2013-06-27,-0.8335625859697346
2013-06-28,-0.5351270553064262
2013-07-01,0.8091922005571056
2013-07-02,0.8262711864406797
2013-07-03,0.4999999999999974
2013-07-04,0.2272727272727277
2013-07-05,-0.8865096359743116
2013-07-08,-1.7619047619047579
2013-07-09,0.004140786749481097
2013-07-10,-0.1551020408163227
2013-07-11,1.015602836879429
2013-07-12,0.5616641901931663
2013-07-15,0.3848531684698605
2013-07-16,0.21217712177121387
2013-07-17,-0.009746588693949294
2013-07-18,-0.9457013574660583
2013-07-19,-0.7168949771689418
2013-07-22,0.4795081967213164
2013-07-23,0.7170542635658845
2013-07-24,0.7219047619047622
2013-07-25,0.1330049261083684
2013-07-26,-0.2077562326869757
2013-07-29,-1.386227544910171
2013-07-30,-1.2366666666666668
2013-07-31,-0.20624999999999621
2013-08-01,-0.5693215339233123
2013-08-02,-0.7277227722772295
2013-08-05,0.4391891891891945
2013-08-06,-0.06304347826086569
2013-08-07,-0.20861678004535208
2013-08-08,0.31276595744680874
2013-08-09,0.7366255144032908
2013-08-12,2.0052083333333366
2013-08-13,1.8962848297213633
2013-08-14,0.8968609865470853
2013-08-15,1.0398899587345225
2013-08-16,1.312570781426959
2013-08-19,1.0988735919899932
2013-08-20,0.13053348467650744
2013-08-21,0.15800865800866132
2013-08-22,-0.04678362573099091
2013-08-23,0.315151515151512
2013-08-26,1.5830164765525998
2013-08-27,1.298444130127304
2013-08-28,1.5393548387096776
2013-08-29,-0.12950340798442267
2013-08-30,-0.6370370370370355
2013-09-02,0.026590693257360836
2013-09-03,-0.045362903225806925
2013-09-04,-0.005138746145938773
2013-09-05,-0.6558197747183981
2013-09-06,-0.6340482573726496
2013-09-09,0.19318181818182034
2013-09-10,-0.22995461422087862
2013-09-11,-0.4157303370786539
2013-09-12,-1.0037313432835755
2013-09-13,-1.7408491947291294
2013-09-16,-1.1323741007194241
2013-09-17,-0.4571865443425119
2013-09-18,-0.3343749999999928
2013-09-23,-0.15596330275228898
2013-09-24,-0.1864951768488707
2013-09-25,-0.042622950819674765
2013-09-26,-0.04020100502512939
2013-09-27,-0.26534296028881377
2013-09-30,0.09774436090226184
2013-10-08,1.2125813449023897
2013-10-09,0.9612403100775225
2013-10-10,-0.1490384615384737
2013-10-11,-0.9675174013921205
2013-10-14,-1.1478260869565244
2013-10-15,-1.286057692307694
2013-10-16,-0.21397379912664002
2013-10-17,-0.3888888888888872
2013-10-18,0.9469696969696924
2013-10-21,1.236059479553903
2013-10-22,0.7545638945233288
2013-10-23,1.1804511278195444
2013-10-24,0.745798319327733
2013-10-25,-0.20374707259952496
2013-10-28,-0.2014563106796197
2013-10-29,-0.13888888888888237
2013-10-30,0.30085959885387265
2013-10-31,-0.4033264033264092
2013-11-01,-0.9354166666666687
2013-11-04,-1.1006711409396048
2013-11-05,-0.7185501066098104
2013-11-06,-0.22911694510739034
2013-11-07,0.40701754385965716
2013-11-08,-0.03833865814697605
2013-11-11,-0.700534759358295
2013-11-12,-0.8215223097112759
2013-11-13,-1.0833333333333262
2013-11-14,-0.44057377049180363
2013-11-15,-0.36386138613861946
2013-11-18,-0.17125382262997493
2013-11-19,-0.6956521739130351
2013-11-20,-0.06597222222221003
2013-11-21,-0.9936507936507988
2013-11-22,-0.7114754098360642
2013-11-25,-0.8962536023054802
2013-11-26,0.1710144927536185
2013-11-27,0.09923262203179498
2013-11-28,-0.15198464032487857
2013-11-29,-0.13726775139328967
2013-12-02,0.08940939720859163
2013-12-03,-1.1095890410958908
2013-12-04,-1.020905923344949
2013-12-05,-0.006349206349208217
2013-12-06,0.1784702549575046
2013-12-09,0.5804020100502518
2013-12-10,1.2788203753351162
2013-12-11,1.2130325814536307
2013-12-12,0.952646239554325
2013-12-13,-1.0922131147540988
2013-12-16,-0.9884259259259258
2013-12-17,0.20039682539682668
2013-12-18,0.18994413407820948
2013-12-19,-0.1430842607313193
2013-12-20,-0.8435114503816786
2013-12-23,-0.38958707360861944
2013-12-24,-0.4316702819956639
2013-12-25,0.08312958435207328
2013-12-26,0.1914191419141927
2013-12-27,1.2929936305732477
2013-12-30,0.5046439628483055
2013-12-31,-0.4469273743016737
2014-01-02,0.676470588235297
2014-01-03,0.39194915254237583
2014-01-06,0.21004566210045225
2014-01-07,0.12990196078431657
2014-01-08,-1.0821596244131504
2014-01-09,-1.201970443349756
2014-01-10,-0.4354838709677363
2014-01-13,0.31322957198443363
2014-01-14,0.6080843585237257
2014-01-15,0.20626151012891583
2014-01-16,0.01622718052738816
2014-01-17,-0.06966292134831306
2014-01-20,0.32258064516128476
2014-01-21,0.02120141342755942
2014-01-22,-0.9097472924187598
2014-01-23,-0.9854545454545554
2014-01-24,0.009554140127391385
2014-01-27,-0.08757062146893878
2014-01-28,0.055718475073316065
2014-01-29,-0.20401337792641702
2014-01-30,-0.5348101265822895
2014-02-07,0.11184210526316671
2014-02-10,0.8630136986301402
2014-02-11,0.45779220779219937
2014-02-12,0.31562499999999327
2014-02-13,0.11231884057969907
2014-02-14,1.3800623052959509
2014-02-17,2.521640091116177
2014-02-18,1.4214876033057882
2014-02-19,0.9497098646034856
2014-02-20,0.0317725752508333
2014-02-21,-0.1801125703564759
2014-02-24,0.013824884792625204
2014-02-25,0.03580562659846367
2014-02-26,0.4209183673469458
2014-02-27,-1.0993657505285337
2014-02-28,-0.8676470588235278
2014-03-03,-0.17211328976034704
2014-03-04,-0.39248434237996377
2014-03-05,-0.08944954128440813
2014-03-06,-0.2218309859154909
2014-03-07,0.4419354838709661
2014-03-10,-1.2331002331002368
2014-03-11,-0.6954436450839349
2014-03-12,-0.0753564154786176
2014-03-13,0.32347504621071793
2014-03-14,0.40944881889763485
2014-03-17,0.5819861431870604
2014-03-18,-0.2368421052631588
2014-03-19,-0.5841121495327067
2014-03-20,-0.619385342789603
2014-03-21,-0.623287671232872
2014-03-24,-0.554376657824929
2014-03-25,-0.4834834834834874
2014-03-26,0.003521126760555801
2014-03-27,-0.43726235741445707
2014-03-28,-0.12393162393161891
2014-03-31,-0.28169014084507416
2014-04-01,-0.40444444444445626
2014-04-02,-0.058536585365871016
2014-04-03,0.2748538011696009
2014-04-04,-0.1506024096385544
2014-04-08,0.8651685393258475
2014-04-09,0.4765100671140839
2014-04-10,0.24378109452736135
2014-04-11,-0.024154589371975985
2014-04-14,0.19512195121951073
2014-04-15,-0.8796296296296209
2014-04-16,-1.236641221374063
2014-04-17,-1.156249999999999
2014-04-18,-0.8888888888888962
2014-04-21,-1.1546762589928012
2014-04-22,-0.4503816793893092
2014-04-23,-0.17903930131004459
2014-04-24,0.19545454545453783
2014-04-25,0.6190476190476164
2014-04-28,0.8504398826979427
2014-04-29,0.2500000000000101
2014-04-30,-0.05341246290800598
2014-05-05,0.1938202247190968
2014-05-06,0.22596153846153486
2014-05-07,0.4277456647398829
2014-05-08,-0.7291666666666619
2014-05-09,-0.6666666666666545
2014-05-12,0.19999999999999485
2014-05-13,0.49784258678593013
2014-05-14,0.8817443629205446
2014-05-15,0.9765509233081408
2014-05-16,-0.35509420008073717
2014-05-19,0.13675213675213768
2014-05-20,-0.3805309734513223
2014-05-21,0.08764940239044978
2014-05-22,0.4936708860759504
2014-05-23,0.26905829596411396
2014-05-26,0.10309278350514203
2014-05-27,-0.7925531914893648
2014-05-28,-1.13483146067414
2014-05-29,-1.6173469387754755
2014-05-30,-0.3854166666666698
2014-06-03,-0.30769230769231176
2014-06-04,-0.15584415584416156
2014-06-05,0.06635071090046667
2014-06-06,0.5612244897959405
2014-06-09,0.21287128712873263
2014-06-10,0.05442176870746211
2014-06-11,0.503355704697975
2014-06-12,-0.1401273885350475
2014-06-13,1.2941176470587927
2014-06-16,1.4260089686098554
2014-06-17,0.24705882352939787
2014-06-18,0.17938931297710878
2014-06-19,0.4755244755244766
2014-06-20,1.8588516746411519
2014-06-23,1.6980198019802013
2014-06-24,1.1709183673469437
2014-06-25,0.3167420814479607
2014-06-26,-0.11590909090909307
2014-06-27,-0.024390243902440437
2014-06-30,-0.36236933797909254
2014-07-01,-0.035483870967746224
2014-07-02,0.1358490566037684
2014-07-03,-0.10037174721189682
2014-07-04,0.36546184738955984
2014-07-07,-0.7508896797153
2014-07-08,-0.26744186046511703
2014-07-09,0.057471264367815446
2014-07-10,0.23791821561338394
2014-07-11,1.3100303951367747
2014-07-14,0.07817589576547512
2014-07-15,-0.39047619047619486
2014-07-16,-0.7232142857142738
2014-07-17,-0.4950819672131172
2014-07-18,0.2056737588652364
2014-07-21,0.261904761904757
2014-07-22,0.12875536480686667
2014-07-23,0.25120772946861264
2014-07-24,-0.2522123893805326
2014-07-25,-1.0470085470085575
2014-07-28,-0.29007633587786713
2014-07-29,-0.2352941176470579
2014-07-30,-0.08812260536399201
2014-07-31,0.32926829268292157
2014-08-01,-0.396226415094353
2014-08-04,-0.0393258426966455
2014-08-05,-0.3047619047618957
2014-08-06,-1.258474576271191
2014-08-07,-0.41803278688524625
2014-08-08,0.0
2014-08-11,-0.2510460251046117
2014-08-12,0.10344827586206413
2014-08-13,-0.05325443786979932
2014-08-14,-0.5606936416184841
2014-08-15,-0.3642384105960415
2014-08-18,-1.6846846846846855
2014-08-19,-1.3849557522123999
2014-08-20,-1.0672268907563125
2014-08-21,-0.7727272727272817
2014-08-22,0.10227272727272856
2014-08-25,0.0320855614973208
2014-08-26,0.6635514018691582
2014-08-27,0.22966507177034268
2014-08-28,0.7297297297297397
2014-08-29,0.4142857142857273
2014-09-01,-0.004587155963309467
2014-09-02,-0.594202898550743
2014-09-03,-0.8350515463917508
2014-09-04,-0.7891156462584914
2014-09-05,-0.43786982248520906
2014-09-09,-0.4906832298136692
2014-09-10,0.2222222222222222
2014-09-11,-0.1516853932584297
2014-09-12,-0.7510373443983347
2014-09-15,-0.5733333333333472
2014-09-16,-0.2509960159362613
2014-09-17,0.20179372197309284
2014-09-18,-0.3166023166023255
2014-09-19,-0.15510204081633297
2014-09-22,-2.180043383947931
2014-09-23,-1.827800829875517
2014-09-24,-0.8882352941176441
2014-09-25,-0.837735849056604
2014-09-26,0.23825503355705036
2014-09-29,0.2585365853658497
2014-09-30,0.3164893617021282
2014-10-08,-0.05583756345178368
2014-10-09,0.20472440944880962
2014-10-10,0.024316109422483297
2014-10-13,0.43843843843844027
2014-10-14,0.19938650306748346
2014-10-15,-0.5656250000000012
2014-10-16,0.023323615160341194
2014-10-17,-0.10862619808306971
2014-10-20,0.11808118081181854
2014-10-21,0.29501915708813276
2014-10-22,0.19298245614035436
2014-10-23,-0.7486910994764187
2014-10-24,-0.46428571428572324
2014-10-27,-0.8035714285714071
2014-10-28,-0.42458100558659806
2014-10-29,0.22727272727271275
2014-10-30,-1.3920704845815013
2014-10-31,-2.294642857142866
2014-11-03,-2.2925764192139777
2014-11-04,-1.519148936170216
2014-11-05,-1.5273972602739703
2014-11-06,-1.1203294621003212
2014-11-07,-0.6641853041489877
2014-11-10,0.30447998974537493
2014-11-11,0.2984888888888938
2014-11-12,0.6666666666666686
2014-11-13,0.23641304347826012
2014-11-14,-0.8211586901763208
2014-11-17,1.0816733067729067
2014-11-18,0.687258687258689
2014-11-19,0.5553359683794503
2014-11-20,0.13613445378151337
2014-11-21,0.03000000000000143
2014-11-24,0.3440233236151638
2014-11-25,0.5389408099688475
2014-11-26,0.27439024390243816
2014-11-27,-0.26893939393939187
2014-11-28,-1.076923076923078
2014-12-01,-2.181578947368419
2014-12-02,0.4796380090497778
2014-12-03,0.501420454545453
2014-12-04,0.5909090909090913
2014-12-05,0.540114613180517
2014-12-08,-0.06750392464678175
2014-12-09,0.26246719160105225
2014-12-10,1.4079254079254127
2014-12-11,0.9145833333333269
2014-12-12,0.8501118568232733
2014-12-15,0.35857461024498605
2014-12-16,-1.0836298932384316
2014-12-17,-1.0798045602605812
2014-12-18,-0.5278637770897827
2014-12-19,-0.23708206686930294
2014-12-22,0.14833333333333637
2014-12-23,-0.43511450381679406
2014-12-24,-0.31531531531531165
2014-12-25,-0.4545454545454513
2014-12-26,0.1538461538461585
2014-12-29,0.5761194029850659
2014-12-30,0.18729096989966026
2014-12-31,0.9043209876543202
2015-01-05,0.36764705882352977
2015-01-06,0.6513994910941522
2015-01-07,0.43065693430656676
2015-01-08,0.1417525773195837
2015-01-09,0.19191919191919446
2015-01-12,0.564327485380116
2015-01-13,0.660256410256413
2015-01-14,0.3294117647058738
2015-01-15,-0.2285714285714341
2015-01-16,0.395348837209302
2015-01-19,1.2810590631364562
2015-01-20,1.0381355932203367
2015-01-21,1.5332068311195417
2015-01-22,0.35875216637781315
2015-01-23,0.34111310592459204
2015-01-26,0.12058212058211708
2015-01-27,-0.3066406249999942
2015-01-28,-0.28992628992629316
2015-01-29,-0.777126099706737
2015-01-30,-1.9831932773109313
2015-02-02,-0.827586206896547
2015-02-03,-0.19649805447470467
2015-02-04,-0.11257035647280093
2015-02-05,0.3428030303030277
2015-02-06,0.18933333333333094
2015-02-09,-0.7499999999999977
2015-02-10,-0.34626865671641455
2015-02-11,-0.27812499999999035
2015-02-12,-0.5141065830721017
2015-02-13,0.31952662721893454
2015-02-16,0.983164983164985
2015-02-17,0.5600000000000013
2015-02-25,-0.5911602209944755
2015-02-26,-0.5271084337349317
2015-02-27,-0.41390728476821287
2015-03-02,0.19031141868512452
2015-03-03,-0.21319796954315376
2015-03-04,-0.5581395348837214
2015-03-05,-0.6198347107438055
2015-03-06,-0.5000000000000027
2015-03-09,-0.8312655086848667
2015-03-10,-1.3169934640522898
2015-03-11,-0.5830388692579446
2015-03-12,-0.20317460317459551
2015-03-13,-0.0926517571884957
2015-03-16,0.3862815884476539
2015-03-17,-0.1538461538461629
2015-03-18,-0.4290540540540466
2015-03-19,0.6923076923076927
2015-03-20,0.6824925816023745
2015-03-23,1.5821256038647322
2015-03-24,1.3977011494252831
2015-03-25,0.6589861751152042
2015-03-26,0.8087431693989066
2015-03-27,0.05434782608695695
2015-03-30,-0.7542662116041017
2015-03-31,-1.3627118644067755
2015-04-01,-0.9342560553633175
2015-04-02,0.2474576271186411
2015-04-03,0.0819672131147528
2015-04-07,0.41785714285713915
2015-04-08,0.30125523012551864
2015-04-09,-1.3642172523961724
2015-04-10,-1.1467576791808787
2015-04-13,-0.2730263157894817
2015-04-14,-0.45896656534953495
2015-04-15,6.7373201834528706e-15
2015-04-16,0.5486111111110981
2015-04-17,-0.023102310231020468
2015-04-20,0.46350364963503543
2015-04-21,-0.6369636963696346
2015-04-22,-0.3101045296167224
2015-04-23,-0.8934707903780027
2015-04-24,-0.36194029850746534
2015-04-27,-0.10801393728223423
2015-04-28,1.47129909365558
2015-04-29,1.093150684931503
2015-04-30,0.7019498607242364
2015-05-04,-0.029556650246302135
2015-05-05,-0.09090909090909716
2015-05-06,0.13180515759311542
2015-05-07,-0.2744431978974761
2015-05-08,-0.026785110473491462
2015-05-11,-0.021683464849827437
2015-05-12,-0.352332303467213
2015-05-13,0.7176470588235294
2015-05-14,1.3792207792207798
2015-05-15,1.18848167539267
2015-05-18,1.3364485981308443
2015-05-19,0.29523809523808947
2015-05-20,-0.9252525252525273
2015-05-21,-0.6041666666666697
2015-05-22,-0.39953810623557096
2015-05-25,-0.2842377260981883
2015-05-26,-0.49875311720698906
2015-05-27,-0.45695364238411335
2015-05-28,-0.40202702702702664
2015-05-29,-0.22027972027972323
2015-06-01,-0.17100371747211837
2015-06-02,0.12167300380228391
2015-06-03,0.20000000000000676
2015-06-04,-0.5984848484848468
2015-06-05,-1.2258064516129055
2015-06-08,-0.7827586206896597
2015-06-09,-0.6853448275862067
2015-06-10,-0.1121076233183904
2015-06-11,-0.21674876847289767
2015-06-12,-0.11055276381909106
2015-06-15,-0.2391304347826125
2015-06-16,0.29556650246304733
2015-06-17,-0.35585585585585977
2015-06-18,0.437246963562752
2015-06-19,0.12403100775194022
2015-06-23,-0.34339622641508905
2015-06-24,-0.7736486486486482
2015-06-25,-0.8608058608058469
2015-06-26,-1.1302681992337182
2015-06-29,-0.3059701492537244
2015-06-30,-0.4534534534534468
2015-07-01,-0.3775811209439605
2015-07-02,-0.2861111111111085
2015-07-03,0.17927170868347017
2015-07-06,-0.059701492537314584
2015-07-07,-0.04333333333333628
2015-07-08,-1.969047619047618
2015-07-09,-0.09015025041736216
2015-07-10,0.07450331125827266
2015-07-13,0.15472312703582905
2015-07-14,0.008995502248877572
2015-07-15,-0.1948310139165026
2015-07-16,-0.7720797720797717
2015-07-17,-0.669312169312165
2015-07-20,-0.5827338129496386
2015-07-21,-0.4473684210526311
2015-07-22,-0.31566265060240867
2015-07-23,-0.034120734908132416
2015-07-24,-0.3571428571428562
2015-07-27,-0.04043126684636697
2015-07-28,-0.2177914110429473
2015-07-29,0.017605633802828008
2015-07-30,-0.07189542483660682
2015-07-31,-0.15849056603773495
2015-08-03,0.3613445378151192
2015-08-04,-0.3273381294963997
2015-08-05,-0.3610108303249185
2015-08-06,-0.16129032258064896
2015-08-07,0.4131274131274305
2015-08-10,0.7647058823529376
2015-08-11,1.7216828478964408
2015-08-12,2.2737306843267078
2015-08-13,1.3306451612903218
2015-08-14,0.7118997912317335
2015-08-17,-0.11685823754789157
2015-08-18,-0.4917257683215112
2015-08-19,-0.7432024169184335
2015-08-20,0.3227665706051802
2015-08-21,0.4919786096256725
2015-08-24,-0.39612188365651696
2015-08-25,-0.8477751756440267
2015-08-26,-1.1500000000000048
2015-08-27,-1.1471962616822422
2015-08-28,-0.0750000000000016
2015-08-31,0.053333333333329166
2015-09-01,0.15365853658536793
2015-09-02,0.0332409972299177
2015-09-07,-0.1688311688311652
2015-09-08,-0.07017543859649303
2015-09-09,0.12184873949580349
2015-09-10,0.15962441314554918
2015-09-11,0.024630541871912676
2015-09-14,-0.4655172413793086
2015-09-15,-0.6621621621621608
2015-09-16,-0.1151832460732942
2015-09-17,1.038961038961038
2015-09-18,1.0940766550522665
2015-09-21,1.1027397260273986
2015-09-22,0.48135593220339545
2015-09-23,-0.49221183800622864
2015-09-24,-0.3776978417266191
2015-09-25,0.053061224489799434
2015-09-28,-0.4652173913043546
2015-09-29,-1.1358885017421627
2015-09-30,-0.9239999999999987
2015-10-08,1.121399176954738
2015-10-09,0.9896265560165951
2015-10-12,0.9227557411273457
2015-10-13,0.16059957173447226
2015-10-14,0.08074534161490218
2015-10-15,0.09600000000000196
2015-10-16,-0.42105263157895545
2015-10-19,-0.4869565217391297
2015-10-20,-0.38164251207728744
2015-10-21,-0.6417910447761239
2015-10-22,-0.04999999999999501
2015-10-23,0.6666666666666652
2015-10-26,-0.0863636363636355
2015-10-27,-0.010152284263953457
2015-10-28,0.19387755102040627
2015-10-29,-0.18699186991869848
2015-10-30,-0.5940170940171043
2015-11-02,-0.8325358851674656
2015-11-03,-0.6952380952380932
2015-11-04,-0.7980295566502359
2015-11-05,-1.483695652173916
2015-11-06,-0.9593023255813977
2015-11-09,-1.0867579908675928
2015-11-10,-1.074074074074075
2015-11-11,-0.5537848605577613
2015-11-12,-0.5162790697674409
2015-11-13,-0.26808510638297256
2015-11-16,0.42233009708737435
2015-11-17,-0.5956521739130288
2015-11-18,-0.33886974881841714
2015-11-19,-0.1971290440697228
2015-11-20,-0.00732540098232786
2015-11-23,-0.7710264866964828
2015-11-24,-0.5999999999999985
2015-11-25,-0.10204081632652752
2015-11-26,0.12096774193548682
2015-11-27,-0.08616187989555986
2015-11-30,-0.5067567567567483
2015-12-01,0.09342560553632742
2015-12-02,0.053639846743298976
2015-12-03,-0.34008097165991347
2015-12-04,0.14473684210526533
2015-12-07,0.8341013824884762
2015-12-08,0.2822222222222182
2015-12-09,0.15283842794759922
2015-12-10,-0.04054054054054052
2015-12-11,-0.13028169014084842
2015-12-14,-0.3380281690140844
2015-12-15,-0.6719576719576779
2015-12-16,-0.2613636363636361
2015-12-17,0.23529411764706115
2015-12-18,-0.028301886792445097
2015-12-21,0.911392405063283
2015-12-22,0.7299578059071777
2015-12-23,0.2988047808764956
2015-12-24,0.4337899543378991
2015-12-25,0.3977272727272626
2015-12-28,-0.32484076433120834
2015-12-29,-0.03311258278145619
2015-12-30,-0.21323529411765332
2015-12-31,-0.7037037037037065
2016-01-04,0.022222222222229984
2016-01-05,0.20231213872831907
2016-01-06,0.23493975903613232
2016-01-07,0.927927927927939
2016-01-08,0.5510204081632688
2016-01-11,0.25112107623318053
2016-01-12,-0.8715953307393091
2016-01-13,-0.9844961240310139
2016-01-14,-0.0805084745762648
2016-01-15,-0.21461187214612243
2016-01-18,0.1730769230769352
2016-01-19,0.5437499999999955
2016-01-20,0.2292993630573239
2016-01-21,0.7637795275590439
2016-01-22,0.2170542635658878
2016-01-25,0.04285714285714841
2016-01-26,0.9487179487179377
2016-01-27,0.745454545454541
2016-01-28,0.221556886227565
2016-01-29,-0.4121212121212315
2016-02-01,-0.2516556291390687
2016-02-02,-0.2928571428571583
2016-02-03,-0.015151515151510891
2016-02-04,1.201219512195128
2016-02-05,0.8488372093023213
2016-02-15,1.6498054474708042
2016-02-16,1.0076335877862554
2016-02-17,0.5877862595419832
2016-02-18,0.14545454545455022
2016-02-19,0.16190476190476402
2016-02-22,-0.5142857142857121
2016-02-23,-0.4632352941176554
2016-02-24,-0.4108527131782874
2016-02-25,-0.4382716049382796
2016-02-26,-0.745762711864411
2016-02-29,-1.9834024896265625
2016-03-01,-0.8045977011494293
2016-03-02,-0.6172413793103481
2016-03-03,-0.028985507246377773
2016-03-04,1.1181818181818208
2016-03-07,1.3305322128851569
2016-03-08,0.49884526558891396
2016-03-09,-0.24640657084188716
2016-03-10,-0.38492871690427377
2016-03-11,0.03607214428857707
2016-03-14,0.15174129353233629
2016-03-15,-0.19525065963059837
2016-03-16,-0.12052117263843924
2016-03-17,0.254437869822488
2016-03-18,1.217647058823522
2016-03-21,0.3306233062330588
2016-03-22,0.7241379310344823
2016-03-23,-0.20058139534884353
2016-03-24,-1.0089020771513408
2016-03-25,-0.8750000000000031
2016-03-28,-0.8490566037735728
2016-03-29,-0.6130653266331729
2016-03-30,0.4171122994652466
2016-03-31,-0.05769230769230007
2016-04-01,0.33950617283949996
2016-04-05,-0.7420814479638055
2016-04-06,-0.6748768472906476
2016-04-07,-0.30927835051546954
2016-04-08,-0.10052910052910523
2016-04-11,0.8365384615384528
2016-04-12,1.7692307692307399
2016-04-13,1.4356435643564196
2016-04-14,0.8240343347639485
2016-04-15,0.4893617021276641
2016-04-18,0.03614457831324789
2016-04-19,1.7297297297297323
2016-04-20,1.3872437357631016
2016-04-21,1.7271062271062292
2016-04-22,0.29241379310344623
2016-04-25,-0.0903387703889585
2016-04-26,-0.3103448275862083
2016-04-27,0.3188622754491005
2016-04-28,0.3176265270506093
2016-04-29,0.8719512195121979
2016-05-03,0.6642512077294676
2016-05-04,-0.4563318777292589
2016-05-05,-0.29820051413881843
2016-05-06,-0.5936739659367389
2016-05-09,-0.5014662756598204
2016-05-10,-0.7741406504015758
2016-05-11,-0.1916485417593688
2016-05-12,0.12784656627557098
2016-05-13,-0.179714354098744
2016-05-16,0.3543123543123459
2016-05-17,0.048128342245987804
2016-05-18,-0.3123209169054491
2016-05-19,-1.021531100478465
2016-05-20,-1.173076923076927
2016-05-23,-1.0698324022346404
2016-05-24,-0.9291784702549498
2016-05-25,-0.45533141210374445
2016-05-26,0.31407942238266934
2016-05-27,-0.1290322580645139
2016-05-30,-0.8695652173913058
2016-05-31,-0.43437499999999996
2016-06-01,-0.29152542372881984
2016-06-02,0.0035335689045940207
2016-06-03,0.30973451327432405
2016-06-06,1.4190476190476093
2016-06-07,1.2849999999999941
2016-06-08,1.3247863247863245
2016-06-13,2.106628242074922
2016-06-14,1.3471074380165289
2016-06-15,1.2327044025157314
2016-06-16,1.1806615776081508
2016-06-17,-0.33190578158458667
2016-06-20,-0.3397260273972563
2016-06-21,-0.21832884097035407
2016-06-22,-0.5539215686274501
2016-06-23,-0.28307692307693105
2016-06-24,0.9043209876543183
2016-06-27,0.9676470588235303
2016-06-28,0.5507246376811605
2016-06-29,1.573085846867749
2016-06-30,0.993589743589743
2016-07-01,1.7037037037036988
2016-07-04,2.041786743515847
2016-07-05,1.0140388768898503
2016-07-06,0.8977159880834159
2016-07-07,0.2244701348747593
2016-07-08,-0.4788135593220348
2016-07-11,0.28252427184465645
2016-07-12,0.31030303030303047
2016-07-13,0.37637362637362604
2016-07-14,0.10788381742738724
2016-07-15,-0.26574500768049325
2016-07-18,-0.9084967320261438
2016-07-19,-0.7106481481481477
2016-07-20,-0.8863636363636287
2016-07-21,-1.376657824933675
2016-07-22,-0.18695652173912838
2016-07-25,-0.36601307189541943
2016-07-26,0.13508064516129448
2016-07-27,0.14526315789474184
2016-07-28,1.291970802919707
2016-07-29,0.6695095948827328
2016-08-01,1.0440881763527095
2016-08-02,0.7062634989200839
2016-08-03,0.5696465696465695
2016-08-04,-0.6365795724465525
2016-08-05,-0.23600973236009826
2016-08-08,-1.4978070175438616
2016-08-09,-1.0842572062084235
2016-08-10,0.4007352941176434
2016-08-11,0.13813229571984428
2016-08-12,0.19111969111969196
2016-08-15,-0.3066954643628452
2016-08-16,-0.09240246406571313
2016-08-17,-0.5137844611528882
2016-08-18,-0.08153477218225726
2016-08-19,-0.14500000000000351
2016-08-22,-1.5053763440860255
2016-08-23,-0.8946135831381733
2016-08-24,-0.8533007334963275
2016-08-25,-0.9437229437229421
2016-08-26,-0.4329670329670296
2016-08-29,-0.51421800947868
2016-08-30,0.021978021978024315
2016-08-31,0.1616379310344835
2016-09-01,0.2620481927710814
2016-09-02,0.5596816976127378
2016-09-05,1.5949008498583515
2016-09-06,1.6340694006309084
2016-09-07,1.6472148541114102
2016-09-08,0.9162436548223258
2016-09-09,-0.2245430809399526
2016-09-12,-1.3299999999999976
2016-09-13,-0.66884531590414
2016-09-14,-0.5552884615384616
2016-09-19,-0.017699115044244134
2016-09-20,0.31414868105515986
2016-09-21,0.678474114441414
2016-09-22,0.9502762430939284
2016-09-23,0.7282913165266041
2016-09-26,-0.165714285714289
2016-09-27,-0.34426229508196976
2016-09-28,-1.1459459459459482
2016-09-29,-0.696969696969703
2016-09-30,-0.40935672514619864
2016-10-10,-2.101221640488655
2016-10-11,-1.235294117647067
2016-10-12,-1.085661080074485
2016-10-13,-0.5631262525050064
2016-10-14,-0.1064718162839261
2016-10-17,-0.1519607843137176
2016-10-18,0.894230769230782
2016-10-19,0.5306122448979522
2016-10-20,0.7794871794871716
2016-10-21,-0.3609958506224025
2016-10-24,0.07883817427386758
2016-10-25,0.5654008438818648
2016-10-26,0.7258687258687258
2016-10-27,0.2677165354330698
2016-10-28,0.0047393364928915325
2016-10-31,0.3084112149532803
2016-11-01,0.6666666666666616
2016-11-02,1.9915966386554549
2016-11-03,0.9545454545454648
2016-11-04,-0.3377483443708642
2016-11-07,-0.3542319749216292
2016-11-08,-0.04132231404959136
2016-11-09,1.1247264770240661
2016-11-10,0.9501039501039531
2016-11-11,0.9230485068678017
2016-11-14,-1.17635620119864
2016-11-15,-1.0266380620882454
2016-11-16,-0.7460290909014881
2016-11-17,-0.5433715220949278
2016-11-18,-0.29687500000000167
2016-11-21,-0.047457627118650945
2016-11-22,0.4499999999999999
2016-11-23,0.36131386861312603
2016-11-24,-0.12576687116564406
2016-11-25,-0.348242811501599
2016-11-28,0.7304582210242491
2016-11-29,0.28160919540229473
2016-11-30,-0.04878048780487909
2016-12-01,-0.20159151193633898
2016-12-02,-0.32132963988918645
2016-12-05,0.10263929618769058
2016-12-06,0.23053892215568372
2016-12-07,0.15584415584414246
2016-12-08,1.020408163265303
2016-12-09,0.5568181818181739
2016-12-12,0.49328859060402785
2016-12-13,0.6238244514106562
2016-12-14,0.23097826086955817
2016-12-15,-0.30724637681159567
2016-12-16,-1.3625592417061578
2016-12-19,-1.0440097799511063
2016-12-20,-1.5618221258134442
2016-12-21,-0.5971943887775486
2016-12-22,-0.6554621848739582
2016-12-23,-0.4176904176904181
2016-12-26,-0.2550790067720124
2016-12-27,0.3832487309644642
2016-12-28,0.5092592592592546
2016-12-29,0.9127725856697756
2016-12-30,0.9472049689440928
2017-01-03,0.10402684563758909
2017-01-04,0.6451612903225828
2017-01-05,0.4501607717041869
2017-01-06,-0.4984227129337525
2017-01-09,0.05423728813558838
2017-01-10,0.18596491228069326
2017-01-11,0.7547892720306546
2017-01-12,0.4777777777777783
2017-01-13,-0.35999999999999804
2017-01-16,0.10622710622709587
2017-01-17,-0.1201413427561898
2017-01-18,0.046594982078848005
2017-01-19,-0.41095890410959063
2017-01-20,-0.42803030303031075
2017-01-23,0.14225941422593807
2017-01-24,-0.018181818181822643
2017-01-25,-0.6000000000000025
2017-01-26,-1.3360995850622417
2017-02-03,0.11254019292605323
2017-02-06,0.8520710059171558
2017-02-07,0.8782608695652222
2017-02-08,0.7333333333333266
2017-02-09,0.3873239436619863
2017-02-10,-0.19230769230769706
2017-02-13,1.038314176245219
2017-02-14,0.8301886792452867
2017-02-15,0.3426573426573388
2017-02-16,0.23606557377049775
2017-02-17,0.0
2017-02-20,-0.30567685589518395
2017-02-21,0.12987012987013252
2017-02-22,0.029556650246318997
2017-02-23,-0.021621621621626817
2017-02-24,0.9861751152073754
2017-02-27,1.5427350427350475
2017-02-28,0.7914893617021348
2017-03-01,-0.05600000000000809
2017-03-02,-0.0343347639484947
2017-03-03,-1.7739938080495368
2017-03-06,-1.1714285714285781
2017-03-07,-0.7927631578947493
2017-03-08,-0.9433333333333435
2017-03-09,-0.9825581395348925
2017-03-10,-1.5492424242424307
2017-03-13,-0.44890510948906254
2017-03-14,-0.4254545454545446
2017-03-15,-0.04280155642023082
2017-03-16,1.2984126984126918
2017-03-17,0.9413919413919353
2017-03-20,0.9831932773109204
2017-03-21,0.29957805907173224
2017-03-22,0.43359374999998784
2017-03-23,0.3724137931034568
2017-03-24,-0.2516129032257952
2017-03-27,0.8877005347593556
2017-03-28,0.6203208556149831
2017-03-29,0.4802259887005679
2017-03-30,0.374301675977668
2017-03-31,-0.23529411764707026
2017-04-05,0.24657534246575932
2017-04-06,0.17605633802817994
2017-04-07,1.1443298969072089
2017-04-10,-0.6000000000000018
2017-04-11,-0.4764150943396237
2017-04-12,0.2336065573770495
2017-04-13,0.45105566218810217
2017-04-14,0.5529661016949172
2017-04-17,0.5949367088607553
2017-04-18,-0.1843749999999938
2017-04-19,-0.8241379310344821
2017-04-20,-0.6466165413533943
2017-04-21,-0.963636363636373
2017-04-24,-1.0803571428571332
2017-04-25,-0.44748858447488277
2017-04-26,-0.8854166666666751
2017-04-27,-0.5851063829787345
2017-04-28,-0.5217391304347957
2017-05-02,-1.6214953271028
2017-05-03,-1.2222222222222274
2017-05-04,-1.7601246105918913
2017-05-05,-1.1620879120879073
2017-05-08,-0.5039370078740193
2017-05-09,-0.49235474006116087
2017-05-10,-0.30898876404494025
2017-05-11,0.1427182322821599
2017-05-12,0.5748949396692232
2017-05-15,1.0360666574914055
2017-05-16,1.1672099521021753
2017-05-17,0.8611111111111341
2017-05-18,0.2290748898678495
2017-05-19,-0.13362068965517182
2017-05-22,0.06363636363636524
2017-05-23,0.5092592592592661
2017-05-24,-0.22310756972110962
2017-05-25,0.2540322580645164
2017-05-26,0.15525114155250622
2017-05-31,-0.31506849315067725
2017-06-01,-0.3363636363636431
2017-06-02,-0.9371727748691255
2017-06-05,0.6562500000000098
2017-06-06,1.0749999999999957
2017-06-07,0.9559471365638952
2017-06-08,0.5488372093023313
2017-06-09,-0.9349593495935027
2017-06-12,-1.6730769230769353
2017-06-13,-1.6764705882353
2017-06-14,-0.6559633027522921
2017-06-15,-0.32971014492752887
2017-06-16,-0.18333333333333057
2017-06-19,-0.44843049327354445
2017-06-20,-0.28169014084507416
2017-06-21,-0.41904761904761406
2017-06-22,0.45454545454545325
2017-06-23,0.720930232558148
2017-06-26,0.3953488372092883
2017-06-27,-0.11891891891891747
2017-06-28,0.21134020618556823
2017-06-29,0.2789115646258337
2017-06-30,-0.8079096045197715
2017-07-03,-0.7417582417582604
2017-07-04,-2.0074349442379167
2017-07-05,-1.3589743589743606
2017-07-06,-0.929765886287637
2017-07-07,-0.7697368421052676
2017-07-10,-1.8422174840085292
2017-07-11,-0.8871331828442488
2017-07-12,0.0
2017-07-13,0.4446680080482912
2017-07-14,0.12915851272015497
2017-07-17,0.6442307692307679
2017-07-18,0.49577464788732595
2017-07-19,0.5457746478873202
2017-07-20,0.33455882352941513
2017-07-21,0.49200000000000593
2017-07-24,0.40740740740741016
2017-07-25,0.44318181818180863
2017-07-26,-0.3521126760563341
2017-07-27,0.5708502024291554
2017-07-28,0.34051724137930617
2017-07-31,0.47465437788018405
2017-08-01,0.4626168224299079
2017-08-02,0.05524861878451897
2017-08-03,-0.6986301369862946
2017-08-04,0.007042253521130978
2017-08-07,-1.5799086757991
2017-08-08,-1.269911504424767
2017-08-09,0.061068702290072004
2017-08-10,1.3971014492753613
2017-08-11,1.2266666666666723
2017-08-14,1.1731843575419076
2017-08-15,-0.06862745098039386
2017-08-16,-0.7437185929648245
2017-08-17,0.4035532994923888
2017-08-18,0.17678100263852897
2017-08-21,0.13043478260869115
2017-08-22,0.0
2017-08-23,-0.18154761904761568
2017-08-24,-0.08606557377048811
2017-08-25,-0.08928571428570763
2017-08-28,0.3288888888888942
2017-08-29,0.9256198347107325
2017-08-30,0.15444015444014328
2017-08-31,-0.046153846153853255
2017-09-01,0.03690036900369238
2017-09-04,0.9357429718875525
2017-09-05,0.8732394366197024
2017-09-06,0.547872340425532
2017-09-07,-0.18592964824119598
2017-09-08,0.010362694300510405
2017-09-11,-1.2362637362637354
2017-09-12,-0.9326424870466309
2017-09-13,-0.6949152542372787
2017-09-14,-0.7987804878048655
2017-09-15,-0.17088607594936792
2017-09-18,-0.47457627118643214
2017-09-19,-1.3832335329341434
2017-09-20,-0.8511904761904763
2017-09-21,-1.4570135746606334
2017-09-22,-0.9639639639639715
2017-09-25,-0.5871559633027575
2017-09-26,0.7083333333333458
2017-09-27,0.0942622950819574
2017-09-28,-0.3681592039800917
2017-09-29,-0.16243654822335227
2017-10-09,0.1777777777777773
2017-10-10,0.5240963855421443
2017-10-11,0.23611111111114194
2017-10-12,0.23287671232876045
2017-10-13,0.39354838709676754
2017-10-16,0.9714285714285928
2017-10-17,0.011976047904182644
2017-10-18,-0.3250000000000253
2017-10-19,-0.741258741258752
2017-10-20,-0.14965986394557657
2017-10-23,-0.5454545454545321
2017-10-24,-0.0671140939597181
2017-10-25,-0.5389610389610503
2017-10-26,-0.1290322580645242
2017-10-27,-1.0327868852459037
2017-10-30,-0.6011235955056301
2017-10-31,-0.1785714285714234
2017-11-01,-0.18644067796610694
2017-11-02,0.7014925373134385
2017-11-03,0.7267080745341642
2017-11-06,-0.1377245508981899
2017-11-07,0.4744897959183643
2017-11-08,0.04210526315790586
2017-11-09,0.28313253012047346
2017-11-10,0.16959064327484505
2017-11-13,-0.47770700636940316
2017-11-14,-0.2761194029850982
2017-11-15,-0.18248175182480936
2017-11-16,-0.08571428571427978
2017-11-17,0.2177419354838721
2017-11-20,0.6402877697841722
2017-11-21,-0.09803921568626313
2017-11-22,-0.21100223384743647
2017-11-23,-0.20328980960029283
2017-11-24,-0.025184327419778548
2017-11-27,-0.12368834060261244
2017-11-28,-0.020202020202036316
2017-11-29,-0.7935483870967559
2017-11-30,-1.6726457399103187
2017-12-01,-1.4979423868312791
2017-12-04,-0.9860139860139747
2017-12-05,-0.7025089605734751
2017-12-06,-0.9266409266409222
2017-12-07,-1.4163090128755318
2017-12-08,-1.4058577405857757
2017-12-11,-0.6696832579185478
2017-12-12,-0.4285714285714123
2017-12-13,-0.3065326633165838
2017-12-14,1.1515151515151492
2017-12-15,0.5642201834862391
2017-12-18,0.8100000000000113
2017-12-19,0.5862068965517213
2017-12-20,0.07216494845360884
2017-12-21,0.00819672131147057
2017-12-22,-0.12820512820512397
2017-12-25,1.1549295774647808
2017-12-26,1.0681818181818126
2017-12-27,1.1503759398496292
2017-12-28,1.4088050314465497
2017-12-29,0.6049382716049306
2018-01-02,0.9850746268656555
2018-01-03,0.36241610738256186
2018-01-04,-0.18965517241379404
2018-01-05,-0.04216867469878724
2018-01-08,-0.059523809523791264
2018-01-09,0.13291139240505603
2018-01-10,-0.4516129032257935
2018-01-11,-0.07352941176472416
2018-01-12,0.09493670886075682
2018-01-15,0.8376963350785267
2018-01-16,0.271356783919594
2018-01-17,-0.49760765550238184
2018-01-18,-0.8603603603603592
2018-01-19,-1.1597938144329885
2018-01-22,-0.812500000000012
2018-01-23,-0.08759124087592242
2018-01-24,-0.19285714285715014
2018-01-25,1.609375000000009
2018-01-26,0.5693779904306244
2018-01-29,0.05633802816902043
2018-01-30,-0.8960000000000116
2018-01-31,-0.7322175732217601
2018-02-01,-0.5928143712574871
2018-02-02,-0.4444444444444154
2018-02-05,-1.7312775330396628
2018-02-06,-0.602459016393443
2018-02-07,-0.8278388278388327
2018-02-08,-1.0597014925373167
2018-02-09,-0.4297752808988753
2018-02-12,-0.3344594594594613
2018-02-13,0.25095057034220686
2018-02-14,0.45606694560669575
2018-02-22,-0.5000000000000064
2018-02-23,-0.0539215686274468
2018-02-26,0.4904761904761815
2018-02-27,0.3128205128205144
2018-02-28,-0.38277511961722593
2018-03-01,-0.686813186813179
2018-03-02,-0.3730569948186619
2018-03-05,0.15517241379310756
2018-03-06,0.07602339181285331
2018-03-07,0.5941176470588172
2018-03-08,0.21637426900585136
2018-03-09,-0.3270440251572352
2018-03-12,-0.2258064516129061
2018-03-13,-0.3611111111111165
2018-03-14,0.08125000000000496
2018-03-15,-0.05633802816902035
2018-03-16,-0.5401459854014689
2018-03-19,-1.4552238805970141
2018-03-20,-0.71739130434781
2018-03-21,-0.5524475524475392
2018-03-22,0.7422680412371236
2018-03-23,0.8542713567839213
2018-03-26,0.45142857142857756
2018-03-27,0.4971751412429301
2018-03-28,-0.6770833333333283
2018-03-29,-1.7112299465240728
2018-03-30,-0.9071038251366146
2018-04-02,-0.2681564245810198
2018-04-03,0.47692307692306907
2018-04-04,0.3089887640449361
2018-04-09,0.04545454545454011
2018-04-10,0.032786885245905284
2018-04-11,0.4741379310344931
2018-04-12,0.7068965517241353
2018-04-13,-0.4251968503937158
2018-04-16,0.2000000000000093
2018-04-17,0.35256410256409376
2018-04-18,0.5649717514124308
2018-04-19,1.8539823008849572
2018-04-20,1.1142857142857139
2018-04-23,0.39603960396039883
2018-04-24,-0.8204081632653024
2018-04-25,-0.9869565217391189
2018-04-26,-0.9760479041916242
2018-04-27,-0.770588235294103
2018-05-02,-0.9381443298968979
2018-05-03,-0.3333333333333291
2018-05-04,-0.07951689249533057
2018-05-07,0.25254193897415284
2018-05-08,0.3946287916876184
2018-05-09,-0.030726604490905047
2018-05-10,0.44642857142858056
2018-05-11,0.8739495798319229
2018-05-14,0.46666666666665874
2018-05-15,-0.7894736842105253
2018-05-16,-1.2468354430379682
2018-05-17,-0.9751552795031297
2018-05-18,-0.18238993710690996
2018-05-21,-0.2848837209302285
2018-05-22,0.31210191082802125
2018-05-23,0.560283687943263
2018-05-24,0.23880597014926833
2018-05-25,0.6000000000000101
2018-05-28,-0.32608695652173686
2018-05-29,-0.43307086614173174
2018-05-30,-0.3223140495867687
2018-05-31,0.7328244274809161
2018-06-01,0.17054263565890562
2018-06-04,-0.07826086956522695
2018-06-05,-0.267716535433073
2018-06-06,0.12781954887218133
2018-06-07,0.7560975609756082
2018-06-08,0.3034482758620716
2018-06-11,1.0255102040816346
2018-06-12,0.7434554973822044
2018-06-13,0.3105263157894847
2018-06-14,1.2058823529411535
2018-06-15,0.9867256637168126
2018-06-19,-1.215873015873008
2018-06-20,-1.1093247588424484
2018-06-21,-0.9540983606557385
2018-06-22,-0.10820895522388631
2018-06-25,0.19921875000000155
2018-06-26,0.6435643564356176
2018-06-27,0.27619047619043685
2018-06-28,-0.40366972477064855
2018-06-29,-0.1320754716981114
2018-07-02,-0.1851851851851901
2018-07-03,-0.10655737704918565
2018-07-04,0.32800000000002416
2018-07-05,0.0769230769230859
2018-07-06,0.05769230769234181
2018-07-09,0.28999999999998505
2018-07-10,-0.2399999999999984
2018-07-11,-0.5000000000000268
2018-07-12,-0.6697247706421906
2018-07-13,-0.4537037037036948
2018-07-16,-0.4766355140186659
2018-07-17,-0.5714285714285751
2018-07-18,-1.5263157894736772
2018-07-19,-0.9933333333333351
2018-07-20,-0.4561403508771932
2018-07-23,0.15428571428571541
2018-07-24,0.18354430379745906
2018-07-25,0.6694214876033129
2018-07-26,0.6018518518518513
2018-07-27,-0.24468085106380846
2018-07-30,-0.157303370786515
2018-07-31,0.2021276595744833
2018-08-01,0.03260869565217801
2018-08-02,-0.18556701030927153
2018-08-03,-0.5425531914893658
2018-08-06,0.08695652173910762
2018-08-07,0.14545454545455438
2018-08-08,-0.20183486238533632
2018-08-09,-0.12264150943394139
2018-08-10,-0.35922330097087996
2018-08-13,-0.36046511627903627
2018-08-14,-1.325396825396808
2018-08-15,-1.528985507246361
2018-08-16,-1.9601593625498022
2018-08-17,-1.0964285714285622
2018-08-20,-0.39649122807016474
2018-08-21,-0.08880308880309196
2018-08-22,-0.01652892561983271
2018-08-23,-0.5914634146341416
2018-08-24,-0.35507246376811175
2018-08-27,0.18248175182483284
2018-08-28,0.5681818181818197
2018-08-29,-0.2820512820512856
2018-08-30,-0.33587786259542207
2018-08-31,-0.5973154362416077
2018-09-03,-1.1052631578947287
2018-09-04,-1.30808080808081
2018-09-05,-1.8093023255813823
2018-09-06,-0.9528301886792443
2018-09-07,-0.4975369458128155
2018-09-10,-0.18324607329844142
2018-09-11,0.43749999999999156
2018-09-12,-0.11409395973154411
2018-09-13,0.2662337662337666
2018-09-14,0.37086092715231045
2018-09-17,-0.344827586206904
2018-09-18,-0.02054794520550146
2018-09-19,-0.025000000000003086
2018-09-20,1.1103448275862096
2018-09-21,1.627906976744196
2018-09-25,0.6140350877193033
2018-09-26,0.8349514563106898
2018-09-27,0.42253521126760185
2018-09-28,-0.47087378640777733
2018-10-08,0.5321888412017144
2018-10-09,0.29074889867841097
2018-10-10,0.2551020408163324
2018-10-11,0.06315789473684962
2018-10-12,0.5025641025641092
2018-10-15,1.3197278911564776
2018-10-16,0.756410256410253
2018-10-17,0.38728323699421235
2018-10-18,-0.5615763546798167
2018-10-19,0.1458333333333313
2018-10-22,0.1468926553672384
2018-10-23,0.3550295857988075
2018-10-24,0.9415204678362561
2018-10-25,0.9483870967741925
2018-10-26,0.033783783783774946
2018-10-29,-0.23780487804877412
2018-10-30,-0.9207920792079215
2018-10-31,-1.12765957446808
2018-11-01,-0.8461538461538513
2018-11-02,0.3574879227053068
2018-11-05,0.478842170823007
2018-11-06,0.43924836941351086
2018-11-07,-0.18885995878272516
2018-11-08,-0.40594054426492127
2018-11-09,-0.9328859060402779
2018-11-12,-1.6114649681528548
2018-11-13,-1.3144654088050434
2018-11-14,-1.0613496932515352
2018-11-15,0.011111111111115828
2018-11-16,0.5819209039547972
2018-11-19,0.7664670658682623
2018-11-20,0.600000000000005
2018-11-21,0.11363636363636363
2018-11-22,0.47530864197531036
2018-11-23,-0.14864864864863508
2018-11-26,-0.5034965034965201
2018-11-27,-0.9285714285714446
2018-11-28,-1.0298507462686481
2018-11-29,0.48366013071895564
2018-11-30,0.4729729729729633
2018-12-03,0.3395061728395189
2018-12-04,0.4096385542168716
2018-12-05,0.0
2018-12-06,0.030303030303043228
2018-12-07,0.1544117647058743
2018-12-10,1.2797202797202747
2018-12-11,0.799999999999977
2018-12-12,0.410447761194045
2018-12-13,0.5694444444444504
2018-12-14,-0.1805555555555735
2018-12-17,-0.4210526315789283
2018-12-18,-0.09009009009010316
2018-12-19,0.36538461538463474
2018-12-20,-0.1076923076923092
2018-12-21,0.5384615384615558
2018-12-24,0.3724137931034469
2018-12-25,0.2587412587412579
2018-12-26,0.7345679012345651
2018-12-27,0.9302325581395423
2018-12-28,1.7783251231527049
2019-01-02,1.4009433962264044
2019-01-03,1.4618320610686937
2019-01-04,1.0517241379310458
2019-01-07,0.5818181818181809
2019-01-08,-0.1914893617021281
2019-01-09,-0.32500000000000084
2019-01-10,-0.16194331983805602
2019-01-11,-0.39461883408071824
2019-01-14,-0.5454545454545449
2019-01-15,-0.516129032258065
2019-01-16,-0.42857142857142516
2019-01-17,-0.293749999999993
2019-01-18,-0.006711409395985705
2019-01-21,-1.1314285714285839
2019-01-22,-1.1648351648351756
2019-01-23,-0.30120481927709924
2019-01-24,-0.4790419161676618
2019-01-25,-0.10322580645161965
2019-01-28,1.4171122994652217
2019-01-29,1.187192118226604
2019-01-30,1.0754716981132073
2019-01-31,0.5401785714285797
2019-02-01,0.2240663900414943
2019-02-11,-0.3539325842696454
2019-02-12,-0.13207547169812506
2019-02-13,-0.27564102564104215
2019-02-14,-0.9024390243902412
2019-02-15,-0.3860759493670997
2019-02-18,0.5561797752809018
2019-02-19,0.329729729729722
2019-02-20,0.7380952380952454
2019-02-21,0.009302325581385978
2019-02-22,-0.42523364485981335
2019-02-25,-0.046153846153843846
2019-02-26,-0.4699999999999857
2019-02-27,-0.44242424242423095
2019-02-28,-1.1036585365853557
2019-03-01,-1.1468926553672298
2019-03-04,-1.9364406779661099
2019-03-05,-1.7615062761506246
2019-03-06,-0.6414342629482165
2019-03-07,-0.5357142857142857
2019-03-08,0.26457399103139484
2019-03-11,0.8388888888888912
2019-03-12,0.8146067415730176
2019-03-13,0.7073170731707338
2019-03-14,-0.30726256983239647
2019-03-15,-0.20320855614974165
2019-03-18,-0.16184971098264392
2019-03-19,0.26451612903226746
2019-03-20,0.09815950920245975
2019-03-21,1.0105820105819998
2019-03-22,0.6424242424242486
2019-03-25,0.24836601307188674
2019-03-26,-0.018518518518535133
2019-03-27,-0.5962732919254661
2019-03-28,-1.2388059701492384
2019-03-29,-1.9783783783783628
2019-04-01,-0.8939393939393907
2019-04-02,-0.41450777202072386
2019-04-03,0.27488151658767307
2019-04-04,0.4693877551020379
2019-04-08,0.5925925925925932
2019-04-09,0.7633587786259551
2019-04-10,0.27142857142856525
2019-04-11,-0.17796610169493066
2019-04-12,-1.1324503311258274
2019-04-15,-1.2471264367816037
2019-04-16,-0.5511363636363609
2019-04-17,-0.24418604651163128
2019-04-18,-0.18750000000000613
2019-04-19,0.09489051094891365
2019-04-22,0.5952380952380855
2019-04-23,-0.2661290322580725
2019-04-24,-0.7922077922077934
2019-04-25,0.024539877300624003
2019-04-26,0.5384615384615405
2019-04-29,0.41358024691359074
2019-04-30,0.14193548387097396
2019-05-06,-0.1666666666666675
2019-05-07,0.088495575221252
2019-05-08,0.4324324324324123
2019-05-09,0.09624724061809413
2019-05-10,-0.2303523146588144
2019-05-13,-0.1858678049694764
2019-05-14,0.7789205043233047
2019-05-15,0.1904761904762044
2019-05-16,0.4236111111111192
2019-05-17,-0.8479532163742719
2019-05-20,-1.2033898305084694
2019-05-21,-0.8680555555555424
2019-05-22,-0.6456692913385841
2019-05-23,0.2913385826771648
2019-05-24,0.9183673469387622
2019-05-27,0.6236559139784813
2019-05-28,0.07368421052628073
2019-05-29,-0.6583333333333153
2019-05-30,-0.6212121212121057
2019-05-31,0.23134328358208153
2019-06-03,0.46357615894038695
2019-06-04,1.134502923976617
2019-06-05,1.1707317073170957
2019-06-06,0.7363184079601938
2019-06-10,0.20833333333333445
2019-06-11,-0.5479452054794535
2019-06-12,0.26609442060085653
2019-06-13,0.11013215859030893
2019-06-14,0.946188340807172
2019-06-17,-0.024691358024684265
2019-06-18,0.004424778761067136
2019-06-19,0.04651162790697712
2019-06-20,0.8791208791208867
2019-06-21,0.7547892720306447
2019-06-24,0.6396761133603323
2019-06-25,0.6290909090909073
2019-06-26,-0.31649831649831567
2019-06-27,-0.42971887550200977
2019-06-28,-0.3625000000000002
2019-07-01,-0.8267716535433128
2019-07-02,-0.24568965517241254
2019-07-03,0.5673758865248263
2019-07-04,0.11439114391143339
2019-07-05,0.14516129032258637
2019-07-08,-0.4398340248962736
2019-07-09,-0.5169491525423755
2019-07-10,-0.5342465753424762
2019-07-11,0.5471698113207571
2019-07-12,-0.02298850574711996
2019-07-15,0.6163522012578698
2019-07-16,1.2122905027932966
2019-07-17,1.5434782608695565
2019-07-18,1.8406249999999973
2019-07-19,2.024390243902432
2019-07-22,0.8596153846153856
2019-07-23,0.4188191881918791
2019-07-24,0.3358778625954139
2019-07-25,0.10893246187363295
2019-07-26,0.01285347043701811
2019-07-29,-0.07857142857142714
2019-07-30,0.09016393442622819
2019-07-31,0.004651162790703169
2019-08-01,-1.5603112840466922
2019-08-02,-0.41830065359477714
2019-08-05,1.1670281995661596
2019-08-06,0.6563706563706558
2019-08-07,0.9950819672131166
2019-08-08,1.105431309904157
2019-08-09,0.5320197044334954
2019-08-12,0.2283298097251556
2019-08-13,1.0036900369003647
2019-08-14,-0.30354391371340683
2019-08-15,0.12893081761005834
2019-08-16,0.07833333333333777
2019-08-19,-0.2710743801652892
2019-08-20,-0.18940936863543426
2019-08-21,-0.16981132075471425
2019-08-22,0.10041841004183685
2019-08-23,0.2231759656652358
2019-08-26,2.010389610389603
2019-08-27,1.6117647058823548
2019-08-28,1.8260038240917835
2019-08-29,1.6235679214402652
2019-08-30,0.3465909090909062
2019-09-02,0.13368983957218322
2019-09-03,0.23230490018149122
2019-09-04,1.3934959349593463
2019-09-05,1.3625218914185697
2019-09-06,-0.7568345323740948
2019-09-09,-1.036423841059603
2019-09-10,-1.0166840458811275
2019-09-11,-0.42275449101796425
2019-09-12,-0.13196125907990278
2019-09-16,-0.3471196454948288
2019-09-17,-0.47356828193832323
2019-09-18,-0.19035532994923257
2019-09-19,-0.36255924170616505
2019-09-20,0.1682926829268345
2019-09-23,1.1108742004264411
2019-09-24,1.1892430278884463
2019-09-25,0.7602230483271404
2019-09-26,-0.5511945392491516
2019-09-27,-1.152758132956154
2019-09-30,-1.3269841269841307
2019-10-08,-0.7296849087893921
2019-10-09,0.5765625000000024
2019-10-10,0.3010948905109565
2019-10-11,0.09977827050998495
2019-10-14,-0.4572072072072049
2019-10-15,-0.39860139860140353
2019-10-16,-0.9000000000000022
2019-10-17,-0.22677595628415642
2019-10-18,0.07530120481927777
2019-10-21,0.6086956521739131
2019-10-22,0.13636363636363316
2019-10-23,0.12460063897763343
2019-10-24,-0.13448275862068698
2019-10-25,1.0743801652892568
2019-10-28,0.8459657701711508
2019-10-29,-0.22842639593908765
2019-10-30,-0.08413461538461585
2019-10-31,-0.20399113082039916
2019-11-01,0.2506527415143569
2019-11-04,0.3737704918032873
2019-11-05,-0.13669064748201765
2019-11-06,-1.5111731843575387
2019-11-07,-0.9572649572649571
2019-11-08,-1.7145790554414728
2019-11-11,-1.2707509881422894
2019-11-12,-0.85019455252918
2019-11-13,-0.12173913043478578
2019-11-14,0.22176764398611287
2019-11-15,-0.1385019317526896
2019-11-18,-0.17981353922840335
2019-11-19,0.6097622332400766
2019-11-20,0.3527508090614862
2019-11-21,0.21212121212121496
2019-11-22,0.038910505836576056
2019-11-25,-0.8075601374570479
2019-11-26,-0.38034188034187627
2019-11-27,0.12068965517241632
2019-11-28,-0.05909090909091176
2019-11-29,0.08372093023256087
2019-12-02,-0.19587628865979684
2019-12-03,-0.18604651162790356
2019-12-04,1.95850622406638
2019-12-05,0.18566775244299555
2019-12-06,-0.2590361445783177
2019-12-09,-0.9334975369458126
2019-12-10,-0.789731051344747
2019-12-11,-0.49350649350649256
2019-12-12,0.420494699646639
2019-12-13,0.1120689655172382
2019-12-16,0.7003367003367037
2019-12-17,0.5149501661129577
2019-12-18,0.31935483870968373
2019-12-19,0.014234875444825245
2019-12-20,0.310679611650494
2019-12-23,1.4390243902438924
2019-12-24,1.5094339622641433
2019-12-25,1.5595667870036114
2019-12-26,1.4687659908088948
2019-12-27,0.453039783770571
2019-12-30,0.22655862142889055
2019-12-31,0.586003509350606
2020-01-02,-0.28648648648648695
2020-01-03,0.3310104529616643
2020-01-06,0.6043956043956056
2020-01-07,-0.04651162790697506
2020-01-08,0.40651387213510115
2020-01-09,-0.7052631578947359
2020-01-10,-0.6838340486409171
2020-01-13,-0.3906249999999999
2020-01-14,-0.788025889967637
2020-01-15,-0.18106995884774071
2020-01-16,0.0
2020-01-17,0.2797619047619052
2020-01-20,0.2959501557632414
2020-01-21,0.7180451127819365
2020-01-22,-0.6551724137931102
2020-01-23,-0.5902777777777868
2020-02-03,0.21345029239766522
2020-02-04,-0.027272727272715323
2020-02-05,0.13230769230768524
2020-02-06,-0.18367346938774756
2020-02-07,-0.03529411764706666
2020-02-10,-0.09042553191488228
2020-02-11,0.11656441717792183
2020-02-12,-1.1874999999999898
2020-02-13,-0.3333333333333343
2020-02-14,0.038461538461547144
2020-02-17,0.8910891089108992
2020-02-18,0.8853211009174133
2020-02-19,2.035156250000001
2020-02-20,1.5401459854014459
2020-02-21,1.5031446540880633
2020-02-24,1.2579710144927534
2020-02-25,-0.3815165876777266
2020-02-26,-0.9544235924933064
2020-02-27,-0.8279816513761501
2020-02-28,-1.7933227344992115
2020-03-02,-1.5508345978755715
2020-03-03,-1.246329526916809
2020-03-04,-0.14923076923076647
2020-03-05,0.1767857142857118
2020-03-06,0.6584699453551948
2020-03-09,-1.11133603238867
2020-03-10,-0.2514071294559108
2020-03-11,-0.10560344827586667
2020-03-12,-0.6417391304347833
2020-03-13,-1.3621621621621642
2020-03-16,-2.3229729729729733
2020-03-17,-2.628166160081054
2020-03-18,-2.0928512736236637
2020-03-19,-1.4852941176470593
2020-03-20,-0.15488215488215465
2020-03-23,0.19142857142857198
2020-03-24,1.2549234135667415
2020-03-25,1.8852838933951364
2020-03-26,1.1969111969111985
2020-03-27,1.141984732824426
2020-03-30,-0.6313775510204063
2020-03-31,-0.3815384615384619
2020-04-01,-0.555093555093564
2020-04-02,0.37291280148423206
2020-04-03,0.9702602230483269
2020-04-07,2.1055456171735276
2020-04-08,0.9166666666666637
2020-04-09,0.515358361774749
2020-04-10,0.3667883211678796
2020-04-13,-0.10286677908937922
2020-04-14,0.625000000000008
2020-04-15,-0.16421052631578933
2020-04-16,0.3553113553113592
2020-04-17,-0.3951612903225826
2020-04-20,-0.4003378378378371
2020-04-21,-0.09594095940959352
2020-04-22,-1.109565217391304
2020-04-23,0.29339477726574675
2020-04-24,0.40966010733452746
2020-04-27,0.06851851851851187
2020-04-28,-0.4094076655052253
2020-04-29,-0.06147540983606099
2020-04-30,0.3594594594594594
2020-05-06,0.13043478260869615
2020-05-07,-0.06332453825857362
2020-05-08,0.9976470588235276
2020-05-11,0.47123295749443117
2020-05-12,0.21819578125480021
2020-05-13,0.2620614241890218
2020-05-14,0.109604711767008
2020-05-15,0.9779792746114001
2020-05-18,2.319277108433736
2020-05-19,1.1760660247592873
2020-05-20,1.2584541062801926
2020-05-21,0.09502262443438839
2020-05-22,-0.47153465346534523
2020-05-25,-0.32330827067668977
2020-05-26,0.42074927953890584
2020-05-27,0.1238532110091771
2020-05-28,0.4933530280649955
2020-05-29,0.42026578073089693
2020-06-01,1.3286713286713294
2020-06-02,0.9058641975308673
2020-06-03,-0.06047197640118285
2020-06-04,-0.795491143317227
2020-06-05,-0.6207455429497574
2020-06-08,-0.47338403041824567
2020-06-09,-0.26574803149606113
2020-06-10,0.24271844660193723
2020-06-11,0.4470588235294154
2020-06-12,-0.22456813819578117
2020-06-15,-0.9410714285714302
2020-06-16,-0.4999999999999985
2020-06-17,-0.05948553054661779
2020-06-18,0.13944954128439785
2020-06-19,0.4747252747252759
2020-06-22,1.041769041769038
2020-06-23,0.31216931216931443
2020-06-24,0.5261707988980722
2020-06-29,0.032520325203257545
2020-06-30,0.023323615160347963
2020-07-01,1.0694444444444466
2020-07-02,-0.11749347258486069
2020-07-03,0.07228915662649661
2020-07-06,0.0024570024570004126
2020-07-07,0.009345794392529631
2020-07-08,0.5760000000000017
2020-07-09,1.4742268041237088
2020-07-10,0.159624413145534
2020-07-13,0.9904214559386961
2020-07-14,0.5545454545454579
2020-07-15,0.5684803001876241
2020-07-16,0.3389830508474559
2020-07-17,-0.40707964601769936
2020-07-20,0.18556701030927114
2020-07-21,1.8958707360861795
2020-07-22,2.475942782834853
2020-07-23,2.4036786060019373
2020-07-24,1.3052728954671606
2020-07-27,1.4699453551912567
2020-07-28,0.9928385416666691
2020-07-29,0.510437710437707
2020-07-30,-0.220516399162597
2020-07-31,0.0486111111111105
2020-08-03,0.046838407494148464
2020-08-04,0.14807692307692122
2020-08-05,1.5258620689655173
2020-08-06,1.8637362637362633
2020-08-07,1.6054852320675086
2020-08-10,1.0051118210862608
2020-08-11,0.14089709762532837
2020-08-12,-0.8577777777777753
2020-08-13,-1.0753504672897183
2020-08-14,-0.5047512576858563
2020-08-17,0.021762785636563
2020-08-18,0.7889630078835635
2020-08-19,0.12645082467929078
2020-08-20,-0.356635071090046
2020-08-21,-0.5043290043290029
2020-08-24,-1.2749090909090903
2020-08-25,-0.6210287443267769
2020-08-26,-0.48590225563909706
2020-08-27,0.6597014925373119
2020-08-28,0.7458659704090504
2020-08-31,0.9941118743866596
2020-09-01,1.2634146341463368
2020-09-02,0.1293487957181112
2020-09-03,-0.8955752212389376
2020-09-04,-0.9620253164557007
2020-09-07,-0.6345811051693433
2020-09-08,-0.08252427184465863
2020-09-09,-0.2980251346499105
2020-09-10,0.12250996015937136
2020-09-11,-0.16335078534031028
2020-09-14,-0.24436536180308766
2020-09-15,0.28438228438228585
2020-09-16,0.021520803443332168
2020-09-17,-0.6777316735822962
2020-09-18,-0.07916666666666332
2020-09-21,-0.727755644090305
2020-09-22,-2.0969957081545054
2020-09-23,-1.8710990502035303
2020-09-24,-1.7284325637910076
2020-09-25,-0.464912280701756
2020-09-28,-0.26689576174112273
2020-09-29,0.350349650349647
2020-09-30,0.5926258992805744
2020-10-09,0.5748502994011971
2020-10-12,1.5371179039301264
2020-10-13,0.7393736017897118
2020-10-14,-0.2962566844919793
2020-10-15,-0.46564102564102594
2020-10-16,-0.38975297346751797
2020-10-19,0.2580993520518383
2020-10-20,0.13948256467941383
2020-10-21,0.5997375328084047
2020-10-22,0.3385012919896624
2020-10-23,-0.2532561505065107
2020-10-26,-0.830215827338137
2020-10-27,-0.10549132947976805
2020-10-28,0.04718417047183453
2020-10-29,-1.076827757125159
2020-10-30,-0.8406113537117914
2020-11-02,0.07027027027027039
2020-11-03,0.4188888888888884
2020-11-04,0.14066985645933122
2020-11-05,0.5487661574618056
2020-11-06,1.04103165298945
2020-11-09,0.9923175416133195
2020-11-10,-0.6227657572906865
2020-11-11,-0.5765765765765749
2020-11-12,-0.6079913606911426
2020-11-13,-0.35411140583555256
2020-11-16,0.7024691358024705
2020-11-17,0.21701388888888556
2020-11-18,-0.2426710097719855
2020-11-19,-0.7594339622641518
2020-11-20,-0.4484760522496434
2020-11-23,-0.12054329371816307
2020-11-24,-0.9654654654654607
2020-11-25,-0.9001468428781177
2020-11-26,-0.4703949859450813
2020-11-27,-0.4403645996734121
2020-11-30,-1.2605332471515294
2020-12-01,-0.10506215298851132
2020-12-02,0.8233918128654951
2020-12-03,0.9096109839816944
2020-12-04,0.8636847710330148
2020-12-07,0.24214659685863985
2020-12-08,0.6298543689320353
2020-12-09,-0.10618279569893103
2020-12-10,-0.6363636363636398
2020-12-11,-0.3094059405940597
2020-12-14,-0.2869785082174464
2020-12-15,0.45583596214511446
2020-12-16,1.3798449612403028
2020-12-17,1.6642228739002929
2020-12-18,1.4325153374233135
2020-12-21,1.778797145769624
2020-12-22,-0.12769353551476523
2020-12-23,-0.41009946442234185
2020-12-24,-0.1205392545598704
2020-12-25,-0.15396700706990843
2020-12-28,0.6568364611260049
2020-12-29,0.24999999999999442
2020-12-30,0.4095354523227414
2020-12-31,0.3431122448979592
2021-01-04,0.6839012925969458
2021-01-05,0.7327127659574505
2021-01-06,0.39438520572205443
2021-01-07,-0.037828342612601526
2021-01-08,-0.567615449390564
2021-01-11,-2.0929340053864243
2021-01-12,-1.016799292661352
2021-01-13,-0.5821799307958497
2021-01-14,-0.42257462686567127
2021-01-15,0.07834507042253377
2021-01-18,-0.15445026178010213
2021-01-19,0.05182926829268049
2021-01-20,0.44259818731117456
2021-01-21,0.6923076923076933
2021-01-22,0.024032042723633712
2021-01-25,-0.14035087719298256
2021-01-26,-0.36507936507936506
2021-01-27,-0.28629579375848446
2021-01-28,-0.40988372093022835
2021-01-29,0.8844807467911313
2021-02-01,2.101374570446731
2021-02-02,1.183611532625192
2021-02-03,-0.11194029850746173
2021-02-04,-0.4996949359365475
2021-02-05,-0.714189189189189
2021-02-08,-0.10236886632825803
2021-02-09,0.3858424725822547
2021-02-10,0.29258777633289373
2021-02-18,0.15442278860570074
2021-02-19,-0.3730043541364306
2021-02-22,0.7748691099476381
2021-02-23,1.067873303167424
2021-02-24,0.2987736900780401
2021-02-25,0.33855185909980084
2021-02-26,-0.8224699828473442
2021-03-01,-0.6341689879294334
2021-03-02,-0.9485766758494016
2021-03-03,-0.2645403377110703
2021-03-04,-0.5304087736789654
2021-03-05,-1.184375000000007
2021-03-08,-0.2233840304182531
2021-03-09,-0.24335812964930864
2021-03-10,0.2759706190975872
2021-03-11,0.713211600429644
2021-03-12,-0.05933250927070376
2021-03-15,0.19839142091152234
2021-03-16,0.2264416315049252
2021-03-17,0.029687499999999298
2021-03-18,0.9335260115606998
2021-03-19,-0.02225312934631407
2021-03-22,-0.8539007092198582
2021-03-23,-0.5798561151079151
2021-03-24,-0.9148099606815169
2021-03-25,-0.7166666666666656
2021-03-26,-0.06537890044576779
2021-03-29,-0.41186440677965475
2021-03-30,-0.5872756933115868
2021-03-31,-0.9664536741214093
2021-04-01,-0.3619909502262446
2021-04-02,0.8852201257861612
2021-04-06,0.4826021180030362
2021-04-07,0.6281250000000054
2021-04-08,0.6758147512864469
2021-04-09,0.27482269503545426
2021-04-12,-0.06553911205073716
2021-04-13,-0.7331932773109303
2021-04-14,0.5072992700729968
2021-04-15,0.5561694290976058
2021-04-16,0.8236363636363573
2021-04-19,0.5646481178395991
2021-04-20,0.12345679012346521
2021-04-21,0.36072144288576263
2021-04-22,0.7509727626459219
2021-04-23,-0.027290448343081822
2021-04-26,-0.4601941747572761
2021-04-27,-0.05836575875486535
2021-04-28,-0.31531531531531487
2021-04-29,0.33274647887324066
2021-04-30,-0.5394736842105212
2021-05-06,0.8338028169014103
2021-05-07,1.0964153275648898
2021-05-10,1.1160287081339755
2021-05-11,0.34414831981460314
2021-05-12,0.1459854014598506
2021-05-13,-0.45302445302445554
2021-05-14,-0.24061196105702543
2021-05-17,0.6212121212121299
2021-05-18,1.2531500572737717
2021-05-19,0.4948024948024909
2021-05-20,-0.17348811824612928
2021-05-21,-0.5287895188937465
2021-05-24,-0.3551277532807089
2021-05-25,-0.24778741029434762
2021-05-26,0.25150421179302124
2021-05-27,-0.3655352480417803
2021-05-28,-0.41644204851752953
2021-05-31,0.03956343792632624
2021-06-01,0.616531165311651
2021-06-02,-0.1684073107049579
2021-06-03,-0.1145685997171179
2021-06-04,-0.851116625310178
2021-06-07,-0.5042016806722706
2021-06-08,-0.04460431654676547
2021-06-09,-0.13227513227513335
2021-06-10,0.09481216457961443
2021-06-11,1.0711538461538344
2021-06-15,-0.12609457092820137
2021-06-16,-0.06193078324224697
2021-06-17,-1.046969696969702
2021-06-18,-1.4506493506493487
2021-06-21,-0.9769959404600806
2021-06-22,-0.7298937784521975
2021-06-23,-0.12691131498471045
2021-06-24,0.03664921465969129
2021-06-25,0.41202672605790586
2021-06-28,0.2605790645879744
2021-06-29,-0.1547085201793762
2021-06-30,-0.5729847494553407
2021-07-01,0.37953091684434676
2021-07-02,0.09623430962343116
2021-07-05,0.9852320675105464
2021-07-06,0.7361853832442095
2021-07-07,0.042016806722684034
2021-07-08,-0.6459412780656311
2021-07-09,-0.6343537414966056
2021-07-12,-0.24780316344464245
2021-07-13,0.44758064516129265
2021-07-14,0.040358744394624016
2021-07-15,0.5142180094786765
2021-07-16,0.11471321695760642
2021-07-19,-1.4294478527607337
2021-07-20,-1.4620123203285447
2021-07-21,-0.8764705882352916
2021-07-22,-0.24505928853754627
2021-07-23,0.34095238095238406
2021-07-26,0.2827102803738342
2021-07-27,-0.04622871046228327
2021-07-28,-0.4332552693208503
2021-07-29,0.4300202839756625
2021-07-30,0.7164179104477605
2021-08-02,0.4247191011235948
2021-08-03,-0.1560439560439633
2021-08-04,0.39047619047619697
2021-08-05,-0.3048780487804897
2021-08-06,-0.6287015945330313
2021-08-09,-1.5933014354066986
2021-08-10,-1.2771260997067535
2021-08-11,-0.8517964071856269
2021-08-12,-0.3450586264656617
2021-08-13,0.0069324090121319895
2021-08-16,0.3308080808080811
2021-08-17,0.6097560975609821
2021-08-18,0.28481012658227606
2021-08-19,-0.8333333333333371
2021-08-20,-0.5920398009950124
2021-08-23,-0.6009070294784556
2021-08-24,0.33679833679833854
2021-08-25,0.41995841995841204
2021-08-26,0.05955334987592486
2021-08-27,0.2703349282296652
2021-08-30,0.3904958677685887
2021-08-31,0.6302895322939783
2021-09-01,-0.07399577167019479
2021-09-02,0.3012552301255216
2021-09-03,-0.08628318584070624
2021-09-06,1.3503480278422346
2021-09-07,0.6394557823129233
2021-09-08,-0.13711583924349993
2021-09-09,-0.993288590604029
2021-09-10,-0.3412526997840262
2021-09-13,-1.2716894977168895
2021-09-14,-0.5901287553648109
2021-09-15,-0.320594479830143
2021-09-16,-0.6195652173912914
2021-09-17,-1.2145390070922015
2021-09-22,-0.8690036900368977
2021-09-23,-0.7184300341296957
2021-09-24,-0.3461538461538501
2021-09-27,-0.09775641025641253
2021-09-28,-0.669611307420494
2021-09-29,-0.5508021390374305
2021-09-30,-1.317708333333336
2021-10-08,0.22872340425531126
2021-10-11,0.5112881806108913
2021-10-12,0.43422913719943806
2021-10-13,0.4079528718703976
2021-10-14,0.7278382581648547
2021-10-15,1.0593047034764793
2021-10-18,0.3744186046511603
2021-10-19,0.5793991416309067
2021-10-20,0.3463035019455229
2021-10-21,0.29327902240325665
2021-10-22,0.2073170731707293
2021-10-25,-0.019999999999996427
2021-10-26,-0.1197604790419204
2021-10-27,-0.7331975560081535
2021-10-28,-0.47902869757175265
2021-10-29,-0.7791164658634522
2021-11-01,-0.4976525821596291
2021-11-02,0.11709601873537108
2021-11-03,-0.6845794392523388
2021-11-04,-0.37148594377510635
2021-11-05,0.34978540772532307
2021-11-08,0.9140767824497247
2021-11-09,0.9094339622641453
2021-11-10,0.6741803278688503
2021-11-11,1.2500000000000027
2021-11-12,1.1362862010221486
2021-11-15,0.35325131810194005
2021-11-16,0.041025641025642615
2021-11-17,-0.01461038961038889
2021-11-18,-0.25625000000001097
2021-11-19,-0.42887931034482407
2021-11-22,-0.5366430260047258
2021-11-23,-1.3925925925925888
2021-11-24,-1.3910614525139589
2021-11-25,-0.8404909301217285
2021-11-26,-0.46809554347114324
2021-11-29,-0.40797945408684494
2021-11-30,-1.0851688493590201
2021-12-01,-0.7620817843866179
2021-12-02,-1.0122377622377565
2021-12-03,-0.5716694772344038
2021-12-06,-0.09929078014184582
2021-12-07,-0.010183299389009378
2021-12-08,0.002386634844874995
2021-12-09,-0.5612535612535602
2021-12-10,-1.2434554973821983
2021-12-13,0.23797468354430998
2021-12-14,0.5196850393700772
2021-12-15,-0.1796874999999926
2021-12-16,0.5824411134903644
2021-12-17,0.8077753779697582
2021-12-20,0.5316159250585463
2021-12-21,0.4061810154525397
2021-12-22,0.295805739514347
2021-12-23,0.7480519480519483
2021-12-24,0.6022099447513906
2021-12-27,-0.013661202185802131
2021-12-28,0.2978723404255363
2021-12-29,-0.03636363636363277
2021-12-30,-0.7876543209876429
2021-12-31,0.3597285067873264
2022-01-04,-0.6587982832618088
2022-01-05,-0.4579646017699129
2022-01-06,-0.8427184466019438
2022-01-07,-1.269449715370019
2022-01-10,-0.7046843177189378
2022-01-11,0.1723404255319154
2022-01-12,0.7167755991285429
2022-01-13,1.1745635910224397
2022-01-14,0.9541547277936905
2022-01-17,0.058479532163747676
2022-01-18,-0.10580204778157697
2022-01-19,1.3252427184466011
2022-01-20,1.629629629629635
2022-01-21,1.7024482109227794
2022-01-24,0.33333333333333653
2022-01-25,-0.40030911901081506
2022-01-26,-0.6618181818181819
2022-01-27,-1.2472266244057004
2022-01-28,-1.3618881118881159
2022-02-07,-0.6996124031007735
2022-02-08,-0.11428571428572291
2022-02-09,0.5857988165680517
2022-02-10,0.8548387096774289
2022-02-11,-0.34640522875817387
2022-02-14,0.7791304347826071
2022-02-15,0.6322241681260934
2022-02-16,-0.18314424635332538
2022-02-17,-0.09062003179649318
2022-02-18,0.31729055258466693
2022-02-21,0.02608695652173871
2022-02-22,0.8680688336520069
2022-02-23,0.550335570469796
2022-02-24,1.2618243243243232
2022-02-25,0.02043596730245837
2022-02-28,-0.25421530479895843
2022-03-01,-0.14763231197771867
2022-03-02,0.26309226932668106
2022-03-03,0.5763993948562787
2022-03-04,0.28023032629558337
2022-03-07,0.7068403908794726
2022-03-08,1.0935960591132976
2022-03-09,0.9498327759197275
2022-03-10,-0.41238012205754215
2022-03-11,-0.33156966490299844
2022-03-14,-0.5722543352601231
2022-03-15,-0.9255079006772001
2022-03-16,-0.3434065934065891
2022-03-17,0.29432013769362964
2022-03-18,0.5750452079566019
2022-03-21,0.232653061224486
2022-03-22,0.698224852071012
2022-03-23,-0.2586520947176655
2022-03-24,0.1146496815286669
2022-03-25,0.9124767225325856
2022-03-28,-0.010221465076649982
2022-03-29,-0.24657534246575466
2022-03-30,-0.7052441229656444
2022-03-31,-0.9390681003584177
2022-04-01,-0.38854805725971353
2022-04-06,-0.6027397260274002
2022-04-07,-0.4842519685039326
2022-04-08,0.30092592592592954
2022-04-11,0.7357630979498878
2022-04-12,1.3762993762993765
2022-04-13,1.3720379146919537
2022-04-14,1.1775700934579538
2022-04-15,0.5380835380835398
2022-04-18,0.560493827160492
2022-04-19,0.16492146596858706
2022-04-20,-0.9642058165548124
2022-04-21,-0.5152941176470595
2022-04-22,-1.0087336244541576
2022-04-25,-1.532224532224533
2022-04-26,-1.1063829787234083
2022-04-27,-1.1400491400491355
2022-04-28,-0.7796257796257836
2022-04-29,0.030567685589523743
2022-05-05,-0.22141119221411443
2022-05-06,-0.8599605522682435
2022-05-09,-0.6129032258064542
2022-05-10,-0.7078651685393293
2022-05-11,-0.8007812500000003
2022-05-12,-0.5984703632887183
2022-05-13,-1.2251082251082182
2022-05-16,-0.44259259259259703
2022-05-17,0.4374999999999973
2022-05-18,0.13995943204868222
2022-05-19,0.17505470459519434
2022-05-20,0.6357308584686763
2022-05-23,0.1489061328608164
2022-05-24,-0.1579776721158142
2022-05-25,0.017151381953759853
2022-05-26,-0.21773010790376415
2022-05-27,0.7781456953642325
2022-05-30,0.08524590163934666
2022-05-31,-0.8966480446927407
2022-06-01,-1.1509433962264197
2022-06-02,-0.11650485436892276
2022-06-06,0.8443935926773538
2022-06-07,0.33043478260870107
2022-06-08,0.5880829015544109
2022-06-09,-0.11621621621621599
2022-06-10,-0.9487179487179566
2022-06-13,-0.2819905213270156
2022-06-14,-0.8558558558558579
2022-06-15,-0.6311300639658907
2022-06-16,0.27875243664717403
2022-06-17,0.6786427145708581
2022-06-20,0.09856262833675425
2022-06-21,-0.43119266055045524
2022-06-22,-0.5979381443299043
2022-06-23,-0.47149122807016824
2022-06-24,-1.0505415162454836
2022-06-27,0.06349206349206592
2022-06-28,-0.04216867469879773
2022-06-29,-0.4714946070878295
2022-06-30,-0.30676691729323735
2022-07-01,-1.3429438543247338
2022-07-04,-1.27090909090909
2022-07-05,-0.3534635879218421
2022-07-06,-0.9736842105263135
2022-07-07,-0.4540311173974538
2022-07-08,-0.407894736842106
2022-07-11,-0.2655462184873925
2022-07-12,-0.168350168350164
2022-07-13,-0.32863849765257974
2022-07-14,-0.1640091116173095
2022-07-15,-1.3863216266173763
2022-07-18,-0.031045751633982082
2022-07-19,-0.0698466780238481
2022-07-20,0.1307420494699645
2022-07-21,0.08035714285713874
2022-07-22,0.3899782135076184
2022-07-25,0.018691588785048924
2022-07-26,0.029629629629637087
2022-07-27,0.13207547169811365
2022-07-28,1.2749490835030581
2022-07-29,1.8867256637168168
2022-08-01,1.268796992481205
2022-08-02,0.8290909090909137
2022-08-03,-0.10289389067524296
2022-08-04,-0.15737051792828544
2022-08-05,0.35835351089588385
2022-08-08,-0.3645833333333296
2022-08-09,0.6824817518248153
2022-08-10,0.299180327868857
2022-08-11,0.26814516129031934
2022-08-12,0.09861932938856059
2022-08-15,0.27916666666666407
2022-08-16,-0.4315068493150652
2022-08-17,-0.4976525821596262
2022-08-18,-1.2196162046908279
2022-08-19,-1.119047619047621
2022-08-22,-1.1224944320712658
2022-08-23,-0.5866050808314093
2022-08-24,0.16775599128539917
2022-08-25,0.48774509803920935
2022-08-26,0.3069908814589601
2022-08-29,-0.7308641975308648
2022-08-30,-0.571428571428569
2022-08-31,-0.9502923976608171
2022-09-01,-1.3427835051546382
2022-09-02,-0.3862559241706123
2022-09-05,0.10510510510510178
2022-09-06,0.7286135693215332
2022-09-07,0.10344827586206293
2022-09-08,0.692957746478879
2022-09-09,1.1265822784810036
2022-09-13,1.6795366795366782
2022-09-14,0.6562499999999961
2022-09-15,0.277467411545625
2022-09-16,-0.26411657559198254
2022-09-19,-0.016666666666663447
2022-09-20,0.30699774266365
2022-09-21,0.428571428571429
2022-09-22,0.5936073059360724
2022-09-23,0.9976247030878832
2022-09-26,-0.8140417457305454
2022-09-27,-0.7170818505338011
2022-09-28,-1.060763888888886
2022-09-29,-0.0031496062992142243
2022-09-30,0.48442367601246195
2022-10-10,1.2183333333333344
2022-10-11,0.8384754990925577
2022-10-12,0.15630885122409607
2022-10-13,-0.5196506550218379
2022-10-14,-0.4618834080717514
2022-10-17,-1.1049868766404205
2022-10-18,-0.15303430079155983
2022-10-19,-0.35174418604650687
2022-10-20,-0.4447852760736235
2022-10-21,-0.037499999999999346
2022-10-24,1.5087281795511178
2022-10-25,1.5714285714285658
2022-10-26,1.320796460176987
2022-10-27,0.2974137931034435
2022-10-28,0.004576659038903968
2022-10-31,-0.6445086705202321
2022-11-01,0.5647321428571421
2022-11-02,0.5592417061611386
2022-11-03,-0.1547619047619022
2022-11-04,0.2176870748299359
2022-11-07,0.7772585669781916
2022-11-08,1.030508474576274
2022-11-09,1.4719424460431643
2022-11-10,0.874242424242422
2022-11-11,0.9035222052067411
2022-11-14,-0.23823975720789292
2022-11-15,0.14542728635682017
2022-11-16,-0.13355592654424017
2022-11-17,-0.17355371900826433
2022-11-18,-0.3903281519861805
2022-11-21,-0.8269230769230737
2022-11-22,-0.30081300813009393
2022-11-23,0.08000000000000379
2022-11-24,0.9369369369369389
2022-11-25,0.774936061381074
2022-11-28,0.2819328116785464
2022-11-29,-0.014633842900021544
2022-11-30,-0.2560957716070505
2022-12-01,1.4730291659788228
2022-12-02,1.7302977232924766
2022-12-05,1.0479452054794485
2022-12-06,-0.08792650918635407
2022-12-07,-0.3603034134007625
2022-12-08,-0.029673590504457475
2022-12-09,0.6635514018691564
2022-12-12,1.1154562383612667
2022-12-13,0.960985626283364
2022-12-14,1.0569852941176394
2022-12-15,-0.2172573189522369
2022-12-16,-0.7257575757575656
2022-12-19,-0.4953560371517055
2022-12-20,-0.36817472698907616
2022-12-21,0.7649513212795489
2022-12-22,0.4135220125786234
2022-12-23,0.04769736842104906
2022-12-26,0.1693518873903177
2022-12-27,0.43877899792293173
2022-12-28,0.2541563289818407
2022-12-29,-0.45973770870645414
2022-12-30,0.2582938388625591
2023-01-03,0.3917748917748939
2023-01-04,-0.08154506437767504
2023-01-05,-1.01923076923077
2023-01-06,-1.2826475849731644
2023-01-09,-0.14975041597337432
2023-01-10,-0.3853820598006654
2023-01-11,0.31395348837208953
2023-01-12,-0.1441774491681995
2023-01-13,-0.13636363636363363
2023-01-16,0.6556291390728473
2023-01-17,0.3411764705882355
2023-01-18,0.2775800711743744
2023-01-19,-0.7895545314900133
2023-01-20,0.17426273458445155
2023-01-30,-0.18702865761689275
2023-01-31,-0.44104134762634345
2023-02-01,-0.02349486049926726
2023-02-02,0.39421613394216104
2023-02-03,-0.24631268436578038
2023-02-06,-1.0387096774193498
2023-02-07,-0.9663526244952831
2023-02-08,-0.7977369165487928
2023-02-09,-0.3763066202090595
2023-02-10,-0.6289682539682591
2023-02-13,-0.4820936639118452
2023-02-14,-0.14084507042253236
2023-02-15,-0.47411444141689063
2023-02-16,-0.15584415584415323
2023-02-17,-0.6732026143790883
2023-02-20,0.5624999999999997
2023-02-21,0.5290697674418476
2023-02-22,0.7076923076923121
2023-02-23,0.1459627329192494
2023-02-24,-0.3399339933993242
2023-02-27,-1.3034482758620674
2023-02-28,-0.9166666666666774
2023-03-01,0.28481012658227267
2023-03-02,-0.21192052980131615
2023-03-03,0.4827586206896727
2023-03-06,0.9525423728813437
2023-03-07,0.1926910299003418
2023-03-08,-1.512135922330096
2023-03-09,-1.2555831265508555
2023-03-10,-0.9391727493917271
2023-03-13,0.7419354838709611
2023-03-14,1.59150326797385
2023-03-15,1.5032679738562098
2023-03-16,0.6853932584269632
2023-03-17,0.2916666666666629
2023-03-20,0.6807339449541254
2023-03-21,0.4650205761316952
2023-03-22,0.42217898832684586
2023-03-23,0.4894026974951826
2023-03-24,0.5192697768762661
2023-03-27,0.24103585657371535
2023-03-28,-0.0700218818380714
2023-03-29,0.13948497854076963
2023-03-30,0.869767441860469
2023-03-31,1.1325581395348767
2023-04-03,0.3645569620253142
2023-04-04,0.6323185011709563
2023-04-06,1.651245551601421
2023-04-07,1.4505119453924848
2023-04-10,0.5289115646258536
2023-04-11,0.4784110535405892
2023-04-12,0.678683385579936
2023-04-13,0.6977611940298538
2023-04-14,1.2067736185383255
2023-04-17,0.08239095315023251
2023-04-18,-0.5232919254658386
2023-04-19,-0.5870646766169145
2023-04-20,-0.10452961672474277
2023-04-21,-0.29924242424241565
2023-04-24,-0.36565656565657
2023-04-25,0.1536885245901617
2023-04-26,-0.06249999999999916
2023-04-27,0.21729957805906303
2023-04-28,0.016427104722793694
2023-05-04,0.9482142857142969
2023-05-05,1.3268892794376115
2023-05-08,0.3695299837925443
2023-05-09,-0.06711409395973031
2023-05-10,-0.05643738977072644
2023-05-11,-0.8715083798882675
2023-05-12,-1.8199404761904723
2023-05-15,-1.3540983606557337
2023-05-16,-1.174057924531366
2023-05-17,-0.5209653849729974
2023-05-18,-0.10885025458434007
2023-05-19,0.2803017280740898
2023-05-22,0.4018475750577384
2023-05-23,-0.15174129353233712
2023-05-24,-0.4004739336492907
2023-05-25,-0.8103092783505155
2023-05-26,-0.598698481561824
2023-05-29,0.22505800464037032
2023-05-30,-0.11764705882352529
2023-05-31,0.8279569892473055
2023-06-01,1.0046838407494043
2023-06-02,1.1277056277056177
2023-06-05,-0.008213552361403748
2023-06-06,-0.008316008316002372
2023-06-07,-0.041262135922318324
2023-06-08,0.36104513064133437
2023-06-09,1.7028112449799253
2023-06-12,0.9414141414141434
2023-06-13,0.6609195402298903
2023-06-14,-0.1464285714285751
2023-06-15,-0.9517684887459832
2023-06-16,-0.12431444241316338
2023-06-19,0.16858237547893173
2023-06-20,0.1945031712473562
2023-06-21,-0.9063097514340365
2023-06-26,-1.4641255605381107
2023-06-27,-0.6763990267639864
2023-06-28,-0.55392156862745
2023-06-29,-0.07159904534606151
2023-06-30,-0.11815561959653502
2023-07-03,0.5416666666666763
2023-07-04,0.6257668711656492
2023-07-05,0.11735682554130128
2023-07-06,0.9031504083051847
2023-07-07,-0.5652298323171385
2023-07-10,0.2913967838952548
2023-07-11,0.6465116279069698
2023-07-12,0.19347319347318212
2023-07-13,1.494360902255633
2023-07-14,1.3680932944606372
2023-07-17,1.168048867149991
2023-07-18,0.9163633890003773
2023-07-19,0.9316494022817648
2023-07-20,0.8609756097561134
2023-07-21,-0.1380145278450269
2023-07-24,-0.41336633663366257
2023-07-25,-0.726315789473682
2023-07-26,-0.06129032258064786
2023-07-27,0.4771428571428455
2023-07-28,-1.0900243309002462
2023-07-31,-0.821256038647345
2023-08-01,0.0561555075593949
2023-08-02,-0.21041666666667125
2023-08-03,-1.0615384615384706
2023-08-04,-1.1886792452830193
2023-08-07,-0.5317286652078763
2023-08-08,-0.4999999999999932
2023-08-09,-0.42068965517241386
2023-08-10,-0.6980056980057068
2023-08-11,0.06906077348065938
2023-08-14,0.07977207977207748
2023-08-15,0.42514970059880813
2023-08-16,0.5732899022801372
2023-08-17,0.1806451612903169
2023-08-18,-0.2604790419161705
2023-08-21,0.006211180124211132
2023-08-22,0.7878787878787838
2023-08-23,1.45112781954887
2023-08-24,1.523489932885912
2023-08-25,0.8872549019607956
2023-08-28,0.5443925233644864
2023-08-29,0.3317422434367548
2023-08-30,0.8671679197995
2023-08-31,0.5127551020408305
2023-09-01,0.4974093264248824
2023-09-04,-0.2173913043478358
2023-09-05,-0.7664399092970527
2023-09-06,-0.7878787878787821
2023-09-07,-1.3005617977528194
2023-09-08,-0.5398936170212716
2023-09-11,0.21856287425148577
2023-09-12,0.08231707317073475
2023-09-13,0.3058103975535191
2023-09-14,1.1294416243654912
2023-09-15,0.7286012526095997
2023-09-18,-0.17855982994302022
2023-09-19,0.015526388098922055
2023-09-20,0.2148220129715358
2023-09-21,-0.001881075798480346
2023-09-22,0.6536203522504798
2023-09-25,0.26048565121412987
2023-09-26,-0.7574468085106398
2023-09-27,-0.550102249488759
2023-09-28,-1.0350109409190413
2023-10-09,-1.6220302375809916
2023-10-10,-1.2091097308488736
2023-10-11,-0.7408256880733968
2023-10-12,0.1857142857142815
2023-10-13,0.5459057071960407
2023-10-16,1.4389610389610588
2023-10-17,0.8375350140056007
2023-10-18,1.0686015831134685
2023-10-19,0.4010025062656698
2023-10-20,0.09002433090025307
2023-10-23,0.15789473684209973
2023-10-24,-0.018666666666671577
2023-10-25,-0.24629080118693947
2023-10-26,0.2803738317756921
2023-10-27,0.37658227848100917
2023-10-30,0.41584158415841793
2023-10-31,0.12130177514793017
2023-11-01,-0.9610091743119237
2023-11-02,-0.14639639639639268
2023-11-03,-0.2705882352941145
2023-11-06,0.4480369515011555
2023-11-07,0.009708737864092655
2023-11-08,-0.933155080213906
2023-11-09,-0.9234828496042196
2023-11-10,-0.1764705882352943
2023-11-13,-0.7757437070938246
2023-11-14,-0.04094827586206352
2023-11-15,1.1624758220502818
2023-11-16,1.0000000000000053
2023-11-17,0.9354166666666729
2023-11-20,0.11085972850678649
2023-11-21,-0.1394230769230603
2023-11-22,0.04347826086955632
2023-11-23,-0.1169230769230816
2023-11-24,-0.07770270270271497
2023-11-27,1.4792993630573306
2023-11-28,1.184249628528974
2023-11-29,0.6626506024096321
2023-11-30,0.57049608355092
2023-12-01,0.20528211284513892
2023-12-04,0.3659711075441365
2023-12-05,-0.8758344459279073
2023-12-06,-0.8409742120343802
2023-12-07,-0.7116991643454046
2023-12-08,-0.1875901875901925
2023-12-11,-0.7727952167414016
2023-12-12,-0.7329317269076329
2023-12-13,-0.8063241106719354
2023-12-14,0.7519500780031272
2023-12-15,0.7609756097560981
2023-12-18,0.5551257253384909
2023-12-19,0.2897959183673575
2023-12-20,0.19501133786848923
2023-12-21,0.7999999999999946
2023-12-22,0.806748466257656
2023-12-25,0.2337278106508835
2023-12-26,0.4764542936287936
2023-12-27,0.07978723404255901
2023-12-28,-0.23013698630137602
2023-12-29,-1.0391198044009808
2024-01-02,-0.23809523809524744
2024-01-03,-0.6479217603911908
2024-01-04,-1.2805907172995885
2024-01-05,-0.5546558704453398
2024-01-08,-0.40677966101695634
2024-01-09,-0.03163370082349591
2024-01-10,-0.10992255215622329
2024-01-11,0.091520748646138
2024-01-12,-0.013010376956569989
2024-01-15,0.8386243386243525
2024-01-16,0.4444444444444493
2024-01-17,-0.3967391304347769
2024-01-18,-0.36132315521630315
2024-01-19,-0.36445783132530424
2024-01-22,-1.6585956416464969
2024-01-23,-0.5033259423503312
2024-01-24,7.61408106051307e-15
2024-01-25,0.5023584905660416
2024-01-26,0.8273381294964172
2024-01-29,0.8945578231292366
2024-01-30,1.0310344827585918
2024-01-31,0.3180212014134327
2024-02-01,-0.21724137931036505
2024-02-02,0.014450867052013988
2024-02-05,-0.8989898989899181
2024-02-06,-1.0136239782016387
2024-02-07,-1.0636132315521576
2024-02-08,-0.2741514360313377
2024-02-19,1.1591928251121049
2024-02-20,0.8882833787465901
2024-02-21,0.8446327683615777
2024-02-22,0.26605504587156936
2024-02-23,-0.6725146198830391
2024-02-26,-0.24255319148937343
2024-02-27,-0.6015625000000006
2024-02-28,-0.6340579710145048
2024-02-29,-0.11406844106464077
2024-03-01,0.505494505494508
2024-03-04,1.2795031055900585
2024-03-05,1.997536945812803
2024-03-06,1.1710526315789476
2024-03-07,0.9076305220883674
2024-03-08,0.6617336152219813
2024-03-11,0.2499999999999896
2024-03-12,0.1617647058823458
2024-03-13,-0.10921501706484366
2024-03-14,1.2488151658767856
2024-03-15,1.244575936883623
2024-03-18,0.6896551724137936
2024-03-19,0.18945634266886177
2024-03-20,0.08319999999999939
2024-03-21,1.0883280757097766
2024-03-22,-0.28263988522237016
2024-03-25,-0.05441176470587645
2024-03-26,-0.15156250000000526
2024-03-27,-0.20059880239520841
2024-03-28,0.34046692607003776
2024-03-29,1.0000000000000029
2024-04-01,0.979405034324947
2024-04-02,1.0166051660516644
2024-04-03,1.7871428571428616
2024-04-08,2.2400408580183915
2024-04-09,1.5255147717099373
2024-04-10,1.0017196904557146
2024-04-11,0.3076271186440713
2024-04-12,0.972929936305732
2024-04-15,0.5220483641536295
2024-04-16,0.1488230827638567
2024-04-17,0.08923076923076774
2024-04-18,0.07229832572298199
2024-04-19,0.03269069572506394
2024-04-22,-0.8852941176470578
2024-04-23,-1.3924170616113734
2024-04-24,-0.550366300366297
2024-04-25,-0.3401960784313673
2024-04-26,0.3565310492505327
2024-04-29,0.0026109660574395927
2024-04-30,-0.60117302052786
2024-05-06,-0.18898809523810148
2024-05-07,0.0854572713643124
2024-05-08,0.2769953051643163
2024-05-09,0.5934426229508157
2024-05-10,1.6743554952510158
2024-05-13,0.5862068965517239
2024-05-14,0.3565683646112617
2024-05-15,0.36599273039959346
2024-05-16,0.9513989249256547
2024-05-17,1.3364362950426154
2024-05-20,2.5553785160449616
2024-05-21,1.254773269689739
2024-05-22,0.9115281501340453
2024-05-23,-0.30116959064327675
2024-05-24,-0.34729176149294533
2024-05-27,-0.1062231759656637
2024-05-28,0.48645242596093335
2024-05-29,1.170375079465991
2024-05-30,0.12448132780083174
2024-05-31,-0.16824966078697046
2024-06-03,-0.8277194919933735
2024-06-04,-0.401719901719901
2024-06-05,-0.8353623188405788
2024-06-06,0.054802592810842876
2024-06-07,0.5719844357976634
2024-06-11,-0.7767906718489725
2024-06-12,-0.38350634371395553
2024-06-13,-0.4082439299830607
2024-06-14,-0.42874469375379354
2024-06-17,-0.09873949579831834
2024-06-18,0.14626865671641462
2024-06-19,0.2248576850094887
2024-06-20,1.2392444910807914
2024-06-21,0.9706190975865711
2024-06-24,-0.2712022367194756
2024-06-25,-0.30886558627263766
2024-06-26,-0.9110512129380032
2024-06-27,-0.9163043478260896
2024-06-28,0.10722610722610436
2024-07-01,0.025940337224375814
2024-07-02,0.5263157894736958
2024-07-03,1.3932065463599583
2024-07-04,1.1076345146414197
2024-07-05,1.1856740599609692
2024-07-08,0.8864899747137794
2024-07-09,0.562211981566815
2024-07-10,0.14716525934860947
2024-07-11,0.28211586901763175
2024-07-12,-0.3263598326359814
2024-07-15,-0.42176870748298884
2024-07-16,-0.027194066749068446
2024-07-17,-0.1279620853080649
2024-07-18,-0.4567010309278339
2024-07-19,-1.5243664717348913
2024-07-22,-1.4213098729227782
2024-07-23,-1.1053587647593124
2024-07-24,0.016544117647058793
2024-07-25,-1.1845710165825514
2024-07-26,-0.9011437908496672
2024-07-29,-0.41157024793389096
2024-07-30,-0.3298217179902789
2024-07-31,0.5252449133383565
2024-08-01,0.7889502762430949
2024-08-02,0.36703741152679314
2024-08-05,-0.6567411083540072
2024-08-06,-1.4922206506364948
2024-08-07,-1.0624024960998506
2024-08-08,-0.7001569858712723
2024-08-09,0.2198412698412713
2024-08-12,0.843119266055049
2024-08-13,0.5676359039190847
2024-08-14,0.34615384615384215
2024-08-15,0.20700985761226373
2024-08-16,0.5051428571428507
2024-08-19,1.1007667031763433
2024-08-20,1.177453027139868
2024-08-21,0.79274611398964
2024-08-22,0.23014018691589064
2024-08-23,-0.12485136741973173
2024-08-26,0.6932223543400738
2024-08-27,0.5045871559632978
2024-08-28,-0.29187817258883775
2024-08-29,-0.2572145545796764
2024-08-30,-0.5384615384615423
2024-09-02,-1.7033248081841448
2024-09-03,-1.1245283018867884
2024-09-04,-1.5750962772785713
2024-09-05,-0.789196310935443
2024-09-06,0.43908323281061074
2024-09-09,-0.7917570498915335
2024-09-10,-0.1819148936170177
2024-09-11,0.32185039370079266
2024-09-12,0.16261682242990852
2024-09-13,1.1377245508982023
2024-09-18,1.0754923413566722
2024-09-19,0.6769953051643229
2024-09-20,0.7024793388429792
2024-09-23,0.029896907216492963
2024-09-24,0.23773173391494165
2024-09-25,0.9141414141414114
2024-09-26,1.0104265402843622
2024-09-27,0.7325905292479111
2024-09-30,0.10338835794961306
2024-10-08,-0.5257289879931363
2024-10-09,-1.1424501424501505
2024-10-10,-0.665430954587579
2024-10-11,0.22654867256636824
2024-10-14,0.6990740740740756
2024-10-15,0.3489065606361853
2024-10-16,0.894514767932489
2024-10-17,0.1800580832526597
2024-10-18,0.36176194939081363
2024-10-21,1.5172921265636465
2024-10-22,0.9823321554770278
2024-10-23,0.7647058823529382
2024-10-24,-0.001490312965718978
2024-10-25,-0.5412130637636096
2024-10-28,-0.2095933263816466
2024-10-29,0.2049272116461355
2024-10-30,0.47206385404789075
2024-10-31,-0.4367396593673993
2024-11-01,-1.3084223013048566
2024-11-04,-0.7986030267753209
2024-11-05,-0.5733662145499396
2024-11-06,-0.9565637065637034
2024-11-07,-0.9565656565656535
2024-11-08,-0.46794871794871495
2024-11-11,-0.03524229074890269
2024-11-12,-0.6758034026465018
2024-11-13,-0.14588235294118246
2024-11-14,-0.9168129680313682
2024-11-15,-0.28784101688308616
2024-11-18,0.34746376845213556
2024-11-19,0.8678162088292007
2024-11-20,0.5074285714285751
2024-11-21,0.7311046511627818
2024-11-22,0.16491754122937388
2024-11-25,-0.7500000000000021
2024-11-26,-0.8731642189586099
2024-11-27,-0.28551724137930196
2024-11-28,-0.7381818181818159
2024-11-29,0.3653846153846167
2024-12-02,-0.15239294710327733
2024-12-03,0.806524184476945
2024-12-04,0.7116912599318937
2024-12-05,0.48829039812646724
2024-12-06,0.3044554455445531
2024-12-09,-0.12046632124352392
2024-12-10,0.5737051792828767
2024-12-11,0.3629343629343658
2024-12-12,0.8207934336525317
2024-12-13,-0.5572792362768527
2024-12-16,-0.864698646986468
2024-12-17,-0.8703976435935192
2024-12-18,-0.6939393939393952
2024-12-19,-1.2018111254851218
2024-12-20,-1.3238380809595294
2024-12-23,-0.046916890080424864
2024-12-24,0.11569148936169173
2024-12-25,0.29032258064515654
2024-12-26,0.23833333333333656
2024-12-27,0.14048059149723122
2024-12-30,-0.23348017621144823
2024-12-31,-0.8796844181459612
