date,FCT_Bias_1@80
2012-05-10,
2012-05-11,
2012-05-14,
2012-05-15,
2012-05-16,
2012-05-17,
2012-05-18,
2012-05-21,
2012-05-22,
2012-05-23,
2012-05-24,
2012-05-25,
2012-05-28,
2012-05-29,
2012-05-30,
2012-05-31,
2012-06-01,
2012-06-04,
2012-06-05,
2012-06-06,
2012-06-07,
2012-06-08,
2012-06-11,
2012-06-12,
2012-06-13,
2012-06-14,
2012-06-15,
2012-06-18,
2012-06-19,
2012-06-20,
2012-06-21,
2012-06-25,
2012-06-26,
2012-06-27,
2012-06-28,
2012-06-29,
2012-07-02,
2012-07-03,
2012-07-04,
2012-07-05,
2012-07-06,
2012-07-09,
2012-07-10,
2012-07-11,
2012-07-12,
2012-07-13,
2012-07-16,
2012-07-17,
2012-07-18,
2012-07-19,
2012-07-20,
2012-07-23,
2012-07-24,
2012-07-25,
2012-07-26,
2012-07-27,
2012-07-30,
2012-07-31,
2012-08-01,
2012-08-02,
2012-08-03,
2012-08-06,
2012-08-07,
2012-08-08,
2012-08-09,
2012-08-10,
2012-08-13,
2012-08-14,
2012-08-15,
2012-08-16,
2012-08-17,
2012-08-20,
2012-08-21,
2012-08-22,
2012-08-23,
2012-08-24,
2012-08-27,
2012-08-28,
2012-08-29,
2012-08-30,
2012-08-31,5.36109674067663
2012-09-03,8.43319852138183
2012-09-04,8.86182535866083
2012-09-05,9.011807849395925
2012-09-06,10.55340442634551
2012-09-07,8.534289578072682
2012-09-10,11.445927911727933
2012-09-11,11.04953808733678
2012-09-12,10.846142879426438
2012-09-13,9.426152908769316
2012-09-14,11.940837185055493
2012-09-17,11.529386815734178
2012-09-18,10.71808195978411
2012-09-19,11.815628713725788
2012-09-20,10.45104591547834
2012-09-21,11.186459265450388
2012-09-24,8.509968623591623
2012-09-25,8.386253386211866
2012-09-26,8.155413242616156
2012-09-27,8.87606205711973
2012-09-28,9.950965137461495
2012-10-08,7.238478693113449
2012-10-09,7.186080663370968
2012-10-10,6.817744477089285
2012-10-11,7.087734459030494
2012-10-12,6.610252371997778
2012-10-15,4.630272251575098
2012-10-16,4.400389466303171
2012-10-17,4.279541090077358
2012-10-18,4.361954051539851
2012-10-19,3.147562859609402
2012-10-22,2.958511039138266
2012-10-23,2.6136707138758273
2012-10-24,2.6936742288891766
2012-10-25,3.1723343302476374
2012-10-26,1.8990749794779516
2012-10-29,2.164425123921203
2012-10-30,1.9737786541294409
2012-10-31,1.9941708223760513
2012-11-01,2.9257873541827166
2012-11-02,1.4369781386919718
2012-11-05,-0.6814866408972498
2012-11-06,-0.34521544968663986
2012-11-07,1.163974142517779
2012-11-08,0.44651794423274754
2012-11-09,1.124483697962958
2012-11-12,1.4213895918925619
2012-11-13,0.5971187228490458
2012-11-14,1.2013212663505761
2012-11-15,0.8242717034280667
2012-11-16,0.28420164173549534
2012-11-19,0.6659755039404857
2012-11-20,1.3412565371931706
2012-11-21,0.9323482660716897
2012-11-22,1.1614298908031553
2012-11-23,1.410360375444544
2012-11-26,2.1874296194501714
2012-11-27,2.0550097126664695
2012-11-28,1.4455702603568514
2012-11-29,0.643190721717456
2012-11-30,1.3275078582434094
2012-12-03,-0.09184064588774017
2012-12-04,-0.9596343780950004
2012-12-05,-0.8594907447845729
2012-12-06,-1.6883429386747835
2012-12-07,-1.3577878457107864
2012-12-10,-0.9845132320249014
2012-12-11,-1.311809772611044
2012-12-12,-1.3937352643547511
2012-12-13,-2.286302511086013
2012-12-14,-2.478147860571447
2012-12-17,-2.9168934357382774
2012-12-18,-2.242350288297746
2012-12-19,-3.500784884268059
2012-12-20,-4.339871112899551
2012-12-21,-6.2411836911308685
2012-12-24,-5.758179684590895
2012-12-25,-6.363725038019053
2012-12-26,-6.235783563016573
2012-12-27,-5.959548664568724
2012-12-28,-5.493391922444201
2012-12-31,-5.502740818319186
2013-01-04,-6.9161489942954875
2013-01-07,-5.453497890151075
2013-01-08,-5.592923943476684
2013-01-09,-5.156862421921022
2013-01-10,-5.267061699535686
2013-01-11,-4.799278741078022
2013-01-14,-4.595248365321748
2013-01-15,-3.972819370329783
2013-01-16,-3.548819203901747
2013-01-17,-3.5939160658307223
2013-01-18,-2.788299159485073
2013-01-21,-2.799985663032989
2013-01-22,-2.342701684080548
2013-01-23,-2.312937539308609
2013-01-24,-3.039952894366669
2013-01-25,-3.211030801984671
2013-01-28,-3.736462594669349
2013-01-29,-3.5089939266924786
2013-01-30,-3.2205261704936823
2013-01-31,-1.9764496252191688
2013-02-01,-2.9075673054002023
2013-02-04,-2.3230606236555076
2013-02-05,-2.1290806332837935
2013-02-06,-2.243624401776049
2013-02-07,-2.1696033664639582
2013-02-08,-2.5788255504069433
2013-02-18,-5.09562791465437
2013-02-19,-4.964724342427421
2013-02-20,-5.539490305625327
2013-02-21,-7.357787231737842
2013-02-22,-6.727754537921469
2013-02-25,-6.624809814503437
2013-02-26,-6.5264128875142156
2013-02-27,-5.847350710278534
2013-02-28,-6.09059198220066
2013-03-01,-6.775673571995814
2013-03-04,-6.295258722056331
2013-03-05,-5.60781459728149
2013-03-06,-5.873819515990094
2013-03-07,-5.830904025374909
2013-03-08,-6.050135826215723
2013-03-11,-5.5833634728455825
2013-03-12,-5.985413608304697
2013-03-13,-5.492449865961479
2013-03-14,-6.063029273392581
2013-03-15,-5.832086962806558
2013-03-18,-6.218444424354037
2013-03-19,-5.64897908884515
2013-03-20,-5.570869265150227
2013-03-21,-5.482630985626288
2013-03-22,-5.085394704035134
2013-03-25,-5.581634123979166
2013-03-26,-5.610402194634192
2013-03-27,-6.78519827857499
2013-03-28,-5.616450545255807
2013-03-29,-6.43630616330987
2013-04-01,-7.25606427112872
2013-04-02,-6.81165317833551
2013-04-03,-8.810663105054434
2013-04-08,-7.85109028636188
2013-04-09,-7.372986521908722
2013-04-10,-6.050231799466163
2013-04-11,-7.035001727996007
2013-04-12,-6.769528255393285
2013-04-15,-9.896392018588713
2013-04-16,-13.968747253834916
2013-04-17,-14.390092294124411
2013-04-18,-14.486292529427411
2013-04-19,-13.343552903856665
2013-04-22,-13.640803897685753
2013-04-23,-14.613682818323914
2013-04-24,-13.446471725471245
2013-04-25,-13.294189304421984
2013-04-26,-11.19066666666667
2013-05-02,-12.200143386306616
2013-05-03,-10.936418943099126
2013-05-06,-10.715026517383622
2013-05-07,-11.652509652509654
2013-05-08,-10.707033873586415
2013-05-09,-10.066610243902252
2013-05-10,-10.149266748577542
2013-05-13,-10.792279468473476
2013-05-14,-10.566082867082182
2013-05-15,-11.641501928193632
2013-05-16,-11.807126080034102
2013-05-17,-11.831498192108162
2013-05-20,-13.283907566417735
2013-05-21,-10.640798693769542
2013-05-22,-10.56561239314902
2013-05-23,-10.872730935427336
2013-05-24,-10.435640159953827
2013-05-27,-9.782238621331924
2013-05-28,-9.850551847459228
2013-05-29,-10.159943018183055
2013-05-30,-9.13209595925018
2013-05-31,-8.609519703255732
2013-06-03,-8.985599968733538
2013-06-04,-8.536618226161464
2013-06-05,-8.276523558935184
2013-06-06,-8.503858665830055
2013-06-07,-7.866923222938495
2013-06-13,-8.785196830014243
2013-06-14,-8.783184769263165
2013-06-17,-8.281871959647457
2013-06-18,-8.201116353349185
2013-06-19,-8.08191924887973
2013-06-20,-9.467025178469568
2013-06-21,-10.889626704742284
2013-06-24,-11.31557726190652
2013-06-25,-11.114283473847399
2013-06-26,-12.133552651262184
2013-06-27,-12.03164705682958
2013-06-28,-11.66091881743987
2013-07-01,-9.607742422637928
2013-07-02,-9.322746353663131
2013-07-03,-9.425324318946961
2013-07-04,-9.19989136507585
2013-07-05,-9.69956642205322
2013-07-08,-10.181935013238625
2013-07-09,-8.841448616840916
2013-07-10,-8.885843245703146
2013-07-11,-7.045330628387052
2013-07-12,-7.170771345106676
2013-07-15,-6.772811886618989
2013-07-16,-6.671726140891642
2013-07-17,-6.4148812281740994
2013-07-18,-7.0598884750149375
2013-07-19,-6.781123512922449
2013-07-22,-5.604176383475417
2013-07-23,-5.085611038561479
2013-07-24,-4.772416071926404
2013-07-25,-4.910673869627002
2013-07-26,-4.728057852443733
2013-07-29,-5.339508497707412
2013-07-30,-5.23842756992063
2013-07-31,-4.746223919689755
2013-08-01,-4.973643688255122
2013-08-02,-5.196733483094901
2013-08-05,-4.192015493874405
2013-08-06,-4.4062252322199145
2013-08-07,-4.440381496722134
2013-08-08,-3.781325085314086
2013-08-09,-2.9754516636609014
2013-08-12,-0.9890156931548343
2013-08-13,-0.08280415220222273
2013-08-14,-0.4331501442340322
2013-08-15,0.7037372649938388
2013-08-16,2.4602269417327904
2013-08-19,2.68236574597
2013-08-20,1.6538488525501291
2013-08-21,2.2413285541847943
2013-08-22,2.229443755172759
2013-08-23,2.7138754571884047
2013-08-26,5.048987674370397
2013-08-27,5.170424194022403
2013-08-28,6.433733842084203
2013-08-29,4.436613277849686
2013-08-30,3.6794634093139917
2013-09-02,4.846104314230527
2013-09-03,4.687850064627314
2013-09-04,4.36019666524156
2013-09-05,3.231314842261277
2013-09-06,3.2536163023967886
2013-09-09,4.118613525545897
2013-09-10,3.3913456464379914
2013-09-11,2.9111786912751643
2013-09-12,2.2759466666666657
2013-09-13,0.6763917194036208
2013-09-16,0.6878858846071925
2013-09-17,1.0567694944301593
2013-09-18,0.7639036863413592
2013-09-23,0.5869725349889415
2013-09-24,0.5736880695506449
2013-09-25,0.7266284523189132
2013-09-26,0.6620278330019883
2013-09-27,0.39183545625391364
2013-09-30,0.7326628954535986
2013-10-08,1.8330736470343814
2013-10-09,1.7125337767615896
2013-10-10,1.0667840132532578
2013-10-11,0.5140699358576446
2013-10-14,0.23501774900814965
2013-10-15,-0.17879007990038287
2013-10-16,0.25217031831335
2013-10-17,-0.12399917881338644
2013-10-18,1.0920731707317042
2013-10-21,1.6314052995154047
2013-10-22,1.4575560679102892
2013-10-23,2.247795044099121
2013-10-24,2.243189228989164
2013-10-25,1.5890440157732078
2013-10-28,1.5591432225063915
2013-10-29,1.6502319559823149
2013-10-30,1.8664117968323308
2013-10-31,1.1036637931034454
2013-11-01,0.44625791903790424
2013-11-04,0.088900804289543
2013-11-05,0.031603926221546945
2013-11-06,0.08394954327969228
2013-11-07,0.28804228143581107
2013-11-08,-0.037762697022771755
2013-11-11,-0.599733155436968
2013-11-12,-0.8534357946319163
2013-11-13,-1.4665186007773454
2013-11-14,-1.2737040319007578
2013-11-15,-1.4281599645507908
2013-11-18,-1.4682959792769514
2013-11-19,-2.034548728336703
2013-11-20,-1.6824531516183938
2013-11-21,-2.4189418828594085
2013-11-22,-2.429658226410818
2013-11-25,-2.865873015873019
2013-11-26,-2.222096956031565
2013-11-27,-2.4489314750205504
2013-11-28,-2.637667481923308
2013-11-29,-2.693679232042205
2013-12-02,-2.5162773203058757
2013-12-03,-3.3696286017553376
2013-12-04,-3.555397394351264
2013-12-05,-3.0951308980278025
2013-12-06,-3.038405824363696
2013-12-09,-2.78513372709749
2013-12-10,-2.077765894469502
2013-12-11,-1.7057809049237107
2013-12-12,-1.6646689409643285
2013-12-13,-3.2909483444142213
2013-12-16,-3.1666490737267234
2013-12-17,-2.1667823895128957
2013-12-18,-2.2601751115766824
2013-12-19,-2.88677754793865
2013-12-20,-3.604814670902693
2013-12-23,-3.1375051678551835
2013-12-24,-3.318031184754126
2013-12-25,-3.048119933813993
2013-12-26,-3.0107765339896155
2013-12-27,-1.9175694581338354
2013-12-30,-2.2899022218025635
2013-12-31,-2.85917489154124
2014-01-02,-1.5514736322088483
2014-01-03,-1.457848244411884
2014-01-06,-1.5967614735927531
2014-01-07,-1.5578109953591097
2014-01-08,-2.648830508626864
2014-01-09,-2.973473415150613
2014-01-10,-2.500192754696748
2014-01-13,-1.7305886838012332
2014-01-14,-1.2752691497249302
2014-01-15,-1.675123921990966
2014-01-16,-1.685551036702331
2014-01-17,-1.5977526857715545
2014-01-20,-1.1594171208853927
2014-01-21,-1.4644291538487022
2014-01-22,-2.172018511571701
2014-01-23,-2.348668815390458
2014-01-24,-1.6698332652001575
2014-01-27,-1.8941517152013723
2014-01-28,-1.8502169769266847
2014-01-29,-2.0203655383244166
2014-01-30,-2.2373206383690176
2014-02-07,-1.7507667316012656
2014-02-10,-1.0529435756821546
2014-02-11,-1.2252556572210291
2014-02-12,-1.1833652704026159
2014-02-13,-1.1477327108491555
2014-02-14,0.31068342878250377
2014-02-17,2.742027340090226
2014-02-18,2.4012198980317017
2014-02-19,2.654712220147299
2014-02-20,2.137759681316285
2014-02-21,2.2468559490366897
2014-02-24,2.4484809488996477
2014-02-25,2.4916581136984495
2014-02-26,2.8980471217710586
2014-02-27,0.9268673730098522
2014-02-28,0.9683844760646089
2014-03-03,1.6522274097031209
2014-03-04,1.0773816378340664
2014-03-05,1.0854966397980992
2014-03-06,1.0408667692844862
2014-03-07,1.6855354815356034
2014-03-10,-0.38771047142508286
2014-03-11,-0.0001498445126583357
2014-03-12,0.5149585616137347
2014-03-13,1.0286129504603794
2014-03-14,0.9594037851750669
2014-03-17,1.403523892182761
2014-03-18,0.6272800860390275
2014-03-19,0.217876595756846
2014-03-20,-0.00852800719431865
2014-03-21,-0.28176878905014596
2014-03-24,-0.5007324131873081
2014-03-25,-0.6430471029632833
2014-03-26,-0.35619434463365
2014-03-27,-0.7971037060105802
2014-03-28,-0.6611415168099981
2014-03-31,-0.794907841299588
2014-04-01,-0.9237976264834463
2014-04-02,-0.8430471967057517
2014-04-03,-0.6785601014906297
2014-04-04,-0.9167467178994616
2014-04-08,-0.3738557893046424
2014-04-09,-0.49569455727050943
2014-04-10,-0.4584825789645093
2014-04-11,-0.557409224730127
2014-04-14,-0.30416940249507646
2014-04-15,-1.0780856423173875
2014-04-16,-1.6654970760233907
2014-04-17,-1.768338451040615
2014-04-18,-1.8456758156395625
2014-04-21,-2.686639958195432
2014-04-22,-2.4057614614438805
2014-04-23,-2.3213717518119124
2014-04-24,-2.171143924568593
2014-04-25,-1.5293300937174643
2014-04-28,-1.0550268212493423
2014-04-29,-1.4367896485399567
2014-04-30,-1.5875506965261852
2014-05-05,-1.1603488165154017
2014-05-06,-1.1439942112879908
2014-05-07,-1.0607664233576697
2014-05-08,-1.7237346976064374
2014-05-09,-1.6905722670579628
2014-05-12,-1.2513468326212163
2014-05-13,-1.0626528186350264
2014-05-14,-0.7485359672578077
2014-05-15,-0.4521943129618093
2014-05-16,-1.2238904893597184
2014-05-19,-0.7560128553749097
2014-05-20,-1.1293607775062815
2014-05-21,-0.7914321174510067
2014-05-22,-0.4997238698477154
2014-05-23,-0.5450196599071349
2014-05-26,-0.6718995166323107
2014-05-27,-1.2412616633553095
2014-05-28,-1.5661826634071543
2014-05-29,-2.2947475100778787
2014-05-30,-1.7321214766893251
2014-06-03,-1.9878121210001334
2014-06-04,-2.035948489951548
2014-06-05,-1.9642968765814446
2014-06-06,-1.4790315517595836
2014-06-09,-1.6853457968089465
2014-06-10,-1.7484968665419025
2014-06-11,-1.384237777240587
2014-06-12,-1.6446329710928094
2014-06-13,-0.5120985171300346
2014-06-16,0.15819829244094757
2014-06-17,-0.44832812305623165
2014-06-18,-0.2715504845449059
2014-06-19,0.48387014910082343
2014-06-20,3.5011700991894945
2014-06-23,3.8918954939249204
2014-06-24,4.002090652634428
2014-06-25,3.7015265241529076
2014-06-26,3.6173472387647303
2014-06-27,3.8342170228079566
2014-06-30,3.3398217292082584
2014-07-01,3.5510828074082137
2014-07-02,3.7176995349751767
2014-07-03,3.4806789217605396
2014-07-04,4.0469589631640535
2014-07-07,2.722266679339802
2014-07-08,3.216918089652046
2014-07-09,3.4933581456325293
2014-07-10,3.676137560240202
2014-07-11,5.375478533285579
2014-07-14,4.0275967838081295
2014-07-15,3.5226083353009026
2014-07-16,2.9331664822089167
2014-07-17,3.1991750699503303
2014-07-18,3.6442416472339105
2014-07-21,3.5527740965211017
2014-07-22,3.3796643722623614
2014-07-23,3.6083258853949602
2014-07-24,3.141471890188549
2014-07-25,2.056463788189023
2014-07-28,2.5179405593683417
2014-07-29,2.39466682375463
2014-07-30,2.287564192365835
2014-07-31,2.590752493879197
2014-08-01,1.9331200763587824
2014-08-04,2.1686529721368744
2014-08-05,1.8509009939683323
2014-08-06,0.5998476798752174
2014-08-07,1.066934548147209
2014-08-08,1.348438599214596
2014-08-11,0.8432649936423271
2014-08-12,0.9792484798229207
2014-08-13,0.9092673772590204
2014-08-14,0.41875903877317744
2014-08-15,0.3879136150480544
2014-08-18,-1.297213618341711
2014-08-19,-1.5422480594937957
2014-08-20,-1.8961555344435141
2014-08-21,-2.101627475536846
2014-08-22,-1.621453947343584
2014-08-25,-1.805045117154213
2014-08-26,-1.1584965451346283
2014-08-27,-1.455506845195103
2014-08-28,-0.7044884769026364
2014-08-29,-0.8825619372507847
2014-09-01,-1.113378686085021
2014-09-02,-1.721538461538464
2014-09-03,-1.9852865255549699
2014-09-04,-2.0494050698396373
2014-09-05,-2.1034661148473757
2014-09-09,-2.3913496612819105
2014-09-10,-1.9282371294851732
2014-09-11,-2.274438055410348
2014-09-12,-3.092842323651458
2014-09-15,-3.0547483134405846
2014-09-16,-2.8636833936885697
2014-09-17,-2.5370322580645106
2014-09-18,-3.251218886322811
2014-09-19,-3.063216925822081
2014-09-22,-7.585821801408111
2014-09-23,-8.086621751684302
2014-09-24,-7.4668922184630295
2014-09-25,-8.382507149666358
2014-09-26,-6.7952646239554335
2014-09-29,-6.808216016616662
2014-09-30,-6.52009237875289
2014-10-08,-6.927708095781069
2014-10-09,-6.138211382113824
2014-10-10,-6.2642857142857205
2014-10-13,-5.563965170797055
2014-10-14,-5.786149334536439
2014-10-15,-6.590337078651676
2014-10-16,-5.782656908405423
2014-10-17,-5.851786110494788
2014-10-20,-5.824330563250233
2014-10-21,-5.611655011655027
2014-10-22,-5.440270648623426
2014-10-23,-6.175904180366376
2014-10-24,-5.896340023612746
2014-10-27,-6.174697365297884
2014-10-28,-6.055954088952655
2014-10-29,-5.664980732177272
2014-10-30,-7.0755924170616185
2014-10-31,-9.296838679683876
2014-11-03,-11.032338308457737
2014-11-04,-10.936627773964785
2014-11-05,-12.780035730236733
2014-11-06,-12.960499280773707
2014-11-07,-12.630143752126065
2014-11-10,-10.810496020122653
2014-11-11,-11.009089686524957
2014-11-12,-10.095295549145119
2014-11-13,-10.27481865995148
2014-11-14,-11.267764321034626
2014-11-17,-7.37187061962204
2014-11-18,-7.394672434142471
2014-11-19,-7.169030298427171
2014-11-20,-7.245089363522921
2014-11-21,-6.70007616139628
2014-11-24,-6.1693173559449495
2014-11-25,-5.7271934198418215
2014-11-26,-5.7061063040637885
2014-11-27,-5.94318837984716
2014-11-28,-6.720451232356303
2014-12-01,-8.705358127870719
2014-12-02,-4.687179791443226
2014-12-03,-4.413251040929947
2014-12-04,-4.021630167967171
2014-12-05,-3.5670206661903086
2014-12-08,-3.949579259209171
2014-12-09,-3.24993637356418
2014-12-10,-1.1312578122945152
2014-12-11,-1.0547967435840502
2014-12-12,-0.6989372125606772
2014-12-15,-0.7029152232484153
2014-12-16,-2.753542077604378
2014-12-17,-3.2468145269612996
2014-12-18,-2.685890796618676
2014-12-19,-2.575689235909686
2014-12-22,-2.2491556960272807
2014-12-23,-3.152161741329876
2014-12-24,-2.824195009551857
2014-12-25,-2.921485866184086
2014-12-26,-2.356672444078767
2014-12-29,-1.9286923037752404
2014-12-30,-2.065009199820251
2014-12-31,-1.1141383641165192
2015-01-05,-1.2184570165413569
2015-01-06,-0.5419664917677995
2015-01-07,-0.4677038618301211
2015-01-08,-0.4692130667481316
2015-01-09,-0.3087614550801481
2015-01-12,0.32489876327426426
2015-01-13,0.565601957723738
2015-01-14,0.5193317374999991
2015-01-15,0.15387957448345618
2015-01-16,1.037324319087307
2015-01-19,2.538691316172649
2015-01-20,2.6082265582025843
2015-01-21,4.073289586604964
2015-01-22,3.167196905305141
2015-01-23,3.619740487124998
2015-01-26,3.4784575938528963
2015-01-27,3.0817831251826555
2015-01-28,2.9733438774088365
2015-01-29,2.4767359512262925
2015-01-30,0.17747287793630867
2015-02-02,0.8847689044048235
2015-02-03,1.3288113107282242
2015-02-04,1.0691595557902878
2015-02-05,1.4270372843528676
2015-02-06,1.4140022373280743
2015-02-09,0.5244841245373769
2015-02-10,0.8122322890876247
2015-02-11,0.8299806405578322
2015-02-12,0.4698433857543831
2015-02-13,1.0153038926714772
2015-02-16,1.6464413725443015
2015-02-17,1.4921622314873062
2015-02-25,0.5667398021453361
2015-02-26,0.7069856852826623
2015-02-27,0.7803111239636409
2015-03-02,1.070062947373458
2015-03-03,0.5487293536456631
2015-03-04,0.2113625572239319
2015-03-05,-0.026752004378849923
2015-03-06,-0.1464829586656944
2015-03-09,-0.8961977736012738
2015-03-10,-1.466482075196741
2015-03-11,-1.197253801860326
2015-03-12,-1.176203051643198
2015-03-13,-1.3210456748421158
2015-03-16,-1.02241429827131
2015-03-17,-1.3741466310477846
2015-03-18,-1.6870717222475957
2015-03-19,-0.6922845087401964
2015-03-20,-0.536295180722892
2015-03-23,0.8502633559067048
2015-03-24,1.2421699385583704
2015-03-25,0.99864824271553
2015-03-26,1.4412513096841857
2015-03-27,1.1113772455089774
2015-03-30,0.462241534312259
2015-03-31,-0.272304693357323
2015-04-01,-0.21805999695446224
2015-04-02,0.43149057500395394
2015-04-03,0.10683012259195329
2015-04-07,0.3155293367346981
2015-04-08,0.33880837359098726
2015-04-09,-1.1045971488066677
2015-04-10,-1.1842570281124578
2015-04-13,-0.6743014944769348
2015-04-14,-1.1266132984806319
2015-04-15,-0.9856185651250188
2015-04-16,-0.43636961525814616
2015-04-17,-0.825511230305062
2015-04-20,-0.4532324621733166
2015-04-21,-1.385946694357912
2015-04-22,-1.1202157272094677
2015-04-23,-1.8565737051792859
2015-04-24,-1.565499124343252
2015-04-27,-1.6296165400247313
2015-04-28,0.11685159500692825
2015-04-29,0.10452660677263118
2015-04-30,0.08297395204416795
2015-05-04,-0.4172253739040701
2015-05-05,-0.20865800865801504
2015-05-06,0.011251514626964425
2015-05-07,-0.4845593854805625
2015-05-08,-0.32368523237436186
2015-05-11,-0.28687344646528534
2015-05-12,-0.6387664878689673
2015-05-13,0.39432117805970124
2015-05-14,1.570345760060991
2015-05-15,1.779740614478519
2015-05-18,2.666846888476149
2015-05-19,1.9699351929598603
2015-05-20,0.4195461022942001
2015-05-21,0.8360647432703919
2015-05-22,0.9593769645634036
2015-05-25,0.7642994948339188
2015-05-26,0.1453355720407744
2015-05-27,0.30134836772122603
2015-05-28,0.22826550981854846
2015-05-29,0.23685767579107256
2015-06-01,0.15523717828537348
2015-06-02,0.40075824842872537
2015-06-03,0.4696724036003686
2015-06-04,-0.23999005323138603
2015-06-05,-1.0360759983307248
2015-06-08,-0.8905957651556526
2015-06-09,-0.9542175012778835
2015-06-10,-0.8339324604822046
2015-06-11,-1.0565987719941428
2015-06-12,-0.9730877378671404
2015-06-15,-1.086454684891799
2015-06-16,-0.7147109739939479
2015-06-17,-1.2091158674448932
2015-06-18,-0.51052721775626
2015-06-19,-0.7042512773824896
2015-06-23,-1.0886555481297404
2015-06-24,-1.7012029764298606
2015-06-25,-1.848858837932368
2015-06-26,-2.4513555843908206
2015-06-29,-2.038578763168879
2015-06-30,-2.5249590797821755
2015-07-01,-2.6191728069777285
2015-07-02,-2.752994149755478
2015-07-03,-2.1984331093353267
2015-07-06,-2.573261450896441
2015-07-07,-2.570059189935827
2015-07-08,-5.5500991909958755
2015-07-09,-3.203099345090283
2015-07-10,-3.1174397242614638
2015-07-13,-3.1160234264773523
2015-07-14,-3.6167939783479244
2015-07-15,-3.550297074268101
2015-07-16,-4.286968469918777
2015-07-17,-4.445829235558232
2015-07-20,-4.671472392400241
2015-07-21,-4.619570279942178
2015-07-22,-4.7140094092485505
2015-07-23,-4.435655302826384
2015-07-24,-4.900937415092697
2015-07-27,-4.502986446251995
2015-07-28,-4.708110646594721
2015-07-29,-4.445907964740519
2015-07-30,-4.520919550401471
2015-07-31,-4.487139899005458
2015-08-03,-4.080189816148957
2015-08-04,-4.554446253225476
2015-08-05,-4.647032881193695
2015-08-06,-4.473652373428145
2015-08-07,-3.9080357600430897
2015-08-10,-3.5279714922538763
2015-08-11,-1.9930507079301327
2015-08-12,0.44985054674243985
2015-08-13,0.2677401518323663
2015-08-14,0.10470445075497851
2015-08-17,-0.4774126291748163
2015-08-18,-0.636165283654871
2015-08-19,-1.0297153318143357
2015-08-20,-0.05526816946808643
2015-08-21,0.17502084251266128
2015-08-24,-0.82077809816416
2015-08-25,-1.6345081742771055
2015-08-26,-2.27928780998702
2015-08-27,-2.740206552706551
2015-08-28,-1.8355704697986566
2015-08-31,-1.8803810868031046
2015-09-01,-1.8113107822410148
2015-09-02,-1.9015608371763018
2015-09-07,-1.9269340974212001
2015-09-08,-1.8156221616712085
2015-09-09,-1.5972121650977542
2015-09-10,-1.5059512909723494
2015-09-11,-1.5034126544917958
2015-09-14,-1.8502161247885716
2015-09-15,-2.004910292728998
2015-09-16,-1.6285497917455447
2015-09-17,-0.6680490103675761
2015-09-18,-0.1961560203504815
2015-09-21,0.22688759179063087
2015-09-22,0.09350207782395671
2015-09-23,-0.6031596765093025
2015-09-24,-0.3853970643582995
2015-09-25,0.012289657780301408
2015-09-28,-0.487348942598182
2015-09-29,-1.445928154974608
2015-09-30,-1.3116490166414494
2015-10-08,1.3010889292196022
2015-10-09,1.340675212132151
2015-10-12,1.6410302593659905
2015-10-13,1.06450456907364
2015-10-14,1.5120244077530443
2015-10-15,1.5104017216642758
2015-10-16,1.1340762041696613
2015-10-19,0.9528776978417287
2015-10-20,1.054683270167845
2015-10-21,0.7686310063463299
2015-10-22,1.0076211213935773
2015-10-23,1.5290687078549268
2015-10-26,1.0548392954421664
2015-10-27,1.1077232061347386
2015-10-28,1.3400698144405683
2015-10-29,1.1104351032448347
2015-10-30,0.6640654031958356
2015-11-02,0.4355862584017909
2015-11-03,0.37748592870543574
2015-11-04,0.07663340237244022
2015-11-05,-0.5938206480783721
2015-11-06,-0.5529801324503321
2015-11-09,-1.1145498392283024
2015-11-10,-1.5735560474944652
2015-11-11,-1.4909054163298274
2015-11-12,-1.6153212520593097
2015-11-13,-1.6736539251952391
2015-11-16,-1.2177602980749382
2015-11-17,-2.055175274839234
2015-11-18,-1.9758555695130746
2015-11-19,-1.9552828238770257
2015-11-20,-1.8315368265078866
2015-11-23,-3.023850443204418
2015-11-24,-2.9812738242544587
2015-11-25,-2.5804879243887715
2015-11-26,-2.394111664934385
2015-11-27,-2.8439311552640456
2015-11-30,-3.2797871300179486
2015-12-01,-2.6272370922429436
2015-12-02,-2.718832748672905
2015-12-03,-3.2190501936100415
2015-12-04,-2.6427675080015662
2015-12-07,-1.267399090381956
2015-12-08,-1.879052683016171
2015-12-09,-1.9296177744466865
2015-12-10,-2.000914109734362
2015-12-11,-1.9134573972930622
2015-12-14,-2.1851354966688628
2015-12-15,-2.435537829358807
2015-12-16,-2.2345694176793134
2015-12-17,-1.8842181297418046
2015-12-18,-2.1037983769572164
2015-12-21,-1.1360984832600405
2015-12-22,-0.9848396378028338
2015-12-23,-1.1162350546166042
2015-12-24,-0.8623040967526069
2015-12-25,-0.6862176577542499
2015-12-28,-1.1449273537130908
2015-12-29,-0.9792219967895509
2015-12-30,-1.0461856818016575
2015-12-31,-1.394734242722691
2016-01-04,-1.0874104858831262
2016-01-05,-0.9195421100234825
2016-01-06,-0.8868502184284571
2016-01-07,-0.062381881615426515
2016-01-08,-0.07365534800093755
2016-01-11,-0.19818026712727763
2016-01-12,-1.3334717533853526
2016-01-13,-1.5802972679320482
2016-01-14,-0.8492028720279504
2016-01-15,-1.170750417758894
2016-01-18,-1.0181483879647009
2016-01-19,-0.6777870348617583
2016-01-20,-0.6809563607858469
2016-01-21,-0.3525368938410528
2016-01-22,-0.4858042784625678
2016-01-25,-0.45765927471008233
2016-01-26,0.2892970076711294
2016-01-27,0.3873776305185988
2016-01-28,0.12412875669680135
2016-01-29,-0.22458828951025642
2016-02-01,0.039651832088028506
2016-02-02,-0.012308608183706809
2016-02-03,0.09876281648611686
2016-02-04,1.1714924848642454
2016-02-05,1.2328280476717342
2016-02-15,2.9594858826029147
2016-02-16,2.828543476983838
2016-02-17,2.9195277154107364
2016-02-18,2.7030004963357057
2016-02-19,3.0860292712138495
2016-02-22,2.546668359664274
2016-02-23,2.530172377588875
2016-02-24,2.4829605531751047
2016-02-25,2.320231499416758
2016-02-26,1.8130083752424786
2016-02-29,-0.28749632709701134
2016-03-01,0.48396393412759264
2016-03-02,0.16385119356648445
2016-03-03,0.5519201840340703
2016-03-04,2.2323834394615845
2016-03-07,3.296749545678491
2016-03-08,2.583835497148579
2016-03-09,1.4281884083367786
2016-03-10,1.3073037376787768
2016-03-11,2.111625288944169
2016-03-14,2.0668657988526475
2016-03-15,1.2692305481972261
2016-03-16,1.4326081520380152
2016-03-17,2.059831181727899
2016-03-18,3.5951100244498764
2016-03-21,2.5469168900804267
2016-03-22,3.4472962870670263
2016-03-23,2.4490406179915256
2016-03-24,1.2100944803580294
2016-03-25,1.2065928535480586
2016-03-28,1.0930824008138451
2016-03-29,0.7831971399387196
2016-03-30,1.371516236256717
2016-03-31,0.9583865202961432
2016-04-01,1.2185651838518985
2016-04-05,0.13888152663663375
2016-04-06,0.1500678426051614
2016-04-07,0.25636114911080526
2016-04-08,0.29468201754385753
2016-04-11,1.0870517382972806
2016-04-12,2.0983383274312177
2016-04-13,2.384322264561788
2016-04-14,2.345498783454987
2016-04-15,2.4267601834367483
2016-04-18,2.191386271870794
2016-04-19,5.408461739357541
2016-04-20,5.92827657378741
2016-04-21,8.243762475049907
2016-04-22,5.835446065534564
2016-04-25,5.3165618448637275
2016-04-26,4.796759259259261
2016-04-27,6.494643264189654
2016-04-28,6.024379232505642
2016-04-29,7.072074057747413
2016-05-03,6.8304899387576485
2016-05-04,5.269464984775997
2016-05-05,5.444492722137729
2016-05-06,4.74117647058825
2016-05-09,4.561640893470787
2016-05-10,3.4489483202893254
2016-05-11,3.9702085719912033
2016-05-12,4.158873679047288
2016-05-13,3.459015166596808
2016-05-16,4.090869397497764
2016-05-17,3.7136231834511046
2016-05-18,3.1552330133749598
2016-05-19,1.662906416470917
2016-05-20,1.2602335311456019
2016-05-23,0.7726420261103298
2016-05-24,0.301556301240759
2016-05-25,0.27698681651245355
2016-05-26,0.8779112616620253
2016-05-27,0.3077830952806712
2016-05-30,-0.6898781742933572
2016-05-31,-0.40442643490729985
2016-06-01,-0.37352079439598823
2016-06-02,-0.35801597966921594
2016-06-03,-0.26977292490927157
2016-06-06,0.676170743759597
2016-06-07,0.7891319588214486
2016-06-08,1.295534923676434
2016-06-13,3.195398675679518
2016-06-14,3.1485150834353965
2016-06-15,3.3882026220084933
2016-06-16,4.220271727497357
2016-06-17,2.7021006573030046
2016-06-20,2.7096420492122033
2016-06-21,2.7671214503191215
2016-06-22,2.1365521026467404
2016-06-23,2.1165021145413716
2016-06-24,3.277837999366361
2016-06-27,3.517998846270929
2016-06-28,3.208376604826247
2016-06-29,5.041053724847783
2016-06-30,5.087017016005922
2016-07-01,7.135748048136932
2016-07-04,9.433220085788722
2016-07-05,9.108866623530377
2016-07-06,9.722397621474085
2016-07-07,8.889938388946028
2016-07-08,7.205016423490298
2016-07-11,8.862412386921111
2016-07-12,8.775404126369887
2016-07-13,8.613177844193029
2016-07-14,8.126969749192185
2016-07-15,7.70004713944902
2016-07-18,6.706492660281056
2016-07-19,6.55156189438526
2016-07-20,6.028759335703484
2016-07-21,4.84489881171775
2016-07-22,5.32666857461222
2016-07-25,4.7659785750816335
2016-07-26,5.015639724172328
2016-07-27,4.827767307164526
2016-07-28,6.5006129530276615
2016-07-29,5.746409161024856
2016-08-01,6.488474437085311
2016-08-02,6.3372464193889195
2016-08-03,6.5773189884980185
2016-08-04,5.114032935890225
2016-08-05,5.470888811417457
2016-08-08,3.6440512721119567
2016-08-09,3.562207339966246
2016-08-10,4.645586174625797
2016-08-11,4.1623434160391275
2016-08-12,4.033271153335495
2016-08-15,3.5249994680602064
2016-08-16,3.8610591984980145
2016-08-17,3.287978309339642
2016-08-18,3.492228360982054
2016-08-19,3.2470920990507985
2016-08-22,1.40392976655524
2016-08-23,1.6681833731297435
2016-08-24,1.3962491967498103
2016-08-25,0.6374937575722386
2016-08-26,0.6452858313056005
2016-08-29,0.3952611539300027
2016-08-30,0.6905817931570347
2016-08-31,0.6890252215405586
2016-09-01,0.7281486579490726
2016-09-02,1.0796642817831659
2016-09-05,2.181718963165072
2016-09-06,2.4352438688343887
2016-09-07,3.1268707950020573
2016-09-08,3.000411805078931
2016-09-09,2.2480142426732383
2016-09-12,1.043079868708971
2016-09-13,1.303549571603422
2016-09-14,1.0584389047813647
2016-09-19,1.1684723726977326
2016-09-20,1.2736028214867192
2016-09-21,1.6413131586057772
2016-09-22,1.9708305199189722
2016-09-23,1.9638015184381745
2016-09-26,1.2906663069867816
2016-09-27,1.1103049845492392
2016-09-28,0.19214848444385396
2016-09-29,0.218907451604351
2016-09-30,0.10815130527437904
2016-10-10,-2.862719917811738
2016-10-11,-2.552330807756519
2016-10-12,-2.8981638234145044
2016-10-13,-2.8651992706433957
2016-10-14,-2.9979136784456926
2016-10-17,-2.979994735456696
2016-10-18,-2.534404888416569
2016-10-19,-2.660719041278296
2016-10-20,-2.476139696081039
2016-10-21,-2.9708077845907677
2016-10-24,-2.6758051636944433
2016-10-25,-2.422120682703935
2016-10-26,-2.2099878853143125
2016-10-27,-2.4622857913911775
2016-10-28,-2.5280142817907185
2016-10-31,-2.2844352617079906
2016-11-01,-2.0781957013574615
2016-11-02,-1.0312634447153333
2016-11-03,-1.288339013187136
2016-11-04,-1.991029344686023
2016-11-07,-1.8890077969729422
2016-11-08,-1.528269912186095
2016-11-09,-0.012187499999997357
2016-11-10,0.1383294301327104
2016-11-11,0.7675240216100816
2016-11-14,-2.873579649763238
2016-11-15,-2.7798734471544493
2016-11-16,-2.5254615061847594
2016-11-17,-2.7032750901230345
2016-11-18,-3.087635178754736
2016-11-21,-2.717081767106215
2016-11-22,-2.2814401938461715
2016-11-23,-2.344505503572788
2016-11-24,-2.6632200923559535
2016-11-25,-2.7230652476912316
2016-11-28,-1.562421030259651
2016-11-29,-1.8981629274452794
2016-11-30,-2.1353517740978756
2016-12-01,-2.1432411202279456
2016-12-02,-2.0963933877207688
2016-12-05,-1.7809690550133899
2016-12-06,-1.6256021241413625
2016-12-07,-1.6508074780199091
2016-12-08,-0.5779363481621171
2016-12-09,-0.6827000586053747
2016-12-12,-0.5602535863267881
2016-12-13,-0.11581073431208846
2016-12-14,-0.1039063107257391
2016-12-15,-0.5947729334557053
2016-12-16,-2.0454302572840435
2016-12-19,-1.9584017078447473
2016-12-20,-3.3004507261799283
2016-12-21,-2.795097338540735
2016-12-22,-3.3718095200078695
2016-12-23,-3.2421145282335244
2016-12-26,-3.4593432100292776
2016-12-27,-2.6272034247594154
2016-12-28,-2.5943663700266812
2016-12-29,-1.9692206321648016
2016-12-30,-1.5952665109975024
2017-01-03,-2.016277460123967
2017-01-04,-1.3017703969910142
2017-01-05,-1.1725784592444874
2017-01-06,-1.913271325769324
2017-01-09,-1.4099222081217468
2017-01-10,-1.1178785439864722
2017-01-11,-0.5978188862507783
2017-01-12,-0.7166144884415604
2017-01-13,-1.161966988224874
2017-01-16,-0.696435503891251
2017-01-17,-0.805728734339964
2017-01-18,-0.6841772139429507
2017-01-19,-1.11746111579365
2017-01-20,-1.0701348721549189
2017-01-23,-0.6414527849154098
2017-01-24,-0.7407572999732822
2017-01-25,-1.2581190102128892
2017-01-26,-1.9062376989369714
2017-02-03,-0.8612487801601125
2017-02-06,-0.043930236418304555
2017-02-07,0.11984373206627108
2017-02-08,0.13031371532121624
2017-02-09,0.22268272320904556
2017-02-10,-0.08044514262202693
2017-02-13,1.0512430142213687
2017-02-14,1.0877389558940502
2017-02-15,0.8864071092700039
2017-02-16,0.9543775530108746
2017-02-17,0.9592737158419449
2017-02-20,0.6854566019355822
2017-02-21,0.9506758261766214
2017-02-22,0.8885711330683342
2017-02-23,0.8429032659934496
2017-02-24,1.599783657228164
2017-02-27,2.3395213706210023
2017-02-28,2.044886632442298
2017-03-01,1.609778441259128
2017-03-02,1.8718126403748723
2017-03-03,-0.11331840745751906
2017-03-06,0.030112303568286345
2017-03-07,0.00022010761505388278
2017-03-08,-0.5508471454592975
2017-03-09,-1.3509377498861992
2017-03-10,-1.8906398329219685
2017-03-13,-1.2690462483208556
2017-03-14,-1.706614944875453
2017-03-15,-1.605317394888711
2017-03-16,0.044494108086138955
2017-03-17,-0.08602150537635306
2017-03-20,0.1153293658936871
2017-03-21,-0.10103305785124568
2017-03-22,0.44550748752078334
2017-03-23,0.3117045691633581
2017-03-24,0.02374947456915255
2017-03-27,0.8493785548767654
2017-03-28,0.9022766323024054
2017-03-29,0.8839767090791489
2017-03-30,0.9491635889637157
2017-03-31,0.7215996484289274
2017-04-05,1.0103706972639157
2017-04-06,0.9997756338344196
2017-04-07,1.878808094285077
2017-04-10,0.013573700954395222
2017-04-11,0.08570811744386633
2017-04-12,1.2193658954584283
2017-04-13,1.7946581196581222
2017-04-14,1.9120430107526865
2017-04-17,2.0613339052112414
2017-04-18,1.5116127631864633
2017-04-19,0.7932098765432137
2017-04-20,0.8097862023363368
2017-04-21,0.08870967741935923
2017-04-24,-0.33318140382862127
2017-04-25,-0.17057471264366242
2017-04-26,-0.7560749826429224
2017-04-27,-0.8881363848668758
2017-04-28,-1.0101630820137073
2017-05-02,-2.363020102851804
2017-05-03,-2.417080671871311
2017-05-04,-4.212268518518513
2017-05-05,-4.333486660533573
2017-05-08,-4.1297071129707055
2017-05-09,-4.421285514671637
2017-05-10,-4.7278481012658276
2017-05-11,-4.182224790533158
2017-05-12,-3.707485365342935
2017-05-15,-3.0870911223034367
2017-05-16,-2.603780508113413
2017-05-17,-2.482665705581639
2017-05-18,-2.682748089752425
2017-05-19,-2.791186182135898
2017-05-22,-2.5097830645773125
2017-05-23,-2.0609585332186047
2017-05-24,-2.7009994513652402
2017-05-25,-2.155874692824219
2017-05-26,-2.132858461193828
2017-05-31,-2.549858894368625
2017-06-01,-2.722815715760945
2017-06-02,-3.2452477359794374
2017-06-05,-1.9331591771010983
2017-06-06,-1.332868216694868
2017-06-07,-1.2170567280384041
2017-06-08,-1.3086973104011477
2017-06-09,-2.46511350556357
2017-06-12,-3.16820833743622
2017-06-13,-3.5581617233525846
2017-06-14,-3.1791069132288703
2017-06-15,-3.360967451094696
2017-06-16,-3.3437749925754
2017-06-19,-3.67143958340525
2017-06-20,-3.507846315098171
2017-06-21,-3.716247977961046
2017-06-22,-2.952913671207116
2017-06-23,-2.688604425554459
2017-06-26,-2.7126766664211175
2017-06-27,-2.9324062036013663
2017-06-28,-2.416710597078197
2017-06-29,-2.27764627707418
2017-06-30,-3.189513012185867
2017-07-03,-3.279548842259068
2017-07-04,-5.258330823149284
2017-07-05,-5.107828534416782
2017-07-06,-5.395031912758932
2017-07-07,-5.776934098726932
2017-07-10,-9.22850248256877
2017-07-11,-7.801336818048597
2017-07-12,-6.529476605864539
2017-07-13,-5.957000305624128
2017-07-14,-6.742109746168987
2017-07-17,-5.120884503073991
2017-07-18,-4.9201507770739825
2017-07-19,-4.655898594999368
2017-07-20,-4.647762478397803
2017-07-21,-4.013610211195009
2017-07-24,-3.9674879336794375
2017-07-25,-3.7196309420405775
2017-07-26,-4.167484063697811
2017-07-27,-3.0132724220607088
2017-07-28,-3.069394363548022
2017-07-31,-2.761161390726164
2017-08-01,-2.559328542938385
2017-08-02,-2.600508875345209
2017-08-03,-3.177867719283177
2017-08-04,-2.6630015309323842
2017-08-07,-4.27077042314533
2017-08-08,-4.360348150470517
2017-08-09,-3.218701415940198
2017-08-10,-0.9410942297996997
2017-08-11,-0.6523732639526348
2017-08-14,0.005075406222207497
2017-08-15,-1.0997314133643956
2017-08-16,-1.873167037783049
2017-08-17,0.04499161636960779
2017-08-18,-0.22898847187581828
2017-08-21,-0.3710394928285047
2017-08-22,-0.44035044513769245
2017-08-23,-0.3802362873484774
2017-08-24,-0.3266647730966961
2017-08-25,-0.3597100313489061
2017-08-28,0.046120805588469024
2017-08-29,0.8482621222401665
2017-08-30,0.2649543660000016
2017-08-31,0.15847215299616174
2017-09-01,0.38866299928246106
2017-09-04,1.516006639791329
2017-09-05,1.4674146574361384
2017-09-06,1.3852793095180995
2017-09-07,1.0405859750240107
2017-09-08,1.4035594035594126
2017-09-11,0.2938638542665423
2017-09-12,0.22481927710842473
2017-09-13,0.21705426356589663
2017-09-14,-0.015321011673154406
2017-09-15,0.1316113161131594
2017-09-18,-0.04651162790696739
2017-09-19,-0.9521717911176202
2017-09-20,-0.8150600932057698
2017-09-21,-1.861415025528819
2017-09-22,-1.839599609374994
2017-09-25,-1.8788404360753235
2017-09-26,-0.7012763868433914
2017-09-27,-1.2926233512457284
2017-09-28,-1.6084410831910068
2017-09-29,-1.3755868544600935
2017-10-09,-0.9178386380459012
2017-10-10,-0.7688305252725539
2017-10-11,-0.9104477611940249
2017-10-12,-0.7452758881330309
2017-10-13,-0.45229681978799663
2017-10-16,0.03299748110831995
2017-10-17,-0.44010025062656627
2017-10-18,-0.5967254408060633
2017-10-19,-0.8290445859872516
2017-10-20,-0.48336296672593254
2017-10-23,-0.9417108251324815
2017-10-24,-0.6648963075366804
2017-10-25,-1.0491094147582631
2017-10-26,-0.7793033307907382
2017-10-27,-1.7053005325894022
2017-10-30,-1.4748673907552392
2017-10-31,-1.357124318712692
2017-11-01,-1.473656755346908
2017-11-02,-0.7616688396349565
2017-11-03,-0.6678947368421125
2017-11-06,-1.2914957615531826
2017-11-07,-0.6650027731558535
2017-11-08,-0.9298444130127201
2017-11-09,-0.7291666666666605
2017-11-10,-0.8410404624277373
2017-11-13,-1.3098881695114637
2017-11-14,-1.2262924667651434
2017-11-15,-1.204840613931525
2017-11-16,-1.239027283511276
2017-11-17,-1.1070785842831476
2017-11-20,-0.67622461170849
2017-11-21,-1.1448542534205868
2017-11-22,-1.2351434327043502
2017-11-23,-1.2208783680216662
2017-11-24,-1.0985597433999932
2017-11-27,-1.25178671955103
2017-11-28,-1.1869434412784823
2017-11-29,-1.8591183552523782
2017-11-30,-3.435067143805521
2017-12-01,-3.939043956281958
2017-12-04,-4.19129226824611
2017-12-05,-4.462769260795032
2017-12-06,-5.378866516590042
2017-12-07,-6.452821251076113
2017-12-08,-7.055742446586801
2017-12-11,-6.62156632152354
2017-12-12,-6.91550108769026
2017-12-13,-7.0888466665887915
2017-12-14,-5.165322906001388
2017-12-15,-5.549655663525178
2017-12-18,-5.076686884475151
2017-12-19,-4.850225450780257
2017-12-20,-4.954135330152234
2017-12-21,-4.952298783904901
2017-12-22,-4.85699030267421
2017-12-25,-3.648515354948895
2017-12-26,-3.514579813930249
2017-12-27,-3.0855774221414376
2017-12-28,-2.080053961618785
2017-12-29,-2.2253470238596145
2018-01-02,-1.628091275806329
2018-01-03,-1.6634194583893103
2018-01-04,-1.8924151597712096
2018-01-05,-1.6614220351097706
2018-01-08,-1.5343436391282266
2018-01-09,-1.3402112835792581
2018-01-10,-1.9150869947948739
2018-01-11,-1.4898387406570797
2018-01-12,-1.2614366762826905
2018-01-15,-0.18520780550039018
2018-01-16,-0.6501901763756598
2018-01-17,-1.4777494069933996
2018-01-18,-2.0734142518705405
2018-01-19,-2.5706812973868955
2018-01-22,-2.4159852236419845
2018-01-23,-2.1125535784617795
2018-01-24,-2.389963952518395
2018-01-25,-0.037491159050757034
2018-01-26,-0.7740245872856434
2018-01-29,-1.133448658562256
2018-01-30,-2.5418721349542515
2018-01-31,-2.2121543899957836
2018-02-01,-2.2111910127390155
2018-02-02,-2.325436713934711
2018-02-05,-4.808981167190225
2018-02-06,-3.601898907063876
2018-02-07,-4.4710752714172735
2018-02-08,-5.788819275775923
2018-02-09,-5.291621622316513
2018-02-12,-5.092663529926587
2018-02-13,-4.43331310488928
2018-02-14,-4.172391109880986
2018-02-22,-5.156777987404314
2018-02-23,-4.48674696678622
2018-02-26,-3.6498985932483214
2018-02-27,-3.7829642611224914
2018-02-28,-4.575222959758707
2018-03-01,-4.725336106970531
2018-03-02,-4.414259803361332
2018-03-05,-3.940958902032753
2018-03-06,-4.125732849307159
2018-03-07,-3.4222767373832004
2018-03-08,-3.508646921718099
2018-03-09,-3.838899052810338
2018-03-12,-3.7026381579386087
2018-03-13,-3.7892401201124377
2018-03-14,-3.37590132062788
2018-03-15,-3.5084590507520876
2018-03-16,-3.8487245159115053
2018-03-19,-4.594767671438727
2018-03-20,-4.20891123265408
2018-03-21,-4.289778365861719
2018-03-22,-2.9797979797979837
2018-03-23,-2.608033689666352
2018-03-26,-2.7071359380045177
2018-03-27,-2.3056542810985494
2018-03-28,-3.2111681643132144
2018-03-29,-4.5056433408577785
2018-03-30,-4.077453232687885
2018-04-02,-3.6772172766238036
2018-04-03,-3.139480692410113
2018-04-04,-3.3532338308457583
2018-04-09,-3.425016812373894
2018-04-10,-3.320844686648499
2018-04-11,-2.913058419243988
2018-04-12,-2.6754053121766144
2018-04-13,-3.3920493488690733
2018-04-16,-2.7812286689419716
2018-04-17,-2.5221950367004577
2018-04-18,-2.089578250261412
2018-04-19,0.2601709401709479
2018-04-20,-0.10358974358975152
2018-04-23,-0.4894486044928391
2018-04-24,-1.8642761394101948
2018-04-25,-1.9859154929577498
2018-04-26,-2.112203389830503
2018-04-27,-2.3641579480256563
2018-05-02,-3.112037345781925
2018-05-03,-2.5758586195398463
2018-05-04,-2.428212697871023
2018-05-07,-2.1406047949852836
2018-05-08,-1.9958948781268078
2018-05-09,-2.1329777768766616
2018-05-10,-1.6660100154968194
2018-05-11,-1.1207711638970468
2018-05-14,-1.1763251745345125
2018-05-15,-2.1197929108809506
2018-05-16,-2.594974362037973
2018-05-17,-2.579729708121987
2018-05-18,-2.1115789710376633
2018-05-21,-2.4581764836290563
2018-05-22,-1.8996195574347972
2018-05-23,-1.5379473090261246
2018-05-24,-1.6085629009858164
2018-05-25,-1.1605028417878573
2018-05-28,-1.66669482536566
2018-05-29,-1.689412074325161
2018-05-30,-1.6284411850148328
2018-05-31,-0.6902257543221968
2018-06-01,-1.0780078691951895
2018-06-04,-1.162394716392909
2018-06-05,-1.2032507429195751
2018-06-06,-0.7398797772825468
2018-06-07,-0.23143185270940658
2018-06-08,-0.40917086674092273
2018-06-11,0.8792391585425452
2018-06-12,0.9619021115732658
2018-06-13,0.7681502159190966
2018-06-14,2.6478700858820954
2018-06-15,2.925078661575016
2018-06-19,-0.9573510606936851
2018-06-20,-1.1284890554414335
2018-06-21,-1.2110261143774668
2018-06-22,-0.27507407065229866
2018-06-25,-0.4810939905827267
2018-06-26,-0.2543982090622365
2018-06-27,-0.30382345510952874
2018-06-28,-0.617250865537193
2018-06-29,-0.4872768894715962
2018-07-02,-0.5275220897451096
2018-07-03,-0.5392645727240302
2018-07-04,-0.1904067883671572
2018-07-05,-0.32098023498032113
2018-07-06,-0.30773715316183475
2018-07-09,-0.08309021758223054
2018-07-10,-0.3766606987391231
2018-07-11,-0.6026248863580477
2018-07-12,-0.852696894851098
2018-07-13,-0.8107483559385422
2018-07-16,-1.037093567552139
2018-07-17,-1.3012939478268992
2018-07-18,-2.7390273957009654
2018-07-19,-2.5787637557517735
2018-07-20,-2.434895902579373
2018-07-23,-1.965057445156634
2018-07-24,-2.1154278207062824
2018-07-25,-1.572676825646897
2018-07-26,-1.504653797658963
2018-07-27,-1.9826945785792451
2018-07-30,-1.9072093990367347
2018-07-31,-1.5738932226019837
2018-08-01,-1.6929570670798506
2018-08-02,-1.8982939441648308
2018-08-03,-2.135758203825357
2018-08-06,-1.6699128621577695
2018-08-07,-1.6583339732310425
2018-08-08,-1.9834623219967336
2018-08-09,-1.9399393624771115
2018-08-10,-2.0737998424705673
2018-08-13,-2.114779472715849
2018-08-14,-3.35884926296107
2018-08-15,-4.00247459298013
2018-08-16,-6.587183160686337
2018-08-17,-6.237318157426709
2018-08-20,-5.677480974814168
2018-08-21,-5.548275695041604
2018-08-22,-5.8549031056892495
2018-08-23,-6.455351948072249
2018-08-24,-6.160676532769545
2018-08-27,-5.620835090679033
2018-08-28,-5.200843881856538
2018-08-29,-5.937109537692623
2018-08-30,-5.838075313807542
2018-08-31,-6.104912572855942
2018-09-03,-6.98514238547253
2018-09-04,-7.923202614379076
2018-09-05,-9.421266233766234
2018-09-06,-8.914893617021255
2018-09-07,-8.82283142389525
2018-09-10,-8.717311608961316
2018-09-11,-8.141215106732346
2018-09-12,-8.43241042345276
2018-09-13,-7.843304843304825
2018-09-14,-7.478260869565226
2018-09-17,-8.00892494929005
2018-09-18,-7.688216039279865
2018-09-19,-7.481829318089013
2018-09-20,-5.987908101571943
2018-09-21,-4.650279776179039
2018-09-25,-5.236936577582758
2018-09-26,-4.110059171597618
2018-09-27,-3.989743589743582
2018-09-28,-4.949099451840238
2018-10-08,-3.2461715160796163
2018-10-09,-3.276168404789501
2018-10-10,-3.266272189349092
2018-10-11,-3.373717442778209
2018-10-12,-2.2727627979679537
2018-10-15,-1.2721142403807897
2018-10-16,-1.3425962683604613
2018-10-17,-1.3748432929377392
2018-10-18,-2.3301731244847574
2018-10-19,-1.1659852820932222
2018-10-22,-1.159259259259273
2018-10-23,-0.8215460526315654
2018-10-24,0.1303288672350656
2018-10-25,0.6078352180936748
2018-10-26,-0.10382293762578278
2018-10-29,-0.19774919614147035
2018-10-30,-1.1931908155186022
2018-10-31,-1.7073942269671802
2018-11-01,-1.8022108172127973
2018-11-02,-0.42640776699029515
2018-11-05,-0.2909748872017717
2018-11-06,-0.2771167363489309
2018-11-07,-0.7477445694610032
2018-11-08,-0.7627167139331246
2018-11-09,-1.376748962056668
2018-11-12,-2.4689029597866914
2018-11-13,-2.6680835701590877
2018-11-14,-2.8663138214627044
2018-11-15,-2.124897538988105
2018-11-16,-1.5706969657278338
2018-11-19,-1.1794201574632204
2018-11-20,-1.0543082506282828
2018-11-21,-1.151317123154252
2018-11-22,-0.4905470234758975
2018-11-23,-0.9488952484176015
2018-11-26,-1.2593650329564405
2018-11-27,-1.8220196052587392
2018-11-28,-1.9320686099456619
2018-11-29,-0.7406379623133638
2018-11-30,-0.7303646567035044
2018-12-03,-0.7163055062598439
2018-12-04,-0.3617275631902925
2018-12-05,-0.46310739620352775
2018-12-06,-0.370228156008344
2018-12-07,-0.16193467911340817
2018-12-10,1.1087302881184145
2018-12-11,0.928608963320999
2018-12-12,0.8867840051612969
2018-12-13,1.3723195868946816
2018-12-14,0.9745031187251322
2018-12-17,0.7447708151361502
2018-12-18,0.9636972570454356
2018-12-19,1.3314692310556893
2018-12-20,0.8962285826010727
2018-12-21,1.552024328726138
2018-12-24,1.570305973189043
2018-12-25,1.5979911895658743
2018-12-26,2.267162137074204
2018-12-27,2.8772266211264546
2018-12-28,4.606660427623928
2019-01-02,4.884712452432864
2019-01-03,6.250471226896004
2019-01-04,6.593600089342193
2019-01-07,6.466181713395589
2019-01-08,5.266346460161719
2019-01-09,5.131170805593389
2019-01-10,5.2489412715061325
2019-01-11,4.56132538067387
2019-01-14,3.973198624505773
2019-01-15,3.920997913458806
2019-01-16,3.668343951718731
2019-01-17,3.461541963652435
2019-01-18,3.4927394981697493
2019-01-21,1.9701585699958417
2019-01-22,1.4527862059678303
2019-01-23,2.1038592115639476
2019-01-24,1.5649010382843798
2019-01-25,1.5706500327364727
2019-01-28,3.398273045948649
2019-01-29,3.690308007869874
2019-01-30,4.057208605893488
2019-01-31,3.8752329295083503
2019-02-01,3.953756500795481
2019-02-11,3.2537892282281504
2019-02-12,3.4865796074661297
2019-02-13,3.2119212931976415
2019-02-14,2.2972574753219384
2019-02-15,2.5214975761716976
2019-02-18,3.4675747709546485
2019-02-19,3.1991588336396597
2019-02-20,3.807017189831408
2019-02-21,3.0715321814549372
2019-02-22,2.5987314885933497
2019-02-25,2.998233046890716
2019-02-26,2.3666298090817013
2019-02-27,2.1717447424502687
2019-02-28,1.1733860359992005
2019-03-01,0.648743340351892
2019-03-04,-1.6826098645531864
2019-03-05,-2.4079915878023144
2019-03-06,-1.7004559803577801
2019-03-07,-2.106129597197894
2019-03-08,-1.5402860132542748
2019-03-11,-0.8752598752598647
2019-03-12,-0.5659264399722429
2019-03-13,-0.5244926522043465
2019-03-14,-1.3318260869565315
2019-03-15,-1.1677620200622612
2019-03-18,-1.1743660993400555
2019-03-19,-0.8472027972027923
2019-03-20,-1.095304835318853
2019-03-21,0.18112947658402526
2019-03-22,-0.07638888888889958
2019-03-25,-0.2717770034843265
2019-03-26,-0.4154488517745308
2019-03-27,-0.8931058495821773
2019-03-28,-1.6407766990291195
2019-03-29,-3.344592289321036
2019-04-01,-2.8185248713550686
2019-04-02,-2.738609112709827
2019-04-03,-2.2567613830879716
2019-04-04,-2.1904598490047995
2019-04-08,-1.9944865609924094
2019-04-09,-1.648936170212752
2019-04-10,-1.7967841258980526
2019-04-11,-2.0877071823204414
2019-04-12,-3.034812286689424
2019-04-15,-3.5757987763426238
2019-04-16,-3.226069246435849
2019-04-17,-3.2067095899695017
2019-04-18,-3.4283299526707207
2019-04-19,-3.2269959404600783
2019-04-22,-2.720310391363035
2019-04-23,-3.353061224489791
2019-04-24,-3.9456448345712225
2019-04-25,-3.205981182795685
2019-04-26,-2.6207243460764627
2019-04-29,-2.773279352226737
2019-04-30,-2.9681833732466654
2019-05-06,-3.0107676276484923
2019-05-07,-2.7035106013208288
2019-05-08,-2.446132108795472
2019-05-09,-2.5822998448926704
2019-05-10,-2.7678610209542476
2019-05-13,-2.68872425153711
2019-05-14,-1.603097968966061
2019-05-15,-2.0180923732847025
2019-05-16,-1.686960903927035
2019-05-17,-2.866636248675075
2019-05-20,-3.3836719728520612
2019-05-21,-3.2221295445374634
2019-05-22,-3.215532929812417
2019-05-23,-2.753652888200306
2019-05-24,-2.3840396816995915
2019-05-27,-2.3746813871680974
2019-05-28,-2.531779466261032
2019-05-29,-2.9642353924563127
2019-05-30,-3.015981635225813
2019-05-31,-2.379512387989442
2019-06-03,-2.0632995146128
2019-06-04,-0.9917759422225325
2019-06-05,-0.504644807753626
2019-06-06,-0.1959239769879645
2019-06-10,-0.43359786716972193
2019-06-11,-1.245612498768553
2019-06-12,0.02285349924523715
2019-06-13,-0.13760811966118972
2019-06-14,1.2128817061377237
2019-06-17,0.045276266456865506
2019-06-18,0.4204818216846931
2019-06-19,0.6023326080327475
2019-06-20,2.422416087471714
2019-06-21,2.373813715389051
2019-06-24,2.6426736505559143
2019-06-25,3.265559061875388
2019-06-26,2.0086523817907582
2019-06-27,1.8358449891757127
2019-06-28,1.8473161722118259
2019-07-01,0.776632169798652
2019-07-02,1.2136801598398277
2019-07-03,2.4550531265114057
2019-07-04,1.705592730150912
2019-07-05,1.7298180362225244
2019-07-08,0.9978626330514584
2019-07-09,0.8668054712781071
2019-07-10,0.7881889077573214
2019-07-11,1.6952071914520177
2019-07-12,1.0551345172165452
2019-07-15,1.7681358085301757
2019-07-16,2.7870148956529044
2019-07-17,4.148831736368024
2019-07-18,6.199611961965393
2019-07-19,8.769712585583049
2019-07-22,7.711927997765459
2019-07-23,7.540481891713985
2019-07-24,8.083229831133284
2019-07-25,7.844611971484305
2019-07-26,7.523250248363476
2019-07-29,7.322096423096377
2019-07-30,7.53216509447923
2019-07-31,7.3192512811043
2019-08-01,4.643699264217818
2019-08-02,5.4683394020212415
2019-08-05,8.500263256424821
2019-08-06,7.677439435390243
2019-08-07,9.128645219964927
2019-08-08,10.57940693457612
2019-08-09,9.930305739298865
2019-08-12,9.237936612166504
2019-08-13,11.554123422563263
2019-08-14,8.250993293296405
2019-08-15,9.030468680216119
2019-08-16,8.86475992725892
2019-08-19,7.978524023015676
2019-08-20,7.663779438828199
2019-08-21,7.728881409235104
2019-08-22,7.7768218433259735
2019-08-23,7.621062653137836
2019-08-26,10.308807149703133
2019-08-27,10.512217098806842
2019-08-28,12.108559267688387
2019-08-29,13.18732164696291
2019-08-30,11.480903819236152
2019-09-02,11.181854199683034
2019-09-03,11.619290335228403
2019-09-04,14.036643250427193
2019-09-05,14.027688830288211
2019-09-06,9.51080691642652
2019-09-09,7.579457029223596
2019-09-10,6.704572497025333
2019-09-11,7.27056059080229
2019-09-12,6.727030625832229
2019-09-16,5.714028187479519
2019-09-17,5.392083401205411
2019-09-18,5.554657179818892
2019-09-19,4.866825775656329
2019-09-20,5.165766910130201
2019-09-23,6.342599782574944
2019-09-24,6.785461810358078
2019-09-25,6.507228732308628
2019-09-26,4.67029850746269
2019-09-27,3.127028212249674
2019-09-30,2.3814793244030277
2019-10-08,2.530896431679719
2019-10-09,3.887013729977121
2019-10-10,3.142409123307203
2019-10-11,2.8028308563340483
2019-10-14,2.229792636479054
2019-10-15,2.270903954802257
2019-10-16,1.3682224706539958
2019-10-17,1.6900641920178636
2019-10-18,1.740875912408761
2019-10-21,2.0938461538461537
2019-10-22,1.6402109060635481
2019-10-23,1.6850152905198759
2019-10-24,1.473809191227822
2019-10-25,2.56203371096988
2019-10-28,2.5206995491187314
2019-10-29,1.545664897236971
2019-10-30,1.661561398753051
2019-10-31,1.5841975982532768
2019-11-01,1.8529251700680363
2019-11-04,1.7288503253796095
2019-11-05,1.3602383531960969
2019-11-06,-0.06200000000000165
2019-11-07,0.09040223018717766
2019-11-08,-1.6023704089606732
2019-11-11,-1.8898546964193017
2019-11-12,-2.1276650730068574
2019-11-13,-1.6422053720601417
2019-11-14,-1.6714663312636255
2019-11-15,-2.0656672068212396
2019-11-18,-2.1262685654610274
2019-11-19,-1.4411148084414562
2019-11-20,-1.6255612292519945
2019-11-21,-1.724805593489257
2019-11-22,-1.7755604938268381
2019-11-25,-2.3182031817735043
2019-11-26,-2.1449451108022894
2019-11-27,-1.9554335820457895
2019-11-28,-2.1223956307016505
2019-11-29,-2.167831293629819
2019-12-02,-2.2960549178046197
2019-12-03,-2.344879775087789
2019-12-04,-1.0311241103097624
2019-12-05,-1.8638907026986045
2019-12-06,-2.1603182526242946
2019-12-09,-2.8837685419107584
2019-12-10,-2.8595629211933073
2019-12-11,-2.864881274481262
2019-12-12,-2.4010026971629275
2019-12-13,-2.667543932482338
2019-12-16,-2.0899746985265653
2019-12-17,-2.0446009592244185
2019-12-18,-1.9924796578858301
2019-12-19,-2.1726338118304622
2019-12-20,-1.8695941060400654
2019-12-23,-1.1426572279240446
2019-12-24,-0.6105241471460673
2019-12-25,-0.15311042330096736
2019-12-26,0.5283729969321229
2019-12-27,0.21317769039321102
2019-12-30,0.315461757337339
2019-12-31,0.9028157343718126
2020-01-02,0.11364380105294183
2020-01-03,1.0787645730042696
2020-01-06,1.8784468140890518
2020-01-07,1.0308943980265808
2020-01-08,2.169019024448849
2020-01-09,-0.015502980576120482
2020-01-10,-0.11381957136995118
2020-01-13,0.075381622899913
2020-01-14,-0.881031299049224
2020-01-15,-0.42744263916840025
2020-01-16,-0.26423981580553396
2020-01-17,-0.024050802810639597
2020-01-20,-0.047055700799303664
2020-01-21,0.4843542308535767
2020-01-22,-0.5141296166880726
2020-01-23,-0.4333330325812665
2020-02-03,0.22579874800244595
2020-02-04,-0.003463645067714088
2020-02-05,0.0038049177143258577
2020-02-06,-0.1701718576959385
2020-02-07,0.038318423327420754
2020-02-10,-0.031229917014252807
2020-02-11,0.08758499455180556
2020-02-12,-0.7489471820516111
2020-02-13,-0.3380533243371781
2020-02-14,-0.1929618695482103
2020-02-17,0.3668223675180779
2020-02-18,0.4758850077116182
2020-02-19,1.9205627123803146
2020-02-20,2.140559091038626
2020-02-21,2.8886479805235634
2020-02-24,3.317947833478551
2020-02-25,1.9710266559636667
2020-02-26,1.3433243407922804
2020-02-27,1.1333930509384946
2020-02-28,-1.8976452370053933
2020-03-02,-2.7602795168698564
2020-03-03,-3.0081127806484727
2020-03-04,-1.79680149565451
2020-03-05,-1.8754889386997848
2020-03-06,-1.4499116745937146
2020-03-09,-3.6948595000680076
2020-03-10,-2.573756472094639
2020-03-11,-2.516946698816758
2020-03-12,-3.717139638645452
2020-03-13,-6.2347522217971045
2020-03-16,-8.865874311783363
2020-03-17,-12.587631142172503
2020-03-18,-14.41779136971082
2020-03-19,-14.904353270760508
2020-03-20,-12.237734986743071
2020-03-23,-12.110616712467564
2020-03-24,-9.319405724628812
2020-03-25,-6.8510444852152
2020-03-26,-7.005165287511782
2020-03-27,-6.367220815253096
2020-03-30,-8.192419599379132
2020-03-31,-7.315839802263957
2020-04-01,-7.53456796516293
2020-04-02,-6.43772300350964
2020-04-03,-5.7452442431758
2020-04-07,-3.432446763726298
2020-04-08,-4.081853459642766
2020-04-09,-3.96960053351975
2020-04-10,-3.6173530457948444
2020-04-13,-3.742054749481115
2020-04-14,-2.944407044553467
2020-04-15,-3.576544487816183
2020-04-16,-2.8166303114696722
2020-04-17,-3.6524502398335654
2020-04-20,-3.602420032304839
2020-04-21,-3.328368168176504
2020-04-22,-4.611909965334181
2020-04-23,-3.07813781594718
2020-04-24,-2.884041003028551
2020-04-27,-3.1601498478108194
2020-04-28,-3.752104770813847
2020-04-29,-3.06292318468364
2020-04-30,-2.674700197927586
2020-05-06,-2.8025795956309567
2020-05-07,-2.9875687305761405
2020-05-08,-1.7040342734737561
2020-05-11,-1.538755523264094
2020-05-12,-1.6855045254797965
2020-05-13,-1.3786655714380638
2020-05-14,-1.236646474913467
2020-05-15,0.4608493168497964
2020-05-18,2.6966336398709143
2020-05-19,2.1761733574559545
2020-05-20,3.41206678667153
2020-05-21,2.367139562538019
2020-05-22,1.796233884129755
2020-05-25,1.9600115136972251
2020-05-26,3.009855186524416
2020-05-27,2.469073628231004
2020-05-28,3.0067103254039433
2020-05-29,3.1507606273291167
2020-06-01,4.847289671680471
2020-06-02,4.530539029644216
2020-06-03,3.695504438784148
2020-06-04,2.940838030884176
2020-06-05,3.145030981294179
2020-06-08,3.0021580703970088
2020-06-09,2.8920066980485664
2020-06-10,3.181107782719283
2020-06-11,3.398182016326282
2020-06-12,2.8308289834560965
2020-06-15,1.978410516300412
2020-06-16,2.2432031048838477
2020-06-17,2.5632292457671757
2020-06-18,2.6149287584994174
2020-06-19,2.8499440905766886
2020-06-22,3.4624198920471914
2020-06-23,3.147561573483779
2020-06-24,3.4449012188279378
2020-06-29,3.3366200555042007
2020-06-30,3.42357688180315
2020-07-01,4.097406998859045
2020-07-02,3.4421851995912105
2020-07-03,3.5558822887630948
2020-07-06,3.5737883033549256
2020-07-07,3.6718552835518476
2020-07-08,3.988750063037714
2020-07-09,4.78993868632492
2020-07-10,4.05085678197824
2020-07-13,5.0895082079846095
2020-07-14,5.017081018469938
2020-07-15,5.339854938882296
2020-07-16,5.143204312880858
2020-07-17,4.546761159236078
2020-07-20,4.945845410828668
2020-07-21,6.894577838237746
2020-07-22,9.052980850028813
2020-07-23,11.165942890296504
2020-07-24,10.395777197464106
2020-07-27,12.847072310409029
2020-07-28,12.943579636157306
2020-07-29,12.304533694364885
2020-07-30,10.399301167981918
2020-07-31,11.193660744956071
2020-08-03,10.881325904064958
2020-08-04,10.91989375233213
2020-08-05,13.690647804376198
2020-08-06,15.23462979177483
2020-08-07,15.472359708987936
2020-08-10,15.266981180965862
2020-08-11,13.940200774680742
2020-08-12,11.036727025358282
2020-08-13,9.717305695468163
2020-08-14,9.896677148978606
2020-08-17,10.171586480562045
2020-08-18,11.302999222794494
2020-08-19,9.69052374636781
2020-08-20,8.528320500875065
2020-08-21,8.15152795959344
2020-08-24,6.069896408766568
2020-08-25,6.25696032547672
2020-08-26,5.951885975267487
2020-08-27,7.007629245518262
2020-08-28,6.984397392281969
2020-08-31,7.381513617614521
2020-09-01,8.082294617563742
2020-09-02,7.133123164003728
2020-09-03,5.473457574474092
2020-09-04,5.005011484652328
2020-09-07,4.906219831747339
2020-09-08,5.0881207400194715
2020-09-09,4.309363503852294
2020-09-10,4.6738904659696745
2020-09-11,4.217193321374363
2020-09-14,3.9893506673120833
2020-09-15,4.343429442750204
2020-09-16,4.029018630099042
2020-09-17,3.174267551133225
2020-09-18,3.491483516483521
2020-09-21,2.7187865446790966
2020-09-22,-0.23273964378627113
2020-09-23,-1.5974470325042769
2020-09-24,-2.7610859728506747
2020-09-25,-1.5978065674704982
2020-09-28,-2.199527518835398
2020-09-29,-1.4597570235383461
2020-09-30,-1.2566523061327952
2020-10-09,-1.1298980819142839
2020-10-12,0.1335735586481051
2020-10-13,-0.2329675779554852
2020-10-14,-1.0882969540017233
2020-10-15,-1.2755108340021006
2020-10-16,-1.2754174852652218
2020-10-19,-0.8093902439024365
2020-10-20,-1.090440060698026
2020-10-21,-0.6925264750378147
2020-10-22,-0.7846794639623277
2020-10-23,-1.188000722848023
2020-10-26,-1.7440831938799863
2020-10-27,-1.3028336706750796
2020-10-28,-1.3314923689055198
2020-10-29,-2.4959148886145894
2020-10-30,-2.6839617135520015
2020-11-02,-1.9427560607818095
2020-11-03,-1.7496963738361
2020-11-04,-2.110907424381303
2020-11-05,-1.664303276345134
2020-11-06,-0.940167054946304
2020-11-09,-0.8379269193612509
2020-11-10,-2.204632122027815
2020-11-11,-2.063897943126893
2020-11-12,-2.2051783916787766
2020-11-13,-2.188244505340869
2020-11-16,-1.5979949874686696
2020-11-17,-1.9384017758046617
2020-11-18,-2.221724273149964
2020-11-19,-2.5804270663135926
2020-11-20,-2.4684951816160146
2020-11-23,-2.394147626410124
2020-11-24,-3.1512019509929177
2020-11-25,-3.3412567662979504
2020-11-26,-3.1172657377907367
2020-11-27,-3.248481830117918
2020-11-30,-4.257828022673985
2020-12-01,-3.4657497831693034
2020-12-02,-2.5382187547488666
2020-12-03,-2.316834847141725
2020-12-04,-2.057943073140679
2020-12-07,-2.249946425806683
2020-12-08,-1.478124342686277
2020-12-09,-1.951190233396142
2020-12-10,-2.4273732799040597
2020-12-11,-2.2049241539156337
2020-12-14,-2.2004336609440167
2020-12-15,-1.7032112944585514
2020-12-16,-0.7965107379665103
2020-12-17,-0.03973236016531167
2020-12-18,0.23444094051305975
2020-12-21,1.9182882807405992
2020-12-22,0.20050210980757266
2020-12-23,-0.06593797504198032
2020-12-24,0.4410006780616912
2020-12-25,0.4540999774770852
2020-12-28,1.3637325744004192
2020-12-29,0.9792890747811981
2020-12-30,1.4074790606139858
2020-12-31,1.5625768683441612
2021-01-04,2.259147781108481
2021-01-05,2.419976332444525
2021-01-06,2.367986720587927
2021-01-07,2.1794530540428054
2021-01-08,1.8254283065981751
2021-01-11,-0.8478134476701058
2021-01-12,-0.11251621380452499
2021-01-13,-0.05911697147668454
2021-01-14,-0.2977819146839059
2021-01-15,-0.07444861766100098
2021-01-18,-0.17151544399653132
2021-01-19,0.020342435322178696
2021-01-20,0.3831549825430317
2021-01-21,0.8493710146986375
2021-01-22,0.3128530704107539
2021-01-25,0.21292680263520355
2021-01-26,-0.0007038996285833495
2021-01-27,-0.012349987081514769
2021-01-28,-0.3313244202702997
2021-01-29,1.0409014521547246
2021-02-01,3.5927112298314166
2021-02-02,3.238892429178168
2021-02-03,1.538591500988517
2021-02-04,1.1122881418216688
2021-02-05,0.8111855045913019
2021-02-08,1.4493101795769818
2021-02-09,1.7412137400294823
2021-02-10,1.549175543734358
2021-02-18,1.4930236670246189
2021-02-19,1.1545025079279128
2021-02-22,2.2592183618550274
2021-02-23,2.8585531534352695
2021-02-24,2.2189982670358583
2021-02-25,2.4890921468318883
2021-02-26,1.0071314242497256
2021-03-01,1.0916248461619866
2021-03-02,0.1828805746239386
2021-03-03,0.7379655186779905
2021-03-04,-0.035911305025594226
2021-03-05,-1.1063870028905376
2021-03-08,-0.38043953186091295
2021-03-09,-0.4948962314450416
2021-03-10,-0.13821285853608006
2021-03-11,0.3781277612686205
2021-03-12,-0.25504758443097614
2021-03-15,0.0442346774762895
2021-03-16,0.20589909083766858
2021-03-17,0.09544286085539805
2021-03-18,0.88515538657246
2021-03-19,0.23816573583773168
2021-03-22,-0.5233180500203473
2021-03-23,-0.42332331950308877
2021-03-24,-0.9659790479865987
2021-03-25,-1.120356306042422
2021-03-26,-0.8576459653826907
2021-03-29,-1.2145581506999603
2021-03-30,-1.6057214208212351
2021-03-31,-2.104549847852054
2021-04-01,-1.8347050532471254
2021-04-02,-0.9264653635122762
2021-04-06,-1.1846164203283012
2021-04-07,-0.9651253440519418
2021-04-08,-0.6934781683129805
2021-04-09,-0.7535123000030275
2021-04-12,-0.9881467033411638
2021-04-13,-1.3911339216880543
2021-04-14,-0.5913145189472234
2021-04-15,-0.5302750798257377
2021-04-16,-0.24927816743996628
2021-04-19,-0.20699134015365991
2021-04-20,-0.2938472266036242
2021-04-21,-0.029343653223711255
2021-04-22,0.4064703055094744
2021-04-23,-0.04678320182002973
2021-04-26,-0.34565310321362464
2021-04-27,-0.03891711940700411
2021-04-28,-0.2501229487269857
2021-04-29,0.1534626442055146
2021-04-30,-0.593023286323847
2021-05-06,0.7730763140500032
2021-05-07,1.4283151880084122
2021-05-10,1.9144077669902941
2021-05-11,1.3586654309545827
2021-05-12,1.5789596454396986
2021-05-13,1.0368055555555606
2021-05-14,1.2169020828345687
2021-05-17,2.003127506014436
2021-05-18,3.098618239242003
2021-05-19,2.4614540036075674
2021-05-20,1.796021166230292
2021-05-21,1.4138085673009355
2021-05-24,1.5256117001288354
2021-05-25,1.3948785294027897
2021-05-26,1.7846523675316592
2021-05-27,1.036029777310904
2021-05-28,0.9076369882080568
2021-05-31,1.2598266616677032
2021-06-01,1.8622211283758805
2021-06-02,0.9817494457164564
2021-06-03,1.0768581234397039
2021-06-04,0.24519842391802016
2021-06-07,0.5452409898327828
2021-06-08,0.7359513995493863
2021-06-09,0.571807723332567
2021-06-10,0.6189718080075245
2021-06-11,1.542261097477075
2021-06-15,0.7369010653676993
2021-06-16,0.8085849045315199
2021-06-17,-0.22099459901525437
2021-06-18,-1.1217445285544667
2021-06-21,-1.1108700987098667
2021-06-22,-1.1532563971225798
2021-06-23,-0.9668374018780529
2021-06-24,-0.9748085628990774
2021-06-25,-0.6811496940480555
2021-06-28,-0.6998295293042553
2021-06-29,-0.9419708429666176
2021-06-30,-1.2811502334059144
2021-07-01,-0.5624037138684624
2021-07-02,-0.8108680340953092
2021-07-05,-0.06602810558492284
2021-07-06,0.045374586026988704
2021-07-07,-0.3364826641748553
2021-07-08,-1.0050865840079128
2021-07-09,-1.0469893029003245
2021-07-12,-0.8516835357304736
2021-07-13,-0.38239498665894495
2021-07-14,-0.7843895366786361
2021-07-15,-0.33569294061916094
2021-07-16,-0.49090787669852104
2021-07-19,-1.852831426731805
2021-07-20,-2.2374700370259006
2021-07-21,-2.0951573916461115
2021-07-22,-1.9071019044200888
2021-07-23,-1.6859524054786499
2021-07-26,-1.761170254505552
2021-07-27,-1.929022684420357
2021-07-28,-2.2342281233979864
2021-07-29,-1.5153162018878796
2021-07-30,-1.2269878125136464
2021-08-02,-1.387372583087783
2021-08-03,-1.763379128416593
2021-08-04,-1.1550281042920991
2021-08-05,-1.6369155195302152
2021-08-06,-2.0354531127234643
2021-08-09,-3.6052102113714666
2021-08-10,-3.798388047591231
2021-08-11,-3.847666106622216
2021-08-12,-3.669406717497175
2021-08-13,-3.6660207420972504
2021-08-16,-3.406603101440156
2021-08-17,-3.163144298290338
2021-08-18,-3.218104115619984
2021-08-19,-3.94434135111742
2021-08-20,-3.8342081117280538
2021-08-23,-3.964433558793877
2021-08-24,-3.298527544066586
2021-08-25,-3.261343848980177
2021-08-26,-3.4862763053191945
2021-08-27,-3.2358628864105943
2021-08-30,-2.834256905095468
2021-08-31,-2.4973635487068817
2021-09-01,-2.983068961749381
2021-09-02,-2.4447434458939377
2021-09-03,-2.6772391699495026
2021-09-06,-1.2465584697773773
2021-09-07,-1.5943325159215471
2021-09-08,-2.012411494703654
2021-09-09,-2.7656631407648558
2021-09-10,-2.1269053527118063
2021-09-13,-3.261972163246048
2021-09-14,-3.029116945107408
2021-09-15,-2.989429429429424
2021-09-16,-3.366982507288625
2021-09-17,-4.605374651979184
2021-09-22,-4.387774824836922
2021-09-23,-4.608769585813195
2021-09-24,-4.484005392817747
2021-09-27,-4.459703337453644
2021-09-28,-5.15677339901478
2021-09-29,-5.222830822855724
2021-09-30,-6.406176652254482
2021-10-08,-4.516431353456668
2021-10-11,-4.013895601739968
2021-10-12,-3.9524673439767777
2021-10-13,-3.770751953124995
2021-10-14,-2.6892371739928915
2021-10-15,-2.122976949485048
2021-10-18,-2.571712652249563
2021-10-19,-1.991712707182316
2021-10-20,-1.778586670013813
2021-10-21,-1.6324540567570978
2021-10-22,-1.611208406304731
2021-10-25,-1.6426523744235233
2021-10-26,-1.6750249500997993
2021-10-27,-2.387563990510677
2021-10-28,-2.2159630277291993
2021-10-29,-2.781650690900046
2021-11-01,-2.63395989974938
2021-11-02,-2.2194601381042074
2021-11-03,-3.0123069195026986
2021-11-04,-2.9257207604179807
2021-11-05,-2.0922317813765177
2021-11-08,-1.119149471565166
2021-11-09,-0.9198178828885902
2021-11-10,-0.7957371225577308
2021-11-11,0.718076491840032
2021-11-12,1.2451211932877555
2021-11-15,0.6706609017912267
2021-11-16,0.6266221727845681
2021-11-17,0.8831314770882733
2021-11-18,0.6200748129675773
2021-11-19,0.26628328541067037
2021-11-22,0.09623065401896623
2021-11-23,-1.304095731556873
2021-11-24,-1.8064794284306334
2021-11-25,-1.6597815650459322
2021-11-26,-1.6165023656108688
2021-11-29,-2.009823414089828
2021-11-30,-2.9091082544479474
2021-12-01,-2.8212766683152184
2021-12-02,-3.484733243870307
2021-12-03,-3.382210435372917
2021-12-06,-3.0670737956401872
2021-12-07,-3.0117032825981083
2021-12-08,-3.144078217143444
2021-12-09,-3.572615551754925
2021-12-10,-4.271343037629552
2021-12-13,-3.1171962322383595
2021-12-14,-2.8868341569612563
2021-12-15,-3.4754907941265976
2021-12-16,-2.5909820447202465
2021-12-17,-1.9375493251494993
2021-12-20,-2.040949535315949
2021-12-21,-1.952969421965111
2021-12-22,-1.7212435964003416
2021-12-23,-1.125384686735726
2021-12-24,-1.087660683812642
2021-12-27,-1.3929262730662721
2021-12-28,-0.9620293881343673
2021-12-29,-1.0905036047811592
2021-12-30,-1.8183331696807576
2021-12-31,-0.8097922423466684
2022-01-04,-1.7983548123881337
2022-01-05,-1.7530279386646508
2022-01-06,-2.4564631596343145
2022-01-07,-3.1616701062246837
2022-01-10,-2.943376453502556
2022-01-11,-2.192282457200699
2022-01-12,-1.7093223040864236
2022-01-13,-1.2098921259953386
2022-01-14,-1.0854714674238104
2022-01-17,-1.4026250232437167
2022-01-18,-1.339114791702583
2022-01-19,0.18054702623465954
2022-01-20,0.8952958522994209
2022-01-21,1.8565441789450983
2022-01-24,0.8693073790340845
2022-01-25,0.2777357276909546
2022-01-26,0.036903430089881964
2022-01-27,-1.2238030836441327
2022-01-28,-1.9882331400881206
2022-02-07,-1.6632971556865377
2022-02-08,-1.3586772265796658
2022-02-09,-0.7834720430595086
2022-02-10,-0.6102298611914405
2022-02-11,-1.4669971338231704
2022-02-14,0.16091386743756494
2022-02-15,0.3056073333635227
2022-02-16,-0.627383560494683
2022-02-17,-0.48796500368017454
2022-02-18,0.3588231029805596
2022-02-21,-0.016754405824386136
2022-02-22,1.0270677728736148
2022-02-23,0.895651613683224
2022-02-24,2.4678965187070134
2022-02-25,1.0975388839507352
2022-02-28,0.8450485420785904
2022-03-01,1.0277901006185626
2022-03-02,1.833236830032864
2022-03-03,2.1057077882278565
2022-03-04,1.7723093407035824
2022-03-07,2.671307392058042
2022-03-08,4.122103503874895
2022-03-09,4.505631214030766
2022-03-10,1.9745634059905597
2022-03-11,2.348876731952614
2022-03-14,1.8270496908663285
2022-03-15,0.7969880071972711
2022-03-16,1.2167462722055005
2022-03-17,1.977680339667476
2022-03-18,2.2220052594213446
2022-03-21,1.8491961179797056
2022-03-22,2.6363243351197396
2022-03-23,1.8475809101739762
2022-03-24,2.2450354198118645
2022-03-25,3.215061215061218
2022-03-28,2.387481371087932
2022-03-29,2.068355308813328
2022-03-30,1.5049573437860244
2022-03-31,1.0234040088054621
2022-04-01,1.2437317784256563
2022-04-06,0.6662423330633034
2022-04-07,0.46717112922002274
2022-04-08,1.072431804991294
2022-04-11,1.5165876777251261
2022-04-12,2.33187823090179
2022-04-13,2.5355373804861197
2022-04-14,2.888553867563493
2022-04-15,2.6756162481194385
2022-04-18,2.9642527675276744
2022-04-19,2.764501160092809
2022-04-20,1.6856318522792832
2022-04-21,1.9002435912307074
2022-04-22,1.1564885496183195
2022-04-25,0.09080459770114925
2022-04-26,-0.049167145318784536
2022-04-27,-0.33249138920781146
2022-04-28,-0.6688415750915792
2022-04-29,-0.22903299725022436
2022-05-05,-0.5474444189777717
2022-05-06,-1.4460088565913556
2022-05-09,-1.4193290734824253
2022-05-10,-1.6415375788869713
2022-05-11,-2.188438780154754
2022-05-12,-2.3970689260361806
2022-05-13,-3.211164493250978
2022-05-16,-2.889708385339838
2022-05-17,-2.095000566829167
2022-05-18,-2.4809566991611853
2022-05-19,-2.4808873720136604
2022-05-20,-1.8524478694469635
2022-05-23,-2.0914890086030606
2022-05-24,-2.3240259918838175
2022-05-25,-2.172278409247799
2022-05-26,-2.2522993978970143
2022-05-27,-1.64672301791277
2022-05-30,-2.0105072125575125
2022-05-31,-2.707582923209443
2022-06-01,-3.077197902323981
2022-06-02,-2.451314683106997
2022-06-06,-1.6970208308417294
2022-06-07,-2.1311851385608622
2022-06-08,-1.818932405361525
2022-06-09,-2.1288877063730065
2022-06-10,-2.7821340971916064
2022-06-13,-2.4786170296518892
2022-06-14,-3.1778254975270612
2022-06-15,-3.291085087387584
2022-06-16,-2.556084961262753
2022-06-17,-2.0237533387112836
2022-06-20,-2.5911393304750097
2022-06-21,-3.005608141860567
2022-06-22,-3.1561834751684072
2022-06-23,-3.1122293435994384
2022-06-24,-4.233834857285081
2022-06-27,-3.1728178013193955
2022-06-28,-3.3842973964466077
2022-06-29,-4.083805589579774
2022-06-30,-4.093301288178921
2022-07-01,-5.585228200445446
2022-07-04,-5.737536952858156
2022-07-05,-5.17391919118164
2022-07-06,-6.5658732205659796
2022-07-07,-6.394712065541638
2022-07-08,-6.568830517756076
2022-07-11,-6.475021269507758
2022-07-12,-6.598856837100104
2022-07-13,-6.704352928909702
2022-07-14,-6.503025994345575
2022-07-15,-8.189833829328213
2022-07-18,-6.651239912946623
2022-07-19,-6.701444832285895
2022-07-20,-6.519384264507404
2022-07-21,-6.609916558742434
2022-07-22,-5.885130677595387
2022-07-25,-6.116856675987919
2022-07-26,-5.961758047128461
2022-07-27,-5.702345603737157
2022-07-28,-3.9915601382969554
2022-07-29,-2.3984632790100884
2022-08-01,-2.507151422500604
2022-08-02,-2.2621367481348185
2022-08-03,-2.7418756328501885
2022-08-04,-2.479959306244376
2022-08-05,-1.920455004606954
2022-08-08,-2.56757751094179
2022-08-09,-1.210144686584631
2022-08-10,-1.4029157998721804
2022-08-11,-1.1693427858934151
2022-08-12,-1.2001558772467078
2022-08-15,-0.6471135833734881
2022-08-16,-1.3429717975002893
2022-08-17,-1.3846476664291356
2022-08-18,-2.349881515318914
2022-08-19,-2.63013412086868
2022-08-22,-2.9757223578205085
2022-08-23,-2.743630022273569
2022-08-24,-2.2648129288381176
2022-08-25,-1.936343510918134
2022-08-26,-2.030674866050974
2022-08-29,-2.8280075030457996
2022-08-30,-2.615534665887217
2022-08-31,-3.002938444808074
2022-09-01,-3.7860281329021857
2022-09-02,-3.3014227507711253
2022-09-05,-2.935182935094262
2022-09-06,-2.4875109532760886
2022-09-07,-2.8893753871083323
2022-09-08,-2.088721336057289
2022-09-09,-1.2473039147172147
2022-09-13,0.27597911227153976
2022-09-14,-0.33960550220607477
2022-09-15,-0.32372044686931817
2022-09-16,-0.6502132058405473
2022-09-19,-0.15707141941274616
2022-09-20,0.11088322009998391
2022-09-21,0.3294975067126954
2022-09-22,0.6812805348418607
2022-09-23,1.3955578379766298
2022-09-26,-0.3779378316906715
2022-09-27,-0.40903356043400996
2022-09-28,-1.091848305405059
2022-09-29,0.009966363523108287
2022-09-30,0.4408882272670911
2022-10-10,1.6389709502708083
2022-10-11,1.4809435133457503
2022-10-12,1.1692422731804608
2022-10-13,0.6578093812375254
2022-10-14,0.8043532649487147
2022-10-17,0.07483758120939087
2022-10-18,0.6358374229268895
2022-10-19,0.33963691376701793
2022-10-20,0.1951126384116026
2022-10-21,0.3713413082209148
2022-10-24,1.9794930582091441
2022-10-25,2.3659359190556466
2022-10-26,2.796502590673568
2022-10-27,2.2565172054223153
2022-10-28,2.3773263433813865
2022-10-31,1.8735738922791123
2022-11-01,2.9415012488497445
2022-11-02,2.9191186172318226
2022-11-03,2.255739455419113
2022-11-04,2.7423778458261268
2022-11-07,3.8893291072371916
2022-11-08,4.368192580899763
2022-11-09,5.728776041666663
2022-11-10,5.393735438778153
2022-11-11,6.088673139158581
2022-11-14,4.726007802340701
2022-11-15,5.508423664620608
2022-11-16,4.9652886115444685
2022-11-17,4.747971667739857
2022-11-18,4.128873966942148
2022-11-21,3.4774867758998833
2022-11-22,3.733583732677106
2022-11-23,3.905601659751041
2022-11-24,4.622093770070649
2022-11-25,4.553375196232335
2022-11-28,4.370971215332857
2022-11-29,4.228939575774914
2022-11-30,4.082397582629158
2022-12-01,5.860964157632477
2022-12-02,6.896717560718412
2022-12-05,6.8205567212736025
2022-12-06,5.399347540002087
2022-12-07,5.284427491065326
2022-12-08,5.847018506358026
2022-12-09,6.68629343641745
2022-12-12,7.039440858597941
2022-12-13,7.139624745877566
2022-12-14,7.834597764958041
2022-12-15,6.434246167839169
2022-12-16,5.546831528704059
2022-12-19,5.601712665734239
2022-12-20,5.439852201240524
2022-12-21,6.698319154586096
2022-12-22,6.075184320574014
2022-12-23,5.637099418968755
2022-12-26,5.825086931073479
2022-12-27,6.354283608155861
2022-12-28,5.906612467260934
2022-12-29,5.087112122697426
2022-12-30,5.697870903102982
2023-01-03,5.805502693529463
2023-01-04,5.132690619866033
2023-01-05,3.6366970102673055
2023-01-06,3.0133145338555565
2023-01-09,3.8324987963082178
2023-01-10,3.0659172172913607
2023-01-11,3.604654154866037
2023-01-12,2.9768565085522405
2023-01-13,2.9644490205217866
2023-01-16,3.7903588329909823
2023-01-17,3.525873983913737
2023-01-18,3.4135986689373214
2023-01-19,1.9723146827573796
2023-01-20,3.17524534360269
2023-01-30,2.4805389489505636
2023-01-31,1.896099077074105
2023-02-01,2.1439243155370256
2023-02-02,2.7668062643707034
2023-02-03,1.6839422007857674
2023-02-06,0.08146806355183585
2023-02-07,-0.12694924165630167
2023-02-08,-0.3101128276334015
2023-02-09,-0.28321490935136906
2023-02-10,-0.9937067783476339
2023-02-13,-0.9475901364041871
2023-02-14,-0.888451995318737
2023-02-15,-1.3078581059897358
2023-02-16,-1.3063715923968482
2023-02-17,-1.7059285693844817
2023-02-20,-0.9907632181725182
2023-02-21,-1.059345292304358
2023-02-22,-0.8743238779267493
2023-02-23,-1.1691958986042934
2023-02-24,-1.3646201649924579
2023-02-27,-2.058961580418667
2023-02-28,-2.0611665264819963
2023-03-01,-1.5547885660098495
2023-03-02,-2.002654834954374
2023-03-03,-1.6738806678591451
2023-03-06,-1.2798716133928578
2023-03-07,-1.6010446367640423
2023-03-08,-3.152435501039836
2023-03-09,-3.165338510835439
2023-03-10,-3.2223130412613705
2023-03-13,-1.8698741059543564
2023-03-14,-0.5134149717337839
2023-03-15,-0.5437114170645295
2023-03-16,-0.6796974371780564
2023-03-17,-0.5275570846898722
2023-03-20,0.28383453836481465
2023-03-21,0.11422751244803049
2023-03-22,0.24591872707536735
2023-03-23,0.5550191527254658
2023-03-24,0.8381264341482622
2023-03-27,0.6505639982389217
2023-03-28,0.4252691041776336
2023-03-29,0.7027531167503442
2023-03-30,1.4587183620083923
2023-03-31,1.915542670791546
2023-04-03,1.4380799152177444
2023-04-04,2.0448218810891445
2023-04-06,3.937469148122174
2023-04-07,4.304153491639336
2023-04-10,3.5637671668623376
2023-04-11,4.0351830398807
2023-04-12,4.908410186011217
2023-04-13,5.002670639759121
2023-04-14,5.916481919224667
2023-04-17,4.994802204375357
2023-04-18,4.293930171198686
2023-04-19,4.092215585381282
2023-04-20,4.575539920449611
2023-04-21,4.0717746530579495
2023-04-24,3.7665135142529773
2023-04-25,4.2582979785375565
2023-04-26,4.009942828734784
2023-04-27,4.203789106319315
2023-04-28,3.991058122205659
2023-05-04,5.271721764778179
2023-05-05,6.054037495404979
2023-05-08,5.260456041946096
2023-05-09,4.922727830246534
2023-05-10,5.238846775195719
2023-05-11,4.08995686999384
2023-05-12,1.739431486880468
2023-05-15,1.8518698988914715
2023-05-16,1.2353611062399967
2023-05-17,1.3379052068645136
2023-05-18,1.3514883029224403
2023-05-19,1.7115507357174775
2023-05-22,1.811838223885167
2023-05-23,1.372734910869067
2023-05-24,1.1151551817291259
2023-05-25,0.5056494348890643
2023-05-26,0.4984845973923334
2023-05-29,1.09620983306639
2023-05-30,0.6456244120632146
2023-05-31,1.6428522929724563
2023-06-01,2.0520957412073675
2023-06-02,2.6686834789504252
2023-06-05,1.625456702391041
2023-06-06,1.846045801861956
2023-06-07,1.8442454247510005
2023-06-08,2.2320207146527062
2023-06-09,3.8704499796161205
2023-06-12,3.402041685082922
2023-06-13,3.460810900209053
2023-06-14,2.7614186854234113
2023-06-15,1.590890899562452
2023-06-16,2.38486951106975
2023-06-19,2.5344369709936365
2023-06-20,2.3379544807546253
2023-06-21,0.8164647236207903
2023-06-26,0.1956020804936982
2023-06-27,0.5931759206278351
2023-06-28,0.24259538943002185
2023-06-29,0.22122249919935816
2023-06-30,0.04452533821993466
2023-07-03,0.5914389604955878
2023-07-04,0.6194891777930225
2023-07-05,0.29651918503926705
2023-07-06,0.9866093196607545
2023-07-07,-0.1092098975267049
2023-07-10,0.4941939514806704
2023-07-11,0.896443076251667
2023-07-12,0.5939274267473157
2023-07-13,2.2512469861527786
2023-07-14,2.6378266340952963
2023-07-17,2.8099061660105664
2023-07-18,2.9545478603704747
2023-07-19,3.7085991177221573
2023-07-20,3.6955599299781237
2023-07-21,2.936166440064479
2023-07-24,2.7147929674809173
2023-07-25,2.4082430392118437
2023-07-26,2.726671581385953
2023-07-27,2.931288652323105
2023-07-28,1.3575029950975628
2023-07-31,1.328779618851208
2023-08-01,2.0004357371113093
2023-08-02,1.5152418764697189
2023-08-03,0.05739360084876341
2023-08-04,-0.1057565921566736
2023-08-07,0.2264288509026632
2023-08-08,-0.13768608988773834
2023-08-09,-0.4583913349098305
2023-08-10,-0.7347283845913363
2023-08-11,-0.15703491006086198
2023-08-14,-0.24829843290956158
2023-08-15,0.016529102754818448
2023-08-16,0.21493175853095564
2023-08-17,0.12667712959565006
2023-08-18,-0.19558475514416832
2023-08-21,0.05646386446012607
2023-08-22,0.7764970583616347
2023-08-23,1.7752079786160897
2023-08-24,2.436389220127639
2023-08-25,2.2175794154609525
2023-08-28,2.4500761018178943
2023-08-29,2.643414610269014
2023-08-30,3.4554582902019138
2023-08-31,3.240549019635475
2023-09-01,3.4599743571959762
2023-09-04,2.8912533885533374
2023-09-05,2.2835241478754775
2023-09-06,2.0326855563938944
2023-09-07,1.2491396879357486
2023-09-08,1.4239202855710638
2023-09-11,1.8382913707884663
2023-09-12,1.5978789845436447
2023-09-13,1.718351213336318
2023-09-14,2.822770900391331
2023-09-15,2.838525195153565
2023-09-18,1.7878273247577023
2023-09-19,2.11682821184563
2023-09-20,2.552881248394041
2023-09-21,2.125731792644682
2023-09-22,2.925553625364945
2023-09-25,2.6084502433642136
2023-09-26,1.3776395224201163
2023-09-27,1.3536311925261246
2023-09-28,0.5753399329438098
2023-10-09,-0.7926168664790312
2023-10-10,-1.1295663483251703
2023-10-11,-0.9716638465724334
2023-10-12,-0.35941124094556937
2023-10-13,-0.17003886533231266
2023-10-16,0.9588649395489559
2023-10-17,0.7097028682077192
2023-10-18,1.4426630781529717
2023-10-19,1.1486680626972807
2023-10-20,1.1040711618031682
2023-10-23,1.1957230227573756
2023-10-24,1.0948561870884592
2023-10-25,0.7690911127948548
2023-10-26,1.1883062717665887
2023-10-27,1.284281795151841
2023-10-30,1.3179511069273808
2023-10-31,1.1226179189825314
2023-11-01,-0.1706101253023942
2023-11-02,0.5633026450162413
2023-11-03,0.2559949061464184
2023-11-06,0.9142640484065652
2023-11-07,0.29508809358602595
2023-11-08,-0.6373372616445514
2023-11-09,-0.9219691676384265
2023-11-10,-0.34819819348340003
2023-11-13,-1.443958269428177
2023-11-14,-0.8701675831426197
2023-11-15,0.9459763000924931
2023-11-16,1.1092041157872554
2023-11-17,1.3236845873821637
2023-11-20,0.7923689316004082
2023-11-21,0.8744789594702429
2023-11-22,1.0617080374982149
2023-11-23,0.8911453670906149
2023-11-24,0.846178063959016
2023-11-27,3.591159274029674
2023-11-28,3.808713154730162
2023-11-29,3.587523050257162
2023-11-30,4.074615660129364
2023-12-01,4.119437046316939
2023-12-04,4.311001029544017
2023-12-05,1.8870117767217247
2023-12-06,1.7003803425386699
2023-12-07,1.3630862147952079
2023-12-08,1.7801551142044298
2023-12-11,0.11393589989814384
2023-12-12,0.11245554502705617
2023-12-13,-0.3742393358102284
2023-12-14,1.5878608129026666
2023-12-15,1.5109163470504479
2023-12-18,1.3665561625746658
2023-12-19,1.2899620234123919
2023-12-20,1.5649280845436389
2023-12-21,1.969662272240602
2023-12-22,2.186353279474146
2023-12-25,1.8861167060518556
2023-12-26,2.292235444689288
2023-12-27,2.090217980264166
2023-12-28,1.8297581983724516
2023-12-29,0.828968979853633
2024-01-02,1.4645180585183164
2024-01-03,0.811491466058676
2024-01-04,-0.43086253834831295
2024-01-05,-0.0919779255964751
2024-01-08,-0.10802557990187674
2024-01-09,-0.02718919024231176
2024-01-10,-0.3230977587699236
2024-01-11,-0.07764004466283207
2024-01-12,-0.17106995800766764
2024-01-15,0.678329119402956
2024-01-16,0.4481896332985895
2024-01-17,-0.18936096628682406
2024-01-18,-0.2015241159808773
2024-01-19,-0.1419805148494391
2024-01-22,-1.8587550063171872
2024-01-23,-1.1806430035916322
2024-01-24,-0.8025255802936365
2024-01-25,-0.3901309009860405
2024-01-26,-0.10886416514901631
2024-01-29,0.08509743907805714
2024-01-30,0.4740250007972925
2024-01-31,0.18781469008889584
2024-02-01,-0.10664771956970621
2024-02-02,0.08819913089702831
2024-02-05,-0.897070314558003
2024-02-06,-1.2655827481217563
2024-02-07,-1.7283142774129108
2024-02-08,-1.2409319341876943
2024-02-19,0.16574566314651065
2024-02-20,-0.11126560433982634
2024-02-21,0.09246103611965771
2024-02-22,-0.05236915498740045
2024-02-23,-0.6432275752973566
2024-02-26,-0.3534922854534887
2024-02-27,-0.6794811006133262
2024-02-28,-0.9252531786915377
2024-02-29,-0.7344460132545144
2024-03-01,-0.2969574555106168
2024-03-04,0.4897857605967541
2024-03-05,1.8735019452370727
2024-03-06,1.772851203910458
2024-03-07,2.145956048845622
2024-03-08,2.354747487051154
2024-03-11,2.22863412215932
2024-03-12,2.1684036163422284
2024-03-13,2.021029597927404
2024-03-14,3.5150141096108922
2024-03-15,4.109081332824585
2024-03-18,3.833170073711162
2024-03-19,3.506034988417798
2024-03-20,3.7184017777380234
2024-03-21,5.4331945329626326
2024-03-22,3.293794052670244
2024-03-25,3.611121819876089
2024-03-26,3.5084048234973113
2024-03-27,3.5875208858449517
2024-03-28,4.019974353572569
2024-03-29,4.941095918518045
2024-04-01,5.160582312344442
2024-04-02,5.8177737760496155
2024-04-03,8.23464113463589
2024-04-08,11.651017235728663
2024-04-09,11.645088518177666
2024-04-10,11.787458167372572
2024-04-11,11.069815276037273
2024-04-12,13.805552694257088
2024-04-15,12.553971096749782
2024-04-16,11.572628568180285
2024-04-17,11.775051846479009
2024-04-18,11.900304655809117
2024-04-19,11.342588663168156
2024-04-22,8.655276324623612
2024-04-23,6.6829862810455545
2024-04-24,7.554911466484995
2024-04-25,7.24470097682236
2024-04-26,7.864979661039454
2024-04-29,6.950359453651123
2024-04-30,6.116362248511444
2024-05-06,6.367111221831023
2024-05-07,6.597338000760628
2024-05-08,6.567411719279194
2024-05-09,6.844580042161417
2024-05-10,8.72747270122785
2024-05-13,7.6062744289719095
2024-05-14,7.530838385950238
2024-05-15,7.789491704551352
2024-05-16,9.073422912645235
2024-05-17,9.39894877358507
2024-05-20,13.11936141670882
2024-05-21,12.410773508972387
2024-05-22,12.739544144880622
2024-05-23,9.414498392993325
2024-05-24,9.37004013269532
2024-05-27,9.63740572122691
2024-05-28,10.643410311008314
2024-05-29,11.91452813738183
2024-05-30,9.721349508178408
2024-05-31,9.140505737921963
2024-06-03,6.972220723759309
2024-06-04,7.51939971884864
2024-06-05,5.417412499627901
2024-06-06,6.650826543910876
2024-06-07,7.386776141684348
2024-06-11,4.097051023552496
2024-06-12,4.412564953384084
2024-06-13,4.087539959993841
2024-06-14,3.565755292790956
2024-06-17,3.4498071908927463
2024-06-18,3.7147490986635807
2024-06-19,3.667601631601664
2024-06-20,4.714703541119861
2024-06-21,4.64180552625191
2024-06-24,3.391513645558445
2024-06-25,3.304748517579182
2024-06-26,2.382629791505332
2024-06-27,2.0565764816476846
2024-06-28,2.571577137942568
2024-07-01,2.287173965024803
2024-07-02,2.5053794592824046
2024-07-03,3.2413085693000188
2024-07-04,3.368156226144367
2024-07-05,3.592201721710033
2024-07-08,3.661675294104774
2024-07-09,3.6945302976073537
2024-07-10,3.3723179195334763
2024-07-11,3.494299019352039
2024-07-12,2.8712400286426267
2024-07-15,2.636593766198422
2024-07-16,2.799345884902769
2024-07-17,2.5531836949415196
2024-07-18,1.9269818521732347
2024-07-19,0.45362324134603643
2024-07-22,0.06447759018414963
2024-07-23,-0.3185882833313358
2024-07-24,0.3670895063298467
2024-07-25,-1.813548370632541
2024-07-26,-1.7572090231230675
2024-07-29,-1.5411338147576803
2024-07-30,-1.728077909038895
2024-07-31,-1.0500829122899933
2024-08-01,-0.8474072003343032
2024-08-02,-0.9818610867835782
2024-08-05,-2.058881419534815
2024-08-06,-3.4705435383392067
2024-08-07,-3.2633180874538374
2024-08-08,-3.376750572413191
2024-08-09,-2.742257664652561
2024-08-12,-2.2126430665469683
2024-08-13,-2.394931491499855
2024-08-14,-2.35122998141447
2024-08-15,-2.179827771744552
2024-08-16,-1.789498033744089
2024-08-19,-1.0907004642561222
2024-08-20,-0.6475610966045112
2024-08-21,-0.6343091444278428
2024-08-22,-0.8713340196299467
2024-08-23,-0.9726705810339207
2024-08-26,-0.19852777973915142
2024-08-27,-0.3131087066259619
2024-08-28,-0.9034257321341932
2024-08-29,-0.8787017408901957
2024-08-30,-1.0444795374656932
2024-09-02,-2.2566322483512704
2024-09-03,-2.2534250611491813
2024-09-04,-2.9265740488285337
2024-09-05,-2.734835625431691
2024-09-06,-2.1109033319654684
2024-09-09,-3.2022033332482684
2024-09-10,-2.8690868996208785
2024-09-11,-2.3178494716239966
2024-09-12,-2.3539570284310845
2024-09-13,-1.111797912159178
2024-09-18,-0.9683141156114463
2024-09-19,-0.7753874635176703
2024-09-20,-0.428138358368382
2024-09-23,-0.6737482777003375
2024-09-24,-0.33662044017797654
2024-09-25,0.8391204010161091
2024-09-26,1.2162179427341115
2024-09-27,1.2727366593590137
2024-09-30,0.9296492708819651
2024-10-08,0.36185064549887686
2024-10-09,-0.46323363752729024
2024-10-10,-0.3049840860754115
2024-10-11,0.510367236699175
2024-10-14,1.0206025780201704
2024-10-15,0.6476908213431891
2024-10-16,1.546026278801815
2024-10-17,1.1531423916571664
2024-10-18,1.557223036466824
2024-10-21,3.759650730330413
2024-10-22,3.6906391538460404
2024-10-23,3.776464891018435
2024-10-24,3.121521465476573
2024-10-25,2.6505509009874393
2024-10-28,2.9725166533380327
2024-10-29,3.2706295338899496
2024-10-30,3.449166452994803
2024-10-31,2.5544837886613956
2024-11-01,1.6388940664802778
2024-11-04,1.8505247469415569
2024-11-05,1.7962962962962976
2024-11-06,0.7569384482545938
2024-11-07,0.39021678710394686
2024-11-08,0.717380570299968
2024-11-11,0.9411728433125781
2024-11-12,-0.10540941089292047
2024-11-13,0.40514151526387265
2024-11-14,-0.5460247671051267
2024-11-15,-0.08814713159671751
2024-11-18,0.4099194566616095
2024-11-19,1.0495574614701475
2024-11-20,0.7674387337652386
2024-11-21,1.1502154985280513
2024-11-22,0.9709807054231924
2024-11-25,0.21535439855100205
2024-11-26,-0.08443801795615859
2024-11-27,0.26468906855815316
2024-11-28,-0.47640273584662707
2024-11-29,0.35818592890809214
2024-12-02,-0.16457894956845967
2024-12-03,0.8881358358652913
2024-12-04,0.9209242532285329
2024-12-05,0.9706427114505076
2024-12-06,0.8662572803816455
2024-12-09,0.6609110022566725
2024-12-10,1.2949482562991028
2024-12-11,1.2017026005513476
2024-12-12,1.6776825917237657
2024-12-13,0.4642503889543355
2024-12-16,0.11793868050185387
2024-12-17,-0.010791146178995193
2024-12-18,-0.11329867093131947
2024-12-19,-1.1675200483789085
2024-12-20,-1.4889826450078654
2024-12-23,-0.7358995841177148
2024-12-24,-0.7619167439467176
2024-12-25,-0.7498934708998432
2024-12-26,-0.735880118595886
2024-12-27,-0.6449063858614826
2024-12-30,-0.8719111373335738
2024-12-31,-1.362212851448227
