date,FCT_Bias_1@5
2019-09-25,
2019-09-26,
2019-09-27,
2019-09-30,
2019-10-08,
2019-10-09,-0.09722222222222222
2019-10-10,0.2878787878787879
2019-10-11,0.1907514450867052
2019-10-14,0.2484472049689441
2019-10-15,-0.9875518672199171
2019-10-16,-0.571969696969697
2019-10-17,-1.2112676056338028
2019-10-18,-1.0084269662921348
2019-10-21,-0.7845804988662132
2019-10-22,-0.5454545454545454
2019-10-23,-0.023809523809523808
2019-10-24,0.1661721068249258
2019-10-25,0.07692307692307693
2019-10-28,0.15611814345991562
2019-10-29,0.12550607287449392
2019-10-30,0.25853658536585367
2019-10-31,-0.11219512195121951
2019-11-01,-0.08791208791208792
2019-11-04,-0.23178807947019867
2019-11-05,-0.6209677419354839
2019-11-06,-0.23809523809523808
2019-11-07,-0.24324324324324326
2019-11-08,-1.0789473684210527
2019-11-11,-2.4657534246575343
2019-11-12,-1.0612244897959184
2019-11-13,-0.6356877323420075
2019-11-14,-0.18345323741007194
2019-11-15,0.11945392491467577
2019-11-18,-0.24680851063829787
2019-11-19,0.0942622950819672
2019-11-20,0.20614035087719298
2019-11-21,0.02643171806167401
2019-11-22,0.5603448275862069
2019-11-25,0.39603960396039606
2019-11-26,-0.3967391304347826
2019-11-27,-0.9533678756476683
2019-11-28,-1.235897435897436
2019-11-29,-1.4260355029585798
2019-12-02,-1.1257142857142857
2019-12-03,-0.22699386503067484
2019-12-04,-0.7556818181818182
2019-12-05,-0.3064516129032258
2019-12-06,0.125
2019-12-09,0.03524229074889868
2019-12-10,0.2813852813852814
2019-12-11,0.8502024291497976
2019-12-12,0.7160493827160493
2019-12-13,0.6056910569105691
2019-12-16,0.3037383177570093
2019-12-17,0.23383084577114427
2019-12-18,0.14743589743589744
2019-12-19,0.6275862068965518
2019-12-20,0.17293233082706766
2019-12-23,0.6935483870967742
2019-12-24,-0.3026315789473684
2019-12-25,-0.7142857142857143
2019-12-26,-0.3875968992248062
2019-12-27,-0.3870967741935484
2019-12-30,0.4155844155844156
2019-12-31,1.0517925095133165
2020-01-02,-0.8554975317979037
2020-01-03,-0.7593250205938625
2020-01-06,-0.28939195679492963
2020-01-07,-0.07506702412867945
2020-01-08,0.3529411764705958
2020-01-09,0.29378531073444814
2020-01-10,0.5977011494252871
2020-01-13,0.2745098039215534
2020-01-14,-0.7647058823529406
2020-01-15,-0.7687074829932045
2020-01-16,-0.03496503496502101
2020-01-17,-0.3618421052631661
2020-01-20,-0.007352941176475559
2020-01-21,-0.007999999999991037
2020-01-22,-0.14285714285714946
2020-01-23,-0.7933333333333081
2020-02-03,-2.403041825095049
2020-02-04,-0.9607843137255035
2020-02-05,-0.5723472668810314
2020-02-06,-0.10130718954247633
2020-02-07,0.2067796610169496
2020-02-10,0.17469879518072295
2020-02-11,0.7222222222222169
2020-02-12,1.083333333333335
2020-02-13,0.5225806451612988
2020-02-14,-0.4895833333333393
2020-02-17,-0.3089887640449522
2020-02-18,-0.707602339181285
2020-02-19,-0.8343949044585975
2020-02-20,-0.09352517985611455
2020-02-21,-0.41904761904761495
2020-02-24,-0.842519685039367
2020-02-25,-1.2539682539682673
2020-02-26,-2.1676300578034615
2020-02-27,-1.2594594594594561
2020-02-28,-1.4018264840182526
2020-03-02,-0.16949152542373708
2020-03-03,0.18181818181818427
2020-03-04,-0.14932126696832898
2020-03-05,0.17826086956521273
2020-03-06,-0.17616580310879604
2020-03-09,-1.4303797468354238
2020-03-10,-0.1846153846153842
2020-03-11,-0.32015810276680134
2020-03-12,-0.4435797665369639
2020-03-13,-0.3762711864406836
2020-03-16,-0.3237704918032776
2020-03-17,-0.22167487684728202
2020-03-18,-0.59734513274337
2020-03-19,-0.6394052044609655
2020-03-20,-0.39406779661017066
2020-03-23,-0.7768924302788842
2020-03-24,-0.4474708171206197
2020-03-25,0.3223140495867817
2020-03-26,0.26256983240223425
2020-03-27,0.8108108108108147
2020-03-30,-0.32183908045977394
2020-03-31,0.04519774011299491
2020-04-01,0.07185628742514523
2020-04-02,-0.10734463276835403
2020-04-03,-0.16666666666666347
2020-04-07,0.421965317919084
2020-04-08,0.9481865284974166
2020-04-09,1.0603015075376956
2020-04-10,1.3219512195121896
2020-04-13,0.8518518518518572
2020-04-14,1.381889763779529
2020-04-15,0.9581881533101135
2020-04-16,0.10238907849829575
2020-04-17,0.5947712418300654
2020-04-20,1.1549707602339165
2020-04-21,0.1388888888888919
2020-04-22,-0.09743589743589459
2020-04-23,-0.05109489051095301
2020-04-24,-0.26869158878505295
2020-04-27,-0.1598915989159857
2020-04-28,-0.05928116987108811
2020-04-29,-0.3077500182096187
2020-04-30,0.14722372003765274
2020-05-06,1.2564529404406946
2020-05-07,0.4905660377358472
2020-05-08,0.545454545454536
2020-05-11,1.2853185595567875
2020-05-12,0.2745591939546591
2020-05-13,0.3418079096045177
2020-05-14,-0.08445945945946723
2020-05-15,-0.4560810810810832
2020-05-18,0.0
2020-05-19,0.11872146118720824
2020-05-20,-0.11428571428573372
2020-05-21,0.7768595041322196
2020-05-22,-0.8816199376947035
2020-05-25,-0.3607594936708855
2020-05-26,-0.24999999999999942
2020-05-27,-0.42424242424242564
2020-05-28,-0.19822587785973736
2020-05-29,-0.37228969194311395
2020-06-01,0.3378819749875691
2020-06-02,0.16356439258774386
2020-06-03,0.05357142857142137
2020-06-04,-0.8999999999999948
2020-06-05,-0.24999999999999845
2020-06-08,0.11445783132530714
2020-06-09,-0.0350877192982306
2020-06-10,-0.10691823899370731
2020-06-11,-0.6602564102564096
2020-06-12,-0.7562499999999958
2020-06-15,-1.1764705882352946
2020-06-16,-0.10152284263959818
2020-06-17,-0.03608247422679927
2020-06-18,0.17934782608696087
2020-06-19,1.6896551724137856
2020-06-22,1.0381679389312979
2020-06-23,0.6486486486486412
2020-06-24,0.14532871972318182
2020-06-29,-0.10299003322259506
2020-06-30,-0.25560538116592446
2020-07-01,0.019783961998137263
2020-07-02,0.8875468984714966
2020-07-03,1.2672355172640049
2020-07-06,0.7195394869442484
2020-07-07,0.6608695652173894
2020-07-08,0.5494505494505476
2020-07-09,0.48430493273542735
2020-07-10,-0.16086956521739246
2020-07-13,0.6175298804780915
2020-07-14,0.17374517374517107
2020-07-15,0.013574660633494426
2020-07-16,-0.4741035856573752
2020-07-17,-0.41089108910891226
2020-07-20,-0.37426900584795164
2020-07-21,0.2374999999999954
2020-07-22,0.610169491525426
2020-07-23,-0.08928571428571003
2020-07-24,0.7696078431372618
2020-07-27,0.5269709543568432
2020-07-28,0.5738396624472517
2020-07-29,0.3048780487804926
2020-07-30,0.5175097276264656
2020-07-31,0.800058690312911
2020-08-03,0.2754181781539748
2020-08-04,0.8096136124471618
2020-08-05,1.1633475356819345
2020-08-06,0.6712707182320405
2020-08-07,0.3529411764705867
2020-08-10,-0.4171428571428564
2020-08-11,-0.8857142857142867
2020-08-12,-0.48333333333333606
2020-08-13,-0.04150943396226631
2020-08-14,0.7629870129870153
2020-08-17,1.7198879551820712
2020-08-18,1.4453781512605048
2020-08-19,0.2867647058823477
2020-08-20,0.24337349397590016
2020-08-21,-0.40599455040872473
2020-08-24,0.29855072463768423
2020-08-25,0.30576087707825467
2020-08-26,0.8526284732109422
2020-08-27,0.4352401750921282
2020-08-28,0.4175758932855633
2020-08-31,0.7534246575342399
2020-09-01,0.23829787234042746
2020-09-02,0.03902439024390881
2020-09-03,-0.9145907473309653
2020-09-04,-1.1725352112676115
2020-09-07,-0.6993006993007028
2020-09-08,-0.1722846441947598
2020-09-09,-1.2791262135922377
2020-09-10,-1.1436170212765846
2020-09-11,-0.6015831134564671
2020-09-14,0.1984732824427458
2020-09-15,0.3237597911227107
2020-09-16,-0.4918032786885316
2020-09-17,-0.8430656934306658
2020-09-18,-0.31208053691274334
2020-09-21,-0.45551601423488186
2020-09-22,-0.3354037267080726
2020-09-23,-0.041044776119416856
2020-09-24,0.6491803278688493
2020-09-25,0.7773972602739796
2020-09-28,0.39293648838803635
2020-09-29,-0.0010286187450314174
2020-09-30,-0.4264748208398962
2020-10-09,0.9507502296621393
2020-10-12,0.6837060702875425
2020-10-13,0.1335403726708136
2020-10-14,0.015337423312878112
2020-10-15,-0.2777777777777722
2020-10-16,0.16428571428571018
2020-10-19,0.3024911032028462
2020-10-20,0.26335877862595086
2020-10-21,0.780876494023905
2020-10-22,-0.07392996108949118
2020-10-23,-0.05645161290322983
2020-10-26,-0.8122714808043935
2020-10-27,-0.48992745368427565
2020-10-28,1.0078747719197214
2020-10-29,-0.19579822971100042
2020-10-30,-0.6187989556135798
2020-11-02,-1.1135265700483146
2020-11-03,-0.7400468384074965
2020-11-04,-0.42771084337349485
2020-11-05,-0.22456140350876616
2020-11-06,0.04710144927535611
2020-11-09,0.3444816053511702
2020-11-10,-0.23384615384615912
2020-11-11,-0.5136986301369805
2020-11-12,-0.9238754325259516
2020-11-13,-0.5387453874538689
2020-11-16,-0.9961089494163384
2020-11-17,-1.5223880597014965
2020-11-18,-0.8939393939393963
2020-11-19,-0.21305841924398727
2020-11-20,0.13448275862069012
2020-11-23,0.8571428571428529
2020-11-24,0.8523777893470659
2020-11-25,-0.0050940683792689975
2020-11-26,-0.2546110741760696
2020-11-27,0.3350788081897631
2020-11-30,0.10502283105022192
2020-12-01,-0.02489626556017373
2020-12-02,0.35265700483092116
2020-12-03,-0.004310344827580207
2020-12-04,-0.004651162790691192
2020-12-07,0.6697247706422013
2020-12-08,0.3163265306122477
2020-12-09,0.4849999999999987
2020-12-10,0.02898550724638589
2020-12-11,1.1167192429022212
2020-12-14,1.1276041666666639
2020-12-15,0.5665859564164656
2020-12-16,-0.18526315789473394
2020-12-17,-0.16331096196868541
2020-12-18,0.0
2020-12-21,0.1841269841269822
2020-12-22,-1.2461538461538504
2020-12-23,-1.0784313725490153
2020-12-24,-0.5570652173913063
2020-12-25,0.30788261868523426
2020-12-28,0.39869880655522183
2020-12-29,-0.5873743909865947
2020-12-30,-0.43104082121197435
2020-12-31,-0.22656250000000772
2021-01-04,0.8846153846153901
2021-01-05,1.3950177935943144
2021-01-06,1.245136186770424
2021-01-07,2.052197802197798
2021-01-08,0.5362903225806451
2021-01-11,-0.5198555956678694
2021-01-12,-0.5421903052064635
2021-01-13,-0.48063380281689877
2021-01-14,-0.18255578093306205
2021-01-15,0.10025062656641556
2021-01-18,0.8876712328767152
2021-01-19,0.6158357771261025
2021-01-20,0.6428571428571379
2021-01-21,0.36645962732920306
2021-01-22,-0.6626506024096358
2021-01-25,0.16265060240963583
2021-01-26,0.37126355066848316
2021-01-27,0.12542181107981024
2021-01-28,-0.18802639731055018
2021-01-29,-0.15232036052156384
2021-02-01,0.3210332103321019
2021-02-02,-0.36704119850186967
2021-02-03,-0.3739130434782524
2021-02-04,-0.11904761904762229
2021-02-05,0.21317829457363857
2021-02-08,0.5283018867924595
2021-02-09,0.42608695652174405
2021-02-10,0.2895752895752838
2021-02-18,1.166077738515904
2021-02-19,1.8047337278106483
2021-02-22,1.025906735751292
2021-02-23,0.6195899772209519
2021-02-24,-0.009478672985784364
2021-02-25,0.4148681055155888
2021-02-26,-0.5155389330647085
2021-03-01,-0.34840232458258064
2021-03-02,-0.6159375486005013
2021-03-03,-0.7738366307409457
2021-03-04,-1.4248120300751872
2021-03-05,-0.6590909090909085
2021-03-08,-0.4072072072072133
2021-03-09,-0.49523809523809476
2021-03-10,-0.3760000000000006
2021-03-11,0.038740920096857256
2021-03-12,-0.13946587537091631
2021-03-15,0.23701298701298787
2021-03-16,-0.12237762237762916
2021-03-17,-0.1363636363636385
2021-03-18,0.19028340080972456
2021-03-19,-0.08641975308642279
2021-03-22,0.68627450980391
2021-03-23,0.8548387096774197
2021-03-24,0.37759336099584967
2021-03-25,0.34538152610441486
2021-03-26,0.7025098479346826
2021-03-29,0.7142536036428007
2021-03-30,1.292115121187564
2021-03-31,-0.12680429417421046
2021-04-01,-0.6412556053811687
2021-04-02,-0.4644549763033075
2021-04-06,-0.2026431718061722
2021-04-07,0.6261261261261317
2021-04-08,0.5979899497487546
2021-04-09,0.06278026905828799
2021-04-12,-0.9860627177700318
2021-04-13,-1.0334448160535141
2021-04-14,-0.9774919614147851
2021-04-15,-0.6013513513513487
2021-04-16,-0.011070110701111887
2021-04-19,0.20276497695853915
2021-04-20,0.24757281553399124
2021-04-21,-0.01595744680850867
2021-04-22,-0.4254143646408876
2021-04-23,0.3956043956043834
2021-04-26,1.1420765027322355
2021-04-27,1.9452054794520477
2021-04-28,1.6679999999999906
2021-04-29,0.4716312056737655
2021-04-30,0.0696864111498289
2021-05-06,1.2839817587633702
2021-05-07,0.7866433547908573
2021-05-10,1.136263339484873
2021-05-11,0.8811563378083079
2021-05-12,0.6673076923076959
2021-05-13,-0.04971319311662964
2021-05-14,-0.3872113676731752
2021-05-17,-0.08742004264391919
2021-05-18,0.5233463035019419
2021-05-19,0.40421052631578686
2021-05-20,-0.4410569105691103
2021-05-21,-0.4132762312633836
2021-05-24,-0.6193415637860057
2021-05-25,-0.5488372093023224
2021-05-26,-0.33253588516745947
2021-05-27,0.23652694610777866
2021-05-28,1.177464788732398
2021-05-31,1.498567335243553
2021-06-01,1.6804878048780498
2021-06-02,0.9411764705882298
2021-06-03,0.3767123287671279
2021-06-04,-0.8633405639913216
2021-06-07,-0.7942477876106189
2021-06-08,-0.7588590875130932
2021-06-09,0.4224728216777481
2021-06-10,0.6446127408631652
2021-06-11,1.8850878747334632
2021-06-15,0.8204488778054777
2021-06-16,-0.25109170305676737
2021-06-17,-0.24770642201835652
2021-06-18,-0.294117647058818
2021-06-21,-0.30563002680964985
2021-06-22,0.7558441558441644
2021-06-23,0.8919667590027708
2021-06-24,1.1758241758241759
2021-06-25,1.091160220994474
2021-06-28,0.31713554987212716
2021-06-29,-0.09422492401214924
2021-06-30,0.47040498442367357
2021-07-01,-0.32676056338027915
2021-07-02,-0.6792452830188775
2021-07-05,0.21409214092140755
2021-07-06,0.5826972010178187
2021-07-07,0.4342431761786543
2021-07-08,0.9292929292929375
2021-07-09,1.0104438642297675
2021-07-12,0.5543478260869678
2021-07-13,0.537190082644631
2021-07-14,1.1002331002330952
2021-07-15,1.2160919540229878
2021-07-16,1.4610051993067592
2021-07-19,0.861337683523657
2021-07-20,0.14372163388805037
2021-07-21,-0.18690095846645807
2021-07-22,-0.003231017770597445
2021-07-23,1.0866551126516537
2021-07-26,1.2027845079839874
2021-07-27,0.2598842839004256
2021-07-28,0.09971568654183144
2021-07-29,0.5989777374158315
2021-07-30,0.8052147239263792
2021-08-02,-0.09620596205961779
2021-08-03,-0.9276944065484298
2021-08-04,-0.646131805157591
2021-08-05,-0.536023054755044
2021-08-06,0.0790629575402585
2021-08-09,-0.8043478260869549
2021-08-10,-0.4224872231686554
2021-08-11,-0.5341726618704972
2021-08-12,0.1223021582733791
2021-08-13,-0.12521739130434598
2021-08-16,-0.42241379310345384
2021-08-17,0.17004048582996467
2021-08-18,-0.31967213114753695
2021-08-19,-0.9690082644628066
2021-08-20,-0.7031578947368385
2021-08-23,-0.37263157894736026
2021-08-24,-0.022277227722774958
2021-08-25,0.5191853792849074
2021-08-26,0.01410446835347687
2021-08-27,-0.11398634896096368
2021-08-30,1.0919793724421705
2021-08-31,1.3240740740740657
2021-09-01,-0.5017301038062261
2021-09-02,-0.15499999999999742
2021-09-03,0.7921195652173927
2021-09-06,1.5236220472440902
2021-09-07,1.0162094763092313
2021-09-08,0.5605839416058411
2021-09-09,0.2070844686648544
2021-09-10,0.08708708708708396
2021-09-13,-0.3354037267080664
2021-09-14,-0.4983443708609266
2021-09-15,0.5939741750358715
2021-09-16,1.4289655172413787
2021-09-17,2.0105017502917164
2021-09-22,1.5133256083429913
2021-09-23,0.6526207605344335
2021-09-24,-0.4607754733994567
2021-09-27,-0.8821428571428542
2021-09-28,-0.5385434656600496
2021-09-29,-0.49757600587623446
2021-09-30,-0.16779823189493148
2021-10-08,0.6161817977334113
2021-10-11,0.05263157894736554
2021-10-12,0.02929687499999805
2021-10-13,0.023529411764705
2021-10-14,-0.05863192182410178
2021-10-15,0.6740467404674029
2021-10-18,0.4152866242038216
2021-10-19,-0.029232643118152112
2021-10-20,-0.4378238341968866
2021-10-21,-0.012127894156559635
2021-10-22,-0.12956810631229324
2021-10-25,-0.2397403923043399
2021-10-26,0.38147111721238586
2021-10-27,-0.3455547617025925
2021-10-28,-0.5277787596112581
2021-10-29,-0.5897142857142811
2021-11-01,-0.6725978647686816
2021-11-02,-0.4925373134328355
2021-11-03,-0.39735894357743407
2021-11-04,-0.8238021638330726
2021-11-05,-0.504051863857371
2021-11-08,-0.2287145242070097
2021-11-09,-0.31238095238094826
2021-11-10,0.14285714285714143
2021-11-11,-0.26494023904382447
2021-11-12,-0.5988235650625008
2021-11-15,-0.36344506104328717
2021-11-16,0.18875754790332938
2021-11-17,0.40956112501530195
2021-11-18,-0.5149105367793243
2021-11-19,0.06813996316758986
2021-11-22,0.07142857142858272
2021-11-23,0.5743243243243231
2021-11-24,1.3846153846153813
2021-11-25,0.5842217484008542
2021-11-26,-0.6895074946466794
2021-11-29,-0.9999999999999973
2021-11-30,-1.2665245202558573
2021-12-01,-0.5380952380952441
2021-12-02,-0.5676959619952568
2021-12-03,-0.300000000000003
2021-12-06,-0.561224489795915
2021-12-07,-0.37244897959184137
2021-12-08,-1.1789709172259506
2021-12-09,-1.1956989247311816
2021-12-10,-0.8531914893616955
2021-12-13,0.08853118712273789
2021-12-14,0.07346938775509489
2021-12-15,0.4112149532710278
2021-12-16,0.3173277524724034
2021-12-17,-0.13044453419268584
2021-12-20,-0.13488265001848726
2021-12-21,0.11476349454900293
2021-12-22,0.5276872964169367
2021-12-23,1.3302752293577922
2021-12-24,1.709999999999993
2021-12-27,0.5852272727272779
2021-12-28,0.6273972602739641
2021-12-29,0.23369565217390673
2021-12-30,0.8028169014084509
2021-12-31,0.45217391304347604
2022-01-04,0.45042492917848215
2022-01-05,0.03878116343489896
2022-01-06,-0.5631578947368473
2022-01-07,-0.39893617021276134
2022-01-10,0.5937499999999934
2022-01-11,1.0888888888888855
2022-01-12,1.3655303030303076
2022-01-13,0.11791730474732207
2022-01-14,0.18037518037518607
2022-01-17,-0.4857142857142902
2022-01-18,0.35954721997924827
2022-01-19,0.21945684722006167
2022-01-20,1.3058214553638454
2022-01-21,0.6696897461964453
2022-01-24,-0.4482758620689667
2022-01-25,-1.0677966101694938
2022-01-26,-0.7372262773722643
2022-01-27,-0.5241057542768285
2022-01-28,0.1421800947867343
2022-02-07,0.8972972972972955
2022-02-08,1.0895833333333345
2022-02-09,0.8409961685823745
2022-02-10,0.7417475728155389
2022-02-11,0.24850894632206058
2022-02-14,0.8197343453510451
2022-02-15,0.5630885122410536
2022-02-16,1.1064638783269976
2022-02-17,-0.10204081632653175
2022-02-18,-0.04247787610619416
2022-02-21,-0.04595888667142366
2022-02-22,-0.04454281164628936
2022-02-23,-0.6937272413512294
2022-02-24,-0.42293386555384865
2022-02-25,-0.8831999999999998
2022-02-28,-1.059800664451829
2022-03-01,-0.5925925925925972
2022-03-02,-0.361111111111105
2022-03-03,1.138842975206617
2022-03-04,1.6201232032854298
2022-03-07,2.51923076923077
2022-03-08,2.5722713864306788
2022-03-09,0.47845303867403094
2022-03-10,-0.3922187171398526
2022-03-11,-0.637787567302987
2022-03-14,-0.5200868621064063
2022-03-15,-0.011737089201877304
2022-03-16,0.869875222816399
2022-03-17,0.018587360594797268
2022-03-18,0.09230769230769634
2022-03-21,-0.2751895991332634
2022-03-22,-0.2601626016260173
2022-03-23,0.5970548862115107
2022-03-24,1.4762430939226554
2022-03-25,0.44421336421835783
2022-03-28,-0.2532340330210616
2022-03-29,-0.31673113620702853
2022-03-30,-0.04296250526684358
2022-03-31,-0.2698145025295115
2022-04-01,-0.08456375838926729
2022-04-06,0.594551282051285
2022-04-07,-0.17043740573152258
2022-04-08,-0.5165562913907312
2022-04-11,-1.3186119873817064
2022-04-12,-0.7092846270928466
2022-04-13,-0.01689708141321189
2022-04-14,0.20578231292517266
2022-04-15,0.2998171846435097
2022-04-18,-0.43318965517240904
2022-04-19,0.69384359400998
2022-04-20,0.04355400696864206
2022-04-21,0.12739965095985983
2022-04-22,0.18170174518444368
2022-04-25,-1.038132638042973
2022-04-26,-0.6787883466315393
2022-04-27,-0.037645244633220325
2022-04-28,-0.03559870550161389
2022-04-29,0.03503184713375847
2022-05-05,0.16835699797160827
2022-05-06,-1.1509054325955737
2022-05-09,0.08043875685557711
2022-05-10,-0.4921630094043902
2022-05-11,-0.0581039755351712
2022-05-12,-0.15233785822020993
2022-05-13,-0.2520729684908822
2022-05-16,0.37819420783645397
2022-05-17,-0.32765151515151386
2022-05-18,-0.8474903474903448
2022-05-19,-0.28629032258064396
2022-05-20,0.560693641618493
2022-05-23,-0.254681647940076
2022-05-24,-0.33946830265849326
2022-05-25,-0.1300448430493314
2022-05-26,-0.23946784922394934
2022-05-27,0.36655040244762027
2022-05-30,1.1576569447277116
2022-05-31,-0.05760455729539114
2022-06-01,-0.024370783118007635
2022-06-02,0.21227621483376155
2022-06-06,0.115384615384613
2022-06-07,0.10392609699769624
2022-06-08,0.830143540669856
2022-06-09,0.0844748858447386
2022-06-10,0.2953995157384891
2022-06-13,-1.0739299610894966
2022-06-14,-1.188016528925626
2022-06-15,-1.1906873614190674
2022-06-16,-0.5626423690205026
2022-06-17,-0.4568764568764473
2022-06-20,0.3460410557184742
2022-06-21,0.8837209302325618
2022-06-22,0.2390804597701138
2022-06-23,0.7183673469387747
2022-06-24,-0.7359735973597378
2022-06-27,-0.8693592384758669
2022-06-28,-0.3881847974091367
2022-06-29,-0.5468788862768704
2022-06-30,0.25277978339350254
2022-07-01,-0.7204030226700271
2022-07-04,-0.658291457286436
2022-07-05,0.13238770685579163
2022-07-06,0.20902612826602907
2022-07-07,0.3797169811320773
2022-07-08,0.7028423772609818
2022-07-11,-0.09549071618036643
2022-07-12,-0.2066869300912004
2022-07-13,0.27554179566564035
2022-07-14,-0.22190201729106504
2022-07-15,-1.2453271028037416
2022-07-18,-0.3830275229357715
2022-07-19,-0.3369803063457302
2022-07-20,0.11037527593818708
2022-07-21,-0.2599531615925035
2022-07-22,-0.6945137558635445
2022-07-25,-0.10144298489861366
2022-07-26,-0.15519555034740284
2022-07-27,-0.5017223698574337
2022-07-28,0.3917197452229292
2022-07-29,0.2677419354838556
2022-08-01,1.1649999999999978
2022-08-02,0.9168646080760062
2022-08-03,0.3673965936739627
2022-08-04,0.2647887323943665
2022-08-05,0.024590163934434087
2022-08-08,-1.1359773371104815
2022-08-09,-1.2507042253521172
2022-08-10,-1.2506811989100806
2022-08-11,-0.22691292875989028
2022-08-12,0.17847769028870852
2022-08-15,0.1394557823129163
2022-08-16,-0.0485074626865617
2022-08-17,-0.21978021978022538
2022-08-18,-1.0926517571885062
2022-08-19,-0.6026490066225105
2022-08-22,-0.2214532871972307
2022-08-23,0.2524916943521595
2022-08-24,0.5499105102657867
2022-08-25,0.9129577813477326
2022-08-26,1.2362244389155022
2022-08-29,0.40562538252276353
2022-08-30,-0.25631768953068196
2022-08-31,0.7126099706744822
2022-09-01,-0.03225806451613002
2022-09-02,0.578082191780819
2022-09-05,0.8315217391304391
2022-09-06,1.3917050691244244
2022-09-07,0.96674584323041
2022-09-08,0.844036697247702
2022-09-09,1.244258872651354
2022-09-13,1.3633027522935788
2022-09-14,0.3454545454545403
2022-09-15,0.1135940409683428
2022-09-16,-0.4799999999999982
2022-09-19,-0.4214711729622228
2022-09-20,0.11699779249447893
2022-09-21,0.6700000000000045
2022-09-22,0.4356435643564305
2022-09-23,-0.21128045737749207
2022-09-26,-0.7079633256828395
2022-09-27,-0.32167192632188973
2022-09-28,-0.4180754774225111
2022-09-29,0.07051282051282255
2022-09-30,0.6094276094276156
2022-10-10,-0.2747252747252753
2022-10-11,-0.4986666666666649
2022-10-12,-0.3885714285714274
2022-10-13,-0.2178770949720721
2022-10-14,1.2614770459081843
2022-10-17,1.164009111617311
2022-10-18,0.7848410757946198
2022-10-19,0.7835294117647109
2022-10-20,0.823399558498902
2022-10-21,0.24556213017752507
2022-10-24,0.32901028305004143
2022-10-25,0.693862679073751
2022-10-26,0.051677658025375245
2022-10-27,-0.1935060097847776
2022-10-28,-0.9135514018691607
2022-10-31,-1.2270531400966127
2022-11-01,-0.4466019417475695
2022-11-02,-0.2904761904761863
2022-11-03,-0.18136020151133447
2022-11-04,0.28611898016996934
2022-11-07,-0.46684350132626196
2022-11-08,-0.2849315068493176
2022-11-09,-0.28908554572271483
2022-11-10,0.08670520231213634
2022-11-11,1.0518867924528323
2022-11-14,-0.22757111597374394
2022-11-15,0.37154989384288495
2022-11-16,0.5010438413361181
2022-11-17,-0.4108391608391599
2022-11-18,-0.4201680672268893
2022-11-21,-0.1425061425061398
2022-11-22,0.2615012106537471
2022-11-23,0.3446793953358102
2022-11-24,0.45897308945505105
2022-11-25,0.5366203015760909
2022-11-28,0.040655706042834985
2022-11-29,0.46518987341772217
2022-11-30,0.1057692307692303
2022-12-01,0.2749140893470747
2022-12-02,0.33818181818182125
2022-12-05,0.9233128834355853
2022-12-06,0.7986577181208029
2022-12-07,0.433544303797464
2022-12-08,0.31847133757961377
2022-12-09,0.5269121813031125
2022-12-12,0.6754966887417231
2022-12-13,0.31788079470198405
2022-12-14,0.4691780821917874
2022-12-15,0.13738019169329535
2022-12-16,-0.6915167095115663
2022-12-19,-1.5555555555555687
2022-12-20,-1.5267665952890837
2022-12-21,-0.9393512169900162
2022-12-22,-0.6464999383006188
2022-12-23,-0.3723708654612887
2022-12-26,0.42476244430749205
2022-12-27,0.9055944055943996
2022-12-28,0.7220077220077169
2022-12-29,0.7317073170731693
2022-12-30,0.42060085836910804
2023-01-03,0.25694444444444675
2023-01-04,0.4185185185185211
2023-01-05,-0.6435331230283872
2023-01-06,-0.24096385542169124
2023-01-09,0.528645833333335
2023-01-10,0.44761904761904786
2023-01-11,-0.1412429378531124
2023-01-12,-0.023460410557191096
2023-01-13,-0.04494382022472435
2023-01-16,0.37573964497041246
2023-01-17,0.5867294239365957
2023-01-18,0.4979510800508297
2023-01-19,0.2630889071979637
2023-01-20,0.14510807680704027
2023-01-30,0.0039999999999986375
2023-01-31,0.4523809523809558
2023-02-01,0.41422594142258723
2023-02-02,-1.242074927953886
2023-02-03,-0.5726027397260292
2023-02-06,-0.41265060240963997
2023-02-07,-0.4398734177215104
2023-02-08,-0.12944983818769856
2023-02-09,-0.5025641025641004
2023-02-10,-0.7174887892376718
2023-02-13,-0.8798076923076966
2023-02-14,-0.6783919597990052
2023-02-15,-0.45673076923078476
2023-02-16,-0.14423076923075687
2023-02-17,0.21556886227545163
2023-02-20,0.4611111111111089
2023-02-21,1.019801980198023
2023-02-22,1.25136123458151
2023-02-23,0.24649792942541573
2023-02-24,-0.13902192745290273
2023-02-27,-1.012939145402732
2023-02-28,-0.9575471698113278
2023-03-01,-1.0991735537190057
2023-03-02,-1.0798319327731056
2023-03-03,0.01953125000000317
2023-03-06,0.0
2023-03-07,-0.3280000000000018
2023-03-08,-1.1652892561983414
2023-03-09,-1.046218487394953
2023-03-10,-1.0337552742616087
2023-03-13,-0.6589147286821699
2023-03-14,0.185873605947948
2023-03-15,0.1477272727272735
2023-03-16,0.03642384105960364
2023-03-17,-0.13468013468013146
2023-03-20,-0.17421602787455792
2023-03-21,-0.2790837211319064
2023-03-22,-0.3998768968424228
2023-03-23,-0.7874698502512963
2023-03-24,0.04528388519281752
2023-03-27,-0.36397058823529
2023-03-28,0.2872727272727299
2023-03-29,-0.5342019543973862
2023-03-30,-1.0304878048780608
2023-03-31,-1.0323624595469272
2023-04-03,-0.5098684210526323
2023-04-04,-0.6932515337423387
2023-04-06,-0.8913043478260883
2023-04-07,0.34296028880866686
2023-04-10,-0.027131782945735764
2023-04-11,1.1586206896551756
2023-04-12,1.052631578947373
2023-04-13,0.6287625418060242
2023-04-14,0.6988847583643171
2023-04-17,0.993174403407193
2023-04-18,0.7291786044450569
2023-04-19,0.8396368447465655
2023-04-20,0.701900355011376
2023-04-21,0.06296296296296088
2023-04-24,-1.003401360544221
2023-04-25,-0.4506578947368363
2023-04-26,-0.34343434343434653
2023-04-27,0.25614035087719167
2023-04-28,0.7379310344827527
2023-05-04,1.1249999999999922
2023-05-05,0.5599999999999994
2023-05-08,0.411347517730495
2023-05-09,0.06563706563707226
2023-05-10,0.4234875444839873
2023-05-11,-0.5874587458745913
2023-05-12,-0.5163636363636361
2023-05-15,-0.3021582733812879
2023-05-16,-1.1253644314868845
2023-05-17,-0.3701492537313362
2023-05-18,-0.451505016722403
2023-05-19,-0.41680247691226124
2023-05-22,-0.39891049553864083
2023-05-23,-0.8955502469524665
2023-05-24,-0.6506212380110117
2023-05-25,0.4119999999999997
2023-05-26,0.7942386831275732
2023-05-29,0.6431924882629159
2023-05-30,0.5181818181818129
2023-05-31,-0.4980392156862773
2023-06-01,0.6979166666666634
2023-06-02,0.836601307189533
2023-06-05,0.2364217252396207
2023-06-06,0.41139240506330166
2023-06-07,0.20350877192981665
2023-06-08,0.09523809523808842
2023-06-09,0.27142857142856675
2023-06-12,0.39999999999999775
2023-06-13,0.030303030303025818
2023-06-14,0.4460784313725475
2023-06-15,-0.3981481481481464
2023-06-16,0.09502262443438547
2023-06-19,-0.9011406844106457
2023-06-20,-1.1156716417910522
2023-06-21,-0.5206819835022809
2023-06-26,-0.7543437610407149
2023-06-27,-0.1143494612422835
2023-06-28,-0.04170141952848682
2023-06-29,-0.7115384615384469
2023-06-30,0.1022727272727236
2023-07-03,1.3301527620564913e-14
2023-07-04,0.029940119760469248
2023-07-05,0.24193548387097732
2023-07-06,0.5270935960591022
2023-07-07,-0.01578947368422023
2023-07-10,-0.12707182320441987
2023-07-11,0.589108910891089
2023-07-12,0.3389830508474522
2023-07-13,0.7857142857142745
2023-07-14,0.4594594594594523
2023-07-17,-0.7263157894736828
2023-07-18,0.24136667673373044
2023-07-19,0.43873365491073024
2023-07-20,1.4849450404419295
2023-07-21,1.0847112693971024
2023-07-24,1.1235955056179796
2023-07-25,0.7231404958677596
2023-07-26,0.39506172839505865
2023-07-27,-0.9118942731277546
2023-07-28,-0.8744588744588703
2023-07-31,-0.19402985074627185
2023-08-01,0.09500000000000206
2023-08-02,0.699029126213594
2023-08-03,-0.12087912087911924
2023-08-04,0.18877551020408656
2023-08-07,-0.4679802955665005
2023-08-08,-0.3450000000000161
2023-08-09,0.08849557522123987
2023-08-10,-0.19811320754717998
2023-08-11,0.7368421052631575
2023-08-14,1.4156680404841262
2023-08-15,0.9491790699296593
2023-08-16,0.651620974999452
2023-08-17,0.32899308756413864
2023-08-18,0.4158878504672874
2023-08-21,0.7912087912087828
2023-08-22,1.2187499999999918
2023-08-23,0.5572139303482494
2023-08-24,-0.5462555066079258
2023-08-25,-0.5630630630630633
2023-08-28,-0.5277777777777765
2023-08-29,-0.8066037735849048
2023-08-30,-0.3318385650224191
2023-08-31,0.2295081967213083
2023-09-01,0.4030612244897979
2023-09-04,0.4240837696335045
2023-09-05,-0.0769230769230823
2023-09-06,0.08021390374331785
2023-09-07,-0.3716153560115415
2023-09-08,-1.024723543942835
2023-09-11,-0.39689061811893733
2023-09-12,-0.9204630865862988
2023-09-13,-0.9566929133858276
2023-09-14,-0.2987551867220012
2023-09-15,-0.06565656565656641
2023-09-18,0.3249999999999922
2023-09-19,-0.09248554913295198
2023-09-20,0.17877094972069105
2023-09-21,-1.090497737556563
2023-09-22,-0.7327586206896514
2023-09-25,-0.8078602620087338
2023-09-26,-0.8697478991596609
2023-09-27,-1.237068965517239
2023-09-28,-0.7171717171717211
2023-10-09,-0.8604651162790676
2023-10-10,-0.8705357142857194
2023-10-11,-0.12612612612611868
2023-10-12,0.5345622119815724
2023-10-13,0.49253731343282614
2023-10-16,1.0812182741116958
2023-10-17,-0.05527638190954664
2023-10-18,-0.4643498191257274
2023-10-19,-0.30508840594112213
2023-10-20,-0.9493977293273433
2023-10-23,-0.7366449113730332
2023-10-24,0.2061855670103033
2023-10-25,0.4646464646464562
2023-10-26,0.08372093023257332
2023-10-27,-0.25280898876404484
2023-10-30,0.5181347150259166
2023-10-31,-0.3935185185185128
2023-11-01,-1.1025641025640978
2023-11-02,-0.35319148936171285
2023-11-03,0.20588235294117332
2023-11-06,0.5877192982456053
2023-11-07,0.14285714285716106
2023-11-08,-0.18518518518518612
2023-11-09,-0.38068181818182006
2023-11-10,-0.4461538461538337
2023-11-13,-1.0904977375565525
2023-11-14,-1.2044639089948745
2023-11-15,-0.40092346725710165
2023-11-16,-0.2764930286477524
2023-11-17,-0.7297305342782011
2023-11-20,-0.715846994535511
2023-11-21,-1.1027027027027083
2023-11-22,-1.0792079207920853
2023-11-23,-0.8995433789954338
2023-11-24,-0.02764976958525011
2023-11-27,-0.021645021645020725
2023-11-28,0.5673469387755052
2023-11-29,0.9782608695652225
2023-11-30,0.1806722689075686
2023-12-01,-0.38333333333333175
2023-12-04,-0.6731517509727629
2023-12-05,-1.5750798722044748
2023-12-06,-0.5710059171597685
2023-12-07,-0.3014925373134319
2023-12-08,0.16071428571428711
2023-12-11,0.10890568358363026
2023-12-12,0.464938483250646
2023-12-13,0.3221156093502242
2023-12-14,0.2635680701890993
2023-12-15,0.7330097087378639
2023-12-18,0.7005076142131962
2023-12-19,0.8082901554404189
2023-12-20,0.9938271604938232
2023-12-21,0.7403314917127067
2023-12-22,0.32432432432432096
2023-12-25,0.7702702702702576
2023-12-26,0.0368663594470136
2023-12-27,0.20258620689654697
2023-12-28,0.052631578947371485
2023-12-29,-1.1190476190476186
2024-01-02,-0.34361233480176606
2024-01-03,0.3017241379310401
2024-01-04,0.008298755186731307
2024-01-05,-0.6739130434782616
2024-01-08,-0.7231361733098833
2024-01-09,-0.4834939288818718
2024-01-10,-0.1431869810334574
2024-01-11,0.985359325768397
2024-01-12,0.6796874999999968
2024-01-15,0.11836734693877055
2024-01-16,0.1059322033898394
2024-01-17,0.42348754448399345
2024-01-18,0.722488038277518
2024-01-19,0.9059405940594072
2024-01-22,0.010471204188491316
2024-01-23,0.7021276595744769
2024-01-24,0.7000000000000044
2024-01-25,0.20833333333333026
2024-01-26,-0.3253588516746383
2024-01-29,-0.49315068493151126
2024-01-30,-0.7536945812807898
2024-01-31,-1.040178571428577
2024-02-01,-1.2051282051282013
2024-02-02,-1.0675675675675558
2024-02-05,-0.77339901477832
2024-02-06,-0.5744543045800783
2024-02-07,-0.7141756220515442
2024-02-08,0.03233404710921105
2024-02-19,0.32415720316310176
2024-02-20,0.46666666666667295
2024-02-21,0.5403726708074542
2024-02-22,0.9589041095890267
2024-02-23,1.597484276729546
2024-02-26,0.4311377245508893
2024-02-27,0.9834254143646389
2024-02-28,0.45086705202311167
2024-02-29,0.3976608187134519
2024-03-01,-0.5755813953488489
2024-03-04,-0.8508287292817707
2024-03-05,-1.151162790697678
2024-03-06,-1.0882352941176439
2024-03-07,-0.32335329341317753
2024-03-08,0.5263157894736866
2024-03-11,-0.7012195121951083
2024-03-12,-0.1927710843373446
2024-03-13,-0.2807017543859703
2024-03-14,-0.7172774869109902
2024-03-15,-0.06122448979592283
2024-03-18,0.5891891891891955
2024-03-19,0.3351351351351365
2024-03-20,0.037234042553189135
2024-03-21,-0.1812865497075972
2024-03-22,-0.5786516853932456
2024-03-25,-1.158192090395468
2024-03-26,-1.2183908045977128
2024-03-27,-0.24175824175824462
2024-03-28,0.1803278688524448
2024-03-29,0.059880239520946614
2024-04-01,-0.16384180790961037
2024-04-02,0.0670731707316973
2024-04-03,0.11392405063291282
2024-04-08,1.117977528089888
2024-04-09,1.0662983425414545
2024-04-10,1.4000000000000083
2024-04-11,0.7093023255813979
2024-04-12,0.09248554913295978
2024-04-15,0.4823529411764782
2024-04-16,-0.43051045936020743
2024-04-17,0.3198378613135129
2024-04-18,1.1643866438664254
2024-04-19,1.2189871789374314
2024-04-22,0.38372093023255743
2024-04-23,-0.25757575757574463
2024-04-24,0.13970588235293435
2024-04-25,0.28870292887030014
2024-04-26,0.3856502242152515
2024-04-29,-0.09574468085105996
2024-04-30,-0.29946524064169905
2024-05-06,0.4088397790055339
2024-05-07,-0.35121951219512965
2024-05-08,-0.7824074074074042
2024-05-09,-0.32211538461539274
2024-05-10,0.16513761467890206
2024-05-13,-0.07373271889401677
2024-05-14,-0.0891089108910971
2024-05-15,-0.5245098039215816
2024-05-16,-0.2704081632653065
2024-05-17,0.8899521531100435
2024-05-20,1.0046082949308819
2024-05-21,0.9054054054054037
2024-05-22,1.555956678700361
2024-05-23,-0.07602339181286884
2024-05-24,0.10769230769230996
2024-05-27,0.16722408026755903
2024-05-28,-0.006493506493498485
2024-05-29,0.4319999999999985
2024-05-30,-0.061135371179046626
2024-05-31,-0.38248847926266455
2024-06-03,-0.6721311475409775
2024-06-04,-0.7566371681415952
2024-06-05,-1.1991341991341915
2024-06-06,-0.8846153846153822
2024-06-07,-0.4502923976608252
2024-06-11,-0.8917197452229348
2024-06-12,-0.39072847682118933
2024-06-13,-1.1552795031055945
2024-06-14,-0.8292682926829295
2024-06-17,-0.8848484848484872
2024-06-18,-0.6928104575163386
2024-06-19,0.23270440251571284
2024-06-20,0.585937500000011
2024-06-21,-0.22222222222221205
2024-06-24,0.09615384615384147
2024-06-25,0.006211180124223309
2024-06-26,0.21875000000000444
2024-06-27,0.41916167664669934
2024-06-28,0.48427672955973877
2024-07-01,0.8482758620689538
2024-07-02,0.6769230769230581
2024-07-03,0.7016129032257881
2024-07-04,0.3135593220339033
2024-07-05,0.44354838709677125
2024-07-08,0.26229508196722034
2024-07-09,-0.9230769230769096
2024-07-10,-1.082352941176478
2024-07-11,-1.0517241379310265
2024-07-12,-0.49404761904761224
2024-07-15,-0.018518518518517706
2024-07-16,0.3650793650793876
2024-07-17,-0.5827338129496296
2024-07-18,-0.40909090909092594
2024-07-19,-0.37086092715231495
2024-07-22,-0.038961038961052574
2024-07-23,0.9065934065934033
2024-07-24,0.878787878787884
2024-07-25,-0.6467889908256816
2024-07-26,-0.2594339622641511
2024-07-29,0.06880733944953799
2024-07-30,-0.020304568527917802
2024-07-31,0.7741935483871032
2024-08-01,0.7530120481927609
2024-08-02,0.5060240963855605
2024-08-05,0.09614644196021786
2024-08-06,-0.8697056953579171
2024-08-07,-0.9328688078898946
2024-08-08,-0.9323583571929018
2024-08-09,-0.6285714285714245
2024-08-12,-0.7901234567901335
2024-08-13,-0.825806451612899
2024-08-14,-1.0696202531645622
2024-08-15,-0.3806818181818185
2024-08-16,0.03592814371257674
2024-08-19,0.5279503105589818
2024-08-20,0.058441558441553784
2024-08-21,0.8193548387096805
2024-08-22,-0.04225352112676283
2024-08-23,-0.006896551724113705
2024-08-26,0.49612403100776364
2024-08-27,0.8692307692307745
2024-08-28,0.37606837606837945
2024-08-29,0.3026126379535871
2024-08-30,0.018592512416897453
2024-09-02,-1.6049986527227438
2024-09-03,-1.484722499151242
2024-09-04,-1.6142857142857066
2024-09-05,-0.7419354838709749
2024-09-06,-0.29374999999998763
2024-09-09,-1.030120481927693
2024-09-10,-0.8690476190476238
2024-09-11,-0.42934782608696637
2024-09-12,0.2978723404255217
2024-09-13,0.25654450261780587
2024-09-18,0.33557046979865085
2024-09-19,0.5864197530864392
2024-09-20,-0.14388489208633365
2024-09-23,-1.3313253012048187
2024-09-24,-0.13586956521738763
2024-09-25,0.30845771144278206
2024-09-26,0.49206349206349376
2024-09-27,0.7522135049199481
2024-09-30,1.8137349865787655
2024-10-08,1.1514890097921764
2024-10-09,0.6325888564418936
2024-10-10,0.23322683706070016
2024-10-11,0.0031347962382418117
2024-10-14,0.19341563786008248
2024-10-15,-0.3315508021390441
2024-10-16,0.21134020618555724
2024-10-17,-0.751091703056777
2024-10-18,-0.620370370370366
2024-10-21,-0.0404040404040417
2024-10-22,-0.8378378378378357
2024-10-23,-0.944954128440362
2024-10-24,-0.2275132275132342
2024-10-25,0.06349206349205933
2024-10-28,0.5425531914893643
2024-10-29,-0.0946745562130068
2024-10-30,-0.11801242236026557
2024-10-31,-0.8707482993197283
2024-11-01,-0.40606060606061994
2024-11-04,-0.1454545454545362
2024-11-05,-0.2837837837837822
2024-11-06,-0.4715909090909092
2024-11-07,0.3131313131313073
2024-11-08,0.11224489795915941
2024-11-11,-0.2805158862556021
2024-11-12,-0.6406631258021277
2024-11-13,-0.8661138008724192
2024-11-14,-1.0397649441146595
2024-11-15,-0.8599999999999951
2024-11-18,-0.2075471698113071
2024-11-19,0.06756756756757526
2024-11-20,0.21678321678321744
2024-11-21,0.29411764705882826
2024-11-22,-0.7089552238806027
2024-11-25,-0.5964912280701876
2024-11-26,-1.0942028985507313
2024-11-27,-0.7975460122699478
2024-11-28,-0.31609195402297946
2024-11-29,-0.5365853658536512
2024-12-02,-0.44720496894411
2024-12-03,0.19463087248322147
2024-12-04,-0.05797101449274325
2024-12-05,-0.8622754491017962
2024-12-06,-0.6049382716049359
2024-12-09,-0.07954545454545044
2024-12-10,0.5760869565217431
2024-12-11,0.4804469273742932
2024-12-12,0.6554054054054154
2024-12-13,-0.20886075949367414
2024-12-16,-0.6275684605604743
2024-12-17,-0.6736578629380244
2024-12-18,-0.8643872388753044
2024-12-19,-0.708105143381065
2024-12-20,-0.28124999999999967
2024-12-23,0.6783216783216661
2024-12-24,0.549668874172202
2024-12-25,0.0514705882353044
2024-12-26,0.17968749999997857
2024-12-27,-0.44117647058821646
2024-12-30,0.22047244094488833
2024-12-31,-0.37762237762236966
