date,FCT_Bias_1@20
2012-07-16,
2012-07-17,
2012-07-18,
2012-07-19,
2012-07-20,
2012-07-23,
2012-07-24,
2012-07-25,
2012-07-26,
2012-07-27,
2012-07-30,
2012-07-31,
2012-08-01,
2012-08-02,
2012-08-03,
2012-08-06,
2012-08-07,
2012-08-08,
2012-08-09,
2012-08-10,
2012-08-13,-0.6760124610592126
2012-08-14,-0.583850931676996
2012-08-15,1.3117977528090092
2012-08-16,1.2415730337078856
2012-08-17,1.171348314606762
2012-08-20,1.1011235955056384
2012-08-21,1.081232492997209
2012-08-22,1.0084033613445378
2012-08-23,0.9355742296918664
2012-08-24,0.8627450980391952
2012-08-27,0.7899159663865749
2012-08-28,0.7170868347339037
2012-08-29,0.6442577030812324
2012-08-30,0.5714285714285612
2012-08-31,0.49859943977588994
2012-09-03,1.63945578231295
2012-09-04,4.738095238095151
2012-09-05,3.7380952380954113
2012-09-06,2.829268292683016
2012-09-07,1.829268292682927
2012-09-10,1.0833333333332322
2012-09-11,0.11428571428561034
2012-09-12,0.0
2012-09-13,0.0
2012-09-14,0.0
2012-09-17,0.0
2012-09-18,0.0
2012-09-19,0.0
2012-09-20,0.0
2012-09-21,0.0
2012-09-24,0.0
2012-09-25,0.0
2012-09-26,0.0
2012-09-27,0.0
2012-09-28,0.0
2012-10-08,0.0
2012-10-09,0.0
2012-10-10,-6.663507109004756
2012-10-11,4.084388185654016
2012-10-12,-1.0760330578512456
2012-10-15,-1.0214876033057732
2012-10-16,-0.030907228499269943
2012-10-17,-0.848368137329195
2012-10-18,-0.3658784061320482
2012-10-19,-0.34062835558883825
2012-10-22,-0.3153783050456283
2012-10-23,-0.31744424001338045
2012-10-24,-0.8960748765155007
2012-10-25,-0.8100402469691496
2012-10-26,-1.3084532334573964
2012-10-29,-1.1607662363179179
2012-10-30,-1.102258437646184
2012-10-31,-1.0218939143170145
2012-11-01,-1.174328196050146
2012-11-02,-1.2671793779181237
2012-11-05,-0.9916135676723217
2012-11-06,-1.917805591917508
2012-11-07,-1.6902422845628722
2012-11-08,-1.9665789125026585
2012-11-09,-2.7829787234042365
2012-11-12,-3.391566265060227
2012-11-13,-4.646924829157185
2012-11-14,-3.416107382550314
2012-11-15,-2.2339499455930416
2012-11-16,-3.011707317073179
2012-11-19,-1.9352112676056465
2012-11-20,-1.7255639097744453
2012-11-21,-1.0892857142857193
2012-11-22,-1.2738407699037653
2012-11-23,-0.474499089253193
2012-11-26,-0.835304822565975
2012-11-27,-0.4870881567230491
2012-11-28,-0.37771975630982846
2012-11-29,-0.14895549500453073
2012-11-30,-0.2237903225806419
2012-12-03,0.6454445664105375
2012-12-04,0.6171693735498655
2012-12-05,1.6113636363636297
2012-12-06,1.9922651933701654
2012-12-07,2.0803167420814432
2012-12-10,2.296442687747033
2012-12-11,2.30396475770924
2012-12-12,0.5601503759398725
2012-12-13,0.5923076923076678
2012-12-14,1.4946236559139643
2012-12-17,1.8175582990397783
2012-12-18,0.40652446675029996
2012-12-19,0.5303030303030596
2012-12-20,0.30649350649352847
2012-12-21,0.558510638297852
2012-12-24,0.6498002663115738
2012-12-25,0.7022106631989409
2012-12-26,0.4106217616580245
2012-12-27,1.5857687420584237
2012-12-28,0.03124999999999174
2012-12-31,-0.5078124999999831
2013-01-04,0.9114688128772472
2013-01-07,-0.2483900643974262
2013-01-08,-0.4775179856115118
2013-01-09,-0.1293179805137431
2013-01-10,0.6081193040596454
2013-01-11,0.2806041335453185
2013-01-14,0.7279726261762064
2013-01-15,0.6013456686290752
2013-01-16,0.5238922675934089
2013-01-17,0.4093264248704582
2013-01-18,0.5286738351254385
2013-01-21,0.7312500000000135
2013-01-22,0.6866913123844735
2013-01-23,0.5683317624882166
2013-01-24,-0.5588235294117639
2013-01-25,-0.14338575393153022
2013-01-28,-0.19273743016759406
2013-01-29,-0.086538461538463
2013-01-30,0.3340143003064523
2013-01-31,0.3382978723404006
2013-02-01,0.20023557126028854
2013-02-04,0.6134800550206393
2013-02-05,-0.20650636492220534
2013-02-06,-0.4439716312056934
2013-02-07,-0.570769230769209
2013-02-08,-1.1073717948717823
2013-02-18,-1.8010380622836757
2013-02-19,-0.9455782312925328
2013-02-20,-1.6622734761120097
2013-02-21,-1.8967741935483937
2013-02-22,-1.6419354838709839
2013-02-25,-3.2650957290132605
2013-02-26,-3.646974063400547
2013-02-27,-2.6320224719101337
2013-02-28,-2.00609756097563
2013-03-01,-2.0962695547533445
2013-03-04,-2.0241254523522607
2013-03-05,-1.5908543922984382
2013-03-06,-1.3187878787878917
2013-03-07,-1.4069050554870755
2013-03-08,0.28571428571428303
2013-03-11,0.23750000000000862
2013-03-12,-0.07118644067797572
2013-03-13,-0.04314159292033854
2013-03-14,-0.6921420882669542
2013-03-15,-0.012738853503177161
2013-03-18,-0.5205479452054924
2013-03-19,-0.1180931744311886
2013-03-20,-0.12008978675646761
2013-03-21,-0.15062287655718126
2013-03-22,-0.36179775280898613
2013-03-25,0.36579572446557174
2013-03-26,0.4844497607655561
2013-03-27,0.7515299877601108
2013-03-28,0.11394302848575302
2013-03-29,-0.3655913978494501
2013-04-01,-1.3328402366863779
2013-04-02,-1.443631039531443
2013-04-03,-1.6426470588235205
2013-04-08,-1.7478005865102568
2013-04-09,-1.267536704730839
2013-04-10,-0.7459546925566097
2013-04-11,-1.2914653784219055
2013-04-12,-1.5661641541038436
2013-04-15,-2.6811352253756304
2013-04-16,-3.0425531914893695
2013-04-17,-1.9133738601823502
2013-04-18,-2.0859259259259164
2013-04-19,-1.540229885057461
2013-04-22,-1.5322128851540666
2013-04-23,0.6259541984732834
2013-04-24,1.1430363864491766
2013-04-25,2.3665893271461695
2013-04-26,2.253829321663016
2013-05-02,1.3907427341227268
2013-05-03,1.891630901287536
2013-05-06,2.4643226473629523
2013-05-07,1.6598778004073225
2013-05-08,2.18426294820716
2013-05-09,1.856719367588932
2013-05-10,1.996023856858856
2013-05-13,1.6053412462908057
2013-05-14,1.596790371113331
2013-05-15,1.0614035087719205
2013-05-16,1.3448275862068897
2013-05-17,1.4423280423280629
2013-05-20,1.1768488745980659
2013-05-21,1.0994475138121589
2013-05-22,1.0765765765765958
2013-05-23,0.5475910693302072
2013-05-24,0.6893840104849379
2013-05-27,0.4491180461329517
2013-05-28,0.3001508295625788
2013-05-29,0.4306688417618427
2013-05-30,-0.46710526315788115
2013-05-31,-0.6131756756756694
2013-06-03,-3.857142857142838
2013-06-04,-6.466225165562925
2013-06-05,-8.657175398633282
2013-06-06,-7.980582524271829
2013-06-07,-7.601014334367017
2013-06-13,-7.23608479801101
2013-06-14,-6.765643301267355
2013-06-17,-6.550347820712961
2013-06-18,-5.935758167600666
2013-06-19,-5.370288971828107
2013-06-20,-5.027371392271824
2013-06-21,-5.021262421906668
2013-06-24,-5.533968078928108
2013-06-25,-4.560082254097647
2013-06-26,-4.488238393024283
2013-06-27,-5.4950560291656165
2013-06-28,-5.592345913020944
2013-07-01,-4.844432676760264
2013-07-02,-2.8501506194339807
2013-07-03,-2.432922034571359
2013-07-04,-2.226264201997224
2013-07-05,-2.312171396909431
2013-07-08,-2.325859315478885
2013-07-09,-2.2311661506707914
2013-07-10,-2.0482546201232097
2013-07-11,-1.5519750519750521
2013-07-12,-1.9631901840490829
2013-07-15,-2.1623762376237625
2013-07-16,-2.347701149425271
2013-07-17,-2.2196969696969893
2013-07-18,-1.6563088512241106
2013-07-19,-2.3898156277436287
2013-07-22,-2.23529411764707
2013-07-23,-1.6168652612282328
2013-07-24,-1.8978102189780979
2013-07-25,-3.116210937499988
2013-07-26,-5.093044263775969
2013-07-29,-4.539823008849548
2013-07-30,-4.378957169459962
2013-07-31,-3.6681943171402422
2013-08-01,-3.645421903052064
2013-08-02,-3.0405770964833216
2013-08-05,-2.9682539682539684
2013-08-06,-2.72500000000001
2013-08-07,-4.071304347826091
2013-08-08,-3.2183708838821494
2013-08-09,-2.028192371475949
2013-08-12,-1.0686274509803995
2013-08-13,0.47330677290836237
2013-08-14,-0.18764478764478032
2013-08-15,0.5094055680963142
2013-08-16,1.0368050117462861
2013-08-19,1.3134796238244577
2013-08-20,0.7065052950075704
2013-08-21,0.6676875957120895
2013-08-22,0.1693486590038302
2013-08-23,-0.1570593149540565
2013-08-26,2.100386100386103
2013-08-27,1.549501151189562
2013-08-28,0.9298519095869101
2013-08-29,0.2004470938897254
2013-08-30,0.010479041916165792
2013-09-02,0.5410199556541054
2013-09-03,0.5068592057761794
2013-09-04,-0.036669213139797714
2013-09-05,-0.37757437070938116
2013-09-06,0.010350318471331684
2013-09-09,-0.13911620294598798
2013-09-10,-0.926079734219273
2013-09-11,-0.5525629887054696
2013-09-12,-0.780883678990083
2013-09-13,-0.9486709440879955
2013-09-16,-1.6212534059945474
2013-09-17,-1.2660984848484744
2013-09-18,-1.3479923518164427
2013-09-23,-1.8719689621726527
2013-09-24,-1.392996108949409
2013-09-25,-2.4888416578108368
2013-09-26,-2.6967391304347945
2013-09-27,-3.414182939362802
2013-09-30,-3.1461619348054657
2013-10-08,-2.9128256513026045
2013-10-09,-2.148999999999993
2013-10-10,-1.5402892561983441
2013-10-11,-1.4969135802469218
2013-10-14,-1.1241098677517802
2013-10-15,-0.402877697841727
2013-10-16,-0.017543859649135345
2013-10-17,0.6742034943473663
2013-10-18,0.9437627811860926
2013-10-21,1.4568880079286626
2013-10-22,0.3774703557312215
2013-10-23,0.6356959281722836
2013-10-24,0.7378195044065705
2013-10-25,0.49273131502187634
2013-10-28,0.14141594587484807
2013-10-29,-0.5602629637478198
2013-10-30,0.9074861672083728
2013-10-31,0.806237467803467
2013-11-01,1.9290733315416015
2013-11-04,2.381035123473503
2013-11-05,1.743348579278205
2013-11-06,0.8459227672833088
2013-11-07,0.5235431319883183
2013-11-08,0.4055775049734602
2013-11-11,-0.044321395255977884
2013-11-12,1.1297222127894524
2013-11-13,1.1332030841537952
2013-11-14,1.8910234091445661
2013-11-15,1.6232983554332079
2013-11-18,0.4045727636849117
2013-11-19,9.180364492430103e-15
2013-11-20,0.7668393782383472
2013-11-21,1.0632780082987672
2013-11-22,0.9078947368420998
2013-11-25,0.6981891348088667
2013-11-26,-0.07913669064749387
2013-11-27,0.5049396267837584
2013-11-28,0.2868131868131819
2013-11-29,0.6856148491879306
2013-12-02,0.8681055155875308
2013-12-03,0.1489621489621343
2013-12-04,0.08040201005023993
2013-12-05,-0.5602923264311754
2013-12-06,-0.4297924297924391
2013-12-09,-0.49875930521092665
2013-12-10,-0.3328998699609989
2013-12-11,0.0025608194622440783
2013-12-12,-0.7157757496740494
2013-12-13,-2.476772616136919
2013-12-16,-3.138750000000007
2013-12-17,-2.7976952624839972
2013-12-18,-2.5897435897435845
2013-12-19,-3.032509752925886
2013-12-20,-2.9099462365591493
2013-12-23,-2.646900269541783
2013-12-24,-3.185733512786001
2013-12-25,-3.927440633245384
2013-12-26,-3.954606141522022
2013-12-27,-3.039473684210538
2013-12-30,-2.8758085381629974
2013-12-31,-3.6548223350253792
2014-01-02,-2.883165829145732
2014-01-03,-3.5750315258512155
2014-01-06,-4.283671036948747
2014-01-07,-4.568445475638053
2014-01-08,-3.7687927107061516
2014-01-09,-3.0710194730813365
2014-01-10,-2.6986301369863193
2014-01-13,-2.919512195121956
2014-01-14,-2.0719512195122047
2014-01-15,-2.0097799511002385
2014-01-16,-1.6845386533665712
2014-01-17,-1.3156596794081354
2014-01-20,1.0722891566265111
2014-01-21,1.1259754738015588
2014-01-22,0.8718820861677865
2014-01-23,1.1382857142857323
2014-01-24,1.023945267958945
2014-01-27,0.42448512585813003
2014-01-28,-0.6629213483146067
2014-01-29,-0.2888377445339609
2014-01-30,-0.768965517241387
2014-02-07,1.4833895102070993
2014-02-10,2.2475418864634826
2014-02-11,0.9706355999448547
2014-02-12,1.0902507304441702
2014-02-13,1.050007909250073
2014-02-14,1.620497934274845
2014-02-17,1.7896198097036669
2014-02-18,1.3241816568609983
2014-02-19,2.1017814586368906
2014-02-20,1.7713978383205877
2014-02-21,1.3654468577066818
2014-02-24,1.7230000850240017
2014-02-25,1.195458293550913
2014-02-26,1.068311508570224
2014-02-27,1.4011858610119385
2014-02-28,0.9352429116670501
2014-03-03,1.5853623862696367
2014-03-04,1.4244020470653718
2014-03-05,2.614348032434289
2014-03-06,2.5743534482758434
2014-03-07,3.550973654066422
2014-03-10,2.711581291759461
2014-03-11,3.0784729586426325
2014-03-12,2.3416149068322945
2014-03-13,2.4630541871921157
2014-03-14,1.0141776937618177
2014-03-17,-0.14746543778802024
2014-03-18,-1.2520325203251923
2014-03-19,-1.438888888888894
2014-03-20,-2.420145190562621
2014-03-21,-2.181338028169024
2014-03-24,-1.8850877192982487
2014-03-25,-1.7038626609442047
2014-03-26,-1.3256013745704391
2014-03-27,-1.1881950384944426
2014-03-28,-1.174630755864467
2014-03-31,-1.148672566371672
2014-04-01,-0.9094903339191612
2014-04-02,0.24125874125874905
2014-04-03,-0.20087336244541756
2014-04-04,0.4279359430605089
2014-04-08,0.29304029304028933
2014-04-09,0.6007677543186232
2014-04-10,0.7042389210019171
2014-04-11,0.41964285714285315
2014-04-14,0.5797254487856329
2014-04-15,0.4066298342541384
2014-04-16,1.2505747126436755
2014-04-17,1.4334112149532845
2014-04-18,0.8888888888888961
2014-04-21,0.322424242424243
2014-04-22,0.7090464547677156
2014-04-23,0.20000000000000528
2014-04-24,0.29842931937171874
2014-04-25,0.650666666666674
2014-04-28,1.7915106117353354
2014-04-29,2.557416267942576
2014-04-30,2.4011834319526693
2014-05-05,1.8168130489335024
2014-05-06,1.5642317380352562
2014-05-07,1.7406931964056438
2014-05-08,1.4425587467363
2014-05-09,1.4435374149659759
2014-05-12,0.2365591397849471
2014-05-13,0.4168704156479119
2014-05-14,0.2033293697978581
2014-05-15,0.10817307692308857
2014-05-16,-0.05795314426634066
2014-05-19,-0.09125000000000966
2014-05-20,-0.6806615776081284
2014-05-21,-1.6777070063694144
2014-05-22,-0.7203389830508345
2014-05-23,-0.0944976076555178
2014-05-26,-0.5888625592416941
2014-05-27,-0.43849658314351275
2014-05-28,-0.36254501800720884
2014-05-29,-0.6398467432950108
2014-05-30,-0.8193717277487061
2014-06-03,-1.5981675392670047
2014-06-04,-2.459390862944153
2014-06-05,-2.4511278195488524
2014-06-06,-2.7573891625615796
2014-06-09,-2.727272727272727
2014-06-10,-2.925967855197441
2014-06-11,-2.977473059301793
2014-06-12,-3.294457466517032
2014-06-13,-2.95185903352835
2014-06-16,-2.6115480970854414
2014-06-17,-2.9021940544715603
2014-06-18,-2.288368456208016
2014-06-19,-2.2207423674663045
2014-06-20,-1.4139860338973578
2014-06-23,0.4319621710694647
2014-06-24,0.772749584781821
2014-06-25,0.9068742705678521
2014-06-26,1.2103678232424873
2014-06-27,0.5944841503405349
2014-06-30,0.07340486542719996
2014-07-01,-1.9192057083957128
2014-07-02,-1.6366085542438484
2014-07-03,-1.6590722106195968
2014-07-04,-1.920165175498971
2014-07-07,-2.6424418604651225
2014-07-08,-2.727536231884054
2014-07-09,-3.647646219686172
2014-07-10,-3.5285524568393147
2014-07-11,-4.015624999999987
2014-07-14,-4.416774193548407
2014-07-15,-4.116339869281043
2014-07-16,-3.593333333333342
2014-07-17,-3.3984063745019943
2014-07-18,-3.2590206185566974
2014-07-21,-3.682242990654213
2014-07-22,-3.682432432432433
2014-07-23,-3.6657342657342777
2014-07-24,-2.889355742296908
2014-07-25,-2.6409155937052975
2014-07-28,-2.022792022792021
2014-07-29,-1.172195892575026
2014-07-30,-1.3292117465224123
2014-07-31,-0.763826606875934
2014-08-01,-1.03880597014927
2014-08-04,-1.053846153846168
2014-08-05,-0.8489425981873098
2014-08-06,-1.030110935023777
2014-08-07,-0.4522184300341243
2014-08-08,-0.5061946902655022
2014-08-11,-0.6099815157116418
2014-08-12,-1.6504504504504363
2014-08-13,-1.875226039783005
2014-08-14,-4.595054095826899
2014-08-15,-5.095087163232975
2014-08-18,-5.547318611987384
2014-08-19,-5.138095238095252
2014-08-20,-5.332800000000012
2014-08-21,-4.0031201248049815
2014-08-22,-3.571207430340567
2014-08-25,-3.5419734904270923
2014-08-26,-3.4070796460176958
2014-08-27,-1.673295454545464
2014-08-28,-1.692753623188413
2014-08-29,-1.6017316017315952
2014-09-01,-1.9647887323943587
2014-09-02,-0.8940852819807351
2014-09-03,-0.9396433470507661
2014-09-04,-1.1555252387448822
2014-09-05,-0.7724230254350749
2014-09-09,-1.4832474226804142
2014-09-10,-2.1455938697317953
2014-09-11,-1.6556962025316457
2014-09-12,-0.6101928374655741
2014-09-15,0.5379403794037937
2014-09-16,0.9695364238410579
2014-09-17,1.220451527224437
2014-09-18,1.1963109354413692
2014-09-19,0.13766233766233607
2014-09-22,-1.465227817745798
2014-09-23,-1.2037037037037053
2014-09-24,-0.7240537240537286
2014-09-25,0.4290953545232293
2014-09-26,-0.7825112107623343
2014-09-29,-1.625674217907223
2014-09-30,-0.9916054564533113
2014-10-08,-0.786397449521777
2014-10-09,-0.1180124223602486
2014-10-10,-0.7320328542094512
2014-10-13,-0.6411824668705417
2014-10-14,0.1394871794871743
2014-10-15,-0.5232678386763183
2014-10-16,-1.1752049180327897
2014-10-17,-1.1704781704781702
2014-10-20,-1.994845360824754
2014-10-21,-1.8267379679144413
2014-10-22,-1.3150105708245252
2014-10-23,-0.6244813278008359
2014-10-24,-0.5057833859095648
2014-10-27,-1.1913716814159303
2014-10-28,-0.9369369369369444
2014-10-29,0.32599118942731514
2014-10-30,1.5419354838709711
2014-10-31,2.2290249433106566
2014-11-03,2.029515938606852
2014-11-04,0.8763250883392241
2014-11-05,-0.6742081447963754
2014-11-06,0.34875846501128144
2014-11-07,0.8669574700109052
2014-11-10,1.53771551724138
2014-11-11,1.2412280701754372
2014-11-12,2.322717622080674
2014-11-13,1.4752774974772929
2014-11-14,1.572434607645879
2014-11-17,1.2837245146931033
2014-11-18,0.5645361548263078
2014-11-19,0.4516343771989031
2014-11-20,-0.026879861627464044
2014-11-21,0.17359050591538103
2014-11-24,0.20971768128516843
2014-11-25,0.5648995251038335
2014-11-26,0.30369468061028776
2014-11-27,0.4652219049183718
2014-11-28,-0.30058033874721113
2014-12-01,-2.5302415079520926
2014-12-02,-1.3973781940203651
2014-12-03,-1.424357563414751
2014-12-04,-1.3590031981283217
2014-12-05,-0.7901743179636195
2014-12-08,-0.5034844363417815
2014-12-09,-0.8213512488150497
2014-12-10,-0.3315296952867569
2014-12-11,-1.26350393525599
2014-12-12,-1.3103070175438638
2014-12-15,-0.7236559139784955
2014-12-16,-1.254089422028355
2014-12-17,-1.0612021857923486
2014-12-18,-1.0660066006600653
2014-12-19,-1.4588744588744496
2014-12-22,-0.6832971800433909
2014-12-23,-0.34307359307359564
2014-12-24,-0.4311632870864489
2014-12-25,-0.36441586280814187
2014-12-26,-0.1993281075027983
2014-12-29,1.5361305361305302
2014-12-30,1.6758104738154629
2014-12-31,1.851711026615965
2015-01-05,0.8699878493317167
2015-01-06,1.5570552147239218
2015-01-07,1.245443499392468
2015-01-08,2.003567181926283
2015-01-09,1.8021201413427652
2015-01-12,1.7757575757575825
2015-01-13,0.49763593380614657
2015-01-14,0.18181818181817497
2015-01-15,-0.4216281895504231
2015-01-16,-0.5764563106796036
2015-01-19,-0.4405829596412501
2015-01-20,-0.23696145124717374
2015-01-21,-0.26826484018265356
2015-01-22,-0.44767441860465007
2015-01-23,-0.6212664277180462
2015-01-26,-0.9629186602870765
2015-01-27,-0.9906213364595602
2015-01-28,-0.8020304568527906
2015-01-29,-1.5607940446650233
2015-01-30,-2.526071842410198
2015-02-02,-2.442992874109262
2015-02-03,-2.2673147023086266
2015-02-04,-1.8852071005917195
2015-02-05,-1.965474722564733
2015-02-06,-1.36430317848412
2015-02-09,-1.349442379182168
2015-02-10,-1.0798969072164992
2015-02-11,-1.037383177570094
2015-02-12,-1.0966850828729364
2015-02-13,-0.12108843537416124
2015-02-16,-0.25258493353027844
2015-02-17,-0.15037593984962308
2015-02-25,-0.4984984984985132
2015-02-26,0.13710879284650185
2015-02-27,1.8805970149253788
2015-03-02,2.9083769633507854
2015-03-03,1.8761290322580755
2015-03-04,1.9260204081632557
2015-03-05,0.5037313432835809
2015-03-06,-0.02024291497975402
2015-03-09,0.10743801652892611
2015-03-10,-0.16620111731842924
2015-03-11,0.6082544058635694
2015-03-12,0.20849708484138968
2015-03-13,-0.01904541439112706
2015-03-16,-0.7884331339864985
2015-03-17,-0.7560549878370357
2015-03-18,-0.741036265533258
2015-03-19,-0.30558672946164817
2015-03-20,-0.4319648735020644
2015-03-23,0.19768059095495277
2015-03-24,0.5340758970583473
2015-03-25,0.03680767500024456
2015-03-26,0.3056501083151024
2015-03-27,-0.14528541047403487
2015-03-30,-0.5149670717474732
2015-03-31,-0.5618869503162025
2015-04-01,-0.39716436875438366
2015-04-02,0.1334066816856177
2015-04-03,0.11005187196693166
2015-04-07,0.44002531652505217
2015-04-08,-0.3526011560693564
2015-04-09,-0.4277108433735014
2015-04-10,-0.4696356275303522
2015-04-13,0.3611111111111251
2015-04-14,-0.002070393374736372
2015-04-15,1.4057142857142804
2015-04-16,1.552102376599644
2015-04-17,1.7436399217221017
2015-04-20,2.8148854961832153
2015-04-21,2.686200378071836
2015-04-22,2.1219047619047804
2015-04-23,1.6112149532710298
2015-04-24,2.209345794392534
2015-04-27,2.3375451263537914
2015-04-28,1.3625429553264565
2015-04-29,1.1416382252559611
2015-04-30,1.7427597955707073
2015-05-04,2.336569579288009
2015-05-05,2.571644042232268
2015-05-06,3.1086956521739175
2015-05-07,1.8028571428571416
2015-05-08,1.0705394190871347
2015-05-11,1.7994579945799458
2015-05-12,1.3310991957104508
2015-05-13,0.9251612903225827
2015-05-14,0.6796246648793676
2015-05-15,0.627027027027022
2015-05-18,0.3140939597315406
2015-05-19,-0.8416886543535567
2015-05-20,-2.0682680151706667
2015-05-21,-2.016518424396441
2015-05-22,-1.7874519846350885
2015-05-25,-2.155810983397185
2015-05-26,-1.4662499999999976
2015-05-27,-1.258777633289989
2015-05-28,-1.3405063291139079
2015-05-29,-1.0447570332480707
2015-06-01,0.7708082026538017
2015-06-02,1.1913043478260832
2015-06-03,0.36065573770492537
2015-06-04,0.2528160200250355
2015-06-05,-0.200000000000008
2015-06-08,-0.3265565438373628
2015-06-09,-0.4551282051282058
2015-06-10,-0.3718459495351847
2015-06-11,-0.1046979865771802
2015-06-12,-0.7083333333333398
2015-06-15,-0.41783159160951716
2015-06-16,0.15205725309711793
2015-06-17,-0.005248700775063193
2015-06-18,-0.18633884768654488
2015-06-19,-0.09090032562811354
2015-06-23,0.2015143838950497
2015-06-24,0.9021030197664562
2015-06-25,1.3246091085400895
2015-06-26,0.7467907055774913
2015-06-29,0.3696858198205917
2015-06-30,-0.3414893069055655
2015-07-01,0.8298132099559054
2015-07-02,0.5797345825554787
2015-07-03,0.6621426550196047
2015-07-06,0.02709582901197116
2015-07-07,-0.4658977254084596
2015-07-08,-2.6070505688261
2015-07-09,-1.5575098397274487
2015-07-10,-0.2904638298908313
2015-07-13,-0.745238095238094
2015-07-14,-0.1303030303030345
2015-07-15,-0.2248296744890157
2015-07-16,-0.45549738219895214
2015-07-17,-0.8160583941605813
2015-07-20,-0.6678648454349387
2015-07-21,-0.4099197665937237
2015-07-22,-0.35979228486647247
2015-07-23,-0.7215657311669145
2015-07-24,-0.7223926380368058
2015-07-27,-1.4038022813688231
2015-07-28,-1.375197472353868
2015-07-29,-1.1492910758965782
2015-07-30,-1.0772460117548348
2015-07-31,-1.017241379310346
2015-08-03,-1.6188524590163929
2015-08-04,-1.235096557514691
2015-08-05,-1.073104693140795
2015-08-06,-1.8691275167785328
2015-08-07,-1.2767653758542157
2015-08-10,-0.8956109134045132
2015-08-11,-0.16873449131513515
2015-08-12,0.22800495662948317
2015-08-13,-0.13475177304964006
2015-08-14,-0.6331288343558373
2015-08-17,0.3325183374083211
2015-08-18,-0.21046373365042675
2015-08-19,-0.07938388625592477
2015-08-20,-0.5401629802095359
2015-08-21,-0.29439252336448746
2015-08-24,-2.0133481646273608
2015-08-25,-2.5165631469979317
2015-08-26,-2.068862275449099
2015-08-27,-1.5162561576354663
2015-08-28,-0.5188042430086729
2015-08-31,-0.9813176007866256
2015-09-01,-0.6594911937377705
2015-09-02,-1.051010587102989
2015-09-07,-1.077369439071567
2015-09-08,-0.6303270564915727
2015-09-09,-0.7306163021868779
2015-09-10,-0.3447236180904466
2015-09-11,-0.3624229979466045
2015-09-14,-0.4307524536532189
2015-09-15,-0.9008264462809887
2015-09-16,-0.4519535374868031
2015-09-17,-0.4185544768069042
2015-09-18,-0.4011049723756904
2015-09-21,-0.3839184597961477
2015-09-22,-0.6759156492785775
2015-09-23,-0.6371359223300944
2015-09-24,-0.4628647214854181
2015-09-25,0.050546448087438994
2015-09-28,0.45555555555555644
2015-09-29,-0.42857142857143365
2015-09-30,-0.09356725146199345
2015-10-08,0.40876944837340506
2015-10-09,1.120567375886528
2015-10-12,1.9691689008042863
2015-10-13,2.073490813648289
2015-10-14,1.9113756613756445
2015-10-15,1.5324503311258253
2015-10-16,1.319371727748684
2015-10-19,0.5761154855643035
2015-10-20,-0.2079889807162544
2015-10-21,0.113730929264901
2015-10-22,0.9848901098901094
2015-10-23,0.0535475234270445
2015-10-26,-0.2797858099062943
2015-10-27,-0.34776725304466105
2015-10-28,-0.5149863760217885
2015-10-29,-0.2666666666666584
2015-10-30,-0.43406593406594035
2015-11-02,0.061058344640430195
2015-11-03,-0.33618233618232385
2015-11-04,0.8813096862210145
2015-11-05,0.9283707865168612
2015-11-06,0.4550641940085487
2015-11-09,0.6772247360482615
2015-11-10,0.8967642526964549
2015-11-11,-0.3662463547870491
2015-11-12,0.013865320144028418
2015-11-13,0.0518179215573957
2015-11-16,-0.9178303987047199
2015-11-17,-0.4865504714478215
2015-11-18,-0.6807003257329048
2015-11-19,-0.8794789612097414
2015-11-20,0.21781503168364752
2015-11-23,-0.01690802348337303
2015-11-24,2.1450160658168747
2015-11-25,1.9444053483462307
2015-11-26,1.9036017310116742
2015-11-27,2.3936973954536307
2015-11-30,1.815038978980945
2015-12-01,1.960912154713526
2015-12-02,2.2762453684643917
2015-12-03,1.88086937403812
2015-12-04,1.771602408499099
2015-12-07,2.4292929292929224
2015-12-08,1.0333680917622499
2015-12-09,-0.3458799593082413
2015-12-10,-0.521341463414628
2015-12-11,-0.204613841524578
2015-12-14,-0.47756729810568643
2015-12-15,-0.6503984063744972
2015-12-16,-0.7717717717717701
2015-12-17,-1.0952380952380962
2015-12-18,-0.9587628865979393
2015-12-21,-0.5088633993743585
2015-12-22,-0.6109839816933764
2015-12-23,-0.600922722030001
2015-12-24,-0.6478365384615447
2015-12-25,-0.38916256157635337
2015-12-28,-0.9290161892901597
2015-12-29,-0.06516290726817307
2015-12-30,0.5069708491761654
2015-12-31,0.4533508541392965
2016-01-04,-0.059872611464968035
2016-01-05,0.6060191518467842
2016-01-06,-0.1924746743849514
2016-01-07,-0.32153846153845944
2016-01-08,-0.35981308411214374
2016-01-11,-0.9350649350649367
2016-01-12,-1.6930693069307061
2016-01-13,-1.6086956521739126
2016-01-14,-1.5319516407599256
2016-01-15,-1.5693950177935994
2016-01-18,-0.975694444444431
2016-01-19,-0.6736842105262955
2016-01-20,-1.1504273504273426
2016-01-21,-1.324786324786327
2016-01-22,-0.5872193436960302
2016-01-25,-0.4784853700516416
2016-01-26,-0.35978835978836715
2016-01-27,-0.222634508348779
2016-01-28,-0.39923224568138
2016-01-29,-0.6666666666666607
2016-02-01,-0.6008146639511174
2016-02-02,0.17427385892116937
2016-02-03,-0.29059829059830206
2016-02-04,0.15434782608696312
2016-02-05,0.33995584988962285
2016-02-15,1.6354166666666548
2016-02-16,1.237179487179492
2016-02-17,0.8629550321199259
2016-02-18,1.0021691973969789
2016-02-19,0.20995670995671883
2016-02-22,0.2790178571428437
2016-02-23,-0.412556053811668
2016-02-24,-1.1685649202733528
2016-02-25,-1.4117647058823648
2016-02-26,-1.788154897494315
2016-02-29,-1.7091722595078425
2016-03-01,-1.7688888888888863
2016-03-02,-2.112765957446815
2016-03-03,-1.789808917197449
2016-03-04,-1.1851063829787167
2016-03-07,0.15098039215687065
2016-03-08,-0.1612284069097958
2016-03-09,0.13399078114830315
2016-03-10,-0.2010868490995446
2016-03-11,1.7113668319831477
2016-03-14,1.9027731042775482
2016-03-15,1.5364323496360326
2016-03-16,1.464178636435684
2016-03-17,2.8728386934170977
2016-03-18,3.2314269500368162
2016-03-21,3.463810992457178
2016-03-22,3.7402171146741083
2016-03-23,2.7786232198991088
2016-03-24,1.6038318612616733
2016-03-25,2.1540160502629475
2016-03-28,1.7170460752356627
2016-03-29,1.408785224267083
2016-03-30,0.6917273084219431
2016-03-31,0.6533878856913128
2016-04-01,1.5545924248189684
2016-04-05,1.3601320647370463
2016-04-06,0.4295227524972287
2016-04-07,0.6545654565456527
2016-04-08,0.10143329658214172
2016-04-11,0.9276315789473611
2016-04-12,0.8089033659066153
2016-04-13,1.0283975659229234
2016-04-14,1.3758865248227
2016-04-15,0.6588594704684287
2016-04-18,0.5688073394495495
2016-04-19,1.254132231404954
2016-04-20,2.0979228486646915
2016-04-21,3.0497737556561124
2016-04-22,2.0844099913867393
2016-04-25,1.639330543933058
2016-04-26,1.4322314049586808
2016-04-27,1.24442609413708
2016-04-28,0.1920583468395461
2016-04-29,-0.3763866877971509
2016-05-03,-0.10858995137763228
2016-05-04,0.16267942583732262
2016-05-05,0.00963081861957869
2016-05-06,-0.7494235203689493
2016-05-09,0.18543046357615897
2016-05-10,0.17902621722846465
2016-05-11,1.2567760342368044
2016-05-12,0.865889212827991
2016-05-13,-0.8830645161290316
2016-05-16,-0.7753185781354809
2016-05-17,0.04937458854509648
2016-05-18,-0.03312499999999671
2016-05-19,-0.30764371446620287
2016-05-20,-0.48105548037888984
2016-05-23,-1.5613333333333315
2016-05-24,-1.3805612594113659
2016-05-25,-1.4129834254143658
2016-05-26,-0.48747461069735804
2016-05-27,-0.649134948096883
2016-05-30,0.3493243243243241
2016-05-31,0.0988719309887183
2016-06-01,0.2745625841184363
2016-06-02,0.4914134742404261
2016-06-03,1.4271390374331543
2016-06-06,1.7006194081211283
2016-06-07,2.05414667580535
2016-06-08,1.6412268188302408
2016-06-13,1.293408929836994
2016-06-14,0.8242835595776753
2016-06-15,0.45755071374906947
2016-06-16,-0.12830188679245338
2016-06-17,-0.15359999999999904
2016-06-20,-0.03755102040816075
2016-06-21,-0.24499599679743758
2016-06-22,0.09663865546218936
2016-06-23,-0.20642978003383897
2016-06-24,-0.8959200666111536
2016-06-27,-0.06744379683597289
2016-06-28,0.26123128119799777
2016-06-29,0.031168831168825826
2016-06-30,0.5530035335689076
2016-07-01,0.7797772065124218
2016-07-04,2.5651465798045665
2016-07-05,2.0256786500366863
2016-07-06,0.25750107435735636
2016-07-07,-0.2996431340865858
2016-07-08,-0.20453651404521567
2016-07-11,0.2279625901777397
2016-07-12,-0.08971844950568453
2016-07-13,0.7919973268569236
2016-07-14,0.8965605262360661
2016-07-15,0.6644272947776542
2016-07-18,0.506173224359266
2016-07-19,0.1380620974729772
2016-07-20,0.44720791300671325
2016-07-21,0.36882604193631446
2016-07-22,-0.2717356235627704
2016-07-25,-0.7227062388480099
2016-07-26,-1.0626362479874218
2016-07-27,-1.1344380721359801
2016-07-28,-1.379024326790424
2016-07-29,-1.629601419921439
2016-08-01,-0.8634678842928841
2016-08-02,-0.7895910780669136
2016-08-03,-0.7240816326530639
2016-08-04,-0.557868442964194
2016-08-05,-0.9214840379637678
2016-08-08,-0.46864111498258104
2016-08-09,-0.2372881355932182
2016-08-10,-0.43022136669875
2016-08-11,-1.000000000000004
2016-08-12,-0.5533399800598113
2016-08-15,0.9804687499999999
2016-08-16,1.3423423423423448
2016-08-17,1.6379310344827578
2016-08-18,1.6771894093686381
2016-08-19,2.4016736401673593
2016-08-22,1.241596638655459
2016-08-23,1.06956521739131
2016-08-24,1.8665231431647005
2016-08-25,0.3913934426229456
2016-08-26,-0.10062240663900487
2016-08-29,-0.2152852529601726
2016-08-30,-0.09452201933404229
2016-08-31,-1.4272818455366076
2016-09-01,-1.485097636176776
2016-09-02,-1.3755230125523
2016-09-05,-0.9464285714285721
2016-09-06,-0.7950643776824059
2016-09-07,-0.7290322580645213
2016-09-08,-0.7682926829268412
2016-09-09,-0.3244444444444463
2016-09-12,-1.7424942263279448
2016-09-13,-1.2337962962962843
2016-09-14,-2.466970387243735
2016-09-19,-1.3779527559055085
2016-09-20,0.9588607594936702
2016-09-21,0.6597826086956415
2016-09-22,0.8143459915611774
2016-09-23,1.4370290635091434
2016-09-26,1.8768197088465806
2016-09-27,1.212952799121834
2016-09-28,0.3336909871244617
2016-09-29,0.3059701492537246
2016-09-30,0.11577752553915978
2016-10-10,-0.49382716049381975
2016-10-11,0.769722814498931
2016-10-12,1.107291666666666
2016-10-13,0.6400394477317563
2016-10-14,1.6444444444444408
2016-10-17,2.827708703374782
2016-10-18,3.6842975206611586
2016-10-19,4.157976653696502
2016-10-20,3.437781109445281
2016-10-21,2.6733931240657682
2016-10-24,3.259956553222297
2016-10-25,2.893895348837213
2016-10-26,2.8472906403940907
2016-10-27,1.970013947001393
2016-10-28,2.0000000000000018
2016-10-31,1.546212647671986
2016-11-01,1.3191345503718668
2016-11-02,0.6149802890933058
2016-11-03,0.6848684210526325
2016-11-04,0.012265978050358626
2016-11-07,0.22799240025332365
2016-11-08,0.5019083969465603
2016-11-09,-0.07911392405062444
2016-11-10,0.3750000000000005
2016-11-11,1.111042566317088
2016-11-14,-0.6322869955156972
2016-11-15,-0.718875502008037
2016-11-16,-0.18050541516246027
2016-11-17,-0.2933579335793384
2016-11-18,-0.3643216080402034
2016-11-21,0.11971830985915077
2016-11-22,0.3391304347826021
2016-11-23,0.28646766602042395
2016-11-24,1.8275657506232599
2016-11-25,2.8735620087672387
2016-11-28,2.9013962336981076
2016-11-29,2.316498243325219
2016-11-30,2.9216272604001805
2016-12-01,2.5930744008326
2016-12-02,2.495952438429673
2016-12-05,2.3848465851198575
2016-12-06,2.0014745097842614
2016-12-07,2.128941025097356
2016-12-08,1.4659575826135964
2016-12-09,0.9626991634550185
2016-12-12,1.331881447390581
2016-12-13,1.0311381462276348
2016-12-14,0.6948297049045202
2016-12-15,0.6421774424479072
2016-12-16,0.3667498354916766
2016-12-19,0.4629608024330136
2016-12-20,-0.7602701181766962
2016-12-21,-0.9337450870297649
2016-12-22,-1.522619047619052
2016-12-23,-2.4331713244228466
2016-12-26,-2.6058394160584006
2016-12-27,-1.599999999999996
2016-12-28,-1.801556420233467
2016-12-29,-1.6338120104438736
2016-12-30,-1.5354278074866388
2017-01-03,-1.7567204301075252
2017-01-04,-1.826631509558342
2017-01-05,-1.6929238985313848
2017-01-06,-2.196969696969698
2017-01-09,-1.9389574759945216
2017-01-10,-1.4490084985835736
2017-01-11,-0.9823943661971861
2017-01-12,-0.9676956209619535
2017-01-13,-0.820266272189341
2017-01-16,0.12280701754386274
2017-01-17,0.8034508627156917
2017-01-18,0.40300870942199973
2017-01-19,0.6123907863383613
2017-01-20,0.2101390024529861
2017-01-23,0.14138817480720303
2017-01-24,0.6877224199288242
2017-01-25,-0.2592592592592537
2017-01-26,-0.4522058823529422
2017-02-03,-0.9489603024574612
2017-02-06,-0.3236940298507511
2017-02-07,-0.5630413859480292
2017-02-08,0.17788944723617983
2017-02-09,-0.0729483282674724
2017-02-10,0.7836438923395458
2017-02-13,0.01330603889458318
2017-02-14,-0.7675350701402769
2017-02-15,-1.0243407707910746
2017-02-16,-1.2540160642570302
2017-02-17,-2.267770204479067
2017-02-20,-1.9298245614035194
2017-02-21,-2.008359456635324
2017-02-22,-2.1020408163265163
2017-02-23,-2.6489583333333377
2017-02-24,-2.322981366459627
2017-02-27,-2.3680412371134123
2017-02-28,-2.087682672233818
2017-03-01,-1.2153209109730845
2017-03-02,-0.8940188877229853
2017-03-03,-0.9967248908296982
2017-03-06,-1.0470974808324143
2017-03-07,-2.1112277019937156
2017-03-08,-2.735416666666676
2017-03-09,-3.247975708502033
2017-03-10,-4.312684365781717
2017-03-13,-2.52537593984963
2017-03-14,-2.540669856459325
2017-03-15,-2.543314500941638
2017-03-16,-2.754581471244857
2017-03-17,-2.4855434231326603
2017-03-20,-2.1836111729937127
2017-03-21,-1.9678626146982094
2017-03-22,-1.7700146194965243
2017-03-23,-2.6130797872830422
2017-03-24,-2.7317972913700896
2017-03-27,-3.299956152866422
2017-03-28,-2.9551345637422695
2017-03-29,-2.7719293182377327
2017-03-30,-3.0710448716042973
2017-03-31,-3.611242262723983
2017-04-05,-2.8932192508486776
2017-04-06,-2.9278273053092168
2017-04-07,-3.2326442756993496
2017-04-10,-2.4262909558611385
2017-04-11,-2.0738396818015907
2017-04-12,-3.2122333611299845
2017-04-13,-2.2833577905403457
2017-04-14,-1.8166986564299479
2017-04-17,-1.325467059980334
2017-04-18,-1.3215311004784767
2017-04-19,-1.8551787351054116
2017-04-20,-1.2194674012855773
2017-04-21,-0.8955087076077053
2017-04-24,-0.0766355140186978
2017-04-25,-0.3408239700374506
2017-04-26,-0.4990176817288742
2017-04-27,0.19533527696792727
2017-04-28,0.005769230769233703
2017-05-02,1.1477272727272778
2017-05-03,1.150243902439023
2017-05-04,1.0500982318271155
2017-05-05,0.2929194956353127
2017-05-08,1.1807692307692288
2017-05-09,0.9632495164410068
2017-05-10,0.45365853658537336
2017-05-11,1.1057312252964495
2017-05-12,0.7467336683417115
2017-05-15,0.881188118811883
2017-05-16,1.4319761668321718
2017-05-17,1.3683673469387811
2017-05-18,0.6831785345717236
2017-05-19,0.09221311475409646
2017-05-22,0.7340748230535871
2017-05-23,-0.025484199796132912
2017-05-24,-0.7650602409638526
2017-05-25,-1.0030643513789563
2017-05-26,-1.9536757301107774
2017-05-31,-3.465909090909103
2017-06-01,-3.376840039254177
2017-06-02,-3.023346303501953
2017-06-05,-2.516601562500003
2017-06-06,-1.772682926829273
2017-06-07,-1.5658835546475973
2017-06-08,-1.6259067357512915
2017-06-09,-0.6314168377823486
2017-06-12,0.2750533049040486
2017-06-13,-0.10932475884244817
2017-06-14,0.25820568927791226
2017-06-15,0.6559734513274366
2017-06-16,1.2977346278317055
2017-06-19,2.038503850385041
2017-06-20,1.2890109890109935
2017-06-21,0.8342541436464176
2017-06-22,0.5645514223194794
2017-06-23,0.39217877094971704
2017-06-26,0.4977973568281905
2017-06-27,1.2911963882618522
2017-06-28,1.3903614457831321
2017-06-29,1.563015312131918
2017-06-30,1.0945157526254432
2017-07-03,1.6792237442922429
2017-07-04,0.21973094170403323
2017-07-05,0.46448703494925886
2017-07-06,0.7341490545050068
2017-07-07,1.1977528089887644
2017-07-10,2.3228941684665174
2017-07-11,2.192457873732184
2017-07-12,2.061763960497023
2017-07-13,1.3372750763851033
2017-07-14,0.840704495767654
2017-07-17,1.3065840220299616
2017-07-18,1.0790333246498283
2017-07-19,1.3724914570823232
2017-07-20,1.897271882380785
2017-07-21,1.8567815418062952
2017-07-24,0.6493806017800773
2017-07-25,1.643972107976094
2017-07-26,0.5581776037770941
2017-07-27,1.067045625757905
2017-07-28,-0.04426798556691038
2017-07-31,0.8299838030740535
2017-08-01,0.8535433968521534
2017-08-02,0.46058014359347327
2017-08-03,-0.2595826293108028
2017-08-04,-0.3179998811104289
2017-08-07,-0.3196955280685018
2017-08-08,0.6781395348837221
2017-08-09,0.916822429906547
2017-08-10,1.220037453183523
2017-08-11,1.441281138790034
2017-08-14,1.066436583261423
2017-08-15,0.8095238095238052
2017-08-16,-0.11269974768713013
2017-08-17,0.2502157031924026
2017-08-18,0.6958041958042005
2017-08-21,0.47106690777576504
2017-08-22,1.4946140035906672
2017-08-23,1.9513513513513534
2017-08-24,1.8391420911528145
2017-08-25,1.381665107577178
2017-08-28,1.4713193116634764
2017-08-29,0.8551000953288794
2017-08-30,0.5780510879848583
2017-08-31,0.6131889763779537
2017-09-01,0.7607607607607584
2017-09-04,0.9560117302052755
2017-09-05,1.1123481781376532
2017-09-06,0.603238866396761
2017-09-07,0.5364583333333308
2017-09-08,-0.5336225596529197
2017-09-11,-0.12150537634408044
2017-09-12,-0.4456521739130363
2017-09-13,-1.004385964912274
2017-09-14,-0.33801295896328276
2017-09-15,-0.1645161290322662
2017-09-18,-0.9864158829676083
2017-09-19,-1.2829162132752967
2017-09-20,-0.9404630650496205
2017-09-21,-1.153072625698333
2017-09-22,-1.3485714285714328
2017-09-25,-2.4452871072589333
2017-09-26,-2.5044052863436046
2017-09-27,-2.4449388209121263
2017-09-28,-3.2299578059071696
2017-09-29,-2.5803757828809966
2017-10-09,-2.2959401709401717
2017-10-10,-2.482832618025746
2017-10-11,-2.3063646170442413
2017-10-12,-1.3138918345705162
2017-10-13,-0.6960680127523942
2017-10-16,-0.31590656284760454
2017-10-17,-0.101433296582141
2017-10-18,-0.43049327354259964
2017-10-19,-1.3879781420765052
2017-10-20,-0.49675324675324967
2017-10-23,0.1858902575587903
2017-10-24,0.459367945823932
2017-10-25,1.5204741379310374
2017-10-26,1.9989130434782498
2017-10-27,2.2120218579234985
2017-10-30,2.370581527936144
2017-10-31,1.729638009049774
2017-11-01,1.53257142857143
2017-11-02,1.7805755395683356
2017-11-03,1.2775061124694376
2017-11-06,1.166064981949457
2017-11-07,1.3894230769230784
2017-11-08,0.9473684210526306
2017-11-09,1.2250608272506074
2017-11-10,0.016009852216751445
2017-11-13,-0.36162361623616196
2017-11-14,-0.747512437810947
2017-11-15,-1.2666666666666668
2017-11-16,-1.5714285714285774
2017-11-17,-1.776725304465489
2017-11-20,-1.8928086838534668
2017-11-21,-2.1991612524318223
2017-11-22,-1.7324755194650165
2017-11-23,-1.9104809619238379
2017-11-24,-1.2795782781666298
2017-11-27,-1.845480134561258
2017-11-28,-1.9044990284490004
2017-11-29,-2.40352522958428
2017-11-30,-1.3636047253533417
2017-12-01,-1.4170340141292526
2017-12-04,-1.2391245878450592
2017-12-05,-2.5037911746426413
2017-12-06,-1.7526147727489927
2017-12-07,-2.5592385712185846
2017-12-08,-2.1701446320729296
2017-12-11,-1.642442950696697
2017-12-12,-1.2868887968962195
2017-12-13,-1.3006970540703546
2017-12-14,-2.382422645856339
2017-12-15,-1.9429150833436042
2017-12-18,-1.1236263736263825
2017-12-19,-1.8561827956989208
2017-12-20,-1.7004160887656
2017-12-21,-2.703557312252966
2017-12-22,-3.439024390243891
2017-12-25,-2.5006570302233833
2017-12-26,-2.4705882352941075
2017-12-27,-2.0950468540829954
2017-12-28,-2.4248985115020196
2017-12-29,-2.3351424694708207
2018-01-02,-0.4961636828644485
2018-01-03,-0.1395663956639398
2018-01-04,0.5234159779614342
2018-01-05,0.9060308555399805
2018-01-08,0.2837465564738364
2018-01-09,0.4957865168539294
2018-01-10,0.5211864406779837
2018-01-11,0.37853107344632647
2018-01-12,-0.38801711840227937
2018-01-15,-0.5738161559888584
2018-01-16,-1.2237380627557892
2018-01-17,-0.8730822873082328
2018-01-18,-0.575136612021851
2018-01-19,-1.6307692307692312
2018-01-22,-0.8651362984218053
2018-01-23,-0.6469719350073951
2018-01-24,-0.11320754716980916
2018-01-25,-0.24594992636229113
2018-01-26,0.10329341317365877
2018-01-29,-0.05819295558957436
2018-01-30,-1.4068857589984443
2018-01-31,-0.7346938775510212
2018-02-01,-1.1164596273291894
2018-02-02,-2.1055045871559623
2018-02-05,-1.7852760736196391
2018-02-06,-1.9361702127659612
2018-02-07,-1.7207207207207302
2018-02-08,-1.4962852897474008
2018-02-09,-1.904761904761902
2018-02-12,-1.7507788161993747
2018-02-13,-1.742718446601946
2018-02-14,-2.38983050847457
2018-02-22,-2.234662576687121
2018-02-23,-0.47683109118087347
2018-02-26,-0.008928571428575855
2018-02-27,-0.23031203566121844
2018-02-28,0.32253313696612423
2018-03-01,0.38210227272726766
2018-03-02,1.0963364993215694
2018-03-05,0.33031088082901056
2018-03-06,0.19015957446809056
2018-03-07,-0.5095785440612994
2018-03-08,-0.3588761174967972
2018-03-09,-1.212548015364919
2018-03-12,-0.7790697674418713
2018-03-13,0.4755332496863289
2018-03-14,0.23720349563046264
2018-03-15,0.03764115432873884
2018-03-16,0.11055900621116439
2018-03-19,0.8456865127582066
2018-03-20,0.4470868014268637
2018-03-21,-0.22749391727492577
2018-03-22,0.21203898944805072
2018-03-23,-0.13718107454908585
2018-03-26,-0.19840631858786403
2018-03-27,-0.6133727099867398
2018-03-28,-0.6968460691826233
2018-03-29,-1.349692606916076
2018-03-30,-0.5528435073595872
2018-04-02,0.5524723923358132
2018-04-03,0.44171426162672234
2018-04-04,0.7134309006914242
2018-04-09,0.8710300056088014
2018-04-10,0.8830254028296239
2018-04-11,0.60552539474838
2018-04-12,-0.17466442624868675
2018-04-13,-0.02595485485678432
2018-04-16,-0.6145225082229364
2018-04-17,-0.5681432967080166
2018-04-18,-0.6004940882789069
2018-04-19,0.09680224025418875
2018-04-20,0.2770419426048512
2018-04-23,0.366850828729279
2018-04-24,-0.3881431767337776
2018-04-25,-0.11888111888111388
2018-04-26,-0.5577596266044406
2018-04-27,-0.8905704307334158
2018-05-02,-0.6709451575262476
2018-05-03,-0.1909975669099731
2018-05-04,-0.43494897959184103
2018-05-07,0.0643127364438747
2018-05-08,0.11994949494950097
2018-05-09,1.362573099415212
2018-05-10,1.4623338257016225
2018-05-11,1.5247376311844019
2018-05-14,1.4314960629921363
2018-05-15,1.2788906009244967
2018-05-16,0.04652936689549646
2018-05-17,0.3973866256725671
2018-05-18,1.5033161385408937
2018-05-21,2.324832214765102
2018-05-22,2.8737179487179376
2018-05-23,2.5034396497811104
2018-05-24,3.2143734643734585
2018-05-25,2.0364583333333326
2018-05-28,1.5194428322692979
2018-05-29,2.724590163934433
2018-05-30,2.9850746268656745
2018-05-31,2.3910461397898612
2018-06-01,2.098382749326146
2018-06-04,1.6772346983707613
2018-06-05,0.5541037158023646
2018-06-06,0.3897180762852372
2018-06-07,0.22723577235773074
2018-06-08,-0.44159431728492965
2018-06-11,-0.5212475633528285
2018-06-12,-0.6138227254978578
2018-06-13,-1.0031335683509575
2018-06-14,-0.8470770421989926
2018-06-15,-0.3790291262135988
2018-06-19,-2.794880910060437
2018-06-20,-1.9560590456573923
2018-06-21,-1.7606420097697124
2018-06-22,-1.840140845070419
2018-06-25,-1.772327964860901
2018-06-26,-1.935448972232236
2018-06-27,-1.4372918978912383
2018-06-28,-1.4762095161935296
2018-06-29,-1.300084889643467
2018-07-02,-1.0110874200426465
2018-07-03,-0.9325311559948458
2018-07-04,-1.0014031805425652
2018-07-05,-0.6870937790157756
2018-07-06,-0.6437788018433197
2018-07-09,-0.44173829990448543
2018-07-10,-0.694645441389285
2018-07-11,-1.020882771713335
2018-07-12,-1.348013403542369
2018-07-13,-2.0430463576158977
2018-07-16,-1.8671980672129618
2018-07-17,-2.1804701913278373
2018-07-18,-2.21790313736603
2018-07-19,-1.8192372962137053
2018-07-20,-1.9907654317233383
2018-07-23,-1.3577875262358037
2018-07-24,-1.4687772846177007
2018-07-25,-1.378614035856703
2018-07-26,-0.4372728555754354
2018-07-27,-0.36731855462420987
2018-07-30,-0.15619285127276591
2018-07-31,-0.4003583841430808
2018-08-01,-0.1959098278950473
2018-08-02,-0.12541674135149986
2018-08-03,0.22723802875084578
2018-08-06,0.5414899787361689
2018-08-07,1.801791932921644
2018-08-08,2.2511007731556996
2018-08-09,2.3686297296583416
2018-08-10,2.3043478260869543
2018-08-13,0.9017595307917803
2018-08-14,0.9337748344370748
2018-08-15,1.279593318809008
2018-08-16,0.5244854506742307
2018-08-17,1.6939820742637628
2018-08-20,2.3811603243917556
2018-08-21,2.1393901680149354
2018-08-22,2.4420549581839883
2018-08-23,1.5067607289829568
2018-08-24,1.1732101616628205
2018-08-27,0.033701657458576936
2018-08-28,0.19002770083102444
2018-08-29,-0.5470364328439371
2018-08-30,-0.16620651573715542
2018-08-31,-0.520066889632109
2018-09-03,-0.02288451303886253
2018-09-04,0.3043004899292425
2018-09-05,0.29679869777536777
2018-09-06,0.5721231766612721
2018-09-07,0.39764831640834236
2018-09-10,0.8569023569023639
2018-09-11,0.5362723214285813
2018-09-12,0.41772853185595554
2018-09-13,0.05953693495037938
2018-09-14,0.1998813760379547
2018-09-17,0.6152905198776761
2018-09-18,0.05953096812987818
2018-09-19,-0.704106280193244
2018-09-20,-0.9368029739776974
2018-09-21,-1.4406883835279631
2018-09-25,-0.7922243467176633
2018-09-26,0.28224299065419933
2018-09-27,-0.19035532994923726
2018-09-28,-0.45142857142857024
2018-10-08,-0.2098922003804726
2018-10-09,1.3833017077798861
2018-10-10,1.5000000000000009
2018-10-11,0.13803496081977315
2018-10-12,0.7704918032786916
2018-10-15,0.8311768330252625
2018-10-16,0.4622991347342353
2018-10-17,0.7261384903306234
2018-10-18,-0.09751552795030893
2018-10-19,-0.5314505776636775
2018-10-22,-0.028627195836052933
2018-10-23,-0.6577437858508555
2018-10-24,-1.3768778576094185
2018-10-25,-1.920052424639581
2018-10-26,-1.7907284768211995
2018-10-29,-1.3649006622516493
2018-10-30,-1.6649550706033354
2018-10-31,-1.677696889477165
2018-11-01,-1.7333333333333352
2018-11-02,-2.8833535844471485
2018-11-05,-2.0969295605057106
2018-11-06,-2.145780051150898
2018-11-07,-1.907096774193539
2018-11-08,-2.1661085063630257
2018-11-09,-2.41907894736842
2018-11-12,-2.16485623003195
2018-11-13,-2.192460317460309
2018-11-14,-2.8684376976596995
2018-11-15,-2.2209377007064792
2018-11-16,-1.927122940430927
2018-11-19,-2.0679796696315105
2018-11-20,-1.319056486654258
2018-11-21,-0.9246079613992773
2018-11-22,-0.4148418491484151
2018-11-23,0.11959134615385111
2018-11-26,0.21472019464719672
2018-11-27,-0.42202970297029396
2018-11-28,-0.040372670807458516
2018-11-29,-0.008064516129022722
2018-11-30,0.6576271186440827
2018-12-03,0.0899182561307888
2018-12-04,0.3902275769745707
2018-12-05,0.6214796081099291
2018-12-06,1.4227491189102555
2018-12-07,1.3900771253295507
2018-12-10,1.1321150354541965
2018-12-11,0.8465868542868972
2018-12-12,1.4776720879538596
2018-12-13,1.2153706908855035
2018-12-14,-0.04149905974703313
2018-12-17,0.30624969011354525
2018-12-18,0.12892958719959083
2018-12-19,0.520057132777214
2018-12-20,-0.8541686588106584
2018-12-21,-1.1208241595575221
2018-12-24,-1.2507963856355957
2018-12-25,-1.8821776196757272
2018-12-26,-1.8031966323085746
2018-12-27,-2.028707543234638
2018-12-28,-1.9621061609741872
2019-01-02,-1.12508378872089
2019-01-03,-0.6718538565629233
2019-01-04,-0.42294402211472293
2019-01-07,-0.32794117647057613
2019-01-08,-0.02560351133870651
2019-01-09,-0.2673119880863763
2019-01-10,-0.36006168080185624
2019-01-11,-0.8855606758832519
2019-01-14,-1.3216155572176673
2019-01-15,-0.9086687306501522
2019-01-16,-0.560702875399358
2019-01-17,-0.7455429497568933
2019-01-18,0.19870235198703703
2019-01-21,1.7287985865724302
2019-01-22,2.5527426160337594
2019-01-23,2.2436974789915984
2019-01-24,2.0995708154506536
2019-01-25,1.883248730964467
2019-01-28,3.157723577235777
2019-01-29,2.833731105807473
2019-01-30,2.6886715566422232
2019-01-31,1.9163987138263598
2019-02-01,1.6211523283346452
2019-02-11,1.1003745318352063
2019-02-12,1.1337386018236952
2019-02-13,1.0866920152091235
2019-02-14,1.2281731474688287
2019-02-15,0.5258112094395218
2019-02-18,0.8879636638909953
2019-02-19,1.8289665211062582
2019-02-20,0.6448663853727096
2019-02-21,0.09009009009010305
2019-02-22,-0.08484005563281763
2019-02-25,-0.1618705035971251
2019-02-26,-1.3078014184397277
2019-02-27,-1.273314203730276
2019-02-28,-0.7388535031847133
2019-03-01,1.2012578616352168
2019-03-04,2.1211401425178167
2019-03-05,2.3152111046847828
2019-03-06,3.89556962025317
2019-03-07,3.191290824261289
2019-03-08,4.187103077674651
2019-03-11,4.341535433070871
2019-03-12,1.7420510523958868
2019-03-13,0.700906344410879
2019-03-14,0.08671507902605295
2019-03-15,0.09965635738831527
2019-03-18,0.7645580226225371
2019-03-19,0.9991546914623778
2019-03-20,0.7560568086883861
2019-03-21,0.6799329702555489
2019-03-22,1.2792103142626905
2019-03-25,1.0968649517684859
2019-03-26,1.0004084967320201
2019-03-27,1.54183266932271
2019-03-28,-0.18489289740699508
2019-03-29,-0.48216385731086336
2019-04-01,-0.5775051124744375
2019-04-02,-0.3622718052738341
2019-04-03,0.14962697642930728
2019-04-04,0.2543176307739679
2019-04-08,0.6077064606685437
2019-04-09,0.6563729067298382
2019-04-10,0.6492917086558767
2019-04-11,0.5759822311248848
2019-04-12,0.484265392735778
2019-04-15,-0.12647306679561204
2019-04-16,-0.2394938290891954
2019-04-17,-0.09754540800788013
2019-04-18,-0.6745822523208185
2019-04-19,-0.6988667766525438
2019-04-22,-0.6224848523746045
2019-04-23,-0.7135339314388258
2019-04-24,-1.7868150317674663
2019-04-25,-1.8598706764720587
2019-04-26,-2.231167014596778
2019-04-29,-2.1824422541806983
2019-04-30,-2.056123912220875
2019-05-06,-1.9861612515042006
2019-05-07,-1.112171837708831
2019-05-08,-1.0210843373493896
2019-05-09,0.5299884659746157
2019-05-10,0.5304347826086901
2019-05-13,0.6575342465753261
2019-05-14,0.630247268545145
2019-05-15,0.9964871194379347
2019-05-16,1.3737980769230789
2019-05-17,1.1048532055122762
2019-05-20,1.2137681159420237
2019-05-21,1.5120147874306904
2019-05-22,1.029214850882527
2019-05-23,0.39677804295943553
2019-05-24,0.7617924528301839
2019-05-27,1.5291948371235338
2019-05-28,1.0902439024390214
2019-05-29,1.82308142940832
2019-05-30,0.9447608200455473
2019-05-31,0.5369955156950685
2019-06-03,0.1716114019778784
2019-06-04,0.670581327069869
2019-06-05,0.15246376811594395
2019-06-06,0.4679064187162552
2019-06-10,0.3365442504515498
2019-06-11,0.3843825665859622
2019-06-12,-0.015151515151504225
2019-06-13,0.4944306930693103
2019-06-14,0.3107692307692258
2019-06-17,0.2787088764742369
2019-06-18,0.19184952978056038
2019-06-19,-1.5207838479809928
2019-06-20,-1.8355106888361146
2019-06-21,-2.0973397823458306
2019-06-24,-2.001832620647532
2019-06-25,-1.7324393358876164
2019-06-26,-1.9082094376211904
2019-06-27,-1.2164383561643792
2019-06-28,-1.4163090128755442
2019-07-01,-1.8971141781681415
2019-07-02,-1.9282994923857795
2019-07-03,-1.5647504737839526
2019-07-04,-0.6424581005586549
2019-07-05,-1.0124766063630681
2019-07-08,-0.7826641172721556
2019-07-09,-1.2613283674736275
2019-07-10,-1.1050000000000038
2019-07-11,-0.7859384808537448
2019-07-12,-1.0454832596335992
2019-07-15,0.6360403082394827
2019-07-16,0.5252941176470681
2019-07-17,0.7283489096573228
2019-07-18,1.0252206809583895
2019-07-19,0.5167615433270126
2019-07-22,0.5185897435897424
2019-07-23,0.713286713286711
2019-07-24,0.8394984326018798
2019-07-25,0.5060780550223899
2019-07-26,0.27982233502538606
2019-07-29,1.1865724381625375
2019-07-30,0.7417078334509433
2019-07-31,0.2527075812274431
2019-08-01,0.2519395969134726
2019-08-02,0.28196687734081194
2019-08-05,1.1445768459590249
2019-08-06,1.4424159138994563
2019-08-07,1.3007196402635364
2019-08-08,1.9029652863362088
2019-08-09,2.649684858858496
2019-08-12,2.992304088761473
2019-08-13,3.756683338868699
2019-08-14,2.3880294895446936
2019-08-15,2.275193695463779
2019-08-16,2.2109215202542587
2019-08-19,2.0321114216953875
2019-08-20,2.285842064827849
2019-08-21,1.9440347693631206
2019-08-22,2.6519090903289335
2019-08-23,2.1590867309604778
2019-08-26,2.8027856261079136
2019-08-27,1.4726074111219274
2019-08-28,1.8408304498269885
2019-08-29,1.3152542372881302
2019-08-30,1.0650063317855725
2019-09-02,1.0609137055837514
2019-09-03,0.43502343417128614
2019-09-04,0.7724021876314642
2019-09-05,0.3096885813148842
2019-09-06,-0.31830122591943916
2019-09-09,-0.5004484304932824
2019-09-10,-0.2930318412551888
2019-09-11,-0.6106679960119654
2019-09-12,-0.7895271987798735
2019-09-16,-0.5671875000000153
2019-09-17,-0.5296850800206419
2019-09-18,-0.7568974492451847
2019-09-19,-0.8394997394476386
2019-09-20,-0.9945593035908652
2019-09-23,-0.26426940639269975
2019-09-24,-1.701467268623032
2019-09-25,-1.7081113084665527
2019-09-26,-1.415859564164656
2019-09-27,-2.5312500000000027
2019-09-30,-2.556932153392336
2019-10-08,-1.882002383790222
2019-10-09,-0.5844535359438966
2019-10-10,-0.1030195381882747
2019-10-11,0.2906137184115482
2019-10-14,-1.041463414634143
2019-10-15,-1.3020833333333215
2019-10-16,-0.7064825930372078
2019-10-17,-0.6178614823815352
2019-10-18,-0.8190533253445107
2019-10-21,-0.36745886654478
2019-10-22,-0.6648216482164842
2019-10-23,-0.16839536302623107
2019-10-24,0.207769276044738
2019-10-25,0.5804274465691756
2019-10-28,1.0672027570361895
2019-10-29,1.0962241169305726
2019-10-30,1.9206257242178641
2019-10-31,1.7425287356321904
2019-11-01,2.4361948955916484
2019-11-04,2.5594002306805046
2019-11-05,2.9091406677613603
2019-11-06,1.4774436090225558
2019-11-07,1.1772751183587518
2019-11-08,1.4105754276827502
2019-11-11,2.1879543094496348
2019-11-12,1.862414338429098
2019-11-13,1.3403338718362943
2019-11-14,1.056059797116923
2019-11-15,0.7758804695837763
2019-11-18,1.2772328342798078
2019-11-19,1.0220125786163343
2019-11-20,1.3608717688798837
2019-11-21,0.9984472049689488
2019-11-22,0.9752953813104092
2019-11-25,0.6286745745229553
2019-11-26,0.18968133535661477
2019-11-27,0.603100775193807
2019-11-28,0.6652977412731028
2019-11-29,1.4236180904522546
2019-12-02,0.6432835820895514
2019-12-03,0.7200630252100783
2019-12-04,0.5950276243093934
2019-12-05,0.45091324200913246
2019-12-06,-0.07102272727273246
2019-12-09,0.19114219114218284
2019-12-10,-0.403377960569444
2019-12-11,-0.6068865037802074
2019-12-12,-0.23513901797160983
2019-12-13,0.3366829087151528
2019-12-16,-0.5529461188608547
2019-12-17,0.05930687637084673
2019-12-18,0.33502178098923124
2019-12-19,1.5727061143626968
2019-12-20,1.375583392035658
2019-12-23,1.3646225261065128
2019-12-24,1.4408095595492265
2019-12-25,1.2478170798955648
2019-12-26,2.012393660858317
2019-12-27,3.005150915241624
2019-12-30,2.5709179670862445
2019-12-31,2.3861756221184147
2020-01-02,2.222063740239154
2020-01-03,2.196124182347798
2020-01-06,2.043030089073842
2020-01-07,2.217344753747321
2020-01-08,1.4218832193582298
2020-01-09,2.166416040100255
2020-01-10,2.032384690873405
2020-01-13,2.346686449060338
2020-01-14,1.3957273652085354
2020-01-15,0.5583126550868426
2020-01-16,0.3268740438551859
2020-01-17,0.38590785907859454
2020-01-20,0.23580313683072157
2020-01-21,-1.3056272586474003
2020-01-22,-1.0439838220424729
2020-01-23,-1.4375896700143496
2020-02-03,-4.821457165732587
2020-02-04,-3.2725862737495177
2020-02-05,-2.189088191330341
2020-02-06,-0.358002832861186
2020-02-07,0.44187627464309265
2020-02-10,0.28449744463372584
2020-02-11,0.40965889902060465
2020-02-12,-0.31779661016949157
2020-02-13,-0.11835670035866111
2020-02-14,-0.22244691607685024
2020-02-17,0.7443088089739368
2020-02-18,0.8212141427618369
2020-02-19,0.20859504132231527
2020-02-20,-0.6087798579728824
2020-02-21,-0.4718063077413189
2020-02-24,-0.4031007751937982
2020-02-25,-0.34282216100397594
2020-02-26,-0.38799874332390816
2020-02-27,-0.12054275796780936
2020-02-28,-1.3965465010602856
2020-03-02,-1.0668941979522215
2020-03-03,-1.5663928815879569
2020-03-04,-1.5638966480446903
2020-03-05,-1.4858819215254835
2020-03-06,-1.4317230886268444
2020-03-09,-3.2924428822495564
2020-03-10,-2.4398925453324414
2020-03-11,-2.108543417366949
2020-03-12,-3.1644934804413194
2020-03-13,-3.126698262243291
2020-03-16,-3.0866116751269077
2020-03-17,-2.949952486537851
2020-03-18,-3.376635229692732
2020-03-19,-2.8328211432083643
2020-03-20,-2.27428746552253
2020-03-23,-2.123321885732131
2020-03-24,-1.4052795031055907
2020-03-25,-1.077284105131415
2020-03-26,-1.7843616371411177
2020-03-27,-0.8854864433811759
2020-03-30,-0.02346227013315824
2020-03-31,-1.0223602484471987
2020-04-01,-1.279685924144675
2020-04-02,-1.0627604775666326
2020-04-03,-1.011107608813871
2020-04-07,-0.15989261330897872
2020-04-08,0.13848546868934117
2020-04-09,0.9548752073206538
2020-04-10,0.5968579576324731
2020-04-13,0.3385473981366519
2020-04-14,0.1241914847011055
2020-04-15,0.08063174612867498
2020-04-16,-0.5010081246858697
2020-04-17,0.05814128140504482
2020-04-20,-0.1386474867348936
2020-04-21,-1.2885992832066933
2020-04-22,-0.6594751667377112
2020-04-23,-0.1266959129573551
2020-04-24,-0.41876360929096546
2020-04-27,-0.34337829888214066
2020-04-28,0.11125078426156149
2020-04-29,0.11227272727273636
2020-04-30,-0.06982193064666156
2020-05-06,-0.20466444550214505
2020-05-07,0.12517848643502924
2020-05-08,0.22035623409669663
2020-05-11,0.5495175215845647
2020-05-12,0.17988595127009646
2020-05-13,1.4448958862366728
2020-05-14,1.4219340896812531
2020-05-15,1.5873626373626435
2020-05-18,2.108165429480377
2020-05-19,1.5542427497314757
2020-05-20,1.5741971207087548
2020-05-21,1.4384017758046632
2020-05-22,0.5072379849449972
2020-05-25,0.6904619076184729
2020-05-26,0.25438066465256776
2020-05-27,0.08666666666666199
2020-05-28,2.253012048192764
2020-05-29,2.2848616386326532
2020-06-01,2.600533333333332
2020-06-02,2.2711682743837094
2020-06-03,2.6529968454258746
2020-06-04,2.8727087576374744
2020-06-05,2.5815748841996866
2020-06-08,2.7154471544715486
2020-06-09,3.1004077471967317
2020-06-10,2.917016806722697
2020-06-11,3.47958656330749
2020-06-12,3.05563985837127
2020-06-15,3.5007481296758116
2020-06-16,3.4043194374686125
2020-06-17,3.5022511255627866
2020-06-18,3.4280000000000004
2020-06-19,3.7160995429151944
2020-06-22,2.9819729594391733
2020-06-23,2.720965309200609
2020-06-24,2.6674780915287286
2020-06-29,1.7004287245444842
2020-06-30,1.430434782608697
2020-07-01,1.7592592592592737
2020-07-02,1.757709251101325
2020-07-03,1.8853994490358235
2020-07-06,2.422209695603158
2020-07-07,2.186666666666668
2020-07-08,2.7067176406335274
2020-07-09,3.0276572668112833
2020-07-10,2.6397216274089863
2020-07-13,3.475609756097562
2020-07-14,4.394929302779144
2020-07-15,4.450076026355807
2020-07-16,4.834155972359334
2020-07-17,6.197067701595519
2020-07-20,7.450638792102206
2020-07-21,6.737423780487807
2020-07-22,5.226054922973876
2020-07-23,4.331188725490191
2020-07-24,3.219089574155653
2020-07-27,3.1549093003167323
2020-07-28,2.6372308530934805
2020-07-29,2.4461538461538552
2020-07-30,2.0286917609897355
2020-07-31,2.038068472151255
2020-08-03,2.8796296296296275
2020-08-04,3.039099526066357
2020-08-05,2.6026035502958575
2020-08-06,3.3426573426573474
2020-08-07,2.316680960548888
2020-08-10,0.7326082495382731
2020-08-11,0.7607063121575028
2020-08-12,0.3284993971560601
2020-08-13,0.7357608866566111
2020-08-14,0.8166947373716846
2020-08-17,1.262307003116259
2020-08-18,0.9960451088358232
2020-08-19,1.3249435826964142
2020-08-20,0.6168795225803213
2020-08-21,0.6260066940502421
2020-08-24,0.3806275438927733
2020-08-25,-0.32779755714462727
2020-08-26,-0.1496410005868082
2020-08-27,-0.42054594390548405
2020-08-28,0.21403346518833358
2020-08-31,0.4858495150605676
2020-09-01,0.7257598880851838
2020-09-02,0.6508866126259655
2020-09-03,0.6766505641007722
2020-09-04,0.5802608719131426
2020-09-07,0.34346888231304135
2020-09-08,0.6033630069238279
2020-09-09,0.3302692055154361
2020-09-10,0.12521323780278742
2020-09-11,0.18046637377493524
2020-09-14,1.1834239130434776
2020-09-15,1.0616391184573082
2020-09-16,1.001020408163253
2020-09-17,1.8357094365241025
2020-09-18,2.8262145418976186
2020-09-21,3.8289671785606667
2020-09-22,2.660588235294115
2020-09-23,1.2439024390243847
2020-09-24,0.5793308148947642
2020-09-25,0.6270255424334017
2020-09-28,0.3462791960890755
2020-09-29,0.17997811816192316
2020-09-30,-0.2119766825649207
2020-10-09,0.8527432712215364
2020-10-12,1.4175852345552493
2020-10-13,1.150639386189259
2020-10-14,1.0504069309530149
2020-10-15,0.6889658848614065
2020-10-16,0.4976016157536059
2020-10-19,-0.43083787803669316
2020-10-20,-0.01211509338717988
2020-10-21,0.032145527037128786
2020-10-22,0.44296951819075947
2020-10-23,0.2472472472472413
2020-10-26,0.9956709956709956
2020-10-27,1.325379609544467
2020-10-28,1.5474431818181849
2020-10-29,2.6400341199886337
2020-10-30,2.2904371584699508
2020-11-02,2.6866594943518023
2020-11-03,2.9072416598860813
2020-11-04,3.4923117709438074
2020-11-05,2.2130390143737246
2020-11-06,2.234399580492924
2020-11-09,1.000753012048185
2020-11-10,1.0645321419707154
2020-11-11,1.1829476248477442
2020-11-12,1.469030732860514
2020-11-13,1.5207612456747477
2020-11-16,1.140977910151406
2020-11-17,1.4092898832684868
2020-11-18,1.2479843635475159
2020-11-19,1.5873093949827854
2020-11-20,1.0196554234409168
2020-11-23,0.43701863354036796
2020-11-24,0.2844617632732586
2020-11-25,0.6886142144045583
2020-11-26,0.11002014098690827
2020-11-27,-0.047099521021821224
2020-11-30,-0.40311099393620575
2020-12-01,-0.035069353572357506
2020-12-02,-0.6789087093389384
2020-12-03,0.09504245412215481
2020-12-04,-0.2978723404255399
2020-12-07,-0.4211751018033732
2020-12-08,-1.1233432386798323
2020-12-09,-1.201081303369712
2020-12-10,-1.5228351797422641
2020-12-11,-0.5129780171828728
2020-12-14,-0.21870876250870777
2020-12-15,-0.05363517868347612
2020-12-16,0.32061954068857224
2020-12-17,0.8316602578179433
2020-12-18,1.3015843364909863
2020-12-21,0.6078089366357455
2020-12-22,-0.36182814525536094
2020-12-23,0.14584398916420827
2020-12-24,1.8425149182738219
2020-12-25,2.4426843183958304
2020-12-28,1.7022577808960033
2020-12-29,1.2092154323606135
2020-12-30,1.631208792180016
2020-12-31,2.0756664918344336
2021-01-04,3.236743240746446
2021-01-05,3.1668199938669197
2021-01-06,3.5562894025817857
2021-01-07,3.608708530805684
2021-01-08,3.3813138686131285
2021-01-11,2.8130948947216545
2021-01-12,2.465616045845265
2021-01-13,2.088243430152143
2021-01-14,1.1451437873033212
2021-01-15,0.7723599137930989
2021-01-18,0.9358738501971166
2021-01-19,0.581567796610172
2021-01-20,-0.6371074162048088
2021-01-21,-0.001304801670151625
2021-01-22,-0.4675645959318315
2021-01-25,-0.3497697101056646
2021-01-26,-0.9508241758241642
2021-01-27,-0.12682531097890312
2021-01-28,-0.1497222222222249
2021-01-29,-0.5145975443383506
2021-02-01,-1.0577249575551892
2021-02-02,-1.5183201803833146
2021-02-03,-2.3662643839461124
2021-02-04,-1.9416120763315388
2021-02-05,-0.768245125348197
2021-02-08,-0.5524655963302734
2021-02-09,0.19636260301221445
2021-02-10,0.6571344339622598
2021-02-18,2.030527817403729
2021-02-19,2.263864565090488
2021-02-22,2.52697947214078
2021-02-23,2.7843137254902293
2021-02-24,3.766666666666686
2021-02-25,4.050919377652063
2021-02-26,2.932984004412586
2021-03-01,2.8876404494382095
2021-03-02,2.2672528643751875
2021-03-03,2.1621835443038178
2021-03-04,2.400759493670895
2021-03-05,2.159682618398221
2021-03-08,3.9038949066605344
2021-03-09,2.9329349269588403
2021-03-10,2.469680504238214
2021-03-11,1.3872662324017737
2021-03-12,1.2065469904962993
2021-03-15,1.3126256533976806
2021-03-16,0.7340913624576041
2021-03-17,0.40302969902331404
2021-03-18,-0.5933977455716616
2021-03-19,-0.9545454545454539
2021-03-22,-0.5945091842780941
2021-03-23,0.1419022154316184
2021-03-24,0.47099500576259073
2021-03-25,0.32846857365245646
2021-03-26,-1.1637102734663742
2021-03-29,-1.3542835765057997
2021-03-30,-1.5116150442477905
2021-03-31,-1.7014428412874592
2021-04-01,-0.6405889657619398
2021-04-02,-0.36570211255103646
2021-04-06,0.13728981477896837
2021-04-07,0.5060377032524104
2021-04-08,0.19669487564059773
2021-04-09,0.40704825346465706
2021-04-12,0.07980962520714356
2021-04-13,0.3963511599910253
2021-04-14,0.7765028903836517
2021-04-15,0.4117374859052498
2021-04-16,1.1797520584716235
2021-04-19,0.8629785726328602
2021-04-20,0.9301065131489782
2021-04-21,1.7900999063038314
2021-04-22,2.2442435682492414
2021-04-23,2.5917847431455026
2021-04-26,1.3707841862891534
2021-04-27,1.2675621116683975
2021-04-28,0.5012622058441404
2021-04-29,0.4837575566733028
2021-04-30,0.0531086800011533
2021-05-06,2.3309828118113614
2021-05-07,2.4035242290748817
2021-05-10,1.9075005466870805
2021-05-11,1.2845493562231698
2021-05-12,2.097626418988637
2021-05-13,1.4022708840227072
2021-05-14,0.1991038379115489
2021-05-17,-0.2303884234577364
2021-05-18,0.1897018970189671
2021-05-19,-0.364466019417472
2021-05-20,-0.9062971342383158
2021-05-21,-1.7685904550499383
2021-05-24,-1.4539653600729299
2021-05-25,-1.0793269230769336
2021-05-26,-0.7729061270376557
2021-05-27,-1.590831272588931
2021-05-28,-0.6478899423684722
2021-05-31,-0.6576901194765785
2021-06-01,-0.5779036827195514
2021-06-02,0.3371183916604569
2021-06-03,1.2288252714708863
2021-06-04,0.8279272151898865
2021-06-07,1.0217098943323788
2021-06-08,0.19716420770262164
2021-06-09,0.3004916420845523
2021-06-10,0.653336012861726
2021-06-11,0.00247678018575611
2021-06-15,-1.3083448411915595
2021-06-16,-2.1608820709491896
2021-06-17,-2.326074498567336
2021-06-18,-3.3149933824919766
2021-06-21,-3.020657995409334
2021-06-22,-2.800500192381681
2021-06-23,-2.1075268817204282
2021-06-24,-2.032863849765252
2021-06-25,-1.424145097298322
2021-06-28,-1.0520873228647993
2021-06-29,-1.4572141212586236
2021-06-30,-0.9177081330513384
2021-07-01,0.11467020470053045
2021-07-02,0.6850579226389093
2021-07-05,0.7662716145327374
2021-07-06,0.9435565446085371
2021-07-07,0.18395657418576222
2021-07-08,0.012589928057552829
2021-07-09,0.4268994247173196
2021-07-12,0.6697962445065911
2021-07-13,1.3846644010195377
2021-07-14,2.0691851526466
2021-07-15,2.3751394777951322
2021-07-16,2.2997658079625394
2021-07-19,2.2223257981822453
2021-07-20,2.613604812586779
2021-07-21,1.78687008784097
2021-07-22,0.7109761583445966
2021-07-23,0.7371765773944563
2021-07-26,0.04694199954863649
2021-07-27,0.5444517979263077
2021-07-28,-0.23438836612489264
2021-07-29,-0.3894642053129218
2021-07-30,-0.9215340533392036
2021-08-02,-1.5998242916758088
2021-08-03,-1.1931671680274936
2021-08-04,-0.3729323308270738
2021-08-05,-0.4607306935025134
2021-08-06,-0.5666602479472728
2021-08-09,-0.6569897070646767
2021-08-10,-0.5483405485928255
2021-08-11,0.7093565811067394
2021-08-12,0.7974453238254116
2021-08-13,1.0066823447894067
2021-08-16,1.3257413198658796
2021-08-17,1.8606779149499226
2021-08-18,1.4559782104310317
2021-08-19,1.290297737064206
2021-08-20,1.170684886573896
2021-08-23,1.0151300907173253
2021-08-24,1.3917360318750986
2021-08-25,2.022430637584414
2021-08-26,1.5536985369198242
2021-08-27,1.0117573023383515
2021-08-30,0.6628018790614397
2021-08-31,1.12479122952602
2021-09-01,0.21590512646808255
2021-09-02,0.20895159328630247
2021-09-03,1.2153954802259892
2021-09-06,0.9132387706855835
2021-09-07,0.7688803644210082
2021-09-08,0.6653376526289547
2021-09-09,0.4758454106280271
2021-09-10,-0.44672808882589615
2021-09-13,-0.3750302443745449
2021-09-14,-0.1882324218749958
2021-09-15,0.6708104231412898
2021-09-16,0.7280285035629492
2021-09-17,-0.43395348837207726
2021-09-22,0.022942289498572133
2021-09-23,1.454483230663934
2021-09-24,1.4201776360738012
2021-09-27,0.8966074313408765
2021-09-28,0.9212616292262373
2021-09-29,1.085661933119567
2021-09-30,2.487285372745069
2021-10-08,4.165027102991364
2021-10-11,4.488279016580908
2021-10-12,4.357129438286696
2021-10-13,3.974942650432337
2021-10-14,3.115416876363033
2021-10-15,3.144758735440933
2021-10-18,3.0112676056338077
2021-10-19,3.2508676251859243
2021-10-20,2.8895566022413544
2021-10-21,2.4781438074121045
2021-10-22,1.5360087105304052
2021-10-25,1.802131603336431
2021-10-26,2.3034051000152655
2021-10-27,2.0189681335356613
2021-10-28,1.3399424852429207
2021-10-29,1.9465705033853318
2021-11-01,0.9932944606413963
2021-11-02,1.0631624800348454
2021-11-03,1.366975088967971
2021-11-04,0.4946547240681901
2021-11-05,0.25646390674040326
2021-11-08,-0.3366935483870951
2021-11-09,-1.3083606323885508
2021-11-10,-0.2505662514156235
2021-11-11,0.04796301646922198
2021-11-12,-0.0020366598778020126
2021-11-15,0.23135838150288712
2021-11-16,0.292203985932004
2021-11-17,0.6229410891823722
2021-11-18,0.7621876904326622
2021-11-19,0.8303039799435937
2021-11-22,-0.3882082695252628
2021-11-23,-0.5036038859291762
2021-11-24,0.07931303669008649
2021-11-25,0.3156789924107882
2021-11-26,0.17342680687698434
2021-11-29,-0.07971014492754162
2021-11-30,-0.794926700708289
2021-12-01,-0.5027367722673686
2021-12-02,-0.7865566037735842
2021-12-03,0.56280991735537
2021-12-06,0.8370756242141193
2021-12-07,1.506108848574604
2021-12-08,0.8159545276362137
2021-12-09,0.34850583811597263
2021-12-10,-0.023955981760206864
2021-12-13,-1.018637275756507
2021-12-14,-1.1937412647949914
2021-12-15,-1.4279462616428045
2021-12-16,-0.7396647518095041
2021-12-17,0.29457428854168644
2021-12-20,-0.8450349928420408
2021-12-21,-0.4100732679496337
2021-12-22,-0.3046510539924953
2021-12-23,-0.3391900411014623
2021-12-24,0.5766411057838992
2021-12-27,0.40404327143637725
2021-12-28,0.7924458139924713
2021-12-29,0.23255243705509449
2021-12-30,0.5721312396122595
2021-12-31,0.7324735709426314
2022-01-04,-0.3176293510564174
2022-01-05,-1.122970030763585
2022-01-06,-1.4969655503485157
2022-01-07,-0.3780439905734518
2022-01-10,-0.18630511119781154
2022-01-11,-0.1367848509266788
2022-01-12,-0.28476151980598896
2022-01-13,-0.5505183980483891
2022-01-14,-0.9074529074529053
2022-01-17,-1.1251801523574236
2022-01-18,-0.3876994122586087
2022-01-19,0.16461506363446024
2022-01-20,1.0191524042379723
2022-01-21,1.532905296950239
2022-01-24,0.8984947111472763
2022-01-25,0.2567783094098803
2022-01-26,0.4586836169776546
2022-01-27,0.8735227037113914
2022-01-28,1.7468020304568506
2022-02-07,1.9112933994658543
2022-02-08,0.7648968678380472
2022-02-09,-0.1590099009901057
2022-02-10,-0.36188565697091574
2022-02-11,-0.6957682826622908
2022-02-14,-0.47882938978829176
2022-02-15,-0.7668890742285153
2022-02-16,-0.6903252198813612
2022-02-17,-0.9985769465338465
2022-02-18,-0.6893907998342317
2022-02-21,0.7225099601593673
2022-02-22,1.0944343982318672
2022-02-23,1.5271876827129232
2022-02-24,3.8494146860588847
2022-02-25,2.26986089644513
2022-02-28,1.3815420905204276
2022-03-01,2.0665197631180305
2022-03-02,1.9580932425353592
2022-03-03,2.5034039334341913
2022-03-04,1.3354254677127382
2022-03-07,1.8513529481271416
2022-03-08,1.9046067938576106
2022-03-09,2.121693121693117
2022-03-10,0.7626309783172501
2022-03-11,0.3493352278493871
2022-03-14,-0.22850270595309918
2022-03-15,-0.8093430656934344
2022-03-16,-0.285795887281038
2022-03-17,-0.9176778047414611
2022-03-18,-0.34549590536851876
2022-03-21,-0.47546578122117533
2022-03-22,-0.5881866617674119
2022-03-23,-0.5988410131788011
2022-03-24,-0.0894068201356405
2022-03-25,-0.04824652417513783
2022-03-28,-0.39838969404186986
2022-03-29,-0.6522822516706402
2022-03-30,-0.8644641606350663
2022-03-31,-0.4948096885813136
2022-04-01,-0.8349226006192015
2022-04-06,0.42415974203150425
2022-04-07,0.03851567498400639
2022-04-08,0.270878524945772
2022-04-11,0.048755475360739334
2022-04-12,1.0765782767608378
2022-04-13,1.1492783594296083
2022-04-14,1.7015884851947025
2022-04-15,2.4502302970717365
2022-04-18,2.0217546895442657
2022-04-19,2.3038025858115523
2022-04-20,1.983001807492378
2022-04-21,2.150800870019292
2022-04-22,2.038237387627326
2022-04-25,1.704432072023024
2022-04-26,2.1723656530607194
2022-04-27,2.3933500696776764
2022-04-28,2.7297500860696164
2022-04-29,2.590869923884936
2022-05-05,1.2452164527290017
2022-05-06,0.7782549456944113
2022-05-09,0.6348580357763417
2022-05-10,0.42485795301203677
2022-05-11,0.14092854790911918
2022-05-12,-0.1483002134997518
2022-05-13,0.5921074727120168
2022-05-16,0.024842663133485415
2022-05-17,-0.5019926934573208
2022-05-18,-0.5538771399798571
2022-05-19,-0.26528117359413744
2022-05-20,-0.09664794963417003
2022-05-23,-0.20828961175236638
2022-05-24,-0.0702471990040891
2022-05-25,0.21525544837442123
2022-05-26,0.2343260188087816
2022-05-27,1.3994835121176012
2022-05-30,1.5016928898625794
2022-05-31,1.9732943876486455
2022-06-01,1.8844167025398266
2022-06-02,2.2687051192958148
2022-06-06,1.8910846620256132
2022-06-07,2.286219081272082
2022-06-08,2.989389346037245
2022-06-09,1.9574736842105305
2022-06-10,2.5574676014446527
2022-06-13,1.8858387799564122
2022-06-14,2.0134242957746378
2022-06-15,0.1016949152542374
2022-06-16,-1.057590557590568
2022-06-17,-1.6457317073170765
2022-06-20,-2.3991861648016335
2022-06-21,-3.2892223738062825
2022-06-22,-4.263060392738054
2022-06-23,-4.8108831400535195
2022-06-24,-6.243243243243236
2022-06-27,-5.678704856787047
2022-06-28,-4.210693248753967
2022-06-29,-3.953726753551033
2022-06-30,-3.7795947901591993
2022-07-01,-4.3050801412659645
2022-07-04,-4.235967452765136
2022-07-05,-4.948232490401166
2022-07-06,-5.503184713375793
2022-07-07,-5.429608663549104
2022-07-08,-3.832290067320179
2022-07-11,-3.2153863978681487
2022-07-12,-2.949632859109689
2022-07-13,-2.8320908361050594
2022-07-14,-1.6712806539509566
2022-07-15,-1.5854383358098074
2022-07-18,-0.7654136939623024
2022-07-19,-1.1217662337662377
2022-07-20,-0.8587950793817631
2022-07-21,-0.5120469083155599
2022-07-22,-0.3057113425660974
2022-07-25,0.10866305225516082
2022-07-26,0.953233717349151
2022-07-27,1.2075405626240177
2022-07-28,2.1671195652173947
2022-07-29,2.367837774109881
2022-08-01,1.8619896492236934
2022-08-02,2.0065949323151724
2022-08-03,1.9518577953339105
2022-08-04,0.903544026306176
2022-08-05,1.2230980980981012
2022-08-08,1.5301369863013705
2022-08-09,1.3209953732649722
2022-08-10,1.0193224268968166
2022-08-11,1.7173913043478266
2022-08-12,2.161867486720719
2022-08-15,0.9052530253025276
2022-08-16,0.15339025356374816
2022-08-17,0.11687641300097151
2022-08-18,-0.7572492009525497
2022-08-19,-0.7573556383693011
2022-08-22,-0.44334438481101346
2022-08-23,-0.40461551071686247
2022-08-24,0.6405009663885047
2022-08-25,0.4481491203282025
2022-08-26,0.037556326806747635
2022-08-29,-0.30725662998185616
2022-08-30,-0.4983666082970802
2022-08-31,-0.17332621348456956
2022-09-01,-1.5802996305045092
2022-09-02,-2.052048680612657
2022-09-05,-1.2976865264522268
2022-09-06,-1.1571878186044906
2022-09-07,-2.3316288790812396
2022-09-08,-2.3911066725126067
2022-09-09,-1.8908168820813744
2022-09-13,-1.057168299198569
2022-09-14,-1.2106324472960568
2022-09-15,-1.4492095220788606
2022-09-16,-1.5840014917024068
2022-09-19,-1.7683131407269241
2022-09-20,-1.6020676691729359
2022-09-21,-0.8056649784280606
2022-09-22,-0.3621757646147887
2022-09-23,-0.031773879142299705
2022-09-26,-1.032774533810508
2022-09-27,0.13402829486224402
2022-09-28,0.872106049290515
2022-09-29,1.2825251601097902
2022-09-30,2.041290570386024
2022-10-10,1.9550727306205182
2022-10-11,1.8242723778143894
2022-10-12,2.0588660166124906
2022-10-13,2.332458278642419
2022-10-14,2.2051187626588105
2022-10-17,1.1313721907546026
2022-10-18,1.6379150435911694
2022-10-19,2.0778082191780882
2022-10-20,1.5169258920402506
2022-10-21,0.9952727272727223
2022-10-24,0.3323715058611455
2022-10-25,0.41344046749452656
2022-10-26,0.7167038690476222
2022-10-27,0.48058252427184267
2022-10-28,-0.27078039927405334
2022-10-31,-1.044274238744628
2022-11-01,0.2764590398001054
2022-11-02,0.5145409950946086
2022-11-03,0.3255644573925662
2022-11-04,1.324732315253647
2022-11-07,1.4841871647863922
2022-11-08,1.6269735590641048
2022-11-09,1.540644912145209
2022-11-10,1.9950105545960453
2022-11-11,1.7087839119711636
2022-11-14,1.4127317912445032
2022-11-15,1.9492767598842882
2022-11-16,1.3417869683964077
2022-11-17,1.7361384191899356
2022-11-18,0.8821248545948139
2022-11-21,-0.7609756097560946
2022-11-22,-1.1031475161168027
2022-11-23,-1.3051498847040786
2022-11-24,-1.019230769230774
2022-11-25,-1.6728407096899993
2022-11-28,-1.3463665840167833
2022-11-29,-1.1319416295095317
2022-11-30,-0.7072658546829085
2022-12-01,-1.4376782077393118
2022-12-02,-1.2800424628450076
2022-12-05,-1.5582191780821917
2022-12-06,-1.4330051369863013
2022-12-07,-1.6432443703085957
2022-12-08,-0.9913575042158537
2022-12-09,-0.3326865028029394
2022-12-12,-1.1555323590814228
2022-12-13,-0.09237595804759606
2022-12-14,0.4455805239553724
2022-12-15,0.8378760637859727
2022-12-16,-0.1151168652230855
2022-12-19,-0.7608018710859005
2022-12-20,-0.7457286828221708
2022-12-21,-0.31360957340432744
2022-12-22,-0.3433329183976862
2022-12-23,-0.3755285613719568
2022-12-26,0.15279464565168938
2022-12-27,1.6619783106240522
2022-12-28,1.8930775740087042
2022-12-29,1.9969760670446246
2022-12-30,2.1035588329456476
2023-01-03,1.8492525552846828
2023-01-04,1.3669157614773404
2023-01-05,0.34994274714784096
2023-01-06,0.11166406017925944
2023-01-09,-0.640069050512577
2023-01-10,-1.2785785536075203
2023-01-11,-1.2789764174611158
2023-01-12,-1.4809547993905545
2023-01-13,-2.0829813664596246
2023-01-16,-1.9826109525045348
2023-01-17,-1.9269662921348407
2023-01-18,-1.2950558213716148
2023-01-19,-1.7752269087026167
2023-01-20,-1.6477024070021904
2023-01-30,-1.3707772589947818
2023-01-31,-1.729395218002828
2023-02-01,-1.65197841726619
2023-02-02,-2.8683465458663626
2023-02-03,-1.3904941938968387
2023-02-06,-0.8955424274973084
2023-02-07,-0.8536856745479867
2023-02-08,-0.79722458227131
2023-02-09,-0.5237258347978846
2023-02-10,-1.1992020518666284
2023-02-13,-0.5488505747126451
2023-02-14,-0.3302086483217337
2023-02-15,-0.6669650850492379
2023-02-16,0.07899356348741902
2023-02-17,0.6950375939849714
2023-02-20,0.39975437519189827
2023-02-21,0.4140340218712015
2023-02-22,0.3357617991764355
2023-02-23,-0.25815558343790135
2023-02-24,-0.09574803149606682
2023-02-27,-0.3039060019053783
2023-02-28,-0.2877204441541484
2023-03-01,-0.1668335001668417
2023-03-02,0.47321745299752027
2023-03-03,1.253333333333327
2023-03-06,-0.4270758122743784
2023-03-07,-0.859985261606485
2023-03-08,-1.5323819978046085
2023-03-09,-2.1247288503253827
2023-03-10,-4.2141364902506995
2023-03-13,-4.38685612788634
2023-03-14,-4.299457994579959
2023-03-15,-4.777664974619303
2023-03-16,-5.875784605219685
2023-03-17,-4.877275580665418
2023-03-20,-4.75084589357122
2023-03-21,-4.966716641679171
2023-03-22,-4.7739206534422545
2023-03-23,-5.776127766881486
2023-03-24,-5.2064008679143035
2023-03-27,-4.448593215882196
2023-03-28,-3.2585278276481215
2023-03-29,-3.042179261862929
2023-03-30,-2.2529702970297025
2023-03-31,-1.1875304432537799
2023-04-03,-0.8170641750676174
2023-04-04,-0.2474477394263533
2023-04-06,0.07608695652172737
2023-04-07,0.29611537566875185
2023-04-10,-0.11127308066083659
2023-04-11,0.4400960384153678
2023-04-12,-0.006336609597809813
2023-04-13,-0.15747286125369234
2023-04-14,0.008790998038750115
2023-04-17,0.18346906558005327
2023-04-18,0.9954012099271113
2023-04-19,0.8905353185378683
2023-04-20,0.1997535985621048
2023-04-21,-0.6976156494759048
2023-04-24,-1.4227159036458075
2023-04-25,-1.4000092628571374
2023-04-26,-1.8012109303561015
2023-04-27,-2.218383843138671
2023-04-28,-2.2561310020362044
2023-05-04,-1.64617845541597
2023-05-05,-1.3722914970410203
2023-05-08,-0.39453575475068764
2023-05-09,-0.748086657010105
2023-05-10,-0.6021254485400472
2023-05-11,-1.433729301714213
2023-05-12,-1.6880474710370106
2023-05-15,-0.9595085171739732
2023-05-16,-1.0467787114845908
2023-05-17,-1.4553546592489646
2023-05-18,-1.5772879464285776
2023-05-19,-0.8873898678414073
2023-05-22,-2.320512820512824
2023-05-23,-2.2977893368010482
2023-05-24,-1.974636723910171
2023-05-25,-1.4229647308406332
2023-05-26,-0.9965590259396445
2023-05-29,-1.0739436619718312
2023-05-30,-1.1566232356134574
2023-05-31,-2.447225806451605
2023-06-01,-1.6090621707060018
2023-06-02,-0.9375325351379638
2023-06-05,-0.7444357161560627
2023-06-06,-0.5563870967741921
2023-06-07,-0.647270854788882
2023-06-08,-0.6848849372384893
2023-06-09,0.7723536737235324
2023-06-12,0.4185869840465966
2023-06-13,0.9267619764233669
2023-06-14,1.6056232893754647
2023-06-15,1.901320707699977
2023-06-16,3.2266861456050706
2023-06-19,3.2925117004680273
2023-06-20,3.5350854809900523
2023-06-21,2.681176751973217
2023-06-26,3.0687855787476424
2023-06-27,2.6635048612757988
2023-06-28,2.8433041877588647
2023-06-29,2.578596087456848
2023-06-30,2.8047912713472405
2023-07-03,4.605095541401281
2023-07-04,3.9067759078830897
2023-07-05,3.473178363880202
2023-07-06,3.9433116737620506
2023-07-07,3.0505494505494597
2023-07-10,3.100393700787409
2023-07-11,3.231262436435998
2023-07-12,3.571334214002647
2023-07-13,3.6261826182618258
2023-07-14,3.1750556792873077
2023-07-17,2.2507135016465543
2023-07-18,2.408668028137055
2023-07-19,2.115810902510745
2023-07-20,2.7460031524431368
2023-07-21,2.583293211362549
2023-07-24,1.3469436485195831
2023-07-25,1.3013213780084902
2023-07-26,1.6762744163887577
2023-07-27,0.888941176470587
2023-07-28,0.40692758756511765
2023-07-31,-0.9642992485536225
2023-08-01,-0.7874112379099835
2023-08-02,-1.061586653439461
2023-08-03,-1.9430168550769666
2023-08-04,-1.5979599896427203
2023-08-07,-1.4690855727419168
2023-08-08,-1.9699714417760508
2023-08-09,-1.2812736239331304
2023-08-10,-1.8564688929189737
2023-08-11,-2.040578159319658
2023-08-14,-1.787589273312153
2023-08-15,-1.2674539522623225
2023-08-16,-1.2580778787328646
2023-08-17,-0.2019986783592585
2023-08-18,-0.32156572053446003
2023-08-21,0.4044241595245285
2023-08-22,-0.10447864782817412
2023-08-23,-0.15117976797173766
2023-08-24,0.749699446982449
2023-08-25,0.9512732615083296
2023-08-28,1.0094726062468016
2023-08-29,1.4561979298157008
2023-08-30,1.5413380819130027
2023-08-31,1.4585167747247847
2023-09-01,1.5494654933396703
2023-09-04,0.31874672749006394
2023-09-05,0.2035993881589723
2023-09-06,0.05582199554833406
2023-09-07,-0.9114337252632841
2023-09-08,-1.5433704506365138
2023-09-11,-1.244487275364981
2023-09-12,-1.451113749211026
2023-09-13,-2.392864567269924
2023-09-14,-1.4492458934535266
2023-09-15,-0.9770603919456385
2023-09-18,-1.3236820660197668
2023-09-19,-2.482511951491203
2023-09-20,-2.071418892676315
2023-09-21,-2.9904347671710627
2023-09-22,-1.9720524064561136
2023-09-25,-1.8785470407502065
2023-09-26,-1.9955927413978618
2023-09-27,-1.0481863913158587
2023-09-28,-0.1325269524059899
2023-10-09,-0.49272773666752356
2023-10-10,-1.1466563387554882
2023-10-11,-1.0574211740579276
2023-10-12,-0.1525851197982317
2023-10-13,0.8268497330282191
2023-10-16,0.9223251028806518
2023-10-17,0.9760778128285977
2023-10-18,0.6473958333333409
2023-10-19,0.26790595954073215
2023-10-20,-0.882160392798682
2023-10-23,-0.6840190316260839
2023-10-24,-1.6382344976983492
2023-10-25,-1.862175873731671
2023-10-26,-0.8324068927181745
2023-10-27,-1.2174283281294265
2023-10-30,-1.1423231742380677
2023-10-31,-1.4471180749860082
2023-11-01,-1.318143459915613
2023-11-02,-0.8857538035961191
2023-11-03,-0.28413488114981333
2023-11-06,-0.2707549898756174
2023-11-07,-0.8866313309776201
2023-11-08,-0.6862860506180133
2023-11-09,-1.0771761890517486
2023-11-10,-0.5674772036474263
2023-11-13,0.18791742562234343
2023-11-14,0.8508335770693118
2023-11-15,1.3564473295957395
2023-11-16,0.724730556364701
2023-11-17,-0.15672963400236728
2023-11-20,0.18440127573208992
2023-11-21,-0.13317619328226452
2023-11-22,0.4395220052462993
2023-11-23,-0.502027809965234
2023-11-24,-0.7007642563198164
2023-11-27,-0.3486049926578494
2023-11-28,0.033017865923017906
2023-11-29,-0.350721554656882
2023-11-30,0.3513783010702382
2023-12-01,-0.8354741320907965
2023-12-04,-1.0479989972057786
2023-12-05,-1.3502450894960332
2023-12-06,-2.3015974142046756
2023-12-07,-2.379724523737611
2023-12-08,-1.1403586705840458
2023-12-11,-1.3436774492313968
2023-12-12,-0.9391111986269095
2023-12-13,-1.5443281966350415
2023-12-14,-1.6386766850765289
2023-12-15,-1.6083749014491902
2023-12-18,-1.4689069312045848
2023-12-19,-1.5180091350072247
2023-12-20,-1.608496474747029
2023-12-21,-1.0828431783838746
2023-12-22,-1.1257779521733622
2023-12-25,-0.734667103968502
2023-12-26,-0.6009999999999969
2023-12-27,-0.04024767801857985
2023-12-28,0.0020666439268906406
2023-12-29,-1.029385011759124
2024-01-02,-1.4923886744337402
2024-01-03,-1.798752225804118
2024-01-04,-1.6716833890746983
2024-01-05,-1.6582924731525583
2024-01-08,-2.0359852170289074
2024-01-09,-1.1592082146010054
2024-01-10,-0.4575903895028733
2024-01-11,-0.3541498567405494
2024-01-12,-0.6610983720519982
2024-01-15,0.16456570879262664
2024-01-16,0.17025508823858182
2024-01-17,-0.20348580340792496
2024-01-18,0.4618209126019003
2024-01-19,0.9443635960620079
2024-01-22,-0.19721561052519665
2024-01-23,0.6289678371775799
2024-01-24,1.3338944165622197
2024-01-25,0.6749805144193054
2024-01-26,0.22874806800618633
2024-01-29,-0.8678046843985747
2024-01-30,-2.164696911932898
2024-01-31,-1.9968786578228679
2024-02-01,-1.402140672782896
2024-02-02,-1.6880664652567956
2024-02-05,-1.5150943396226344
2024-02-06,-1.4574803149606301
2024-02-07,-1.9935114503816795
2024-02-08,-1.182086251382219
2024-02-19,-0.979143798024162
2024-02-20,-0.8064638783270102
2024-02-21,-0.7136311569301335
2024-02-22,-0.04266666666667197
2024-02-23,-0.5097439816583732
2024-02-26,-0.9494148735371751
2024-02-27,0.034759358288753234
2024-02-28,0.22716346153846204
2024-02-29,0.6635589785164184
2024-03-01,1.1361043194784
2024-03-04,0.9559183673469387
2024-03-05,1.0539748953975094
2024-03-06,2.0850515463917656
2024-03-07,2.2038327526132595
2024-03-08,3.0000000000000226
2024-03-11,2.0659722222222276
2024-03-12,2.575294631165441
2024-03-13,2.3856893542757462
2024-03-14,2.859361135758661
2024-03-15,2.9397810218978058
2024-03-18,2.9144086021505413
2024-03-19,2.529535864978907
2024-03-20,3.053283767038424
2024-03-21,3.105219552609781
2024-03-22,2.4611248966087675
2024-03-25,1.8336798336798341
2024-03-26,0.7095199349064153
2024-03-27,-0.4587227414330336
2024-03-28,-0.8936915887850392
2024-03-29,-0.45939675174013905
2024-04-01,-0.6118546845124226
2024-04-02,-0.19857357357356697
2024-04-03,0.42171865640813533
2024-04-08,-0.15839437506950904
2024-04-09,0.1464315180219009
2024-04-10,0.2032628141534141
2024-04-11,-0.25194956297554993
2024-04-12,-0.8743256170179016
2024-04-15,-0.833338148497234
2024-04-16,-1.3684044543950693
2024-04-17,-1.8184973871358519
2024-04-18,-1.6489390534272585
2024-04-19,-1.5929036460752257
2024-04-22,-1.084180893966201
2024-04-23,1.1452980309958063
2024-04-24,1.314889888996335
2024-04-25,0.3521020396355471
2024-04-26,0.8223851441985193
2024-04-29,1.3131236796172627
2024-04-30,0.9958758739544101
2024-05-06,1.593210582662377
2024-05-07,2.3696498054474704
2024-05-08,2.4182200841852106
2024-05-09,1.9221336603310992
2024-05-10,1.3639062036212526
2024-05-13,2.4218089602704977
2024-05-14,2.676681367144432
2024-05-15,2.0519944979367235
2024-05-16,1.5916317991631699
2024-05-17,2.110957769804028
2024-05-20,1.6779518746502542
2024-05-21,1.6423769830599704
2024-05-22,1.875408942202834
2024-05-23,1.3188253801782917
2024-05-24,1.0576434020909906
2024-05-27,0.5195858981533268
2024-05-28,1.1162524992859082
2024-05-29,1.6498607242339662
2024-05-30,0.222849462365596
2024-05-31,0.6273532668881472
2024-06-03,-0.752373417721518
2024-06-04,-1.1567104205732723
2024-06-05,-1.24179666487359
2024-06-06,-0.9554655870445254
2024-06-07,-1.00248344370861
2024-06-11,-1.2915002852253206
2024-06-12,-0.8418766290182387
2024-06-13,-1.5211308656368348
2024-06-14,-1.6192443919716732
2024-06-17,-2.483129726585218
2024-06-18,-2.159445918066606
2024-06-19,-1.714549369424792
2024-06-20,-1.3900996264009744
2024-06-21,-2.0102960102960004
2024-06-24,-1.3515500159795342
2024-06-25,-1.8286802030456861
2024-06-26,-1.3016992625841561
2024-06-27,-1.223255813953481
2024-06-28,-0.6458553791887248
2024-07-01,0.1564147627416507
2024-07-02,2.0873889875666087
2024-07-03,2.0218849276385487
2024-07-04,2.2020979020979077
2024-07-05,1.7117425539198912
2024-07-08,1.6048879837067225
2024-07-09,0.5565656565656454
2024-07-10,-1.052846807172067
2024-07-11,-1.1509925154572116
2024-07-12,-0.5445042762115867
2024-07-15,-0.6186061381074176
2024-07-16,-0.8210425937698618
2024-07-17,-0.7454488386691747
2024-07-18,0.7567089354172828
2024-07-19,0.7920997920997958
2024-07-22,1.1145268233875858
2024-07-23,1.1402327005511312
2024-07-24,0.624233128834347
2024-07-25,0.38410395889996685
2024-07-26,1.227696793002908
2024-07-29,0.46614872364040416
2024-07-30,-0.6016949152542342
2024-07-31,-0.7507886435331169
2024-08-01,-1.2979020979020983
2024-08-02,-0.8855438795796554
2024-08-05,-0.9827048483130109
2024-08-06,-2.252339020363232
2024-08-07,-2.4466952651654634
2024-08-08,-2.0845429776780113
2024-08-09,-1.3506916039059027
2024-08-12,-1.3730559378893015
2024-08-13,-2.468018930639274
2024-08-14,-2.9436865990184025
2024-08-15,-2.5891455372994705
2024-08-16,-2.4761799876370403
2024-08-19,-2.036603862682489
2024-08-20,-1.80298529018773
2024-08-21,-1.0603512773266384
2024-08-22,-1.082545405029414
2024-08-23,-1.1250326530810273
2024-08-26,0.43394225295761585
2024-08-27,1.0290093112510807
2024-08-28,1.2419377017324675
2024-08-29,1.1196614309743567
2024-08-30,2.2000728694709917
2024-09-02,0.8669292442240881
2024-09-03,3.6611345805672877
2024-09-04,2.862912735849048
2024-09-05,2.747864506627382
2024-09-06,2.6810395747194216
2024-09-09,2.568916619398737
2024-09-10,2.116279069767437
2024-09-11,2.5382608695652107
2024-09-12,2.3907189916929217
2024-09-13,2.3479082321187494
2024-09-18,3.0181672455249715
2024-09-19,2.752324380165293
2024-09-20,2.586099585062236
2024-09-23,1.9595316874522675
2024-09-24,2.3942770321600455
2024-09-25,2.046296296296294
2024-09-26,2.677227722772276
2024-09-27,2.578520286396177
2024-09-30,2.2777394900068915
2024-10-08,2.1601321585903093
2024-10-09,1.8110792319576219
2024-10-10,2.285477375029614
2024-10-11,2.075440266539741
2024-10-14,1.2855509830818401
2024-10-15,0.9697864606996719
2024-10-16,1.5279176201373028
2024-10-17,0.7354853171934578
2024-10-18,0.9989051894022327
2024-10-21,-0.373106453621086
2024-10-22,-0.009667024704622796
2024-10-23,0.8752936152039211
2024-10-24,1.0549189189189259
2024-10-25,1.1579513664729977
2024-10-28,0.6984431648539153
2024-10-29,0.11946712505372031
2024-10-30,-0.04453441295546066
2024-10-31,-0.27697762020830013
2024-11-01,1.0214797136038236
2024-11-04,0.6585419898072254
2024-11-05,-0.26572943074440464
2024-11-06,-0.3560393258426971
2024-11-07,-0.21175908221798348
2024-11-08,1.2885223678264826
2024-11-11,1.3694457169033398
2024-11-12,-0.15090631142171018
2024-11-13,-1.066854786194923
2024-11-14,-1.217804285398721
2024-11-15,-1.268897996357023
2024-11-18,-1.1921334922526825
2024-11-19,-0.7857142857142865
2024-11-20,-0.8531501657982008
2024-11-21,-1.4929544387036184
2024-11-22,-2.236445444319457
2024-11-25,-1.9343637992831544
2024-11-26,-2.7473317360052283
2024-11-27,-2.2239858906525636
2024-11-28,-2.2957283680175165
2024-11-29,-2.1922462941847254
2024-12-02,-1.6816650321319015
2024-12-03,-1.7829441839445808
2024-12-04,-2.6657316668086493
2024-12-05,-2.195072011608024
2024-12-06,-1.4548167334851512
2024-12-09,-1.0418338036334254
2024-12-10,-0.9730466230738776
2024-12-11,0.20820169182401915
2024-12-12,-0.3408633270684794
2024-12-13,-0.4614478884657697
2024-12-16,0.45564907709576064
2024-12-17,0.4193659293803873
2024-12-18,-0.7747703699703675
2024-12-19,-0.9741424639993003
2024-12-20,0.63834380825603
2024-12-23,0.2899927727171808
2024-12-24,0.4360884685988929
2024-12-25,0.4506624334147265
2024-12-26,0.38977960203403467
2024-12-27,0.541624365482237
2024-12-30,0.33073525591062936
2024-12-31,0.8371731814651854
