date,FCT_Bias_1@5
2018-11-27,
2018-11-28,
2018-11-29,
2018-11-30,
2018-12-03,
2018-12-04,-0.2811839323467221
2018-12-05,0.22815533980582745
2018-12-06,0.25888324873096563
2018-12-07,0.30348258706467773
2018-12-10,0.32666666666666516
2018-12-11,-0.3401360544217687
2018-12-12,0.04166666666666322
2018-12-13,-0.07017543859648724
2018-12-14,0.010152284263961699
2018-12-17,0.10919540229885581
2018-12-18,-0.08759124087591573
2018-12-19,-0.8170731707317129
2018-12-20,-0.6225165562913968
2018-12-21,-0.6783216783216814
2018-12-24,-1.0747126436781635
2018-12-25,-0.42702702702703194
2018-12-26,-0.9717514124293811
2018-12-27,-0.425531914893617
2018-12-28,0.7079646017699115
2019-01-02,0.8552631578947368
2019-01-03,0.7129629629629671
2019-01-04,0.7919999999999981
2019-01-07,0.6406250000000036
2019-01-08,0.35426008968610273
2019-01-09,1.2758620689655154
2019-01-10,0.5486111111111095
2019-01-11,0.8032786885245865
2019-01-14,0.2295719844358012
2019-01-15,-0.412408759124086
2019-01-16,0.30973451327433627
2019-01-17,0.21078431372548798
2019-01-18,0.7142857142857143
2019-01-21,1.0894308943089412
2019-01-22,0.4980694980695016
2019-01-23,0.3927125506072893
2019-01-24,-0.22463768115942193
2019-01-25,-0.1504065040650425
2019-01-28,-0.7351778656126446
2019-01-29,-0.6576576576576536
2019-01-30,-0.42081447963800694
2019-01-31,0.6974789915966348
2019-02-01,1.0000000000000036
2019-02-11,0.2162162162162127
2019-02-12,0.6971830985915477
2019-02-13,0.02295081967213264
2019-02-14,-0.3344827586206912
2019-02-15,-0.40530303030303205
2019-02-18,-0.041841004184100423
2019-02-19,0.7758620689655172
2019-02-20,0.4933333333333293
2019-02-21,1.2966101694915215
2019-02-22,1.241935483870966
2019-02-25,0.3039999999999964
2019-02-26,-0.11475409836065388
2019-02-27,-0.46351931330471907
2019-02-28,-0.5825242718446602
2019-03-01,0.1927083333333357
2019-03-04,-0.18859649122806818
2019-03-05,-0.049549549549545456
2019-03-06,-0.07339449541283986
2019-03-07,-0.8421052631578967
2019-03-08,-1.0368852459016376
2019-03-11,-0.6157407407407386
2019-03-12,-0.3756097560975632
2019-03-13,-0.21327014218009477
2019-03-14,-0.3750000000000024
2019-03-15,0.04444444444444192
2019-03-18,0.23926380368098715
2019-03-19,0.3954802259887006
2019-03-20,-0.8863636363636364
2019-03-21,-0.7184466019417454
2019-03-22,-0.4670050761421343
2019-03-25,-0.474489795918365
2019-03-26,-0.05555555555555555
2019-03-27,-0.06617647058824198
2019-03-28,-0.9943502824858707
2019-03-29,0.23831775700934155
2019-04-01,0.41409691629956347
2019-04-02,0.2765957446808511
2019-04-03,0.9125475285171103
2019-04-04,0.4888888888888889
2019-04-08,0.6938775510204035
2019-04-09,0.16666666666666904
2019-04-10,0.004807692307687935
2019-04-11,0.32275132275131796
2019-04-12,-0.07179487179487645
2019-04-15,-0.16666666666667113
2019-04-16,-0.40404040404040403
2019-04-17,-0.7647058823529388
2019-04-18,-0.47590361445783674
2019-04-19,0.20555555555555807
2019-04-22,0.5131578947368391
2019-04-23,-0.4367088607594994
2019-04-24,-0.1910828025477707
2019-04-25,-0.3774834437086123
2019-04-26,-1.1066666666666607
2019-04-29,-0.5810810810810749
2019-04-30,-1.2086330935251766
2019-05-06,-1.4334763948497893
2019-05-07,-0.7694088319088362
2019-05-08,-0.5742460426016374
2019-05-09,-0.6869184043657152
2019-05-10,-0.14141027921038776
2019-05-13,0.4874999999999928
2019-05-14,-0.7644628099173467
2019-05-15,-0.5482625482625472
2019-05-16,-0.44621513944222846
2019-05-17,-0.655172413793097
2019-05-20,-0.32818532818533275
2019-05-21,-0.034090909090909616
2019-05-22,-0.8542713567839219
2019-05-23,-0.45754716981131693
2019-05-24,-0.3170731707317122
2019-05-27,-0.01886792452830217
2019-05-28,0.13524590163934627
2019-05-29,0.39285714285714846
2019-05-30,-0.3289473684210578
2019-05-31,-0.5441176470588209
2019-06-03,-1.557251908396942
2019-06-04,-1.126086956521735
2019-06-05,-1.126086956521735
2019-06-06,-1.0763052208835389
2019-06-10,-0.39516129032258496
2019-06-11,0.24064171122993736
2019-06-12,-0.46728971962617416
2019-06-13,-0.13145539906103454
2019-06-14,-0.4237288135593147
2019-06-17,-0.2849462365591318
2019-06-18,-0.14207650273223021
2019-06-19,-0.09826589595375851
2019-06-20,-0.3750000000000042
2019-06-21,-0.40000000000000424
2019-06-24,0.15517241379310506
2019-06-25,0.42458100558658385
2019-06-26,0.08235294117647146
2019-06-27,-0.1584699453551932
2019-06-28,0.7428571428571327
2019-07-01,0.9846153846153792
2019-07-02,0.8939393939393876
2019-07-03,0.44604316546762285
2019-07-04,0.6299694189602456
2019-07-05,0.3432835820895484
2019-07-08,-0.4270833333333308
2019-07-09,-1.3029411764705856
2019-07-10,-0.9093484419263456
2019-07-11,-0.5183946488294385
2019-07-12,-0.2640845070422569
2019-07-15,0.12554112554112726
2019-07-16,0.19767441860464063
2019-07-17,-0.2413793103448306
2019-07-18,-0.4591194968553511
2019-07-19,0.0751445086705212
2019-07-22,0.3225806451612821
2019-07-23,0.6683417085427098
2019-07-24,-0.19457013574660834
2019-07-25,-0.16080402010050435
2019-07-26,-0.3770491803278735
2019-07-29,-0.010362694300518257
2019-07-30,-0.1117318435754204
2019-07-31,0.21794871794873558
2019-08-01,-0.4759036144578378
2019-08-02,-0.7559808612440182
2019-08-05,-0.8186528497409306
2019-08-06,0.01522842639592779
2019-08-07,0.14720812182741286
2019-08-08,0.49000000000000554
2019-08-09,0.7197452229299426
2019-08-12,1.0794714748116299
2019-08-13,0.7674556708565842
2019-08-14,0.4781051857228835
2019-08-15,-0.5083056192906995
2019-08-16,-0.3252427184466111
2019-08-19,0.3737373737373719
2019-08-20,-0.48684210526315497
2019-08-21,-0.16216216216216672
2019-08-22,-0.6476683937823774
2019-08-23,0.024271844660184515
2019-08-26,1.110655737704927
2019-08-27,0.8303571428571381
2019-08-28,0.5200000000000117
2019-08-29,0.03999999999999852
2019-08-30,-0.6488888888888843
2019-09-02,-0.41040462427744934
2019-09-03,0.07185628742515171
2019-09-04,0.29559748427673105
2019-09-05,-0.01886792452830601
2019-09-06,-0.10389610389610143
2019-09-09,0.4409937888198663
2019-09-10,-0.19512195121952206
2019-09-11,-0.3478260869565361
2019-09-12,-0.5442176870748344
2019-09-16,0.41558441558440573
2019-09-17,1.1599999999999968
2019-09-18,0.6564417177914066
2019-09-19,0.27777777777778206
2019-09-20,-0.34000000000000047
2019-09-23,-0.16384180790960956
2019-09-24,-0.3710691823899394
2019-09-25,-0.3157894736842033
2019-09-26,-0.34351145038168357
2019-09-27,-1.6942675159235647
2019-09-30,-0.7650602409638598
2019-10-08,-0.37869822485206306
2019-10-09,0.3920454545454609
2019-10-10,0.3160919540229954
2019-10-11,0.2076923076923167
2019-10-14,-0.6594202898550877
2019-10-15,-0.5416666666666615
2019-10-16,-0.9338842975206648
2019-10-17,-0.7596899224806163
2019-10-18,-0.09523809523809751
2019-10-21,-0.5798319327731181
2019-10-22,0.19424460431653906
2019-10-23,0.44444444444445624
2019-10-24,0.30399999999998695
2019-10-25,0.2440944881889632
2019-10-28,-0.4108527131782888
2019-10-29,0.3999999999999936
2019-10-30,0.7383177570093201
2019-10-31,0.19090909090909033
2019-11-01,-0.3495934959349479
2019-11-04,-0.07407407407408313
2019-11-05,0.2755102040816225
2019-11-06,-0.9747899159663966
2019-11-07,-0.8135593220338984
2019-11-08,-0.4594594594594757
2019-11-11,-0.4344262295081906
2019-11-12,-0.2950819672131034
2019-11-13,-0.2574257425742614
2019-11-14,-0.31632653061225163
2019-11-15,-0.8144329896907189
2019-11-18,-0.4827586206896541
2019-11-19,-1.0
2019-11-20,-0.9897959183673511
2019-11-21,-0.14141414141416406
2019-11-22,-0.019999999999996573
2019-11-25,0.5463917525773105
2019-11-26,0.2873563218390722
2019-11-27,-0.10126582278479321
2019-11-28,-0.5263157894736689
2019-11-29,-1.1287128712871284
2019-12-02,-1.4560000000000008
2019-12-03,-0.7999999999999793
2019-12-04,-0.4615384615384571
2019-12-05,0.10084033613445696
2019-12-06,0.09999999999998378
2019-12-09,0.48275862068965664
2019-12-10,0.16091954022988553
2019-12-11,0.41379310344826187
2019-12-12,0.4810126582278585
2019-12-13,0.25716906440088844
2019-12-16,-0.17873395307659318
2019-12-17,-0.02599967089025767
2019-12-18,-0.6986050247045144
2019-12-19,-0.18181818181815543
2019-12-20,-0.10810810810811489
2019-12-23,1.0416666666666472
2019-12-24,0.8124999999999967
2019-12-25,0.6896551724137997
2019-12-26,0.4065934065933964
2019-12-27,0.2857142857142684
2019-12-30,0.5333333333333359
2019-12-31,-0.12820512820514385
2020-01-02,0.0
2020-01-03,-0.2077922077922205
2020-01-06,-1.047619047619025
2020-01-07,-0.3456790123456854
2020-01-08,1.2086956521739185
2020-01-09,0.9843749999999905
2020-01-10,0.48550724637680104
2020-01-13,0.6043165467625928
2020-01-14,0.013698630136975098
2020-01-15,-0.046296296296313426
2020-01-16,0.11538461538461241
2020-01-17,0.021052631578955167
2020-01-20,1.2990654205607544
2020-01-21,-0.7342657342657202
2020-01-22,-0.9746835443037941
2020-01-23,-1.1079545454545474
2020-02-03,-1.5425867507886455
2020-02-04,-0.5192878338278932
2020-02-05,-0.2736156351791606
2020-02-06,0.15436241610737536
2020-02-07,0.16849816849816918
2020-02-10,-0.11851851851850909
2020-02-11,0.2795698924731445
2020-02-12,0.06315789473681512
2020-02-13,0.24468085106384302
2020-02-14,0.17777777777776332
2020-02-17,0.5977011494252876
2020-02-18,0.5483870967741882
2020-02-19,0.6867469879518299
2020-02-20,1.6862745098039364
2020-02-21,1.187499999999993
2020-02-24,0.37762237762238404
2020-02-25,-0.06802721088436266
2020-02-26,-0.6688741721854408
2020-02-27,-1.0073529411764768
2020-02-28,-1.302816901408445
2020-03-02,-0.47656250000000805
2020-03-03,0.008000000000021983
2020-03-04,0.24369747899160632
2020-03-05,0.4196428571428618
2020-03-06,0.9124087591240936
2020-03-09,-0.2931937172774822
2020-03-10,0.36190476190475884
2020-03-11,0.19354838709679065
2020-03-12,-0.09691629955947569
2020-03-13,-0.2585365853658562
2020-03-16,-0.5609756097561157
2020-03-17,-0.5136986301369799
2020-03-18,-0.16326530612244397
2020-03-19,0.4883720930232405
2020-03-20,-0.20994475138121274
2020-03-23,-0.7062500000000056
2020-03-24,-0.023529411764700518
2020-03-25,0.23353293413173687
2020-03-26,0.7412587412587464
2020-03-27,1.1602564102563964
2020-03-30,-0.09714285714286587
2020-03-31,-0.1629213483146
2020-04-01,-0.46560846560846175
2020-04-02,-0.3048128342246096
2020-04-03,-0.2278481012658319
2020-04-07,0.6475492077026906
2020-04-08,0.2507853743224055
2020-04-09,-0.10638297872341301
2020-04-10,-0.22928123015253113
2020-04-13,-0.5514705882352944
2020-04-14,-0.04878048780488664
2020-04-15,-0.13333333333333333
2020-04-16,0.0943396226415259
2020-04-17,0.0707070707070957
2020-04-20,-0.6274509803921753
2020-04-21,-1.8080000000000158
2020-04-22,-0.6792452830188692
2020-04-23,-0.44805194805197346
2020-04-24,-0.21428571428572918
2020-04-27,-0.18518518518518853
2020-04-28,-0.1538461538461628
2020-04-29,-0.45544554455446545
2020-04-30,0.40952380952382655
2020-05-06,-0.3920000000000028
2020-05-07,-0.35454545454543984
2020-05-08,0.15789473684211291
2020-05-11,-0.11504424778762092
2020-05-12,-0.1367521367521407
2020-05-13,-0.9747899159664003
2020-05-14,-0.8984375000000058
2020-05-15,-0.32539682539683745
2020-05-18,-0.4672131147541143
2020-05-19,0.11403508771928716
2020-05-20,0.1976744186046728
2020-05-21,0.7749999999999847
2020-05-22,-0.7959183673469405
2020-05-25,-0.21428571428571375
2020-05-26,0.3737373737373766
2020-05-27,0.3099999999999927
2020-05-28,-0.02020202020202368
2020-05-29,-0.9078947368420992
2020-06-01,0.45454545454544787
2020-06-02,0.06818181818180222
2020-06-03,0.40816326530609404
2020-06-04,0.6764705882353061
2020-06-05,0.5514018691588752
2020-06-08,0.349397590361437
2020-06-09,0.10869565217390671
2020-06-10,-0.16279069767439147
2020-06-11,-1.2717391304347865
2020-06-12,-1.0574712643678066
2020-06-15,-0.8773584905660395
2020-06-16,0.16216216216216942
2020-06-17,0.10810810810810563
2020-06-18,-0.18556701030928632
2020-06-19,0.36999999999998145
2020-06-22,-0.2747252747252593
2020-06-23,-0.18181818181818354
2020-06-24,-0.01234567901236301
2020-06-29,-0.20238095238091744
2020-06-30,0.14102564102562062
2020-07-01,0.25396825396826145
2020-07-02,0.6393442622950571
2020-07-03,1.1296296296296202
2020-07-06,1.0434782608695412
2020-07-07,-0.29411764705880383
2020-07-08,-0.09615384615383986
2020-07-09,0.2807017543859714
2020-07-10,-1.013888888888888
2020-07-13,-0.5974025974026101
2020-07-14,-0.3857142857143033
2020-07-15,0.27499999999998936
2020-07-16,-0.14285714285711137
2020-07-17,-0.41428571428571825
2020-07-20,0.3108108108108177
2020-07-21,0.6883116883117039
2020-07-22,0.9880952380952245
2020-07-23,1.1470588235294086
2020-07-24,0.7079646017699088
2020-07-27,1.0661764705882344
2020-07-28,-0.42786069651741543
2020-07-29,-0.4438775510204069
2020-07-30,-0.6888888888888921
2020-07-31,-0.6842105263157942
2020-08-03,-0.43661971830985424
2020-08-04,0.45882352941174986
2020-08-05,-0.09195402298852247
2020-08-06,0.1538461538461505
2020-08-07,1.1938775510204356
2020-08-10,0.5580870453964464
2020-08-11,0.8147352771124132
2020-08-12,0.29534321729475066
2020-08-13,0.302400981423071
2020-08-14,0.07317073170730902
2020-08-17,0.04635761589403601
2020-08-18,-0.1351351351351315
2020-08-19,-0.41509433962266085
2020-08-20,-0.6382978723404104
2020-08-21,1.179487179487191
2020-08-24,1.1333333333333284
2020-08-25,0.93023255813953
2020-08-26,1.2012578616352332
2020-08-27,0.8844221105527718
2020-08-28,1.1803278688524474
2020-08-31,1.9960474308300342
2020-09-01,0.8801369863013644
2020-09-02,0.3236245954692545
2020-09-03,-0.4921135646687709
2020-09-04,-0.34782608695652006
2020-09-07,-0.3944636678200745
2020-09-08,0.18421052631579368
2020-09-09,-0.5665529010238867
2020-09-10,-0.318518518518522
2020-09-11,-0.24796747967480562
2020-09-14,0.3492063492063527
2020-09-15,-0.36363636363636426
2020-09-16,-0.48101265822785405
2020-09-17,-0.6943231441048014
2020-09-18,-0.36199095022624606
2020-09-21,0.07070707070706526
2020-09-22,-0.4034090909090955
2020-09-23,-0.3646408839779086
2020-09-24,-0.45348837209302445
2020-09-25,0.11999999999999048
2020-09-28,-0.5248618784530267
2020-09-29,-1.0402298850574623
2020-09-30,-0.8516129032258068
2020-10-09,-0.3696969696969822
2020-10-12,1.0591397849462383
2020-10-13,1.0611111111111131
2020-10-14,0.49112426035502793
2020-10-15,0.17751479289941158
2020-10-16,0.6120218579234901
2020-10-19,0.4873417721518927
2020-10-20,0.37241379310345163
2020-10-21,-0.28289473684209215
2020-10-22,-1.328042328042321
2020-10-23,-1.151898734177221
2020-10-26,-0.8310810810810864
2020-10-27,-0.2413793103448075
2020-10-28,-0.40131578947369906
2020-10-29,-0.5142857142856933
2020-10-30,-1.1061946902654922
2020-11-02,-1.362318840579719
2020-11-03,-0.15337423312882645
2020-11-04,0.05882352941175214
2020-11-05,0.006896551724147154
2020-11-06,1.3350515463917463
2020-11-09,0.5278256167440012
2020-11-10,0.853935945803428
2020-11-11,0.5234423897581796
2020-11-12,0.2707661211956351
2020-11-13,0.918518518518527
2020-11-16,1.0692307692307619
2020-11-17,1.166666666666652
2020-11-18,0.04128440366972036
2020-11-19,-0.061946902654866874
2020-11-20,0.061403508771918414
2020-11-23,0.17241379310344565
2020-11-24,0.34101382488479315
2020-11-25,0.2447552447552518
2020-11-26,0.5364238410595938
2020-11-27,0.24489795918368118
2020-11-30,-0.7777777777777656
2020-12-01,-0.07262569832403507
2020-12-02,0.2538860103626996
2020-12-03,0.4627740649548598
2020-12-04,0.3636753124872494
2020-12-07,1.2860661088362704
2020-12-08,1.169172378593719
2020-12-09,1.0187265917602946
2020-12-10,0.7885906040268431
2020-12-11,0.546623794212222
2020-12-14,0.07936507936508874
2020-12-15,0.028925619834719973
2020-12-16,-0.2719298245614168
2020-12-17,-0.1275510204081688
2020-12-18,0.6619718309859199
2020-12-21,0.9558823529411882
2020-12-22,0.21487603305785363
2020-12-23,1.0565371024734995
2020-12-24,0.5559322033898235
2020-12-25,1.2486187845303827
2020-12-28,0.6574585635359085
2020-12-29,-0.024038461538461273
2020-12-30,0.45297029702969843
2020-12-31,0.9157427937915753
2021-01-04,0.820105820105818
2021-01-05,1.1422121896162543
2021-01-06,1.1530054644808798
2021-01-07,1.5703124999999993
2021-01-08,0.7223382045929017
2021-01-11,-0.19999999999999948
2021-01-12,0.5885978428351312
2021-01-13,0.1616161616161616
2021-01-14,0.15229885057471193
2021-01-15,0.5653594771241828
2021-01-18,0.8367346938775507
2021-01-19,-0.18609406952965418
2021-01-20,-0.14639639639639793
2021-01-21,0.04038004750593726
2021-01-22,-0.0853333333333353
2021-01-25,0.542780748663104
2021-01-26,1.1589595375722548
2021-01-27,1.221606648199445
2021-01-28,0.4722222222222246
2021-01-29,0.9717647058823496
2021-02-01,0.6487804878048736
2021-02-02,0.43665768194069965
2021-02-03,-0.8681541582150109
2021-02-04,-0.13800281901275896
2021-02-05,-0.17174404163622328
2021-02-08,0.2512488334349051
2021-02-09,0.675725511739555
2021-02-10,0.8894230769230724
2021-02-18,0.6580188679245278
2021-02-19,0.9912472647702398
2021-02-22,0.48780487804878475
2021-02-23,1.1938250428816468
2021-02-24,1.042553191489364
2021-02-25,1.1703821656050974
2021-02-26,0.7443729903536976
2021-03-01,0.36676646706586663
2021-03-02,-0.5364341085271308
2021-03-03,-0.030104712041889404
2021-03-04,-0.15868263473053568
2021-03-05,-0.26118326118326257
2021-03-08,-0.2607489597780848
2021-03-09,-0.30955993930196785
2021-03-10,-0.12121212121212412
2021-03-11,0.05396825396825586
2021-03-12,0.25767918088737096
2021-03-15,-0.06066176470588375
2021-03-16,-0.4469696969696968
2021-03-17,0.03765690376568735
2021-03-18,0.4594594594594644
2021-03-19,-0.7015209125475292
2021-03-22,0.1390977443609025
2021-03-23,-0.17324561403508795
2021-03-24,-0.10165975103734617
2021-03-25,-0.4411177644710583
2021-03-26,-0.35864978902953815
2021-03-29,-0.5256723716381481
2021-03-30,-1.1257485029940077
2021-03-31,-1.3099630996309959
2021-04-01,0.32253086419753374
2021-04-02,0.5794350492535516
2021-04-06,0.9219069137622146
2021-04-07,0.840733977131233
2021-04-08,0.35224321756571536
2021-04-09,-0.264367816091956
2021-04-12,-0.9681818181818245
2021-04-13,0.778640776699028
2021-04-14,0.7399193548387111
2021-04-15,0.07899461400359292
2021-04-16,0.5800711743772192
2021-04-19,0.4391534391534378
2021-04-20,0.4499999999999999
2021-04-21,-0.28124999999999767
2021-04-22,-0.6935866983372894
2021-04-23,-0.6885245901639371
2021-04-26,0.17159763313609327
2021-04-27,0.15915915915915751
2021-04-28,0.3620071684587771
2021-04-29,-0.31560283687943946
2021-04-30,-0.3978873239436623
2021-05-06,0.306179775280905
2021-05-07,0.9280742459396728
2021-05-10,0.6556701030927808
2021-05-11,0.19916142557652328
2021-05-12,-0.018947368421059284
2021-05-13,-0.3750399924781445
2021-05-14,-0.9499972860815389
2021-05-17,-1.0008391029547783
2021-05-18,-0.4699080011574048
2021-05-19,-0.31367924528301905
2021-05-20,-0.3438914027149315
2021-05-21,-0.8552278820375324
2021-05-24,-1.2475728155339794
2021-05-25,-1.372767857142858
2021-05-26,-1.4034090909090908
2021-05-27,-1.7311643835616453
2021-05-28,-0.27840909090909105
2021-05-31,0.05763239875389236
2021-06-01,-0.004983388704321431
2021-06-02,-0.06791171477080281
2021-06-03,-0.7435387673956227
2021-06-04,0.2668161434977594
2021-06-07,0.3310502283105
2021-06-08,-0.22657952069716913
2021-06-09,-0.3506493506493512
2021-06-10,-0.5014166595320304
2021-06-11,-0.051297579994759125
2021-06-15,-0.7278452339140762
2021-06-16,-0.5366375955113576
2021-06-17,-0.5810810810810817
2021-06-18,-0.9928229665071795
2021-06-21,-0.49152542372881236
2021-06-22,0.5517241379310367
2021-06-23,0.9706666666666705
2021-06-24,1.3959899749373426
2021-06-25,0.9155313351498614
2021-06-28,0.7358024691358036
2021-06-29,0.12021857923497054
2021-06-30,0.44159544159543923
2021-07-01,0.22012578616352904
2021-07-02,0.2156250000000003
2021-07-05,0.43506493506492466
2021-07-06,-0.007017543859646656
2021-07-07,0.09655172413792236
2021-07-08,0.25974025974025555
2021-07-09,1.1049723756906114
2021-07-12,1.0057636887608132
2021-07-13,0.1310160427807487
2021-07-14,-0.02028985507246378
2021-07-15,-0.22256097560975302
2021-07-16,-0.021660649819495836
2021-07-19,1.4102564102564097
2021-07-20,-0.6687242798353918
2021-07-21,-0.1653543307086657
2021-07-22,-0.18525896414342913
2021-07-23,-0.5818505338078286
2021-07-26,-0.739644970414206
2021-07-27,-0.8704225352112649
2021-07-28,-0.31476323119776994
2021-07-29,0.46981627296588085
2021-07-30,0.509868421052637
2021-08-02,-0.655279503105587
2021-08-03,-0.2708933717579209
2021-08-04,0.9565217391304336
2021-08-05,0.8461538461538447
2021-08-06,0.520987654320991
2021-08-09,0.1693548387096769
2021-08-10,-0.04210526315789916
2021-08-11,0.06713780918728128
2021-08-12,0.06521739130434247
2021-08-13,0.09621993127148551
2021-08-16,0.8231292517006881
2021-08-17,0.20865477128460283
2021-08-18,-0.2970152997241057
2021-08-19,-0.0799701491740736
2021-08-20,-0.6761327478293514
2021-08-23,-0.7301587301587277
2021-08-24,-0.32119205298012854
2021-08-25,-0.5915492957746459
2021-08-26,-0.6666666666666672
2021-08-27,-0.3749999999999971
2021-08-30,-0.3112033195020737
2021-08-31,-0.5895522388059636
2021-09-01,-0.8633093525179837
2021-09-02,0.6785714285714334
2021-09-03,1.0668604651162823
2021-09-06,0.8709677419354848
2021-09-07,0.576923076923077
2021-09-08,-0.07382550335570891
2021-09-09,-0.05240174672489274
2021-09-10,0.6611576256658249
2021-09-13,-0.30757171721976145
2021-09-14,-0.20994452571385136
2021-09-15,-0.2502618228435657
2021-09-16,-1.0069767441860435
2021-09-17,0.23362445414846691
2021-09-22,0.23958333333333806
2021-09-23,0.08607594936709441
2021-09-24,-0.5776892430278884
2021-09-27,-0.3722466960352387
2021-09-28,-0.7999999999999997
2021-09-29,-0.3602015113350086
2021-09-30,0.1305361305361229
2021-10-08,0.33333333333333653
2021-10-11,0.3495145631068018
2021-10-12,-1.0730994152046842
2021-10-13,-1.1948717948717946
2021-10-14,-1.0594965675057222
2021-10-15,-1.0596707818930058
2021-10-18,-0.7105263157894737
2021-10-19,-0.7560000000000028
2021-10-20,-0.026099406528190608
2021-10-21,-0.009044725820000593
2021-10-22,-0.13618889556889352
2021-10-25,-0.8521912613483317
2021-10-26,-0.942528735632182
2021-10-27,-0.9900990099009931
2021-10-28,-1.0533333333333366
2021-10-29,0.0141700404858301
2021-11-01,0.24102564102563803
2021-11-02,0.28741092636579524
2021-11-03,0.564903846153845
2021-11-04,0.3808219178082182
2021-11-05,0.4225352112675981
2021-11-08,0.6426237542885106
2021-11-09,0.17040719350829106
2021-11-10,-0.9050848960411413
2021-11-11,-0.8781812982556512
2021-11-12,-1.033195020746881
2021-11-15,-0.5941422594142199
2021-11-16,-0.3765182186234714
2021-11-17,0.33168316831682426
2021-11-18,1.2154471544715448
2021-11-19,1.2690763052208895
2021-11-22,1.309090909090912
2021-11-23,0.9999999999999982
2021-11-24,0.8045977011494294
2021-11-25,0.8193277310924367
2021-11-26,1.3333333333333253
2021-11-29,1.9025974025974073
2021-11-30,1.4873239436619679
2021-12-01,2.045364891518738
2021-12-02,1.3333333333333315
2021-12-03,0.6612903225806429
2021-12-06,-0.09345794392523357
2021-12-07,0.07421150278293298
2021-12-08,0.6367521367521359
2021-12-09,0.2574468085106371
2021-12-10,-0.9390681003584245
2021-12-13,-1.1709558823529431
2021-12-14,-0.6996272181535591
2021-12-15,-0.49897723982162445
2021-12-16,0.11834704302590521
2021-12-17,-0.941593666290894
2021-12-20,-0.5547263681592054
2021-12-21,-0.35120643431635334
2021-12-22,0.26428571428571856
2021-12-23,1.2596348884381334
2021-12-24,1.3349633251833803
2021-12-27,0.6381418092909501
2021-12-28,0.3446808510638313
2021-12-29,0.5334872979214763
2021-12-30,0.9596774193548377
2021-12-31,0.9316939890710448
2022-01-04,0.6906077348066312
2022-01-05,0.23452768729641
2022-01-06,-0.23103448275862296
2022-01-07,1.0124610591900314
2022-01-10,1.0119760479041933
2022-01-11,-0.12228260869565245
2022-01-12,0.5388235294117626
2022-01-13,0.10227272727272767
2022-01-14,0.3622448979591901
2022-01-17,-0.4863013698630171
2022-01-18,-0.5225653206650869
2022-01-19,0.2830626450116009
2022-01-20,0.1042183622828807
2022-01-21,0.6525252525252524
2022-01-24,-0.6727272727272774
2022-01-25,-0.7564575645756471
2022-01-26,-0.5702479338842963
2022-01-27,-0.740812379110248
2022-01-28,1.0825852782764795
2022-02-07,1.1018711018711012
2022-02-08,1.2127192982456116
2022-02-09,0.6263498920086356
2022-02-10,0.5287610619469023
2022-02-11,-0.29829545454545076
2022-02-14,0.26347305389222236
2022-02-15,0.0853994490358081
2022-02-16,-0.06896551724137519
2022-02-17,-0.34925373134328475
2022-02-18,0.6561604584527247
2022-02-21,0.4480712166172105
2022-02-22,0.6225806451612927
2022-02-23,0.8696969696969663
2022-02-24,0.4627659574468068
2022-02-25,0.7521865889212797
2022-02-28,0.352769679300287
2022-03-01,0.35656836461126584
2022-03-02,0.5376344086021462
2022-03-03,1.2321899736147743
2022-03-04,0.5452054794520652
2022-03-07,1.3028953229398637
2022-03-08,1.0766283524904166
2022-03-09,1.2655737704918062
2022-03-10,0.3130841121495323
2022-03-11,-0.1276595744680855
2022-03-14,-1.029729729729734
2022-03-15,-1.393006993006996
2022-03-16,-0.48743016759776375
2022-03-17,-0.46525679758307703
2022-03-18,0.05059021922428222
2022-03-21,-0.2202729044834304
2022-03-22,0.6869409660107325
2022-03-23,1.1971544715447144
2022-03-24,0.4291497975708457
2022-03-25,-0.6122112211221106
2022-03-28,0.1057971014492742
2022-03-29,-0.08166666666667148
2022-03-30,-0.3111111111111116
2022-03-31,-0.3958020989505247
2022-04-01,-0.4219554030874784
2022-04-06,0.6591337099811718
2022-04-07,-0.2616179001721196
2022-04-08,0.04288914712894012
2022-04-11,0.48507770737446
2022-04-12,0.2305178306314206
2022-04-13,0.12793457621267104
2022-04-14,0.12571428571428625
2022-04-15,0.07956600361663267
2022-04-18,0.15909090909090737
2022-04-19,0.8615384615384616
2022-04-20,0.5013333333333365
2022-04-21,0.8604651162790674
2022-04-22,0.7598784194528805
2022-04-25,-1.4069767441860486
2022-04-26,-1.358267716535429
2022-04-27,0.11513157894736836
2022-04-28,0.7108239095315025
2022-04-29,0.8661290322580618
2022-05-05,0.9133858267716531
2022-05-06,0.21141649048625633
2022-05-09,0.2396514161220055
2022-05-10,0.32454361054766745
2022-05-11,0.05836575875486694
2022-05-12,-0.12803532008830276
2022-05-13,-0.26914660831510445
2022-05-16,-0.19010416666666893
2022-05-17,0.08832807570977792
2022-05-18,-0.059748427672953734
2022-05-19,0.5572289156626539
2022-05-20,0.30063291139240805
2022-05-23,-0.6857142857142838
2022-05-24,-1.1534526854219949
2022-05-25,-0.43689320388349634
2022-05-26,-0.6198979591836681
2022-05-27,-0.05518763796909706
2022-05-30,0.4821852731591431
2022-05-31,-0.8135593220339002
2022-06-01,-0.5761904761904845
2022-06-02,0.6577868852458996
2022-06-06,0.5473441108545049
2022-06-07,0.6175710594315257
2022-06-08,0.02272727272727417
2022-06-09,-1.005376344086021
2022-06-10,-0.10778443113772761
2022-06-13,-0.7956989247311835
2022-06-14,-0.5086848635235767
2022-06-15,-0.7368421052631594
2022-06-16,-0.34770889487870515
2022-06-17,-0.12426035502958688
2022-06-20,-0.270440251572329
2022-06-21,-0.3359374999999936
2022-06-22,-1.1234042553191492
2022-06-23,-0.6838905775076003
2022-06-24,-0.865671641791043
2022-06-27,0.2852272727272717
2022-06-28,0.7520759193357069
2022-06-29,0.5819134993446942
2022-06-30,0.4593639575971723
2022-07-01,-0.5000000000000022
2022-07-04,-0.8726287262872636
2022-07-05,-0.6791443850267449
2022-07-06,-0.7175398633257452
2022-07-07,-0.2771084337349401
2022-07-08,-0.15208333333333507
2022-07-11,-0.5695732838590039
2022-07-12,-0.41682600382409013
2022-07-13,0.031189083820659706
2022-07-14,-0.04424778761062014
2022-07-15,-0.21758241758241867
2022-07-18,0.4845814977973594
2022-07-19,0.09150326797385709
2022-07-20,0.4943052391799548
2022-07-21,0.5606936416184966
2022-07-22,0.92181818181818
2022-07-25,0.7167381974248953
2022-07-26,0.7142857142857091
2022-07-27,0.3462532299741619
2022-07-28,1.4322250639386196
2022-07-29,1.4615384615384628
2022-08-01,0.5294117647058814
2022-08-02,0.5404157043879955
2022-08-03,-0.12614678899082113
2022-08-04,-0.7017994858611871
2022-08-05,-0.10455764075067524
2022-08-08,-0.2686170212765903
2022-08-09,-0.10955056179775788
2022-08-10,-0.03999999999999907
2022-08-11,0.12462908011869551
2022-08-12,-0.43376466696503163
2022-08-15,-1.0513306764726607
2022-08-16,-0.9695166112019785
2022-08-17,-1.2192656751440683
2022-08-18,-0.8248730964466939
2022-08-19,-0.27493261455525503
2022-08-22,1.0904761904761917
2022-08-23,1.273657289002558
2022-08-24,0.8358208955223845
2022-08-25,0.9681159420289838
2022-08-26,0.4396284829721397
2022-08-29,-0.3108614232209704
2022-08-30,-0.31111111111111617
2022-08-31,0.3030303030303061
2022-09-01,-0.10309278350515817
2022-09-02,0.1111111111111108
2022-09-05,0.3310344827586221
2022-09-06,0.9623824451410578
2022-09-07,0.7909407665505184
2022-09-08,0.6105610561056148
2022-09-09,0.16724738675958647
2022-09-13,-0.04899135446685259
2022-09-14,-0.09385113268608675
2022-09-15,0.3262195121951115
2022-09-16,0.8617886178861782
2022-09-19,0.8265582655826628
2022-09-20,-0.07540983606557135
2022-09-21,-0.6482558139534872
2022-09-22,0.00831024930747539
2022-09-23,-1.109974424552432
2022-09-26,-0.6065162907268178
2022-09-27,0.14805825242718515
2022-09-28,0.18271604938271427
2022-09-29,0.2037533512064339
2022-09-30,0.7943925233644784
2022-10-10,0.5559210526315844
2022-10-11,-0.20420420420421012
2022-10-12,0.3312883435582799
2022-10-13,-0.6584699453551915
2022-10-14,-0.8953488372093011
2022-10-17,-0.4647887323943677
2022-10-18,-0.09634551495016874
2022-10-19,0.6548387096774233
2022-10-20,0.24657534246575585
2022-10-21,0.07958477508651003
2022-10-24,0.47058823529411486
2022-10-25,0.5956678700360939
2022-10-26,-0.5381944444444361
2022-10-27,-0.7234848484848415
2022-10-28,-0.9514925373134304
2022-10-31,-0.6410256410256362
2022-11-01,0.751497005988025
2022-11-02,0.5947712418300666
2022-11-03,-0.14803625377643945
2022-11-04,-0.2639751552795019
2022-11-07,-0.7473684210526317
2022-11-08,-0.5552050473186082
2022-11-09,-0.41176470588234293
2022-11-10,-0.14426229508196814
2022-11-11,1.0873239436619686
2022-11-14,0.9454545454545504
2022-11-15,0.7727272727272736
2022-11-16,0.7269372693727036
2022-11-17,0.4030418250950536
2022-11-18,0.8686868686868615
2022-11-21,0.31279620853080387
2022-11-22,0.65531914893618
2022-11-23,1.4230769230769413
2022-11-24,1.3478260869565102
2022-11-25,0.6121673003802269
2022-11-28,-0.589041095890412
2022-11-29,-0.8394160583941608
2022-11-30,-0.5294117647058798
2022-12-01,0.11688311688311853
2022-12-02,1.4878048780487803
2022-12-05,1.6775362318840505
2022-12-06,0.8483754512635416
2022-12-07,0.2411347517730497
2022-12-08,0.06716417910447858
2022-12-09,0.14354066985646502
2022-12-12,1.2240000000000064
2022-12-13,0.17045454545453942
2022-12-14,-0.7952522255192753
2022-12-15,-0.6649560812234123
2022-12-16,-1.2466084501956616
2022-12-19,-1.2224624423197363
2022-12-20,-0.7080737805293659
2022-12-21,-0.09036144578312864
2022-12-22,0.03370786516854348
2022-12-23,-0.4677419354838689
2022-12-26,1.3296398891966734
2022-12-27,0.9660056657223834
2022-12-28,0.02617801047119604
2022-12-29,-0.10468319559228924
2022-12-30,0.1453201970443404
2023-01-03,-0.3270440251572401
2023-01-04,-0.130434782608696
2023-01-05,-0.4370629370629285
2023-01-06,0.1352201257861621
2023-01-09,-1.1020942408377004
2023-01-10,-1.223999999999997
2023-01-11,-1.0664739884393148
2023-01-12,-0.44505494505494325
2023-01-13,0.5653333333333329
2023-01-16,0.8029739776951702
2023-01-17,0.41923076923077895
2023-01-18,0.9654178674351577
2023-01-19,0.5964391691394639
2023-01-20,1.4084507042253496
2023-01-30,0.9166666666666669
2023-01-31,0.974647887323947
2023-02-01,1.0260223048327177
2023-02-02,-0.30294117647058544
2023-02-03,0.16053511705685627
2023-02-06,0.09463722397476572
2023-02-07,-0.28527607361963203
2023-02-08,-0.44507042253521695
2023-02-09,-0.4691780821917767
2023-02-10,-0.7051671732522774
2023-02-13,-0.7328990228013046
2023-02-14,-0.9322033898305037
2023-02-15,-0.009463722397469612
2023-02-16,-0.24764890282131014
2023-02-17,-0.2945454545454491
2023-02-20,0.03649635036495945
2023-02-21,0.3916083916083931
2023-02-22,0.4225941422594149
2023-02-23,-0.8220640569395086
2023-02-24,-0.929328621908125
2023-02-27,-0.7790262172284679
2023-02-28,-0.0864197530864162
2023-03-01,0.08898305084747102
2023-03-02,-0.5896226415094319
2023-03-03,-1.127450980392153
2023-03-06,-0.24050632911392192
2023-03-07,-0.14957264957264602
2023-03-08,-0.2231404958677674
2023-03-09,-1.2384615384615447
2023-03-10,-1.7686832740213583
2023-03-13,-0.8364779874213939
2023-03-14,-0.5542168674698845
2023-03-15,-0.21449275362318693
2023-03-16,-1.0050125313283151
2023-03-17,-1.0552763819095479
2023-03-20,-1.3263157894736852
2023-03-21,-1.4388489208633095
2023-03-22,-0.6100917431192646
2023-03-23,-0.35798816568047404
2023-03-24,0.802739726027398
2023-03-27,0.9768115942028965
2023-03-28,0.26586102719033744
2023-03-29,-0.20320855614973293
2023-03-30,-0.6076923076923071
2023-03-31,-1.04145077720207
2023-04-03,0.25221238938053364
2023-04-04,-0.14408602150537744
2023-04-06,-0.4829059829059826
2023-04-07,-0.03258655804480381
2023-04-10,-0.3456790123456771
2023-04-11,-0.5821596244131465
2023-04-12,-0.49479166666667035
2023-04-13,-1.0579268292682933
2023-04-14,-0.3476821192053033
2023-04-17,0.5498081158806943
2023-04-18,0.9672516878582349
2023-04-19,0.6887879713020961
2023-04-20,-0.4550177745452784
2023-04-21,-1.4794007490636671
2023-04-24,-0.8818897637795208
2023-04-25,-0.5250965250965195
2023-04-26,-0.6206896551724175
2023-04-27,-0.9721115537848617
2023-04-28,-1.2511848341232135
2023-05-04,-0.39090909090908754
2023-05-05,0.4933920704845805
2023-05-08,0.5622317596566534
2023-05-09,0.4434389140271483
2023-05-10,0.3586497890295424
2023-05-11,-0.6147859922179025
2023-05-12,0.4864864864864823
2023-05-15,0.29315960912052
2023-05-16,0.5737704918032762
2023-05-17,0.45333333333333514
2023-05-18,0.3088803088803145
2023-05-19,-0.2489795918367391
2023-05-22,-0.98954703832753
2023-05-23,0.3011363636363631
2023-05-24,0.08479532163742262
2023-05-25,-0.40101522842639814
2023-05-26,-0.163538873994641
2023-05-29,-0.044910179640713484
2023-05-30,-0.3461538461538455
2023-05-31,-0.2508474576271163
2023-06-01,0.20279720279720614
2023-06-02,0.043478260869565896
2023-06-05,-0.25806451612903636
2023-06-06,-0.45248868778280377
2023-06-07,-1.307984790874524
2023-06-08,-0.8008474576271153
2023-06-09,0.5888501742160246
2023-06-12,0.8551724137931049
2023-06-13,0.41414141414141525
2023-06-14,0.4478764478764485
2023-06-15,0.3429752066115683
2023-06-16,0.4802259887005624
2023-06-19,0.22099447513812537
2023-06-20,-0.5360824742268038
2023-06-21,-0.2842105263157844
2023-06-26,-0.8796680497925307
2023-06-27,0.0075471698113208875
2023-06-28,-0.061224489795919435
2023-06-29,0.4563492063492064
2023-06-30,0.459016393442623
2023-07-03,0.9678899082568801
2023-07-04,1.6567796610169463
2023-07-05,1.133047210300425
2023-07-06,0.2938388625592472
2023-07-07,-0.4590909090909084
2023-07-10,-0.03465346534653532
2023-07-11,0.16000000000000314
2023-07-12,0.5073891625615765
2023-07-13,-0.03629032258064585
2023-07-14,0.044534412955474376
2023-07-17,-1.0544871794871793
2023-07-18,-0.7798507462686558
2023-07-19,-0.15018315018315995
2023-07-20,0.2500000000000044
2023-07-21,-0.026315789473684664
2023-07-24,0.19883040935672877
2023-07-25,0.8291457286432209
2023-07-26,1.0697674418604664
2023-07-27,1.4444444444444406
2023-07-28,1.222627737226277
2023-07-31,0.32673267326732575
2023-08-01,0.03205128205128262
2023-08-02,0.0226537216828483
2023-08-03,-1.0277777777777783
2023-08-04,-0.8105590062111767
2023-08-07,-0.46048109965635936
2023-08-08,-0.35227272727273357
2023-08-09,0.03745318352059991
2023-08-10,-0.07692307692307816
2023-08-11,-0.3965517241379269
2023-08-14,-0.41899441340781757
2023-08-15,-0.3803716268716121
2023-08-16,-1.3075226154578683
2023-08-17,-0.6321011319449293
2023-08-18,-0.19827542657063377
2023-08-21,0.3437499999999963
2023-08-22,0.8436213991769559
2023-08-23,1.2877358490566064
2023-08-24,0.8630136986301368
2023-08-25,0.7020408163265278
2023-08-28,0.008130081300808919
2023-08-29,-0.8347107438016551
2023-08-30,0.19123505976095748
2023-08-31,0.17786561264821638
2023-09-01,1.4967948717948716
2023-09-04,0.9727272727272736
2023-09-05,0.7811550151975674
2023-09-06,0.5131578947368441
2023-09-07,-0.617977528089879
2023-09-08,-1.063604240282685
2023-09-11,-0.12734082397003427
2023-09-12,0.3214285714285669
2023-09-13,-0.03460207612457124
2023-09-14,0.24568965517241773
2023-09-15,0.8178137651821878
2023-09-18,1.2887323943661957
2023-09-19,1.1660899653979262
2023-09-20,1.3814432989690768
2023-09-21,0.8910891089108995
2023-09-22,0.32775919732442
2023-09-25,-0.05306122448979833
2023-09-26,0.3095238095238028
2023-09-27,0.682758620689656
2023-09-28,1.1192052980132485
2023-10-09,0.9591194968553403
2023-10-10,-0.0029069767441875474
2023-10-11,0.13333333333332806
2023-10-12,0.4656250000000051
2023-10-13,-0.0664556962025274
2023-10-16,0.2758620689655127
2023-10-17,-0.5156794425087082
2023-10-18,-1.0627450980392146
2023-10-19,-0.38549618320610374
2023-10-20,-0.8592592592592576
2023-10-23,-0.7934782608695692
2023-10-24,-0.34586466165413826
2023-10-25,-0.23703703703703935
2023-10-26,-0.8555555555555545
2023-10-27,-0.9693486590038343
2023-10-30,-0.26800000000000035
2023-10-31,0.24796747967480068
2023-11-01,0.15254237288136563
2023-11-02,-0.0710900473933631
2023-11-03,1.0168776371308121
2023-11-06,1.2408163265306138
2023-11-07,0.5284552845528454
2023-11-08,0.6136363636363635
2023-11-09,-1.3324324324324253
2023-11-10,-1.0581395348837213
2023-11-13,-0.31343283582089865
2023-11-14,-0.23214285714284918
2023-11-15,0.30909090909090153
2023-11-16,1.0496183206106908
2023-11-17,0.2666666666666681
2023-11-20,-0.30743243243243934
2023-11-21,-0.5376712328767101
2023-11-22,-1.3063583815028912
2023-11-23,-1.0950819672131156
2023-11-24,-0.2551020408163257
2023-11-27,0.04615384615384637
2023-11-28,0.052845528455286936
2023-11-29,-1.5766423357664192
2023-11-30,-0.8833922261484057
2023-12-01,-1.3431635388739895
2023-12-04,-0.5764411027568939
2023-12-05,-0.6475770925110154
2023-12-06,-0.42663043478261287
2023-12-07,0.23716381418092694
2023-12-08,1.3785900783289817
2023-12-11,1.0127551020408199
2023-12-12,0.34383202099737686
2023-12-13,-0.3664657789631094
2023-12-14,-0.3520672760092829
2023-12-15,-0.24746637028112528
2023-12-18,0.5471814844956688
2023-12-19,0.1262458471760834
2023-12-20,0.32996632996632796
2023-12-21,0.47959183673468947
2023-12-22,0.2805280528052856
2023-12-25,0.20486111111110844
2023-12-26,-0.42996742671010413
2023-12-27,0.1070110701107011
2023-12-28,-0.048148148148148676
2023-12-29,-0.9432624113475182
2024-01-02,0.7259036144578347
2024-01-03,1.0459770114942573
2024-01-04,0.42276422764227495
2024-01-05,0.21025641025640943
2024-01-08,-0.40932642487046583
2024-01-09,-0.8192771084337377
2024-01-10,-0.8987730061349718
2024-01-11,-0.4195804195804215
2024-01-12,-0.10791366906475237
2024-01-15,0.11904761904762373
2024-01-16,0.15325670498084923
2024-01-17,-0.1949152542372841
2024-01-18,0.16465863453815638
2024-01-19,-0.056521739130435525
2024-01-22,-0.6141078838174359
2024-01-23,-0.12328767123287451
2024-01-24,0.651260504201684
2024-01-25,0.5733944954128417
2024-01-26,0.09704641350210348
2024-01-29,-0.48728813559322415
2024-01-30,-0.360000000000003
2024-01-31,-0.5572916666666593
2024-02-01,0.11320754716981012
2024-02-02,-0.6866952789699674
2024-02-05,-0.24553571428571455
2024-02-06,-0.7579365079365086
2024-02-07,-0.5655737704917991
2024-02-08,-0.22943722943722775
2024-02-19,1.0940170940170908
2024-02-20,1.2767857142857162
2024-02-21,1.1127450980392144
2024-02-22,0.6095238095238119
2024-02-23,0.4854368932038829
2024-02-26,0.6445783132530012
2024-02-27,0.9433962264150922
2024-02-28,0.8297872340425585
2024-02-29,0.6760563380281617
2024-03-01,-0.06060606060607541
2024-03-04,-0.5149253731343243
2024-03-05,-0.79230769230769
2024-03-06,-0.44202898550724395
2024-03-07,1.191256830601094
2024-03-08,1.2500000000000104
2024-03-11,1.0588235294117632
2024-03-12,0.8786407766990202
2024-03-13,0.7224880382774971
2024-03-14,0.32369942196531437
2024-03-15,0.23926380368098368
2024-03-18,-0.3023255813953283
2024-03-19,0.985981308411224
2024-03-20,1.1386554621848832
2024-03-21,0.48979591836734143
2024-03-22,0.45098039215686553
2024-03-25,-0.36013986013986604
2024-03-26,-0.8274509803921628
2024-03-27,-0.2883211678832189
2024-03-28,0.0388692579505214
2024-03-29,0.27906976744186063
2024-04-01,0.4642857142857107
2024-04-02,-0.13377926421404526
2024-04-03,-0.6350877192982467
2024-04-08,-0.27719298245614726
2024-04-09,0.1678082191780846
2024-04-10,0.35333217617594936
2024-04-11,1.4302117038197362
2024-04-12,1.0934695249332613
2024-04-15,0.43164708124245116
2024-04-16,-0.2335766423357649
2024-04-17,-0.42857142857143654
2024-04-18,-1.166037735849062
2024-04-19,-0.26523297491039927
2024-04-22,-0.06885245901638892
2024-04-23,0.0411985018726715
2024-04-24,0.6143344709897616
2024-04-25,0.19409282700421757
2024-04-26,0.09012875536480082
2024-04-29,0.589041095890406
2024-04-30,0.15044247787611065
2024-05-06,0.6039603960396046
2024-05-07,-0.26068376068375615
2024-05-08,-0.5069124423963198
2024-05-09,-0.8984771573604023
2024-05-10,-0.9198312236287064
2024-05-13,-0.21886792452830292
2024-05-14,-0.04201680672267828
2024-05-15,-0.21259842519685876
2024-05-16,0.8018867924528271
2024-05-17,0.7153846153846218
2024-05-20,0.547999999999996
2024-05-21,0.44295302013422594
2024-05-22,0.4631578947368401
2024-05-23,-0.8591065292096184
2024-05-24,-0.6883561643835645
2024-05-27,-0.5251798561151129
2024-05-28,-0.2625000000000003
2024-05-29,-0.012000000000002826
2024-05-30,-0.180000000000011
2024-05-31,-0.7666666666666709
2024-06-03,-1.6183206106870267
2024-06-04,-1.4008097165992033
2024-06-05,-0.5576208178438644
2024-06-06,-0.028925619834705898
2024-06-07,0.13360323886640235
2024-06-11,-0.030000000000006917
2024-06-12,-0.07203389830508651
2024-06-13,-0.8620689655172354
2024-06-14,-0.5269709543568522
2024-06-17,-0.17199999999999527
2024-06-18,-0.5568181818181848
2024-06-19,-0.5321888412017216
2024-06-20,-0.1355932203389821
2024-06-21,-0.45679012345678516
2024-06-24,-0.2203389830508515
2024-06-25,0.46017699115044153
2024-06-26,0.8223140495867748
2024-06-27,0.20982142857143377
2024-06-28,0.14018691588785342
2024-07-01,-0.6137339055793999
2024-07-02,-0.21973094170403643
2024-07-03,0.6634615384615407
2024-07-04,-0.7272727272727283
2024-07-05,-1.0608365019011348
2024-07-08,-1.170940170940165
2024-07-09,-1.0307017543859747
2024-07-10,-0.9529914529914587
2024-07-11,-0.1375661375661292
2024-07-12,0.22471910112359672
2024-07-15,0.14117647058823113
2024-07-16,-0.0357142857142815
2024-07-17,-0.5367231638418062
2024-07-18,0.349753694581282
2024-07-19,0.2741116751269035
2024-07-22,-0.4234234234234147
2024-07-23,-0.6883116883116861
2024-07-24,0.09876543209876272
2024-07-25,-0.6414342629482026
2024-07-26,0.007220216606494832
2024-07-29,0.41198501872659
2024-07-30,-0.12996389891696786
2024-07-31,0.40604026845637725
2024-08-01,0.32342007434944026
2024-08-02,0.5294117647058902
2024-08-05,-0.40604026845637675
2024-08-06,-0.4440789473684215
2024-08-07,-0.2777777777777736
2024-08-08,-0.7296416938110707
2024-08-09,0.4112426035502973
2024-08-12,0.20754716981132332
2024-08-13,-0.0457516339869274
2024-08-14,-0.3794212218649578
2024-08-15,-0.301587301587303
2024-08-16,-0.007673143449963868
2024-08-19,0.6101499576847449
2024-08-20,0.6707050833654187
2024-08-21,1.524859931701368
2024-08-22,1.1755319148936176
2024-08-23,0.1350000000000024
2024-08-26,0.7196261682242983
2024-08-27,0.6697674418604762
2024-08-28,0.661016949152531
2024-08-29,0.9556650246305431
2024-08-30,0.5797872340425491
2024-09-02,-0.2485549132947987
2024-09-03,0.6699507389162553
2024-09-04,-1.466876971608839
2024-09-05,-0.9078947368420991
2024-09-06,-0.6666666666666692
2024-09-09,-0.5891238670694895
2024-09-10,-0.43434343434343403
2024-09-11,-1.106666666666674
2024-09-12,-0.9023255813953472
2024-09-13,-0.48292682926827957
2024-09-18,-0.36864406779660736
2024-09-19,0.581481481481481
2024-09-20,0.9802371541502012
2024-09-23,0.39299610894941756
2024-09-24,0.49407114624506254
2024-09-25,0.2827004219409213
2024-09-26,0.20869565217390776
2024-09-27,0.7706422018348668
2024-09-30,0.7554585152838422
2024-10-08,-0.45901639344262685
2024-10-09,-0.38487972508591556
2024-10-10,-0.614285714285716
2024-10-11,0.5740181268882197
2024-10-14,0.7038216560509568
2024-10-15,0.25738396624472737
2024-10-16,-0.8247422680412357
2024-10-17,-0.6711864406779692
2024-10-18,0.24999999999999595
2024-10-21,0.6052631578947416
2024-10-22,0.6145454545454541
2024-10-23,0.2285714285714221
2024-10-24,-0.12888888888889402
2024-10-25,-0.8399999999999938
2024-10-28,-0.337662337662334
2024-10-29,-0.437768240343346
2024-10-30,0.30000000000000493
2024-10-31,0.3127962085308004
2024-11-01,-0.38947368421052375
2024-11-04,-0.2171717171717159
2024-11-05,-0.5111111111111093
2024-11-06,-0.531250000000017
2024-11-07,0.7087378640776753
2024-11-08,0.6130653266331701
2024-11-11,-0.37931034482758064
2024-11-12,-0.3783783783783753
2024-11-13,0.45714285714285297
2024-11-14,1.1036036036035948
2024-11-15,0.3991416309012944
2024-11-18,0.5308056872037985
2024-11-19,0.16736401673639284
2024-11-20,0.11415525114155127
2024-11-21,0.40723981900452255
2024-11-22,-0.07881773399014566
2024-11-25,-0.8272727272727332
2024-11-26,-0.8556701030927937
2024-11-27,-0.561497326203207
2024-11-28,-0.4096385542168659
2024-11-29,0.15384615384616065
2024-12-02,0.8923076923076979
2024-12-03,0.5955882352941125
2024-12-04,-0.39999999999999775
2024-12-05,-0.9565217391304357
2024-12-06,0.18324607329842527
2024-12-09,-0.31249999999998906
2024-12-10,0.028846153846154417
2024-12-11,0.17906302269551824
2024-12-12,-0.38460247233314887
2024-12-13,-0.7042729815946555
2024-12-16,-0.6921500490065099
2024-12-17,-0.1865671641790955
2024-12-18,-0.10666666666665285
2024-12-19,-0.391304347826078
2024-12-20,-0.1637426900584868
2024-12-23,0.0473372781064964
2024-12-24,1.238805970149266
2024-12-25,1.1047120418848142
2024-12-26,0.9266666666666732
2024-12-27,1.0200000000000105
2024-12-30,-0.04666666666666152
2024-12-31,0.1981981981982037
